{"learner":{"attributes":{"scikit_learn":"{\"_estimator_type\": \"classifier\"}"},"feature_names":[],"feature_types":[],"gradient_booster":{"model":{"gbtree_model_param":{"num_parallel_tree":"1","num_trees":"300"},"iteration_indptr":[0,3,6,9,12,15,18,21,24,27,30,33,36,39,42,45,48,51,54,57,60,63,66,69,72,75,78,81,84,87,90,93,96,99,102,105,108,111,114,117,120,123,126,129,132,135,138,141,144,147,150,153,156,159,162,165,168,171,174,177,180,183,186,189,192,195,198,201,204,207,210,213,216,219,222,225,228,231,234,237,240,243,246,249,252,255,258,261,264,267,270,273,276,279,282,285,288,291,294,297,300],"tree_info":[0,1,2,0,1,2,0,1,2,0,1,2,0,1,2,0,1,2,0,1,2,0,1,2,0,1,2,0,1,2,0,1,2,0,1,2,0,1,2,0,1,2,0,1,2,0,1,2,0,1,2,0,1,2,0,1,2,0,1,2,0,1,2,0,1,2,0,1,2,0,1,2,0,1,2,0,1,2,0,1,2,0,1,2,0,1,2,0,1,2,0,1,2,0,1,2,0,1,2,0,1,2,0,1,2,0,1,2,0,1,2,0,1,2,0,1,2,0,1,2,0,1,2,0,1,2,0,1,2,0,1,2,0,1,2,0,1,2,0,1,2,0,1,2,0,1,2,0,1,2,0,1,2,0,1,2,0,1,2,0,1,2,0,1,2,0,1,2,0,1,2,0,1,2,0,1,2,0,1,2,0,1,2,0,1,2,0,1,2,0,1,2,0,1,2,0,1,2,0,1,2,0,1,2,0,1,2,0,1,2,0,1,2,0,1,2,0,1,2,0,1,2,0,1,2,0,1,2,0,1,2,0,1,2,0,1,2,0,1,2,0,1,2,0,1,2,0,1,2,0,1,2,0,1,2,0,1,2,0,1,2,0,1,2,0,1,2,0,1,2,0,1,2,0,1,2,0,1,2,0,1,2,0,1,2,0,1,2,0,1,2,0,1,2,0,1,2,0,1,2],"trees":[{"base_weights":[-5.053278E-1,-5.415979E-1,-2.0973544E-1,-6.1290604E-1,-4.7800326E-1,-2.910695E-1,4.297994E-1,-1.900453E-1,-6.205814E-1,-3.7839726E-1,-5.258884E-1,1.8720705E-2,-3.848732E-1,8.571424E-2,1.1415929E0,-3.5025385E-1,8.1818186E-2,-6.424779E-1,-5.045675E-1,-4.0000007E-1,3.4883717E-1,9.6E-2,-5.2955145E-1,-1.5894045E-1,4.263959E-1,-5.961845E-1,-2.9203546E-1,1.24528304E-1,-2.2388065E-1,2.3999998E-2,1.2680413E0,-5.9405982E-2,-6.000001E-1,-6.450267E-1,2.7272725E-1,-5.29905E-1,1.11111075E-1,4.6153843E-1,-4.126908E-1,-2.6086962E-1,9.1304344E-1,-7.197063E-1,-5.096382E-1,7.35849E-1,-2.713937E-1,7.4496645E-1,-4.7368425E-1,-6.347108E-1,2.7272725E-1,-1.817335E-1,-5.7777786E-1,-4.7770706E-1,5.660377E-1,1.3411765E-1,4.285714E-2,7.317073E-2,-5.217392E-2,-6.7741945E-2,-2.5544848E-9,-6.5576315E-2,-4.5471355E-2,-4.2857148E-2,8.571428E-2,2.970293E-3,-5.604008E-2,6.734694E-2,-5.853659E-2,1.1707317E-1,-5.454546E-2,-4.298712E-2,-1.6574629E-3,6E-2,-6.2264156E-2,1.2244898E-1,1.0344825E-2,4.285714E-2,-7.41615E-2,-2.5692701E-2,-5.2214827E-2,1.1707317E-1,-4.2857148E-2,9.6E-2,-3.435115E-2,9.767442E-2,-5.1724143E-2,-2.5544848E-9,-6.0000002E-2,-2.164949E-2,-7.0212774E-2,-4.2857148E-2,8.571428E-2,-3.552069E-2,1.4173225E-2,-1.9480525E-2,-6.498517E-2,5.454545E-2,-6.9924824E-2,9.512195E-2,-4.2857148E-2],"categories":[],"categories_nodes":[],"categories_segments":[],"categories_sizes":[],"default_left":[0,0,0,0,0,0,0,0,0,0,0,0,0,0,0,0,0,0,0,0,0,0,0,0,0,0,0,0,0,0,0,0,0,0,0,0,0,0,0,0,0,0,0,0,0,0,0,0,0,0,0,0,0,0,0,0,0,0,0,0,0,0,0,0,0,0,0,0,0,0,0,0,0,0,0,0,0,0,0,0,0,0,0,0,0,0,0,0,0,0,0,0,0,0,0,0,0,0,0],"id":0,"left_children":[1,3,5,7,9,11,13,15,17,19,21,23,25,27,29,31,-1,33,35,37,39,-1,41,43,45,47,49,-1,51,-1,53,55,57,59,61,63,65,67,69,71,73,75,77,79,81,83,85,87,89,91,93,95,97,-1,-1,-1,-1,-1,-1,-1,-1,-1,-1,-1,-1,-1,-1,-1,-1,-1,-1,-1,-1,-1,-1,-1,-1,-1,-1,-1,-1,-1,-1,-1,-1,-1,-1,-1,-1,-1,-1,-1,-1,-1,-1,-1,-1,-1,-1],"loss_changes":[3.3089783E1,1.2213623E1,1.7816313E1,4.090149E0,6.7757874E0,8.792847E0,9.399506E0,4.252947E0,2.909607E0,7.6542892E0,5.8695984E0,5.226258E0,4.3793716E0,1.0051478E1,1.1270676E0,1.5543251E0,0E0,2.6653442E0,3.2845688E0,5.2745743E0,5.1688576E0,0E0,3.3562927E0,5.264344E0,6.629276E0,2.512701E0,5.0394278E0,0E0,4.748281E0,0E0,8.691025E-2,4.486377E0,5.4193544E-1,1.8769836E0,1.8701298E0,3.4089165E0,3.9192522E0,5.79635E0,3.1150513E0,2.76128E0,1.8064432E0,2.6015434E0,2.6903992E0,3.4837945E0,4.365484E0,5.348569E0,3.7894738E-1,1.7433128E0,1.8701298E0,6.740225E0,1.115509E0,4.335582E0,2.6637301E0,0E0,0E0,0E0,0E0,0E0,0E0,0E0,0E0,0E0,0E0,0E0,0E0,0E0,0E0,0E0,0E0,0E0,0E0,0E0,0E0,0E0,0E0,0E0,0E0,0E0,0E0,0E0,0E0,0E0,0E0,0E0,0E0,0E0,0E0,0E0,0E0,0E0,0E0,0E0,0E0,0E0,0E0,0E0,0E0,0E0,0E0],"parents":[2147483647,0,0,1,1,2,2,3,3,4,4,5,5,6,6,7,7,8,8,9,9,10,10,11,11,12,12,13,13,14,14,15,15,17,17,18,18,19,19,20,20,22,22,23,23,24,24,25,25,26,26,28,28,30,30,31,31,32,32,33,33,34,34,35,35,36,36,37,37,38,38,39,39,40,40,41,41,42,42,43,43,44,44,45,45,46,46,47,47,48,48,49,49,50,50,51,51,52,52],"right_children":[2,4,6,8,10,12,14,16,18,20,22,24,26,28,30,32,-1,34,36,38,40,-1,42,44,46,48,50,-1,52,-1,54,56,58,60,62,64,66,68,70,72,74,76,78,80,82,84,86,88,90,92,94,96,98,-1,-1,-1,-1,-1,-1,-1,-1,-1,-1,-1,-1,-1,-1,-1,-1,-1,-1,-1,-1,-1,-1,-1,-1,-1,-1,-1,-1,-1,-1,-1,-1,-1,-1,-1,-1,-1,-1,-1,-1,-1,-1,-1,-1,-1,-1],"split_conditions":[6.758266E3,1.99E1,8.708201E1,1.58789E3,2.5415073E3,2.3503655E3,4.8698254E4,1.58501E3,3.38265E1,1.4003801E4,2.413163E3,7.9015393E0,3.248E1,2.3664749E3,2.26406E3,2.6988655E3,8.1818186E-2,4.976527E-2,1.1828323E4,-5.2792686E1,7.333825E-1,9.6E-2,2.7986147E1,1.6477839E3,1.2094476E4,2.1E1,3.339004E3,1.24528304E-1,5.604E1,2.3999998E-2,9.3202034E1,4.6779015E1,5.030842E0,6.0510725E-1,5.317015E3,-8.116362E0,2.69808E3,8.384334E1,1.28164375E4,-1.524297E-2,1.4899004E4,2.43167E3,-3.1374016E1,5.7401165E1,2.6025284E-2,1.897151E-1,5.0246174E1,2.6432478E0,2.4184016E3,3.125363E3,-1.3185304E-2,5.56E0,4.9248985E1,1.3411765E-1,4.285714E-2,7.317073E-2,-5.217392E-2,-6.7741945E-2,-2.5544848E-9,-6.5576315E-2,-4.5471355E-2,-4.2857148E-2,8.571428E-2,2.970293E-3,-5.604008E-2,6.734694E-2,-5.853659E-2,1.1707317E-1,-5.454546E-2,-4.298712E-2,-1.6574629E-3,6E-2,-6.2264156E-2,1.2244898E-1,1.0344825E-2,4.285714E-2,-7.41615E-2,-2.5692701E-2,-5.2214827E-2,1.1707317E-1,-4.2857148E-2,9.6E-2,-3.435115E-2,9.767442E-2,-5.1724143E-2,-2.5544848E-9,-6.0000002E-2,-2.164949E-2,-7.0212774E-2,-4.2857148E-2,8.571428E-2,-3.552069E-2,1.4173225E-2,-1.9480525E-2,-6.498517E-2,5.454545E-2,-6.9924824E-2,9.512195E-2,-4.2857148E-2],"split_indices":[74,29,81,58,12,6,57,47,83,77,10,3,29,4,63,76,0,23,76,2,69,0,70,4,61,28,9,0,26,0,19,0,3,85,76,3,4,81,73,22,57,63,65,19,7,7,0,82,6,5,21,26,0,0,0,0,0,0,0,0,0,0,0,0,0,0,0,0,0,0,0,0,0,0,0,0,0,0,0,0,0,0,0,0,0,0,0,0,0,0,0,0,0,0,0,0,0,0,0],"split_type":[0,0,0,0,0,0,0,0,0,0,0,0,0,0,0,0,0,0,0,0,0,0,0,0,0,0,0,0,0,0,0,0,0,0,0,0,0,0,0,0,0,0,0,0,0,0,0,0,0,0,0,0,0,0,0,0,0,0,0,0,0,0,0,0,0,0,0,0,0,0,0,0,0,0,0,0,0,0,0,0,0,0,0,0,0,0,0,0,0,0,0,0,0,0,0,0,0,0,0],"sum_hessian":[3.0959998E3,2.7568887E3,3.3911108E2,1.2955554E3,1.4613333E3,3.013333E2,3.7777775E1,2.3555553E1,1.2719999E3,4.773333E2,9.8399994E2,7.022222E1,2.311111E2,2.6222221E1,1.1555555E1,2.0888887E1,2.6666665E0,1.0662222E3,2.0577777E2,4.6399997E2,1.3333332E1,1.7777777E0,9.8222217E2,4.9333332E1,2.0888887E1,6.8888885E1,1.6222221E2,4.8888884E0,2.1333332E1,1.7777777E0,9.777777E0,1.0222221E1,1.0666666E1,1.0635555E3,2.6666665E0,1.9777777E2,7.9999995E0,6.222222E0,4.5777774E2,6.666666E0,6.666666E0,8.977777E1,8.924444E2,4.8888884E0,4.4444443E1,1.5555554E1,5.333333E0,6.622222E1,2.6666665E0,1.1822221E2,4.3999996E1,1.6444443E1,4.8888884E0,8.444444E0,1.3333333E0,3.5555553E0,6.666666E0,9.333333E0,1.3333333E0,1.0044444E3,5.9111107E1,1.3333333E0,1.3333333E0,1.0222221E1,1.8755554E2,4.444444E0,3.5555553E0,3.5555553E0,2.6666665E0,4.3866663E2,1.911111E1,1.7777777E0,4.8888884E0,4.444444E0,2.222222E0,1.3333333E0,8.844444E1,4.3111107E1,8.493333E2,3.5555553E0,1.3333333E0,1.7777777E0,4.2666664E1,1.3333332E1,2.222222E0,1.3333333E0,3.9999998E0,9.777777E0,5.6444443E1,1.3333333E0,1.3333333E0,7.6888885E1,4.1333332E1,7.5555553E0,3.6444443E1,2.6666665E0,1.3777777E1,3.5555553E0,1.3333333E0],"tree_param":{"num_deleted":"0","num_feature":"86","num_nodes":"99","size_leaf_vector":"1"}},{"base_weights":[6.348078E-1,8.045706E-1,3.3203706E-1,1.0378767E0,7.4208176E-1,3.9453596E-1,-2.3771319E-1,-2.727273E-1,1.0469799E0,-3.4383997E-2,7.61272E-1,9.968051E-1,3.7255347E-1,1.0186713E-2,-5.8273387E-1,-2.5544848E-9,-4.2857148E-2,9.330894E-1,1.1614498E0,8.426966E-1,-3.2342014E-1,7.8141624E-1,1.3043474E-1,1.1107266E0,-2.727273E-1,4.4700778E-1,2.2744042E-1,5.454545E-1,-1.9399543E-1,-6.209477E-1,2.3999998E-2,9.9263453E-1,2.1019104E-1,-4.2857148E-2,1.1741294E0,-2.727273E-1,1.2923078E-1,1.7647055E-1,-5.2849746E-1,8.595654E-1,6.647506E-1,4.285714E-1,-3.4682086E-1,1.6216213E-1,1.2068965E0,-2.5544848E-9,-4.2857148E-2,8.991098E-1,4.1824532E-1,4.6979822E-2,3.7295327E-1,-5.675676E-2,8.1021893E-1,-3.596215E-1,2.3999996E-1,-7.015385E-1,-2.4705887E-1,7.92183E-2,1.2703449E-1,-5.0769236E-2,6.534653E-2,3.2307692E-2,1.1996577E-1,-2.5544848E-9,-4.2857148E-2,-5.1724143E-2,4.6153843E-2,-6.589597E-2,4.137931E-2,-5.0769236E-2,8.698292E-2,5.4804265E-2,7.65402E-2,6.936416E-2,-2.7522978E-3,-5.7446815E-2,5.121951E-2,8.571428E-2,-4.8000004E-2,2.3999998E-2,1.2612246E-1,1.0031545E-1,-5.1724143E-2,5.9593678E-2,3.599708E-2,-1.5338887E-2,3.772102E-2,2.9345527E-2,8.354431E-2,-1.463415E-2,1.11428574E-1,-9.523815E-3,-7.0073E-2,-4.2857148E-2,6E-2,-1.2000003E-2,-7.281554E-2,4.137931E-2,-5.0769236E-2],"categories":[],"categories_nodes":[],"categories_segments":[],"categories_sizes":[],"default_left":[0,0,0,0,0,0,0,0,0,0,0,0,0,0,0,0,0,0,0,0,0,0,0,0,0,0,0,0,0,0,0,0,0,0,0,0,0,0,0,0,0,0,0,0,0,0,0,0,0,0,0,0,0,0,0,0,0,0,0,0,0,0,0,0,0,0,0,0,0,0,0,0,0,0,0,0,0,0,0,0,0,0,0,0,0,0,0,0,0,0,0,0,0,0,0,0,0,0,0],"id":1,"left_children":[1,3,5,7,9,11,13,15,17,19,21,23,25,27,29,-1,-1,31,33,35,37,39,41,43,45,47,49,51,53,55,-1,57,59,-1,61,63,-1,65,67,69,71,73,75,77,79,-1,-1,81,83,85,87,-1,89,91,93,95,97,-1,-1,-1,-1,-1,-1,-1,-1,-1,-1,-1,-1,-1,-1,-1,-1,-1,-1,-1,-1,-1,-1,-1,-1,-1,-1,-1,-1,-1,-1,-1,-1,-1,-1,-1,-1,-1,-1,-1,-1,-1,-1],"loss_changes":[1.5891614E2,2.814978E1,3.9773827E1,5.2553406E0,2.3391907E1,1.2928329E1,9.4808235E0,1.5584415E-1,4.312134E0,1.0103022E1,1.9345154E1,5.332733E0,1.0386887E1,7.258378E0,1.6057396E0,0E0,0E0,8.940842E0,4.5823975E0,5.3117933E0,3.1573608E0,1.2947571E1,7.0574803E0,2.733574E0,1.5584415E-1,7.9534454E0,8.680155E0,5.8624797E0,3.544581E0,1.1692276E0,0E0,9.91066E0,5.882917E0,0E0,3.9793396E0,1.5584415E-1,0E0,2.106413E0,2.908908E0,1.2854797E1,6.6194763E0,3.6863003E0,4.053196E0,2.2461777E0,1.2206573E0,0E0,0E0,6.036833E0,6.040985E0,9.916865E0,6.4913654E0,0E0,4.590575E0,3.109724E0,3.6E0,4.715767E-1,1.836792E0,0E0,0E0,0E0,0E0,0E0,0E0,0E0,0E0,0E0,0E0,0E0,0E0,0E0,0E0,0E0,0E0,0E0,0E0,0E0,0E0,0E0,0E0,0E0,0E0,0E0,0E0,0E0,0E0,0E0,0E0,0E0,0E0,0E0,0E0,0E0,0E0,0E0,0E0,0E0,0E0,0E0,0E0],"parents":[2147483647,0,0,1,1,2,2,3,3,4,4,5,5,6,6,7,7,8,8,9,9,10,10,11,11,12,12,13,13,14,14,17,17,18,18,19,19,20,20,21,21,22,22,23,23,24,24,25,25,26,26,27,27,28,28,29,29,31,31,32,32,34,34,35,35,37,37,38,38,39,39,40,40,41,41,42,42,43,43,44,44,47,47,48,48,49,49,50,50,52,52,53,53,54,54,55,55,56,56],"right_children":[2,4,6,8,10,12,14,16,18,20,22,24,26,28,30,-1,-1,32,34,36,38,40,42,44,46,48,50,52,54,56,-1,58,60,-1,62,64,-1,66,68,70,72,74,76,78,80,-1,-1,82,84,86,88,-1,90,92,94,96,98,-1,-1,-1,-1,-1,-1,-1,-1,-1,-1,-1,-1,-1,-1,-1,-1,-1,-1,-1,-1,-1,-1,-1,-1,-1,-1,-1,-1,-1,-1,-1,-1,-1,-1,-1,-1,-1,-1,-1,-1,-1,-1],"split_conditions":[2.822E1,2.0190232E-2,6.800048E1,-2.0810585E1,1.548589E3,1.2191322E1,7.182244E3,5.045621E1,-9.4882894E5,-2.6726622E6,6.326434E1,7.0121423E2,5.462805E3,1.816114E1,3.8140183E3,-2.5544848E-9,-4.2857148E-2,7.4321036E0,1.5265028E3,3.1829823E1,2.71E0,1.909E1,7.7197423E0,9.0809184E-1,2.4329361E1,-5.34956E1,-1.6227687E-3,5.963795E3,1.1715481E0,4.263E1,2.3999998E-2,1.8954073E-3,1.4524894E1,-4.2857148E-2,8.553572E0,2.4329361E1,1.2923078E-1,3.3E0,1E0,1.5215289E3,8.2374084E-1,1.4330909E1,1.641974E4,8.07501E0,-2.582381E6,-2.5544848E-9,-4.2857148E-2,1.0031693E1,3.8517128E1,5.8310204E0,2.0732064E4,-5.675676E-2,-6.3313805E1,-9.613588E5,6.0990615E3,4.541686E3,1.079E2,7.92183E-2,1.2703449E-1,-5.0769236E-2,6.534653E-2,3.2307692E-2,1.1996577E-1,-2.5544848E-9,-4.2857148E-2,-5.1724143E-2,4.6153843E-2,-6.589597E-2,4.137931E-2,-5.0769236E-2,8.698292E-2,5.4804265E-2,7.65402E-2,6.936416E-2,-2.7522978E-3,-5.7446815E-2,5.121951E-2,8.571428E-2,-4.8000004E-2,2.3999998E-2,1.2612246E-1,1.0031545E-1,-5.1724143E-2,5.9593678E-2,3.599708E-2,-1.5338887E-2,3.772102E-2,2.9345527E-2,8.354431E-2,-1.463415E-2,1.11428574E-1,-9.523815E-3,-7.0073E-2,-4.2857148E-2,6E-2,-1.2000003E-2,-7.281554E-2,4.137931E-2,-5.0769236E-2],"split_indices":[29,7,83,2,6,81,74,0,20,20,83,19,76,84,4,0,0,1,49,16,28,29,65,82,0,19,21,57,33,28,0,23,81,0,17,0,0,26,41,75,34,82,77,24,20,0,0,82,70,2,61,0,2,20,78,61,29,0,0,0,0,0,0,0,0,0,0,0,0,0,0,0,0,0,0,0,0,0,0,0,0,0,0,0,0,0,0,0,0,0,0,0,0,0,0,0,0,0,0],"split_type":[0,0,0,0,0,0,0,0,0,0,0,0,0,0,0,0,0,0,0,0,0,0,0,0,0,0,0,0,0,0,0,0,0,0,0,0,0,0,0,0,0,0,0,0,0,0,0,0,0,0,0,0,0,0,0,0,0,0,0,0,0,0,0,0,0,0,0,0,0,0,0,0,0,0,0,0,0,0,0,0,0,0,0,0,0,0,0,0,0,0,0,0,0,0,0,0,0,0,0],"sum_hessian":[3.0959998E3,1.9826665E3,1.1133333E3,4.1555554E2,1.567111E3,1.0035555E3,1.0977777E2,2.6666665E0,4.1288885E2,3.7777775E1,1.5293333E3,3.3777775E1,9.697777E2,6.444444E1,4.5333332E1,1.3333333E0,1.3333333E0,2.1155554E2,2.0133333E2,8.888888E0,2.8888887E1,1.4817777E3,4.7555553E1,3.1111109E1,2.6666665E0,6.3955554E2,3.302222E2,1.7333332E1,4.7111107E1,4.3555553E1,1.7777777E0,1.951111E2,1.6444443E1,1.3333333E0,1.9999998E2,2.6666665E0,6.222222E0,8.444444E0,2.0444443E1,8.835555E2,5.9822217E2,2.9333332E1,1.8222221E1,3.111111E0,2.7999998E1,1.3333333E0,1.3333333E0,3.6444443E1,6.031111E2,1.4799998E2,1.8222221E2,3.111111E0,1.4222221E1,3.422222E1,1.2888888E1,3.511111E1,8.444444E0,1.1555555E2,7.955555E1,6.222222E0,1.0222221E1,6.222222E0,1.9377777E2,1.3333333E0,1.3333333E0,2.222222E0,6.222222E0,1.8222221E1,2.222222E0,6.222222E0,8.7733325E2,2.7999997E2,3.182222E2,1.8222221E1,1.1111111E1,1.4666666E1,3.5555553E0,1.3333333E0,1.7777777E0,1.7777777E0,2.6222221E1,3.422222E1,2.222222E0,1.4666666E2,4.5644443E2,9.244444E1,5.5555553E1,1.5688889E2,2.5333332E1,3.5555553E0,1.0666666E1,1.9999998E1,1.4222221E1,4.444444E0,8.444444E0,1.7777777E0,3.3333332E1,2.222222E0,6.222222E0],"tree_param":{"num_deleted":"0","num_feature":"86","num_nodes":"99","size_leaf_vector":"1"}},{"base_weights":[-1.294802E-1,-2.334062E-1,5.5638604E-2,-3.684306E-1,-1.7257611E-1,8.736759E-3,2.704507E-1,-6.9498114E-2,-4.1643956E-1,-3.8630143E-1,-1.3531263E-1,-1.2995331E-2,4.3391517E-1,1.2866813E-1,6.603773E-1,9.045222E-2,-5.7142866E-1,2.5531912E-1,-4.3605787E-1,8.1818186E-2,-4.064409E-1,4.6692604E-1,-1.502778E-1,-2.991738E-2,5.3164554E-1,7.252747E-1,-1.7518252E-1,5.956416E-1,-8.108113E-2,2.3809521E-1,9.090909E-1,6.9230765E-1,-5.521477E-2,2.3999998E-2,-6.589596E-1,5.5045867E-1,-5.853659E-2,-4.5361972E-1,2.0930229E-1,-4.7619093E-2,-4.4602102E-1,-4.588236E-1,8.78453E-1,-1.62429E-1,3.6099583E-1,1.2543036E-1,-8.6296275E-2,8.4324324E-1,-4.9180332E-1,3.2484072E-1,1.176E0,6.486486E-1,-4.40367E-1,9.55414E-1,3.6226413E-1,-2.813991E-1,3.344262E-1,7.7777773E-1,-1.538462E-1,-5.454546E-2,1.054945E0,-6.1224527E-3,1.0909092E-1,-1.3548392E-2,1.0909092E-1,-7.080746E-2,-2.5544848E-9,-3.2432437E-2,8.888889E-2,-4.6277672E-2,3.962264E-2,6.666666E-2,-4.7368426E-2,3.8532108E-2,-5.7303376E-2,-5.43265E-2,-2.239686E-2,4.285714E-2,-6.575343E-2,-6.1224527E-3,1.14893615E-1,-1.3685836E-2,-4.080766E-2,-3.2673273E-2,8.053691E-2,-2.059283E-2,2.7623123E-2,-1.5353376E-2,4.391005E-3,-4.8000004E-2,9.9408284E-2,-2.5544848E-9,-6.1224498E-2,5.7024788E-2,-4.0000003E-2,-1.2000003E-2,1.3761468E-1,-2.5544848E-9,9.6E-2,8.571428E-2,-6.804124E-2,1.1954887E-1,-2.7272731E-2,8.041237E-2,1.0169487E-2,-3.3719014E-2,8.1818186E-2,1.10599045E-2,8.041237E-2,-2.0689659E-2,1.1311475E-1,-4.719102E-2,6.486487E-2,7.31707E-3,1.1825726E-1],"categories":[],"categories_nodes":[],"categories_segments":[],"categories_sizes":[],"default_left":[0,0,0,0,0,0,0,0,0,0,0,0,0,0,0,0,0,0,0,0,0,0,0,0,0,0,0,0,0,0,0,0,0,0,0,0,0,0,0,0,0,0,0,0,0,0,0,0,0,0,0,0,0,0,0,0,0,0,0,0,0,0,0,0,0,0,0,0,0,0,0,0,0,0,0,0,0,0,0,0,0,0,0,0,0,0,0,0,0,0,0,0,0,0,0,0,0,0,0,0,0,0,0,0,0,0,0,0,0,0,0,0,0,0,0],"id":2,"left_children":[1,3,5,7,9,11,13,15,17,19,21,23,25,27,29,31,33,35,37,-1,39,41,43,45,47,49,51,53,55,57,59,61,63,-1,65,67,-1,69,71,73,75,77,79,81,83,85,87,89,91,93,95,97,99,101,103,105,107,109,111,-1,113,-1,-1,-1,-1,-1,-1,-1,-1,-1,-1,-1,-1,-1,-1,-1,-1,-1,-1,-1,-1,-1,-1,-1,-1,-1,-1,-1,-1,-1,-1,-1,-1,-1,-1,-1,-1,-1,-1,-1,-1,-1,-1,-1,-1,-1,-1,-1,-1,-1,-1,-1,-1,-1,-1],"loss_changes":[5.9595108E1,1.6229362E1,1.1224638E1,8.800377E0,1.0854191E1,8.466413E0,1.0953565E1,6.9828687E0,7.094612E0,5.251461E0,1.0593878E1,8.053664E0,8.034169E0,1.4511853E1,5.3499947E0,5.8537E0,1.6496773E0,4.209424E0,5.934326E0,0E0,2.8207817E0,1.1281891E1,7.14168E0,7.427187E0,8.812523E0,5.09272E0,3.6112003E0,3.5068455E0,8.648669E0,4.5616603E0,7.5764236E0,3.971457E0,5.146379E0,0E0,6.221237E-1,3.8738186E0,0E0,4.0890884E0,4.793145E0,4.9977365E0,3.7675095E0,1.9471855E0,5.181923E0,6.9436893E0,8.446648E0,1.1344363E1,5.4512196E0,4.579995E0,4.014721E-1,3.3311365E0,3.7677803E0,8.302702E-1,4.3553534E0,5.4694624E0,3.3083117E0,4.56334E0,3.4738395E0,3.3656178E0,3.6242847E0,0E0,3.7142792E0,0E0,0E0,0E0,0E0,0E0,0E0,0E0,0E0,0E0,0E0,0E0,0E0,0E0,0E0,0E0,0E0,0E0,0E0,0E0,0E0,0E0,0E0,0E0,0E0,0E0,0E0,0E0,0E0,0E0,0E0,0E0,0E0,0E0,0E0,0E0,0E0,0E0,0E0,0E0,0E0,0E0,0E0,0E0,0E0,0E0,0E0,0E0,0E0,0E0,0E0,0E0,0E0,0E0,0E0],"parents":[2147483647,0,0,1,1,2,2,3,3,4,4,5,5,6,6,7,7,8,8,9,9,10,10,11,11,12,12,13,13,14,14,15,15,16,16,17,17,18,18,20,20,21,21,22,22,23,23,24,24,25,25,26,26,27,27,28,28,29,29,30,30,31,31,32,32,34,34,35,35,37,37,38,38,39,39,40,40,41,41,42,42,43,43,44,44,45,45,46,46,47,47,48,48,49,49,50,50,51,51,52,52,53,53,54,54,55,55,56,56,57,57,58,58,60,60],"right_children":[2,4,6,8,10,12,14,16,18,20,22,24,26,28,30,32,34,36,38,-1,40,42,44,46,48,50,52,54,56,58,60,62,64,-1,66,68,-1,70,72,74,76,78,80,82,84,86,88,90,92,94,96,98,100,102,104,106,108,110,112,-1,114,-1,-1,-1,-1,-1,-1,-1,-1,-1,-1,-1,-1,-1,-1,-1,-1,-1,-1,-1,-1,-1,-1,-1,-1,-1,-1,-1,-1,-1,-1,-1,-1,-1,-1,-1,-1,-1,-1,-1,-1,-1,-1,-1,-1,-1,-1,-1,-1,-1,-1,-1,-1,-1,-1],"split_conditions":[2.822E1,1.7413743E0,1.23990755E1,3.8026318E1,5.1308414E-3,7.1277016E1,3.260799E3,3.5184823E-2,1.0965973E3,-2.0810585E1,1.5930112E3,3.9098318E3,1.1337341E0,7.7480205E3,1.6469823E-1,2.7586292E3,-2.4098663E-2,7.049405E2,3.3908268E1,8.1818186E-2,2.0884443E3,-2.6726622E6,8.147912E1,6.5580054E3,5.3444443E1,1.8366746E4,4.9113965E0,9.211597E-1,1.3915398E2,-5.837714E-1,2.8587856E1,7.3788E-1,-8.6397055E-4,2.3999998E-2,2.674E1,5.333442E-1,-5.853659E-2,8.036821E1,2.7610344E3,5.8158726E-1,6.161344E-1,-1.0636605E1,1.7730536E1,2.8439557E-2,-5.6980194E1,1.9382119E0,8.314968E-3,5.5580195E3,-5.3858562E1,5.8394287E1,-3.6452703E-2,2.396752E3,4.7425757E3,1.1498417E4,6.199776E3,5.8339924E-2,4.0838E-3,-5.2792686E1,1.1817968E4,-5.454546E-2,1.290043E1,-6.1224527E-3,1.0909092E-1,-1.3548392E-2,1.0909092E-1,-7.080746E-2,-2.5544848E-9,-3.2432437E-2,8.888889E-2,-4.6277672E-2,3.962264E-2,6.666666E-2,-4.7368426E-2,3.8532108E-2,-5.7303376E-2,-5.43265E-2,-2.239686E-2,4.285714E-2,-6.575343E-2,-6.1224527E-3,1.14893615E-1,-1.3685836E-2,-4.080766E-2,-3.2673273E-2,8.053691E-2,-2.059283E-2,2.7623123E-2,-1.5353376E-2,4.391005E-3,-4.8000004E-2,9.9408284E-2,-2.5544848E-9,-6.1224498E-2,5.7024788E-2,-4.0000003E-2,-1.2000003E-2,1.3761468E-1,-2.5544848E-9,9.6E-2,8.571428E-2,-6.804124E-2,1.1954887E-1,-2.7272731E-2,8.041237E-2,1.0169487E-2,-3.3719014E-2,8.1818186E-2,1.10599045E-2,8.041237E-2,-2.0689659E-2,1.1311475E-1,-4.719102E-2,6.486487E-2,7.31707E-3,1.1825726E-1],"split_indices":[29,82,82,0,25,83,5,7,45,2,12,12,33,45,8,73,23,74,79,0,4,20,81,77,79,78,82,34,19,85,17,34,23,0,29,34,0,0,4,72,72,3,83,23,71,82,22,77,1,17,23,4,57,77,57,22,21,2,61,0,82,0,0,0,0,0,0,0,0,0,0,0,0,0,0,0,0,0,0,0,0,0,0,0,0,0,0,0,0,0,0,0,0,0,0,0,0,0,0,0,0,0,0,0,0,0,0,0,0,0,0,0,0,0,0],"split_type":[0,0,0,0,0,0,0,0,0,0,0,0,0,0,0,0,0,0,0,0,0,0,0,0,0,0,0,0,0,0,0,0,0,0,0,0,0,0,0,0,0,0,0,0,0,0,0,0,0,0,0,0,0,0,0,0,0,0,0,0,0,0,0,0,0,0,0,0,0,0,0,0,0,0,0,0,0,0,0,0,0,0,0,0,0,0,0,0,0,0,0,0,0,0,0,0,0,0,0,0,0,0,0,0,0,0,0,0,0,0,0,0,0,0,0],"sum_hessian":[3.0959998E3,1.9826665E3,1.1133333E3,6.1422217E2,1.3684443E3,9.146666E2,1.9866666E2,8.533333E1,5.2888885E2,2.0177777E2,1.1666666E3,8.711111E2,4.3555553E1,1.4666666E2,5.1999996E1,6.533333E1,1.9999998E1,1.4666666E1,5.1422217E2,2.6666665E0,1.991111E2,2.7555553E1,1.1391111E3,8.457777E2,2.5333332E1,2.9333332E1,1.4222221E1,4.4888885E1,1.0177777E2,1.9999998E1,3.1999998E1,1.1999999E1,5.333333E1,1.7777777E0,1.8222221E1,1.1111111E1,3.5555553E0,5.0088885E2,1.3333332E1,1.9999998E1,1.791111E2,8.444444E0,1.911111E1,1.1133333E3,2.5777777E1,2.2488887E2,6.2088885E2,1.9555553E1,5.7777777E0,1.6444443E1,1.2888888E1,3.111111E0,1.1111111E1,1.6444443E1,2.8444443E1,6.8888885E1,3.2888885E1,7.9999995E0,1.1999999E1,2.6666665E0,2.9333332E1,4.444444E0,7.5555553E0,5.0666664E1,2.6666665E0,1.6888887E1,1.3333333E0,3.111111E0,7.9999995E0,4.9599997E2,4.8888884E0,7.9999995E0,5.333333E0,1.1111111E1,8.888888E0,1.2355555E2,5.5555553E1,1.3333333E0,7.1111107E0,4.444444E0,1.4666666E1,1.0097777E3,1.0355555E2,1.0222221E1,1.5555554E1,7.022222E1,1.5466666E2,4.093333E2,2.1155554E2,1.7777777E0,1.7777777E1,1.3333333E0,4.444444E0,1.2444444E1,3.9999998E0,1.7777777E0,1.1111111E1,1.3333333E0,1.7777777E0,1.3333333E0,9.777777E0,1.3777777E1,2.6666665E0,9.777777E0,1.8666666E1,6.622222E1,2.6666665E0,2.311111E1,9.777777E0,2.222222E0,5.7777777E0,8.888888E0,3.111111E0,3.5555553E0,2.5777777E1],"tree_param":{"num_deleted":"0","num_feature":"86","num_nodes":"115","size_leaf_vector":"1"}},{"base_weights":[-4.8039994E-1,-5.159264E-1,-1.9559811E-1,-5.859665E-1,-4.5397392E-1,-2.7357033E-1,4.0039298E-1,-1.7547563E-1,-5.935741E-1,-3.5521355E-1,-5.016872E-1,2.3325311E-2,-3.648511E-1,8.2825646E-2,1.0309614E0,2.0478304E-1,-5.891868E-1,-6.1565185E-1,-4.772145E-1,-3.998355E-1,-6.079975E-3,9.071143E-2,-5.053363E-1,-1.4580077E-1,4.0294307E-1,-5.7135826E-1,-2.755308E-1,1.14682905E-1,-2.142924E-1,2.3116052E-2,1.1375839E0,-6.1843902E-2,8.7744415E-1,-6.661531E-2,2.0651424E-3,-6.1821413E-1,2.6988035E-1,-5.025044E-1,1.220626E-1,-4.741953E-1,-2.6676908E-1,-4.82206E-1,2.4105063E-1,-6.9517314E-1,-4.856501E-1,6.94613E-1,-2.5492084E-1,6.975311E-1,-4.5920837E-1,-6.1002743E-1,2.717744E-1,-1.6482618E-1,-5.445732E-1,-4.591695E-1,5.1656204E-1,1.208297E-1,3.7177417E-2,1.1669701E-1,1.04058115E-2,-6.290075E-2,-4.286242E-2,-4.190084E-2,8.3037846E-2,3.506609E-3,-5.3266574E-2,6.566542E-2,-5.6496896E-2,-3.361258E-3,-4.9925316E-2,-2.9374091E-2,5.679777E-2,-1.0510673E-2,-6.737964E-2,4.066613E-2,-4.9411327E-2,4.2034823E-2,-7.174087E-2,-6.2317032E-2,-4.6149395E-2,1.0954618E-1,-4.1836947E-2,9.1834344E-2,-3.2606702E-2,9.0475984E-2,-4.955331E-2,-5.8659345E-2,9.429642E-4,-1.9729426E-2,-6.779071E-2,-4.1459266E-2,8.246439E-2,-3.3789903E-2,1.7325724E-2,-6.334147E-2,-1.2133392E-2,5.0695043E-2,-6.784501E-2,-4.243551E-2,8.719393E-2],"categories":[],"categories_nodes":[],"categories_segments":[],"categories_sizes":[],"default_left":[0,0,0,0,0,0,0,0,0,0,0,0,0,0,0,0,0,0,0,0,0,0,0,0,0,0,0,0,0,0,0,0,0,0,0,0,0,0,0,0,0,0,0,0,0,0,0,0,0,0,0,0,0,0,0,0,0,0,0,0,0,0,0,0,0,0,0,0,0,0,0,0,0,0,0,0,0,0,0,0,0,0,0,0,0,0,0,0,0,0,0,0,0,0,0,0,0,0,0],"id":3,"left_children":[1,3,5,7,9,11,13,15,17,19,21,23,25,27,29,31,33,35,37,39,41,-1,43,45,47,49,51,-1,53,-1,55,-1,57,-1,-1,59,61,63,65,67,69,71,73,75,77,79,81,83,85,87,89,91,93,95,97,-1,-1,-1,-1,-1,-1,-1,-1,-1,-1,-1,-1,-1,-1,-1,-1,-1,-1,-1,-1,-1,-1,-1,-1,-1,-1,-1,-1,-1,-1,-1,-1,-1,-1,-1,-1,-1,-1,-1,-1,-1,-1,-1,-1],"loss_changes":[3.039502E1,1.1359192E1,1.5718393E1,3.8120422E0,6.541809E0,8.074282E0,7.777391E0,3.9337137E0,2.868103E0,7.2880745E0,5.3890533E0,4.612441E0,4.0424595E0,8.844977E0,8.51099E-1,7.947215E0,5.707264E-1,2.506256E0,3.1036148E0,3.979065E0,6.4757657E0,0E0,3.2399292E0,4.744087E0,5.9397507E0,2.376852E0,4.7018385E0,0E0,4.193487E0,0E0,1.6121387E-1,0E0,1.6188836E0,0E0,0E0,1.8348694E0,1.7653323E0,3.144741E0,3.6518092E0,2.9076347E0,3.567235E0,1.2875175E0,4.614011E0,2.4750595E0,2.6047058E0,3.1313584E0,4.0398026E0,4.6236334E0,3.7790978E-1,1.6915474E0,1.7329383E0,6.8116474E0,1.67029E0,3.9639516E0,2.3824744E0,0E0,0E0,0E0,0E0,0E0,0E0,0E0,0E0,0E0,0E0,0E0,0E0,0E0,0E0,0E0,0E0,0E0,0E0,0E0,0E0,0E0,0E0,0E0,0E0,0E0,0E0,0E0,0E0,0E0,0E0,0E0,0E0,0E0,0E0,0E0,0E0,0E0,0E0,0E0,0E0,0E0,0E0,0E0,0E0],"parents":[2147483647,0,0,1,1,2,2,3,3,4,4,5,5,6,6,7,7,8,8,9,9,10,10,11,11,12,12,13,13,14,14,15,15,16,16,17,17,18,18,19,19,20,20,22,22,23,23,24,24,25,25,26,26,28,28,30,30,32,32,35,35,36,36,37,37,38,38,39,39,40,40,41,41,42,42,43,43,44,44,45,45,46,46,47,47,48,48,49,49,50,50,51,51,52,52,53,53,54,54],"right_children":[2,4,6,8,10,12,14,16,18,20,22,24,26,28,30,32,34,36,38,40,42,-1,44,46,48,50,52,-1,54,-1,56,-1,58,-1,-1,60,62,64,66,68,70,72,74,76,78,80,82,84,86,88,90,92,94,96,98,-1,-1,-1,-1,-1,-1,-1,-1,-1,-1,-1,-1,-1,-1,-1,-1,-1,-1,-1,-1,-1,-1,-1,-1,-1,-1,-1,-1,-1,-1,-1,-1,-1,-1,-1,-1,-1,-1,-1,-1,-1,-1,-1,-1],"split_conditions":[6.758266E3,1.99E1,8.708201E1,1.58789E3,2.5415073E3,2.3503655E3,4.8698254E4,6.889168E3,3.38265E1,4.220643E1,2.413163E3,7.9015393E0,3.248E1,-2.576712E6,2.26406E3,1.1601382E3,6.87744E1,4.976527E-2,1.1828323E4,6.727804E-1,8.0680938E3,9.071143E-2,2.7986147E1,1.6477839E3,1.2094476E4,2.1E1,3.3112017E3,1.14682905E-1,5.604E1,2.3116052E-2,1.7023187E0,-6.1843902E-2,2.6988655E3,-6.661531E-2,2.0651424E-3,6.0510725E-1,5.317015E3,-8.116362E0,2.69808E3,1.7012497E0,1.4003801E4,-6.7555415E-3,5.3686428E1,2.43167E3,5.482423E3,5.7401165E1,2.6025284E-2,1.897151E-1,6.69589E1,2.6432478E0,2.4184016E3,3.125363E3,1.079E2,5.42E0,9.8902596E1,1.208297E-1,3.7177417E-2,1.1669701E-1,1.04058115E-2,-6.290075E-2,-4.286242E-2,-4.190084E-2,8.3037846E-2,3.506609E-3,-5.3266574E-2,6.566542E-2,-5.6496896E-2,-3.361258E-3,-4.9925316E-2,-2.9374091E-2,5.679777E-2,-1.0510673E-2,-6.737964E-2,4.066613E-2,-4.9411327E-2,4.2034823E-2,-7.174087E-2,-6.2317032E-2,-4.6149395E-2,1.0954618E-1,-4.1836947E-2,9.1834344E-2,-3.2606702E-2,9.0475984E-2,-4.955331E-2,-5.8659345E-2,9.429642E-4,-1.9729426E-2,-6.779071E-2,-4.1459266E-2,8.246439E-2,-3.3789903E-2,1.7325724E-2,-6.334147E-2,-1.2133392E-2,5.0695043E-2,-6.784501E-2,-4.243551E-2,8.719393E-2],"split_indices":[74,29,81,58,12,6,57,77,83,17,10,3,29,20,63,74,70,23,76,72,73,0,70,4,61,28,13,0,26,0,33,0,76,0,0,85,76,3,4,84,77,21,17,63,75,19,7,7,81,82,6,5,29,26,24,0,0,0,0,0,0,0,0,0,0,0,0,0,0,0,0,0,0,0,0,0,0,0,0,0,0,0,0,0,0,0,0,0,0,0,0,0,0,0,0,0,0,0,0],"split_type":[0,0,0,0,0,0,0,0,0,0,0,0,0,0,0,0,0,0,0,0,0,0,0,0,0,0,0,0,0,0,0,0,0,0,0,0,0,0,0,0,0,0,0,0,0,0,0,0,0,0,0,0,0,0,0,0,0,0,0,0,0,0,0,0,0,0,0,0,0,0,0,0,0,0,0,0,0,0,0,0,0,0,0,0,0,0,0,0,0,0,0,0,0,0,0,0,0,0,0],"sum_hessian":[3.0130278E3,2.6781423E3,3.3488568E2,1.2530513E3,1.425091E3,2.9662045E2,3.8265224E1,2.3238014E1,1.2298134E3,4.6696957E2,9.5812134E2,6.992618E1,2.2669427E2,2.620114E1,1.2064087E1,1.2371696E1,1.0866318E1,1.0300782E3,1.9973502E2,4.1392197E2,5.3047615E1,1.8356634E0,9.562857E2,4.8800613E1,2.1125565E1,6.68172E1,1.5987706E2,5.095152E0,2.1105988E1,1.791752E0,1.0272335E1,5.599489E0,6.7722073E0,9.566594E0,1.2997234E0,1.0274075E3,2.6708643E0,1.9180229E2,7.9327183E0,2.638914E2,1.5003058E2,1.7800894E1,3.5246723E1,8.6626045E1,8.6965967E2,4.991538E0,4.3809074E1,1.5887809E1,5.2377553E0,6.415145E1,2.6657498E0,1.1441191E2,4.546515E1,1.608751E1,5.0184784E0,8.875031E0,1.3973043E0,4.5572414E0,2.2149658E0,9.698743E2,5.753311E1,1.3114464E0,1.3594178E0,1.0181046E1,1.8162125E2,4.486167E0,3.4465516E0,1.4326989E1,2.4956439E2,1.4596245E2,4.0681386E0,6.5188046E0,1.1282088E1,2.9131174E1,6.115548E0,1.3430501E0,8.5283E1,1.26231316E2,7.4342834E2,3.681398E0,1.3101401E0,1.823877E0,4.19852E1,1.3742468E1,2.1453414E0,3.9204116E0,1.3173435E0,9.612203E0,5.453925E1,1.3008723E0,1.3648776E0,7.567345E1,3.873847E1,3.7166916E1,8.298235E0,2.7332602E0,1.3354248E1,1.3225971E0,3.6958814E0],"tree_param":{"num_deleted":"0","num_feature":"86","num_nodes":"99","size_leaf_vector":"1"}},{"base_weights":[5.696992E-1,7.062849E-1,2.7903014E-1,7.6100415E-1,5.083734E-1,3.3210623E-1,-2.9156134E-1,9.2260644E-2,7.7418804E-1,1.0271953E0,4.3400627E-1,3.8206223E-1,8.420228E-2,-1.9083628E-1,-6.870886E-2,9.2778116E-1,-2.364491E-1,6.968737E-1,8.614191E-1,3.1054936E-2,1.0933157E0,-2.8085572E-1,4.7377604E-1,7.6217926E-1,3.5054943E-1,-3.7705383E-1,1.7473094E-1,5.525851E-1,-2.545541E-1,-4.2261407E-2,1.1879867E-1,-3.592204E-1,6.988394E-2,1.1956835E0,6.6839117E-1,1.1915687E-1,8.8527197E-1,-5.399744E-2,8.0716714E-2,1.1523343E0,-2.5513927E-2,1.2748294E-1,-6.140205E-1,1.8959832E-1,5.615802E-1,8.6003023E-1,-1.7208667E-1,4.1245663E-1,1.6189177E-1,5.8728155E-2,-5.8965325E-1,4.9235746E-1,-7.780491E-2,-4.188122E-2,9.192019E-2,-6.2270105E-1,-1.5406421E-1,9.646583E-3,-6.1397552E-2,1.2317165E-1,4.655872E-2,8.045496E-2,5.6406867E-2,-6.309743E-2,7.4048266E-2,1.0078933E-1,7.948785E-2,1.3189714E-1,7.6339655E-2,-4.4325322E-2,4.0307004E-2,-4.8076954E-2,7.986908E-2,-6.871733E-2,4.922292E-4,7.1122654E-2,1.7443724E-3,7.427239E-2,4.5941137E-2,-9.923569E-3,9.225287E-2,5.8465034E-2,-5.9504587E-2,4.924295E-2,2.4808882E-2,8.732198E-3,6.1284102E-2,5.71445E-2,-4.290096E-2,-1.4390423E-2,-6.90714E-2,-7.0025623E-3,6.8120494E-2,1.822397E-2,-3.1009665E-2,-3.9716964E-4,-6.8855956E-2,1.7436353E-2,-3.2920174E-2],"categories":[],"categories_nodes":[],"categories_segments":[],"categories_sizes":[],"default_left":[0,0,0,0,0,0,0,0,0,0,0,0,0,0,0,0,0,0,0,0,0,0,0,0,0,0,0,0,0,0,0,0,0,0,0,0,0,0,0,0,0,0,0,0,0,0,0,0,0,0,0,0,0,0,0,0,0,0,0,0,0,0,0,0,0,0,0,0,0,0,0,0,0,0,0,0,0,0,0,0,0,0,0,0,0,0,0,0,0,0,0,0,0,0,0,0,0,0,0],"id":4,"left_children":[1,3,5,7,9,11,13,15,17,19,21,23,25,27,-1,29,31,33,35,37,39,41,43,45,47,49,51,53,55,-1,-1,57,-1,59,61,63,65,-1,-1,67,69,71,73,75,77,79,81,83,85,87,89,91,93,-1,-1,95,97,-1,-1,-1,-1,-1,-1,-1,-1,-1,-1,-1,-1,-1,-1,-1,-1,-1,-1,-1,-1,-1,-1,-1,-1,-1,-1,-1,-1,-1,-1,-1,-1,-1,-1,-1,-1,-1,-1,-1,-1,-1,-1],"loss_changes":[1.2637329E2,2.309436E1,3.1012215E1,1.4886902E1,1.7790604E1,1.1539879E1,3.351161E0,9.539728E0,1.0619812E1,3.820732E0,1.1935074E1,9.0451355E0,6.6634493E0,3.506293E0,0E0,3.940197E0,3.1390982E0,1.18055725E1,1.3659607E1,2.5064209E0,3.651352E0,3.1400037E0,9.715172E0,5.5110245E0,8.339394E0,2.4655807E0,1.068731E1,2.4948134E0,2.3504248E0,0E0,0E0,2.7169044E0,0E0,6.539383E-1,1.1499786E1,1.22877445E1,7.5464478E0,0E0,0E0,2.371399E0,8.458955E-1,4.850381E0,5.723119E-1,8.466736E0,5.214653E0,3.285183E0,2.3947358E0,6.9928894E0,5.981742E0,2.6240718E0,6.9911623E-1,6.3072605E0,4.57622E0,0E0,0E0,5.61666E-1,3.1218314E0,0E0,0E0,0E0,0E0,0E0,0E0,0E0,0E0,0E0,0E0,0E0,0E0,0E0,0E0,0E0,0E0,0E0,0E0,0E0,0E0,0E0,0E0,0E0,0E0,0E0,0E0,0E0,0E0,0E0,0E0,0E0,0E0,0E0,0E0,0E0,0E0,0E0,0E0,0E0,0E0,0E0,0E0],"parents":[2147483647,0,0,1,1,2,2,3,3,4,4,5,5,6,6,7,7,8,8,9,9,10,10,11,11,12,12,13,13,15,15,16,16,17,17,18,18,19,19,20,20,21,21,22,22,23,23,24,24,25,25,26,26,27,27,28,28,31,31,33,33,34,34,35,35,36,36,39,39,40,40,41,41,42,42,43,43,44,44,45,45,46,46,47,47,48,48,49,49,50,50,51,51,52,52,55,55,56,56],"right_children":[2,4,6,8,10,12,14,16,18,20,22,24,26,28,-1,30,32,34,36,38,40,42,44,46,48,50,52,54,56,-1,-1,58,-1,60,62,64,66,-1,-1,68,70,72,74,76,78,80,82,84,86,88,90,92,94,-1,-1,96,98,-1,-1,-1,-1,-1,-1,-1,-1,-1,-1,-1,-1,-1,-1,-1,-1,-1,-1,-1,-1,-1,-1,-1,-1,-1,-1,-1,-1,-1,-1,-1,-1,-1,-1,-1,-1,-1,-1,-1,-1,-1,-1],"split_conditions":[3.005E1,3.0145714E1,8.211958E1,1.548589E3,1.9806352E0,1.1771428E1,3.2020803E4,-2.6726622E6,-1.0586771E6,3.0831179E1,2.05633E3,2.7616467E1,2.29023E3,-2.3848515E-2,-6.870886E-2,2.5465023E1,1E0,7.776112E0,-2.6564213E1,-4.7993597E5,7.300604E-2,4.6870044E-1,2.6988655E3,3.1712892E0,1.3018779E4,-6.6897166E-1,-1.2905718E6,1.637849E1,1.4311983E-1,-4.2261407E-2,1.1879867E-1,2.71E0,6.988394E-2,1.180816E-2,-1.2645092E0,4.034212E3,-7.670065E5,-5.399744E-2,8.0716714E-2,8.3651455E3,4.363997E3,3.370919E1,8.287764E1,-5.8256138E1,-1.6106453E1,-1.2813973E-1,-1.990726E-1,5.0969777E0,5.993825E1,1.2723943E1,8.784664E-1,6.281095E3,-1.0066121E0,-4.188122E-2,9.192019E-2,5.2849185E3,-1.0066121E0,9.646583E-3,-6.1397552E-2,1.2317165E-1,4.655872E-2,8.045496E-2,5.6406867E-2,-6.309743E-2,7.4048266E-2,1.0078933E-1,7.948785E-2,1.3189714E-1,7.6339655E-2,-4.4325322E-2,4.0307004E-2,-4.8076954E-2,7.986908E-2,-6.871733E-2,4.922292E-4,7.1122654E-2,1.7443724E-3,7.427239E-2,4.5941137E-2,-9.923569E-3,9.225287E-2,5.8465034E-2,-5.9504587E-2,4.924295E-2,2.4808882E-2,8.732198E-3,6.1284102E-2,5.71445E-2,-4.290096E-2,-1.4390423E-2,-6.90714E-2,-7.0025623E-3,6.8120494E-2,1.822397E-2,-3.1009665E-2,-3.9716964E-4,-6.8855956E-2,1.7436353E-2,-3.2920174E-2],"split_indices":[29,17,79,6,82,82,77,20,20,0,44,67,48,72,0,15,41,81,2,20,7,69,76,33,73,85,20,82,72,0,0,28,0,23,2,78,20,0,0,73,78,0,67,19,71,72,8,82,24,80,34,57,3,0,0,45,3,0,0,0,0,0,0,0,0,0,0,0,0,0,0,0,0,0,0,0,0,0,0,0,0,0,0,0,0,0,0,0,0,0,0,0,0,0,0,0,0,0,0],"split_type":[0,0,0,0,0,0,0,0,0,0,0,0,0,0,0,0,0,0,0,0,0,0,0,0,0,0,0,0,0,0,0,0,0,0,0,0,0,0,0,0,0,0,0,0,0,0,0,0,0,0,0,0,0,0,0,0,0,0,0,0,0,0,0,0,0,0,0,0,0,0,0,0,0,0,0,0,0,0,0,0,0,0,0,0,0,0,0,0,0,0,0,0,0,0,0,0,0,0,0],"sum_hessian":[3.1870747E3,2.167252E3,1.0198229E3,1.695601E3,4.716509E2,9.334151E2,8.6407776E1,3.2936165E1,1.6626648E3,5.7523785E1,4.1412714E2,7.764157E2,1.5699944E2,7.005105E1,1.6356728E1,8.784659E0,2.4151505E1,8.861999E2,7.7646484E2,3.6720483E0,5.3851738E1,2.15054E1,3.9262173E2,5.766433E1,7.1875134E2,2.5238867E1,1.3176057E2,4.924346E0,6.51267E1,1.3183956E0,7.466264E0,2.1893557E1,2.2579472E0,4.5655926E1,8.40544E2,2.4361795E1,7.521031E2,2.2908204E0,1.3812279E0,5.1124935E1,2.7268043E0,9.939973E0,1.1565427E1,9.342179E1,2.9919995E2,5.2269325E1,5.3950043E0,5.402759E2,1.7847546E2,8.512951E0,1.6725916E1,5.7938663E1,7.382191E1,1.3102646E0,3.6140814E0,1.2850812E1,5.227589E1,8.073552E0,1.3820004E1,4.2853867E1,2.8020568E0,3.617227E2,4.7882132E2,1.1029849E1,1.3331947E1,3.1485E2,4.3725305E2,3.4116714E1,1.700822E1,1.3635397E0,1.3632646E0,5.363375E0,4.576597E0,1.0244405E1,1.3210225E0,2.240459E1,7.1017204E1,1.0563724E2,1.9356271E2,3.1612132E0,4.9108112E1,1.7972219E0,3.5977826E0,3.621006E2,1.781753E2,1.5417453E2,2.4300943E1,4.0665317E0,4.4464192E0,3.5392528E0,1.3186663E1,1.4723034E1,4.321563E1,3.4931957E1,3.8889954E1,1.3382729E0,1.1512539E1,1.8182835E1,3.4093056E1],"tree_param":{"num_deleted":"0","num_feature":"86","num_nodes":"99","size_leaf_vector":"1"}},{"base_weights":[-1.198363E-1,-2.1758871E-1,5.1668726E-2,-3.4813562E-1,-1.5927796E-1,-6.937193E-2,1.2698933E-1,-5.9158143E-2,-3.951513E-1,-3.5343704E-1,-1.2226932E-1,-1.0544192E-1,2.952177E-1,6.742045E-2,3.3502352E-1,9.411518E-2,-5.50786E-1,2.4560685E-1,-4.143628E-1,8.332094E-2,-3.7520266E-1,4.510311E-1,-1.3687164E-1,-1.20960094E-1,7.3480624E-1,5.547783E-1,-2.9281935E-1,3.6996934E-1,-1.2040886E-2,2.2151077E-1,7.63268E-1,6.527519E-1,-4.4630233E-2,-6.398336E-1,2.5653455E-2,5.2065974E-1,-5.6700647E-2,-4.316353E-1,2.0480755E-1,-4.089912E-3,-4.1701868E-1,-4.2110986E-1,7.9793364E-1,-1.4850442E-1,3.3365604E-1,-1.3455269E-1,8.4665E-1,1.21538036E-1,-4.7764473E-2,-3.1871936E-1,7.816537E-1,5.02498E-1,-6.654346E-2,-4.2773944E-1,4.5836198E-1,1.9641334E-1,-1.1255193E-1,8.6621237E-1,1.6050754E-1,8.5328436E-1,-4.801158E-2,8.676629E-2,-4.7477346E-2,-1.8875545E-2,5.8252987E-2,1.4933593E-3,-6.898257E-2,-3.1086106E-2,8.307675E-2,-2.7044693E-2,-4.8377957E-2,6.3394785E-2,-4.5740068E-2,4.6629906E-2,-5.7686187E-2,-5.0970335E-2,-2.2029316E-2,-6.290138E-2,4.1757435E-2,9.450587E-2,-4.865981E-2,-1.2320734E-2,-3.8949724E-2,9.0050556E-2,-1.34730805E-2,-1.8402569E-2,1.1805649E-2,1.1222383E-1,-2.7370136E-4,-5.9870023E-2,4.1161895E-2,9.173299E-2,-4.826847E-2,1.0234644E-1,-4.3222647E-2,4.229443E-2,-5.7925027E-2,1.066664E-1,3.3735037E-2,3.97974E-3,5.4617044E-2,-5.4706987E-2,-5.469524E-3,1.3171518E-4,1.1655066E-1,-4.188653E-2,2.4218783E-2,9.515256E-2,-4.669276E-2],"categories":[],"categories_nodes":[],"categories_segments":[],"categories_sizes":[],"default_left":[0,0,0,0,0,0,0,0,0,0,0,0,0,0,0,0,0,0,0,0,0,0,0,0,0,0,0,0,0,0,0,0,0,0,0,0,0,0,0,0,0,0,0,0,0,0,0,0,0,0,0,0,0,0,0,0,0,0,0,0,0,0,0,0,0,0,0,0,0,0,0,0,0,0,0,0,0,0,0,0,0,0,0,0,0,0,0,0,0,0,0,0,0,0,0,0,0,0,0,0,0,0,0,0,0,0,0,0,0],"id":5,"left_children":[1,3,5,7,9,11,13,15,17,19,21,23,25,27,29,31,33,35,37,-1,39,41,43,45,47,49,51,53,55,57,59,61,63,65,-1,67,-1,69,71,73,75,77,79,81,83,85,87,-1,-1,89,91,93,-1,95,97,99,101,103,105,107,-1,-1,-1,-1,-1,-1,-1,-1,-1,-1,-1,-1,-1,-1,-1,-1,-1,-1,-1,-1,-1,-1,-1,-1,-1,-1,-1,-1,-1,-1,-1,-1,-1,-1,-1,-1,-1,-1,-1,-1,-1,-1,-1,-1,-1,-1,-1,-1,-1],"loss_changes":[5.153692E1,1.4847984E1,1.0188595E1,8.177963E0,9.69445E0,5.672142E0,8.511283E0,6.50539E0,6.490593E0,5.902506E0,9.603117E0,5.1880884E0,6.0967627E0,1.2904799E1,7.270403E0,5.155758E0,1.6379457E0,3.8123288E0,5.4812927E0,0E0,3.3071022E0,8.97127E0,6.137249E0,5.1754265E0,4.794916E0,5.663124E0,4.056741E0,8.068578E0,8.946599E0,4.6741548E0,3.9529018E0,3.616168E0,4.9837337E0,6.24063E-1,0E0,3.4241948E0,0E0,3.9951859E0,4.3717694E0,6.3584924E0,3.3815308E0,1.7930111E0,4.3841915E0,6.5730915E0,7.327508E0,4.7753215E0,1.2830923E0,0E0,0E0,1.5434681E0,4.212595E0,2.6712494E0,0E0,1.7471435E0,7.074484E0,7.588635E0,7.2107854E0,2.678092E0,5.4504666E0,4.319721E0,0E0,0E0,0E0,0E0,0E0,0E0,0E0,0E0,0E0,0E0,0E0,0E0,0E0,0E0,0E0,0E0,0E0,0E0,0E0,0E0,0E0,0E0,0E0,0E0,0E0,0E0,0E0,0E0,0E0,0E0,0E0,0E0,0E0,0E0,0E0,0E0,0E0,0E0,0E0,0E0,0E0,0E0,0E0,0E0,0E0,0E0,0E0,0E0,0E0],"parents":[2147483647,0,0,1,1,2,2,3,3,4,4,5,5,6,6,7,7,8,8,9,9,10,10,11,11,12,12,13,13,14,14,15,15,16,16,17,17,18,18,20,20,21,21,22,22,23,23,24,24,25,25,26,26,27,27,28,28,29,29,30,30,31,31,32,32,33,33,35,35,37,37,38,38,39,39,40,40,41,41,42,42,43,43,44,44,45,45,46,46,49,49,50,50,51,51,53,53,54,54,55,55,56,56,57,57,58,58,59,59],"right_children":[2,4,6,8,10,12,14,16,18,20,22,24,26,28,30,32,34,36,38,-1,40,42,44,46,48,50,52,54,56,58,60,62,64,66,-1,68,-1,70,72,74,76,78,80,82,84,86,88,-1,-1,90,92,94,-1,96,98,100,102,104,106,108,-1,-1,-1,-1,-1,-1,-1,-1,-1,-1,-1,-1,-1,-1,-1,-1,-1,-1,-1,-1,-1,-1,-1,-1,-1,-1,-1,-1,-1,-1,-1,-1,-1,-1,-1,-1,-1,-1,-1,-1,-1,-1,-1,-1,-1,-1,-1,-1,-1],"split_conditions":[2.822E1,1.7413743E0,2.2491312E0,3.8026318E1,5.261029E-3,6.3469677E0,3.345972E3,3.5184823E-2,1.0965973E3,-2.0810585E1,1.5930112E3,8.7665886E1,8.317504E-1,6.889168E3,6.441818E1,2.7586292E3,8.9390625E3,7.049405E2,3.3908268E1,8.332094E-2,2.07432E3,-2.6726622E6,8.147912E1,7.0121423E2,4.962507E0,2.6058464E-3,2.6524583E3,1.2979401E1,-4.272528E-1,2.0393804E3,5.5605198E1,1.4168571E1,3.566972E1,-6.451613E-3,2.5653455E-2,5.333442E-1,-5.6700647E-2,1.196768E3,2.7610344E3,-7.650511E-2,6.161344E-1,1.60073E3,1.5888431E0,2.8439557E-2,5.317015E3,1.2907973E1,3.7884111E3,1.21538036E-1,-4.7764473E-2,8.71635E0,3.3318962E1,9.1987634E-1,-6.654346E-2,1.618944E3,1.6533588E1,-5.553209E-3,1.5247096E-1,2.6596428E1,5.850526E3,1.9759562E1,-4.801158E-2,8.676629E-2,-4.7477346E-2,-1.8875545E-2,5.8252987E-2,1.4933593E-3,-6.898257E-2,-3.1086106E-2,8.307675E-2,-2.7044693E-2,-4.8377957E-2,6.3394785E-2,-4.5740068E-2,4.6629906E-2,-5.7686187E-2,-5.0970335E-2,-2.2029316E-2,-6.290138E-2,4.1757435E-2,9.450587E-2,-4.865981E-2,-1.2320734E-2,-3.8949724E-2,9.0050556E-2,-1.34730805E-2,-1.8402569E-2,1.1805649E-2,1.1222383E-1,-2.7370136E-4,-5.9870023E-2,4.1161895E-2,9.173299E-2,-4.826847E-2,1.0234644E-1,-4.3222647E-2,4.229443E-2,-5.7925027E-2,1.066664E-1,3.3735037E-2,3.97974E-3,5.4617044E-2,-5.4706987E-2,-5.469524E-3,1.3171518E-4,1.1655066E-1,-4.188653E-2,2.4218783E-2,9.515256E-2,-4.669276E-2],"split_indices":[29,82,80,0,25,3,9,7,45,2,12,16,69,77,83,73,57,74,79,0,44,20,81,19,84,22,76,81,85,76,68,17,15,21,0,34,0,76,4,85,72,62,33,23,76,84,49,0,0,3,1,69,0,49,24,22,69,17,53,3,0,0,0,0,0,0,0,0,0,0,0,0,0,0,0,0,0,0,0,0,0,0,0,0,0,0,0,0,0,0,0,0,0,0,0,0,0,0,0,0,0,0,0,0,0,0,0,0,0],"split_type":[0,0,0,0,0,0,0,0,0,0,0,0,0,0,0,0,0,0,0,0,0,0,0,0,0,0,0,0,0,0,0,0,0,0,0,0,0,0,0,0,0,0,0,0,0,0,0,0,0,0,0,0,0,0,0,0,0,0,0,0,0,0,0,0,0,0,0,0,0,0,0,0,0,0,0,0,0,0,0,0,0,0,0,0,0,0,0,0,0,0,0,0,0,0,0,0,0,0,0,0,0,0,0,0,0,0,0,0,0],"sum_hessian":[3.0724016E3,1.9568121E3,1.1155895E3,6.026409E2,1.3541711E3,4.2795013E2,6.876393E2,8.464378E1,5.179972E2,2.154263E2,1.1387449E3,3.9007007E2,3.7880062E1,5.35599E2,1.520403E2,6.514293E1,1.950085E1,1.4735697E1,5.0326147E2,3.2087107E0,2.1221759E2,2.7541763E1,1.1112031E3,3.838372E2,6.2328744E0,2.6319256E1,1.1560807E1,1.1064862E2,4.2495038E2,1.213831E2,3.0657198E1,1.222325E1,5.291968E1,1.7750433E1,1.7504159E0,1.1277703E1,3.4579935E0,4.8989804E2,1.3363422E1,2.1601795E1,1.906158E2,7.7766714E0,1.976509E1,1.0850616E3,2.6141436E1,3.7936893E2,4.468279E0,4.4619102E0,1.7709644E0,5.343049E0,2.0976206E1,3.5771327E0,7.9836745E0,1.0654735E1,9.999389E1,1.3793234E2,2.8701804E2,9.351716E0,1.1203139E2,2.8880125E1,1.7770731E0,1.0460003E1,1.7632473E0,4.3599323E1,9.320358E0,1.3088729E0,1.644156E1,3.0627737E0,8.21493E0,1.2125646E2,3.686416E2,8.134549E0,5.2288733E0,1.1963039E1,9.638756E0,1.2848895E2,6.2126842E1,6.4321785E0,1.3444928E0,1.797104E1,1.794051E0,9.833504E2,1.017113E2,1.1410135E1,1.4731301E1,3.1746545E2,6.190347E1,3.1311326E0,1.337146E0,3.9926705E0,1.3503788E0,1.919125E1,1.7849551E0,2.2359784E0,1.3411543E0,1.3399333E0,9.314801E0,1.5294885E1,8.4699005E1,9.6040596E1,4.1891743E1,3.2732597E1,2.5428545E2,2.66239E0,6.689326E0,1.3332621E1,9.869877E1,2.7139826E1,1.740298E0],"tree_param":{"num_deleted":"0","num_feature":"86","num_nodes":"109","size_leaf_vector":"1"}},{"base_weights":[-4.5749465E-1,-4.9236718E-1,-1.8247974E-1,-5.6362134E-1,-4.3297496E-1,-2.6186588E-1,3.5143754E-1,-1.4116567E-1,-5.715415E-1,-3.3339363E-1,-4.8168787E-1,1.354633E-1,-3.3522978E-1,9.7638476E-1,1.475205E-1,2.3111306E-1,-5.6195945E-1,-5.9014446E-1,-4.3554717E-1,-3.8831127E-1,-5.6868922E-2,8.591565E-2,-4.852501E-1,-3.2454726E-1,3.216068E-1,8.1342675E-2,-3.513062E-1,1.1278563E-1,1.784533E-2,4.9070653E-1,-2.2943409E-1,-5.9143692E-2,8.2445353E-1,-6.435482E-2,4.139416E-3,-5.928053E-1,4.515382E-2,-4.65128E-1,1.5991715E-1,-4.6379784E-1,-2.5233155E-1,4.209329E-2,-5.281053E-1,-5.1067924E-1,-3.3441907E-1,-5.8403516E-1,8.403703E-2,5.274137E-1,-3.946704E-1,-5.268857E-1,-2.3558044E-1,8.9688635E-1,-5.8115162E-2,-5.6224585E-1,2.3313694E-1,1.0917318E-1,9.607903E-3,-5.9745908E-2,-1.517573E-2,1.7081454E-2,-4.920424E-2,8.5797116E-2,-5.4738875E-2,-4.772432E-2,6.073458E-2,-1.7185053E-2,-6.497159E-2,-1.5716897E-2,4.3392416E-2,3.9821085E-2,-6.6174574E-2,6.185422E-2,-5.138856E-2,-5.612975E-2,-2.1055078E-2,3.5215002E-3,-6.6262044E-2,1.03335194E-1,2.5908902E-2,3.921772E-2,-6.174301E-2,-2.0376025E-2,-6.629902E-2,-2.8586152E-3,-3.919011E-2,-9.983839E-3,1.0521388E-1,-6.490538E-2,1.1826371E-3,8.0443874E-2,-3.579833E-2],"categories":[],"categories_nodes":[],"categories_segments":[],"categories_sizes":[],"default_left":[0,0,0,0,0,0,0,0,0,0,0,0,0,0,0,0,0,0,0,0,0,0,0,0,0,0,0,0,0,0,0,0,0,0,0,0,0,0,0,0,0,0,0,0,0,0,0,0,0,0,0,0,0,0,0,0,0,0,0,0,0,0,0,0,0,0,0,0,0,0,0,0,0,0,0,0,0,0,0,0,0,0,0,0,0,0,0,0,0,0,0],"id":6,"left_children":[1,3,5,7,9,11,13,15,17,19,21,23,25,27,29,31,33,35,37,39,41,-1,43,45,47,-1,49,-1,-1,51,53,-1,55,-1,-1,57,-1,59,61,63,65,67,69,71,73,75,-1,77,79,81,83,85,-1,87,89,-1,-1,-1,-1,-1,-1,-1,-1,-1,-1,-1,-1,-1,-1,-1,-1,-1,-1,-1,-1,-1,-1,-1,-1,-1,-1,-1,-1,-1,-1,-1,-1,-1,-1,-1,-1],"loss_changes":[2.8002502E1,1.0754761E1,1.413102E1,3.8614197E0,6.736389E0,8.467327E0,5.374032E0,3.7344692E0,2.6679688E0,7.1197815E0,4.9664154E0,4.021372E0,4.794775E0,1.0647469E0,4.4884386E0,6.791999E0,5.7269645E-1,3.078888E0,2.5922222E0,3.9087067E0,3.7108064E0,0E0,3.475296E0,4.624728E0,5.082959E0,0E0,4.7830143E0,0E0,0E0,8.3684635E0,2.717592E0,0E0,1.4373522E0,0E0,0E0,1.9866943E0,0E0,2.4192486E0,4.177143E0,3.9047394E0,4.435977E0,5.2442336E0,1.9720335E0,3.2563171E0,3.8174677E0,5.963206E-1,0E0,3.2776399E0,1.636095E0,4.048731E0,4.7573605E0,2.1885624E0,0E0,5.09212E-1,2.9008093E0,0E0,0E0,0E0,0E0,0E0,0E0,0E0,0E0,0E0,0E0,0E0,0E0,0E0,0E0,0E0,0E0,0E0,0E0,0E0,0E0,0E0,0E0,0E0,0E0,0E0,0E0,0E0,0E0,0E0,0E0,0E0,0E0,0E0,0E0,0E0,0E0],"parents":[2147483647,0,0,1,1,2,2,3,3,4,4,5,5,6,6,7,7,8,8,9,9,10,10,11,11,12,12,13,13,14,14,15,15,16,16,17,17,18,18,19,19,20,20,22,22,23,23,24,24,26,26,29,29,30,30,32,32,35,35,37,37,38,38,39,39,40,40,41,41,42,42,43,43,44,44,45,45,47,47,48,48,49,49,50,50,51,51,53,53,54,54],"right_children":[2,4,6,8,10,12,14,16,18,20,22,24,26,28,30,32,34,36,38,40,42,-1,44,46,48,-1,50,-1,-1,52,54,-1,56,-1,-1,58,-1,60,62,64,66,68,70,72,74,76,-1,78,80,82,84,86,-1,88,90,-1,-1,-1,-1,-1,-1,-1,-1,-1,-1,-1,-1,-1,-1,-1,-1,-1,-1,-1,-1,-1,-1,-1,-1,-1,-1,-1,-1,-1,-1,-1,-1,-1,-1,-1,-1],"split_conditions":[6.758266E3,1.959E1,8.991015E1,1.58789E3,2.5415073E3,2.28032E3,-2.576712E6,6.889168E3,3.6597797E1,1.0344294E4,2.413163E3,2.5649286E1,6.1194506E0,2.2697989E-2,1.5959969E-1,1.1424362E3,5.349491E1,1.12232886E-1,1.1828323E4,6.85412E-1,1.161562E4,8.591565E-2,6.9116683E0,8.38061E1,4.0605813E-2,8.1342675E-2,-4.3574315E-1,1.1278563E-1,1.784533E-2,3.325202E3,7.568E1,-5.9143692E-2,5E0,-6.435482E-2,4.139416E-3,1.28164375E4,4.515382E-2,-8.869642E0,2.69808E3,1.9989207E4,2.57434E3,1.0372291E1,1.5542434E3,2.41386E3,-1.7325608E0,1.9186891E3,8.403703E-2,-2.6057828E6,1.556304E3,-8.482379E-3,6.887325E0,2.50177E3,-5.8115162E-2,7.4765076E1,2.37106E3,1.0917318E-1,9.607903E-3,-5.9745908E-2,-1.517573E-2,1.7081454E-2,-4.920424E-2,8.5797116E-2,-5.4738875E-2,-4.772432E-2,6.073458E-2,-1.7185053E-2,-6.497159E-2,-1.5716897E-2,4.3392416E-2,3.9821085E-2,-6.6174574E-2,6.185422E-2,-5.138856E-2,-5.612975E-2,-2.1055078E-2,3.5215002E-3,-6.6262044E-2,1.03335194E-1,2.5908902E-2,3.921772E-2,-6.174301E-2,-2.0376025E-2,-6.629902E-2,-2.8586152E-3,-3.919011E-2,-9.983839E-3,1.0521388E-1,-6.490538E-2,1.1826371E-3,8.0443874E-2,-3.579833E-2],"split_indices":[74,29,79,58,12,62,20,77,83,77,10,17,16,21,7,74,83,7,76,69,78,0,3,64,25,0,85,0,0,9,29,0,27,0,0,73,0,3,4,45,46,82,13,63,1,53,0,20,10,21,68,54,0,0,46,0,0,0,0,0,0,0,0,0,0,0,0,0,0,0,0,0,0,0,0,0,0,0,0,0,0,0,0,0,0,0,0,0,0,0,0],"split_type":[0,0,0,0,0,0,0,0,0,0,0,0,0,0,0,0,0,0,0,0,0,0,0,0,0,0,0,0,0,0,0,0,0,0,0,0,0,0,0,0,0,0,0,0,0,0,0,0,0,0,0,0,0,0,0,0,0,0,0,0,0,0,0,0,0,0,0,0,0,0,0,0,0,0,0,0,0,0,0,0,0,0,0,0,0,0,0,0,0,0,0],"sum_hessian":[2.9282026E3,2.5979822E3,3.3022043E2,1.1771906E3,1.4207916E3,2.879202E2,4.2300232E1,2.201011E1,1.1551804E3,4.6928992E2,9.5150165E2,4.474434E1,2.4317586E2,9.474737E0,3.2825497E1,1.1917445E1,1.0092666E1,1.0132377E3,1.419428E2,3.911946E2,7.809528E1,1.8847421E0,9.4961694E2,1.2675714E1,3.2068626E1,2.6718924E0,2.4050397E2,7.615593E0,1.8591444E0,1.702441E1,1.5801086E1,4.995447E0,6.921998E0,8.831767E0,1.2608986E0,1.0110859E3,2.1517591E0,1.3543375E2,6.509047E0,2.5000069E2,1.4119394E2,6.5293884E1,1.2801396E1,8.105735E2,1.3904347E2,1.0774351E1,1.9013631E0,2.511581E1,6.9528155E0,9.4132675E1,1.4637129E2,1.246431E1,4.560099E0,9.064126E0,6.7369604E0,4.6988764E0,2.2231216E0,1.00017773E3,1.0908138E1,5.282009E0,1.3015173E2,3.1687415E0,3.3403058E0,2.4744908E2,2.5516102E0,1.1860557E2,2.2588366E1,4.3679787E1,2.16141E1,1.364408E0,1.1436989E1,1.7516766E0,8.088218E2,4.7856888E1,9.118658E1,1.2754806E0,9.49887E0,7.7159376E0,1.7399872E1,1.3662635E0,5.586552E0,2.8638693E1,6.549398E1,6.3486965E1,8.288433E1,1.727923E0,1.0736387E1,7.7600775E0,1.3040485E0,3.2423983E0,3.4945621E0],"tree_param":{"num_deleted":"0","num_feature":"86","num_nodes":"91","size_leaf_vector":"1"}},{"base_weights":[5.145553E-1,6.350729E-1,2.5431538E-1,6.511669E-1,6.9407E-2,3.0246764E-1,-2.7813584E-1,5.670755E-1,7.460839E-1,-4.8759204E-1,2.335298E-1,3.4758714E-1,7.578044E-2,-1.8305227E-1,-6.6375084E-2,6.482118E-1,3.946893E-1,4.467844E-1,7.7228045E-1,-6.825759E-2,7.900947E-2,9.712436E-2,9.198448E-1,6.9563645E-1,3.184502E-1,-3.6344537E-1,1.60115E-1,5.170649E-1,-2.4453089E-1,7.228684E-1,4.651822E-1,6.858661E-1,3.111722E-1,-1.6827676E-1,7.253134E-1,8.97156E-1,7.094009E-1,3.9046642E-1,-1.9063638E-1,-4.2643007E-3,1.1285408E-1,7.833529E-1,-1.682452E-1,3.7507567E-1,1.4456302E-1,5.197694E-2,-5.7148117E-1,4.513411E-1,-7.61827E-2,8.635456E-2,-4.1646138E-2,-6.056592E-1,-1.4743693E-1,6.3686304E-2,8.797668E-2,-3.717386E-2,5.2054077E-2,1.7881913E-2,9.1484405E-2,1.1017388E-2,4.770815E-2,-5.293111E-2,2.5164146E-2,-1.101604E-2,9.0813756E-2,-5.3371754E-2,9.077483E-2,8.422556E-2,6.341103E-2,7.3014565E-2,-2.8524298E-2,-3.6689162E-2,7.596143E-2,-1.031466E-2,8.3976455E-2,-5.8707464E-2,5.7031047E-2,2.4793252E-2,4.6732973E-2,-1.0945771E-3,3.485915E-2,5.3656466E-2,-4.1961227E-2,-6.742392E-2,-1.2623153E-2,-2.7569307E-2,5.7891585E-2,1.6903317E-2,-2.9886464E-2,-6.722917E-2,6.463856E-4,2.4198636E-2,-2.909706E-2],"categories":[],"categories_nodes":[],"categories_segments":[],"categories_sizes":[],"default_left":[0,0,0,0,0,0,0,0,0,0,0,0,0,0,0,0,0,0,0,0,0,0,0,0,0,0,0,0,0,0,0,0,0,0,0,0,0,0,0,0,0,0,0,0,0,0,0,0,0,0,0,0,0,0,0,0,0,0,0,0,0,0,0,0,0,0,0,0,0,0,0,0,0,0,0,0,0,0,0,0,0,0,0,0,0,0,0,0,0,0,0,0,0],"id":7,"left_children":[1,3,5,7,9,11,13,15,17,19,21,23,25,27,-1,29,31,33,35,-1,-1,37,39,41,43,45,47,49,51,53,55,57,59,61,63,65,67,69,71,-1,-1,73,75,77,79,81,83,85,87,-1,-1,89,91,-1,-1,-1,-1,-1,-1,-1,-1,-1,-1,-1,-1,-1,-1,-1,-1,-1,-1,-1,-1,-1,-1,-1,-1,-1,-1,-1,-1,-1,-1,-1,-1,-1,-1,-1,-1,-1,-1,-1,-1],"loss_changes":[1.0202374E2,2.0221558E1,2.6566948E1,1.6853088E1,5.846133E0,9.667114E0,3.0385733E0,1.5854828E1,7.602356E0,4.175358E0,4.508195E0,7.7913055E0,5.9330974E0,3.1617403E0,0E0,1.0344635E1,8.813278E0,1.4503807E1,6.6712036E0,0E0,0E0,3.6269884E0,1.6599412E0,4.692953E0,7.1429596E0,2.2640057E0,9.238415E0,2.3047323E0,2.207547E0,6.907196E0,1.0815613E1,9.345863E0,9.627695E0,4.223308E0,8.95492E0,5.151123E0,5.705261E0,5.067025E0,3.9494836E0,0E0,0E0,2.8281326E0,2.3057315E0,6.344246E0,5.7524376E0,2.406052E0,7.0686674E-1,5.729802E0,4.1291394E0,0E0,0E0,5.573549E-1,3.0299094E0,0E0,0E0,0E0,0E0,0E0,0E0,0E0,0E0,0E0,0E0,0E0,0E0,0E0,0E0,0E0,0E0,0E0,0E0,0E0,0E0,0E0,0E0,0E0,0E0,0E0,0E0,0E0,0E0,0E0,0E0,0E0,0E0,0E0,0E0,0E0,0E0,0E0,0E0,0E0,0E0],"parents":[2147483647,0,0,1,1,2,2,3,3,4,4,5,5,6,6,7,7,8,8,9,9,10,10,11,11,12,12,13,13,15,15,16,16,17,17,18,18,21,21,22,22,23,23,24,24,25,25,26,26,27,27,28,28,29,29,30,30,31,31,32,32,33,33,34,34,35,35,36,36,37,37,38,38,41,41,42,42,43,43,44,44,45,45,46,46,47,47,48,48,51,51,52,52],"right_children":[2,4,6,8,10,12,14,16,18,20,22,24,26,28,-1,30,32,34,36,-1,-1,38,40,42,44,46,48,50,52,54,56,58,60,62,64,66,68,70,72,-1,-1,74,76,78,80,82,84,86,88,-1,-1,90,92,-1,-1,-1,-1,-1,-1,-1,-1,-1,-1,-1,-1,-1,-1,-1,-1,-1,-1,-1,-1,-1,-1,-1,-1,-1,-1,-1,-1,-1,-1,-1,-1,-1,-1,-1,-1,-1,-1,-1,-1],"split_conditions":[3.005E1,6.326434E1,8.211958E1,-1.0586771E6,2.3892637E3,1.1771428E1,3.2020803E4,2.4895714E1,-1.8928131E1,7.4899673E-1,1.402E1,2.7616467E1,2.29023E3,-2.3848515E-2,-6.6375084E-2,4.9292426E0,-1.8924335E1,4.0601614E3,1.383E1,-6.825759E-2,7.900947E-2,9.30232E3,-2.1786098E-3,3.1712892E0,1.3018779E4,-6.6897166E-1,-1.2905718E6,2.7782026E1,1.4311983E-1,2.483652E3,1.5778025E3,2.433727E3,2.3107524E3,2.811143E1,9.722005E0,1.7850607E3,-7.73951E5,1.4017936E1,1.579E1,-4.2643007E-3,1.1285408E-1,-1.2813973E-1,2.56627E3,-1.2190501E6,1.135E1,1.2723943E1,7.420301E1,1.3294611E1,-1.0066121E0,8.635456E-2,-4.1646138E-2,1.1062171E-2,8.840192E3,6.3686304E-2,8.797668E-2,-3.717386E-2,5.2054077E-2,1.7881913E-2,9.1484405E-2,1.1017388E-2,4.770815E-2,-5.293111E-2,2.5164146E-2,-1.101604E-2,9.0813756E-2,-5.3371754E-2,9.077483E-2,8.422556E-2,6.341103E-2,7.3014565E-2,-2.8524298E-2,-3.6689162E-2,7.596143E-2,-1.031466E-2,8.3976455E-2,-5.8707464E-2,5.7031047E-2,2.4793252E-2,4.6732973E-2,-1.0945771E-3,3.485915E-2,5.3656466E-2,-4.1961227E-2,-6.742392E-2,-1.2623153E-2,-2.7569307E-2,5.7891585E-2,1.6903317E-2,-2.9886464E-2,-6.722917E-2,6.463856E-4,2.4198636E-2,-2.909706E-2],"split_indices":[29,83,79,20,76,82,77,17,1,72,26,67,48,72,0,1,71,78,29,0,0,45,22,33,73,85,20,0,72,12,6,5,74,17,84,73,20,82,27,0,0,72,56,20,27,80,15,15,3,0,0,22,61,0,0,0,0,0,0,0,0,0,0,0,0,0,0,0,0,0,0,0,0,0,0,0,0,0,0,0,0,0,0,0,0,0,0,0,0,0,0,0,0],"split_type":[0,0,0,0,0,0,0,0,0,0,0,0,0,0,0,0,0,0,0,0,0,0,0,0,0,0,0,0,0,0,0,0,0,0,0,0,0,0,0,0,0,0,0,0,0,0,0,0,0,0,0,0,0,0,0,0,0,0,0,0,0,0,0,0,0,0,0,0,0,0,0,0,0,0,0,0,0,0,0,0,0,0,0,0,0,0,0,0,0,0,0,0,0],"sum_hessian":[3.2570952E3,2.225173E3,1.0319222E3,2.163468E3,6.170511E1,9.46736E2,8.518622E1,1.1508499E3,1.0126181E3,1.3595131E1,4.8109978E1,7.891345E2,1.5760149E2,6.951914E1,1.5667081E1,7.8065967E2,3.7019022E2,8.295046E1,9.2966766E2,1.2199219E1,1.3959126E0,4.108569E1,7.0242853E0,5.9192142E1,7.299424E2,2.4853186E1,1.327483E2,5.0136223E0,6.4505516E1,5.523927E2,2.2826695E2,8.090566E1,2.8928455E2,2.5978756E1,5.6971706E1,3.06904E2,6.227637E2,2.0168795E1,2.0916897E1,1.3934554E0,5.63083E0,5.3820553E1,5.37159E0,5.4975916E2,1.8018321E2,8.543334E0,1.6309853E1,5.90553E1,7.3693E1,3.7111745E0,1.3024478E0,1.2558381E1,5.1947136E1,3.6007382E2,1.923189E2,1.3807511E1,2.1445944E2,2.5723866E1,5.5181797E1,1.3156195E2,1.5772261E2,1.3828702E1,1.2150054E1,1.03E1,4.6671707E1,1.8922914E0,3.0501172E2,2.2158221E2,4.0118143E2,1.3368092E1,6.800703E0,1.8162048E1,2.7548487E0,3.1703632E0,5.065019E1,3.558625E0,1.8129654E0,2.3271814E2,3.1704102E2,1.0278653E2,7.7396675E1,4.145643E0,4.397691E0,1.2833701E1,3.476152E0,8.64237E0,5.0412933E1,3.5186634E1,3.8506367E1,1.1236897E1,1.321484E0,1.3805449E1,3.814169E1],"tree_param":{"num_deleted":"0","num_feature":"86","num_nodes":"93","size_leaf_vector":"1"}},{"base_weights":[-1.10361114E-1,-2.0235342E-1,4.8680495E-2,-3.2817158E-1,-1.467107E-1,-6.431944E-2,1.1841779E-1,-4.7873393E-2,-3.7436315E-1,-1.2390256E-2,-1.9671305E-1,-9.864842E-2,2.781857E-1,3.496387E-1,7.324981E-2,9.879084E-2,-5.2992505E-1,2.3874478E-1,-3.9320335E-1,-2.0129228E-1,1.509111E-1,-5.809502E-1,-1.6606179E-1,-1.1365245E-1,6.9656426E-1,5.188463E-1,-2.8181103E-1,-4.2120025E-1,4.3605942E-1,-6.260406E-3,3.1142223E-1,9.1410744E-1,1.0749519E-2,-6.195808E-1,2.5506634E-2,-8.477797E-2,9.2285745E-2,-4.1022408E-1,2.0281091E-1,-2.6900795E-1,3.409074E-1,8.686574E-1,6.762839E-2,6.39115E-2,-6.2010795E-1,-2.4429287E-1,-3.205888E-2,-1.268482E-1,8.0394614E-1,1.1333295E-1,-4.6119474E-2,-3.078178E-1,7.2644323E-1,4.774461E-1,-6.493002E-2,1.8223153E-1,-6.510995E-2,9.5694077E-1,3.2301643E-1,1.8113318E-1,-9.793061E-2,6.2989366E-1,1.6337536E-1,-1.5193336E-3,1.1657957E-1,-9.647901E-3,7.51222E-2,3.0690671E-3,-6.706891E-2,6.774996E-2,-3.4403667E-2,-4.1949652E-2,4.1503664E-2,6.0148884E-2,-4.371339E-2,-2.9572641E-2,1.0699206E-1,7.848699E-2,-3.9013803E-2,-4.6533342E-2,1.01830594E-1,-7.010107E-3,3.2379705E-2,-6.7367725E-2,1.5889335E-2,-1.8005788E-2,-4.672269E-2,1.3108564E-2,-2.2126002E-2,-6.882032E-2,-1.0538667E-2,-4.3038913E-4,1.0608007E-1,-5.8436126E-2,3.9588608E-2,8.513228E-2,-4.739545E-2,9.646782E-2,-4.2284265E-2,-4.6027612E-2,8.516382E-2,-4.595494E-2,1.1065408E-1,4.367777E-2,-2.82412E-2,-4.8068073E-2,2.5005061E-2,-5.3172E-2,-4.186162E-3,2.4116075E-2,9.6263826E-2,-4.3015666E-3,4.4915475E-2],"categories":[],"categories_nodes":[],"categories_segments":[],"categories_sizes":[],"default_left":[0,0,0,0,0,0,0,0,0,0,0,0,0,0,0,0,0,0,0,0,0,0,0,0,0,0,0,0,0,0,0,0,0,0,0,0,0,0,0,0,0,0,0,0,0,0,0,0,0,0,0,0,0,0,0,0,0,0,0,0,0,0,0,0,0,0,0,0,0,0,0,0,0,0,0,0,0,0,0,0,0,0,0,0,0,0,0,0,0,0,0,0,0,0,0,0,0,0,0,0,0,0,0,0,0,0,0,0,0,0,0,0,0],"id":8,"left_children":[1,3,5,7,9,11,13,15,17,19,21,23,25,27,29,31,33,35,37,39,41,43,45,47,49,51,53,55,57,59,61,63,65,67,-1,69,-1,71,73,75,77,79,81,-1,83,85,87,89,91,-1,-1,93,95,97,-1,99,-1,101,103,105,107,109,111,-1,-1,-1,-1,-1,-1,-1,-1,-1,-1,-1,-1,-1,-1,-1,-1,-1,-1,-1,-1,-1,-1,-1,-1,-1,-1,-1,-1,-1,-1,-1,-1,-1,-1,-1,-1,-1,-1,-1,-1,-1,-1,-1,-1,-1,-1,-1,-1,-1,-1],"loss_changes":[4.460327E1,1.3472031E1,8.815757E0,7.638836E0,9.003098E0,5.0504785E0,7.1966124E0,6.048673E0,5.956749E0,1.1283864E1,1.1410412E1,4.720804E0,5.4264235E0,7.6944504E0,1.0981453E1,4.7185497E0,1.561544E0,3.5650196E0,5.0825195E0,6.317636E0,1.1671207E1,3.8256779E0,9.492598E0,4.735661E0,4.236566E0,4.9867387E0,3.776701E0,1.7660108E0,5.689312E0,7.501631E0,6.7397738E0,1.5164971E0,4.873287E0,6.2510157E-1,0E0,2.52788E0,0E0,3.842987E0,3.9245303E0,5.7292023E0,6.559705E0,4.5298853E0,6.264592E0,0E0,3.0305538E0,8.107731E0,1.037576E1,4.482905E0,1.1591535E0,0E0,0E0,1.4521687E0,3.7736053E0,2.4382198E0,0E0,2.1370347E0,0E0,4.2500477E0,5.992505E0,6.663511E0,7.1089E0,5.6798515E0,5.9425554E0,0E0,0E0,0E0,0E0,0E0,0E0,0E0,0E0,0E0,0E0,0E0,0E0,0E0,0E0,0E0,0E0,0E0,0E0,0E0,0E0,0E0,0E0,0E0,0E0,0E0,0E0,0E0,0E0,0E0,0E0,0E0,0E0,0E0,0E0,0E0,0E0,0E0,0E0,0E0,0E0,0E0,0E0,0E0,0E0,0E0,0E0,0E0,0E0,0E0,0E0],"parents":[2147483647,0,0,1,1,2,2,3,3,4,4,5,5,6,6,7,7,8,8,9,9,10,10,11,11,12,12,13,13,14,14,15,15,16,16,17,17,18,18,19,19,20,20,21,21,22,22,23,23,24,24,25,25,26,26,27,27,28,28,29,29,30,30,31,31,32,32,33,33,35,35,37,37,38,38,39,39,40,40,41,41,42,42,44,44,45,45,46,46,47,47,48,48,51,51,52,52,53,53,55,55,57,57,58,58,59,59,60,60,61,61,62,62],"right_children":[2,4,6,8,10,12,14,16,18,20,22,24,26,28,30,32,34,36,38,40,42,44,46,48,50,52,54,56,58,60,62,64,66,68,-1,70,-1,72,74,76,78,80,82,-1,84,86,88,90,92,-1,-1,94,96,98,-1,100,-1,102,104,106,108,110,112,-1,-1,-1,-1,-1,-1,-1,-1,-1,-1,-1,-1,-1,-1,-1,-1,-1,-1,-1,-1,-1,-1,-1,-1,-1,-1,-1,-1,-1,-1,-1,-1,-1,-1,-1,-1,-1,-1,-1,-1,-1,-1,-1,-1,-1,-1,-1,-1,-1,-1],"split_conditions":[2.822E1,1.7413743E0,2.2491312E0,3.8026318E1,2.41297E3,6.3469677E0,6.705643E3,3.5184823E-2,1.0965973E3,5.752002E0,2.451902E3,8.7665886E1,8.317504E-1,1.2979401E1,3.345972E3,1.8278281E3,8.9390625E3,3.5E0,3.3908268E1,9.261646E0,2.3987139E3,5.830583E0,2.885357E1,7.0121423E2,4.962507E0,2.6058464E-3,2.6524583E3,1.9097494E0,1.6533588E1,-4.272528E-1,3.40488E3,1.61406E3,-2.5047318E-3,1.37E0,2.5506634E-2,9.5165375E2,9.2285745E-2,8.036821E1,2.7610344E3,2.396771E3,1.2122478E1,-2.0470957E1,4.064441E0,6.39115E-2,1.2577846E4,1.1020504E1,-9.4882894E5,3.8E-1,5.7E-1,1.1333295E-1,-4.6119474E-2,8.71635E0,3.3318962E1,9.1987634E-1,-6.493002E-2,1.8410562E3,-6.510995E-2,1.6410885E3,9.062209E1,1.280159E1,1.5247096E-1,1.0481473E4,3.7514915E3,-1.5193336E-3,1.1657957E-1,-9.647901E-3,7.51222E-2,3.0690671E-3,-6.706891E-2,6.774996E-2,-3.4403667E-2,-4.1949652E-2,4.1503664E-2,6.0148884E-2,-4.371339E-2,-2.9572641E-2,1.0699206E-1,7.848699E-2,-3.9013803E-2,-4.6533342E-2,1.01830594E-1,-7.010107E-3,3.2379705E-2,-6.7367725E-2,1.5889335E-2,-1.8005788E-2,-4.672269E-2,1.3108564E-2,-2.2126002E-2,-6.882032E-2,-1.0538667E-2,-4.3038913E-4,1.0608007E-1,-5.8436126E-2,3.9588608E-2,8.513228E-2,-4.739545E-2,9.646782E-2,-4.2284265E-2,-4.6027612E-2,8.516382E-2,-4.595494E-2,1.1065408E-1,4.367777E-2,-2.82412E-2,-4.8068073E-2,2.5005061E-2,-5.3172E-2,-4.186162E-3,2.4116075E-2,9.6263826E-2,-4.3015666E-3,4.4915475E-2],"split_indices":[29,82,80,0,50,3,77,7,45,84,10,16,69,81,9,4,57,28,79,68,53,15,17,19,84,22,76,84,24,85,59,56,23,27,0,49,0,0,4,18,68,1,68,0,53,84,20,28,28,0,0,3,1,69,0,4,0,78,15,67,69,53,12,0,0,0,0,0,0,0,0,0,0,0,0,0,0,0,0,0,0,0,0,0,0,0,0,0,0,0,0,0,0,0,0,0,0,0,0,0,0,0,0,0,0,0,0,0,0,0,0,0,0],"split_type":[0,0,0,0,0,0,0,0,0,0,0,0,0,0,0,0,0,0,0,0,0,0,0,0,0,0,0,0,0,0,0,0,0,0,0,0,0,0,0,0,0,0,0,0,0,0,0,0,0,0,0,0,0,0,0,0,0,0,0,0,0,0,0,0,0,0,0,0,0,0,0,0,0,0,0,0,0,0,0,0,0,0,0,0,0,0,0,0,0,0,0,0,0,0,0,0,0,0,0,0,0,0,0,0,0,0,0,0,0,0,0,0,0],"sum_hessian":[3.0469546E3,1.9302144E3,1.1167404E3,5.903744E2,1.33984E3,4.262069E2,6.905334E2,8.381391E1,5.065605E2,3.6380493E2,9.7603503E2,3.8802725E2,3.8179646E1,1.1174665E2,5.7878674E2,6.487174E1,1.8942167E1,1.4754053E1,4.9180643E2,1.6857263E2,1.9523232E2,7.078144E1,9.052536E2,3.8168277E2,6.3444905E0,2.675505E1,1.1424594E1,1.0874704E1,1.0087195E2,4.3465692E2,1.4412984E2,5.4079647E0,5.946378E1,1.7189617E1,1.7525513E0,1.0611744E1,4.142309E0,4.7845465E2,1.3351793E1,1.5030482E2,1.826781E1,1.931778E1,1.7591454E2,1.7246228E0,6.9056816E1,5.7105054E2,3.3420306E2,3.7712125E2,4.5615287E0,4.621956E0,1.7225349E0,5.2733755E0,2.1481676E1,3.6285524E0,7.7960415E0,3.0573137E0,7.8173904E0,1.665651E1,8.421544E1,1.4246071E2,2.921962E2,4.4705906E1,9.9423935E1,1.3527778E0,4.0551867E0,5.2701702E1,6.762079E0,1.2816865E0,1.590793E1,2.2837625E0,8.327982E0,4.736248E2,4.829857E0,8.2637005E0,5.088093E0,1.4812804E2,2.1767797E0,1.1319733E1,6.948078E0,1.7357265E0,1.7582052E1,1.1487706E2,6.103747E1,6.474007E1,4.316752E0,4.4471927E2,1.2633126E2,1.7962395E2,1.5457912E2,1.27430525E1,3.6437817E2,1.3371456E0,3.224383E0,3.9074192E0,1.3659562E0,1.9720877E1,1.7607992E0,2.3079693E0,1.3205832E0,1.7194085E0,1.3379052E0,1.3931922E0,1.5263317E1,7.112876E1,1.3086676E1,1.28723955E1,1.2958832E2,3.2473663E1,2.5972253E2,2.141377E1,2.3292133E1,5.822389E1,4.120005E1],"tree_param":{"num_deleted":"0","num_feature":"86","num_nodes":"113","size_leaf_vector":"1"}},{"base_weights":[-4.3619993E-1,-4.7054392E-1,-1.6981597E-1,-5.398247E-1,-4.1039568E-1,-2.4162887E-1,3.564508E-1,-1.4887081E-1,-5.4736036E-1,-3.199362E-1,-4.59947E-1,3.2485355E-2,-3.2835305E-1,7.2335854E-2,8.9527875E-1,2.0058644E-1,-5.494698E-1,-5.697584E-1,-4.3114486E-1,-3.5036993E-1,3.069118E-1,-4.8797885E-1,-2.9050907E-1,-1.2639327E-1,3.7926108E-1,-5.3137714E-1,-2.4299978E-1,1.00791626E-1,-2.0519055E-1,2.0807127E-2,9.843191E-1,-5.823467E-2,7.833844E-1,5.059237E-3,-6.2954575E-2,-5.724273E-1,2.9168633E-1,-4.565735E-1,1.4405474E-1,2.4054588E-1,-3.6803105E-1,-6.0206104E-2,6.0146034E-1,-5.219197E-1,-3.5459006E-1,5.785001E-1,-3.310448E-1,-3.3558255E-1,2.765243E-1,6.4600295E-1,-4.3793806E-1,-5.70836E-1,2.7897266E-1,5.500879E-1,-2.7700898E-1,-3.7837255E-1,7.119104E-2,1.0477835E-1,3.1474628E-2,1.0301582E-1,9.553348E-3,-5.8384288E-2,-3.7477266E-2,-3.929679E-2,8.167538E-2,6.1523723E-3,-4.870933E-2,6.285473E-2,-5.2859157E-2,-2.7456028E-2,8.756854E-2,-4.8443627E-2,-2.4812527E-2,-5.564564E-2,9.47191E-2,-5.2610476E-2,3.1984564E-2,8.315853E-2,-3.7609175E-2,-4.791421E-2,1.2641105E-1,-4.7830913E-2,-1.3530403E-2,8.698896E-2,-4.1434415E-2,5.2064206E-2,-5.5719774E-2,9.143968E-2,-1.9839527E-2,3.1896704E-3,-5.6912668E-2,-1.6119365E-2,-6.409062E-2,-3.9243978E-2,7.916477E-2,-4.5969732E-2,9.8632485E-2,-1.3449456E-2,-4.4323254E-2,-5.368936E-2,2.130119E-2],"categories":[],"categories_nodes":[],"categories_segments":[],"categories_sizes":[],"default_left":[0,0,0,0,0,0,0,0,0,0,0,0,0,0,0,0,0,0,0,0,0,0,0,0,0,0,0,0,0,0,0,0,0,0,0,0,0,0,0,0,0,0,0,0,0,0,0,0,0,0,0,0,0,0,0,0,0,0,0,0,0,0,0,0,0,0,0,0,0,0,0,0,0,0,0,0,0,0,0,0,0,0,0,0,0,0,0,0,0,0,0,0,0,0,0,0,0,0,0,0,0],"id":9,"left_children":[1,3,5,7,9,11,13,15,17,19,21,23,25,27,29,31,33,35,37,39,41,43,45,47,49,51,53,-1,55,-1,57,-1,59,-1,-1,61,63,65,67,69,71,-1,73,75,77,79,81,83,85,87,89,91,93,95,97,99,-1,-1,-1,-1,-1,-1,-1,-1,-1,-1,-1,-1,-1,-1,-1,-1,-1,-1,-1,-1,-1,-1,-1,-1,-1,-1,-1,-1,-1,-1,-1,-1,-1,-1,-1,-1,-1,-1,-1,-1,-1,-1,-1,-1,-1],"loss_changes":[2.593927E1,1.0274048E1,1.2420185E1,3.3574524E0,5.9146423E0,6.8516216E0,5.9961753E0,3.3927336E0,2.734436E0,9.300903E0,3.9973755E0,3.9086108E0,3.6606197E0,7.2200017E0,6.261749E-1,6.5047517E0,5.696304E-1,2.3665771E0,2.8317032E0,4.8897705E0,6.4788885E0,3.1936035E0,4.636302E0,4.206431E0,5.1367183E0,2.202057E0,4.3549356E0,0E0,3.7098348E0,0E0,1.6972065E-1,0E0,1.2638803E0,0E0,0E0,1.9340515E0,1.6213841E0,2.8973122E0,3.1890724E0,4.80623E0,6.1202507E0,0E0,7.6349277E0,2.2565765E0,4.2530785E0,4.947349E0,3.4287252E0,3.4535406E0,3.7963927E0,4.0775447E0,3.9263356E-1,1.6547527E0,1.5629864E0,3.4231412E0,3.4953976E0,1.8837528E0,0E0,0E0,0E0,0E0,0E0,0E0,0E0,0E0,0E0,0E0,0E0,0E0,0E0,0E0,0E0,0E0,0E0,0E0,0E0,0E0,0E0,0E0,0E0,0E0,0E0,0E0,0E0,0E0,0E0,0E0,0E0,0E0,0E0,0E0,0E0,0E0,0E0,0E0,0E0,0E0,0E0,0E0,0E0,0E0,0E0],"parents":[2147483647,0,0,1,1,2,2,3,3,4,4,5,5,6,6,7,7,8,8,9,9,10,10,11,11,12,12,13,13,14,14,15,15,16,16,17,17,18,18,19,19,20,20,21,21,22,22,23,23,24,24,25,25,26,26,28,28,30,30,32,32,35,35,36,36,37,37,38,38,39,39,40,40,42,42,43,43,44,44,45,45,46,46,47,47,48,48,49,49,50,50,51,51,52,52,53,53,54,54,55,55],"right_children":[2,4,6,8,10,12,14,16,18,20,22,24,26,28,30,32,34,36,38,40,42,44,46,48,50,52,54,-1,56,-1,58,-1,60,-1,-1,62,64,66,68,70,72,-1,74,76,78,80,82,84,86,88,90,92,94,96,98,100,-1,-1,-1,-1,-1,-1,-1,-1,-1,-1,-1,-1,-1,-1,-1,-1,-1,-1,-1,-1,-1,-1,-1,-1,-1,-1,-1,-1,-1,-1,-1,-1,-1,-1,-1,-1,-1,-1,-1,-1,-1,-1,-1,-1,-1],"split_conditions":[6.758266E3,1.99E1,8.708201E1,1.58789E3,2.56019E3,2.3503655E3,4.8698254E4,6.889168E3,3.38265E1,-5.9200394E5,6.9116683E0,7.9015393E0,3.248E1,2.3664749E3,2.26406E3,1.1601382E3,-5.538079E-3,4.976527E-2,1.1828323E4,-5.2792686E1,3.1422007E1,4.418E1,-2.4726582E6,7.7947656E3,1.2094476E4,2.1E1,4.6913177E-1,1.00791626E-1,1E0,2.0807127E-2,2.2697989E-2,-5.823467E-2,2.6988655E3,5.059237E-3,-6.2954575E-2,6.0510725E-1,5.317015E3,-8.116362E0,2.69808E3,3.3801714E3,-2.4498992E0,-6.0206104E-2,-5.425603E-1,8.83144E1,7.3790324E-1,8.5366335E0,-7.3012275E5,-4.461E1,-1.3142082E-1,8.96487E1,-2.5612098E6,2.6432478E0,2.4184016E3,-2.670531E-1,-1.1723156E6,5.604E1,7.119104E-2,1.0477835E-1,3.1474628E-2,1.0301582E-1,9.553348E-3,-5.8384288E-2,-3.7477266E-2,-3.929679E-2,8.167538E-2,6.1523723E-3,-4.870933E-2,6.285473E-2,-5.2859157E-2,-2.7456028E-2,8.756854E-2,-4.8443627E-2,-2.4812527E-2,-5.564564E-2,9.47191E-2,-5.2610476E-2,3.1984564E-2,8.315853E-2,-3.7609175E-2,-4.791421E-2,1.2641105E-1,-4.7830913E-2,-1.3530403E-2,8.698896E-2,-4.1434415E-2,5.2064206E-2,-5.5719774E-2,9.143968E-2,-1.9839527E-2,3.1896704E-3,-5.6912668E-2,-1.6119365E-2,-6.409062E-2,-3.9243978E-2,7.916477E-2,-4.5969732E-2,9.8632485E-2,-1.3449456E-2,-4.4323254E-2,-5.368936E-2,2.130119E-2],"split_indices":[74,29,81,58,56,6,57,77,83,20,3,3,29,4,63,74,21,23,76,2,81,29,20,61,61,28,80,0,41,0,21,0,76,0,0,85,76,3,4,74,2,0,85,67,82,3,20,2,2,15,20,82,6,85,20,26,0,0,0,0,0,0,0,0,0,0,0,0,0,0,0,0,0,0,0,0,0,0,0,0,0,0,0,0,0,0,0,0,0,0,0,0,0,0,0,0,0,0,0,0,0],"split_type":[0,0,0,0,0,0,0,0,0,0,0,0,0,0,0,0,0,0,0,0,0,0,0,0,0,0,0,0,0,0,0,0,0,0,0,0,0,0,0,0,0,0,0,0,0,0,0,0,0,0,0,0,0,0,0,0,0,0,0,0,0,0,0,0,0,0,0,0,0,0,0,0,0,0,0,0,0,0,0,0,0,0,0,0,0,0,0,0,0,0,0,0,0,0,0,0,0,0,0,0,0],"sum_hessian":[2.843026E3,2.5176653E3,3.2536047E2,1.1663031E3,1.3513622E3,2.8676956E2,3.8590908E1,2.2447855E1,1.1438552E3,4.8090054E2,8.704617E2,6.907273E1,2.1769684E2,2.601034E1,1.2580569E1,1.2255882E1,1.0191973E1,9.55752E2,1.8810326E2,4.5905432E2,2.184623E1,7.4528204E2,1.2517966E2,4.7805634E1,2.1267092E1,6.288674E1,1.548101E2,5.3483887E0,2.0661951E1,1.8258209E0,1.0754748E1,5.2302785E0,7.0256033E0,1.2432992E0,8.948673E0,9.531346E2,2.6174223E0,1.8033708E2,7.766176E0,1.2955687E1,4.4609863E2,5.091112E0,1.6755117E1,5.917884E2,1.5349365E2,4.9874206E0,1.2019224E2,3.1577929E1,1.6227707E1,1.6191513E1,5.0755787E0,6.024859E1,2.638154E0,5.74164E0,1.4906847E2,1.7874096E1,2.7878535E0,9.307681E0,1.4470679E0,4.8043456E0,2.2212577E0,8.9924457E2,5.3890022E1,1.2452642E0,1.3721583E0,9.975713E0,1.7036136E2,4.552599E0,3.2135775E0,7.4673157E0,5.4883714E0,2.2481088E2,2.2128775E2,3.7123272E0,1.304279E1,5.892338E2,2.5545268E0,2.062049E0,1.5143161E2,2.0799599E0,2.907461E0,6.776562E1,5.2426624E1,1.3206313E0,3.0257298E1,1.2842797E1,3.38491E0,1.2223387E1,3.9681268E0,1.2730786E0,3.8025002E0,9.28242E0,5.0966167E1,1.2437857E0,1.3943682E0,1.7159178E0,4.0257225E0,8.123201E1,6.783646E1,1.416839E1,3.7057068E0],"tree_param":{"num_deleted":"0","num_feature":"86","num_nodes":"101","size_leaf_vector":"1"}},{"base_weights":[4.6699154E-1,5.747729E-1,2.3202655E-1,5.891362E-1,6.0922783E-2,2.7584472E-1,-2.655146E-1,5.12962E-1,6.748623E-1,-4.753775E-1,2.1544774E-1,3.170679E-1,6.6692844E-2,-3.7655884E-1,2.8819667E-2,5.8538824E-1,3.581973E-1,8.5344934E-1,6.358592E-1,-6.689097E-2,7.508446E-2,8.665346E-2,8.5334444E-1,6.404477E-1,2.898579E-1,-3.5063824E-1,1.450679E-1,1.15022905E-1,-4.9083552E-1,9.176545E-2,-1.7153868E-1,1.0002776E0,5.573601E-1,6.2764245E-1,2.804133E-1,4.6498644E-1,9.492609E-1,7.521082E-1,5.626616E-1,2.2434805E-1,-4.629796E-1,-5.91096E-3,1.05193354E-1,-5.367427E-2,6.9475275E-1,7.5013804E-1,2.693673E-1,4.5601424E-2,-5.5420315E-1,4.1403234E-1,-7.671961E-2,-4.293795E-1,5.056883E-1,6.7075156E-2,-5.685189E-1,-3.272107E-1,3.7160364E-1,4.872337E-2,1.0527636E-1,7.003012E-2,4.5098E-2,1.6019205E-2,8.35668E-2,9.101008E-3,4.3572903E-2,8.618488E-3,9.215676E-2,9.7092696E-2,1.2862149E-2,7.930295E-2,2.5581872E-2,2.9395794E-2,6.157872E-2,3.69824E-2,-4.7853377E-2,-6.710249E-2,3.7440665E-2,7.972848E-2,4.1172765E-3,8.590572E-2,-2.855948E-2,1.7459502E-2,3.575638E-2,5.0429296E-2,-4.1034635E-2,-1.1133361E-2,-6.5837435E-2,-9.402873E-3,5.810774E-2,1.6045632E-2,-2.8053045E-2,-5.6894023E-2,3.218457E-3,-4.1800063E-2,7.591951E-2,-5.104365E-2,5.6836706E-2,-8.477102E-3,-6.0290705E-2,5.8842547E-2,-4.7808938E-2,-4.5970544E-2,9.36838E-2],"categories":[],"categories_nodes":[],"categories_segments":[],"categories_sizes":[],"default_left":[0,0,0,0,0,0,0,0,0,0,0,0,0,0,0,0,0,0,0,0,0,0,0,0,0,0,0,0,0,0,0,0,0,0,0,0,0,0,0,0,0,0,0,0,0,0,0,0,0,0,0,0,0,0,0,0,0,0,0,0,0,0,0,0,0,0,0,0,0,0,0,0,0,0,0,0,0,0,0,0,0,0,0,0,0,0,0,0,0,0,0,0,0,0,0,0,0,0,0,0,0,0,0],"id":10,"left_children":[1,3,5,7,9,11,13,15,17,19,21,23,25,27,29,31,33,35,37,-1,-1,39,41,43,45,47,49,51,53,-1,55,57,59,61,63,65,67,69,71,73,75,-1,-1,-1,77,79,81,83,85,87,89,91,93,95,97,99,101,-1,-1,-1,-1,-1,-1,-1,-1,-1,-1,-1,-1,-1,-1,-1,-1,-1,-1,-1,-1,-1,-1,-1,-1,-1,-1,-1,-1,-1,-1,-1,-1,-1,-1,-1,-1,-1,-1,-1,-1,-1,-1,-1,-1,-1,-1],"loss_changes":[8.369733E1,1.6707703E1,2.280375E1,1.4064453E1,5.307061E0,8.244843E0,2.7857423E0,1.2934692E1,6.6674805E0,3.9100387E0,3.9882214E0,6.8590164E0,5.2552686E0,3.5233698E0,4.4644814E0,8.713409E0,7.7129936E0,6.3557587E0,6.8394165E0,0E0,0E0,3.301472E0,1.5467567E0,4.2922764E0,6.779957E0,2.078086E0,8.064953E0,2.865151E0,2.2165976E0,0E0,1.8615873E0,8.1168747E-1,1.1074448E1,7.98711E0,8.605991E0,6.5086784E0,2.462677E0,6.4341125E0,7.3519287E0,3.700606E0,1.7826928E0,0E0,0E0,0E0,3.923746E0,3.7415047E0,5.874695E0,2.2065892E0,7.058487E-1,5.2330265E0,3.6534808E0,3.8823116E-1,2.1222863E0,2.3275797E0,6.846037E-1,2.5644474E0,2.8047752E0,0E0,0E0,0E0,0E0,0E0,0E0,0E0,0E0,0E0,0E0,0E0,0E0,0E0,0E0,0E0,0E0,0E0,0E0,0E0,0E0,0E0,0E0,0E0,0E0,0E0,0E0,0E0,0E0,0E0,0E0,0E0,0E0,0E0,0E0,0E0,0E0,0E0,0E0,0E0,0E0,0E0,0E0,0E0,0E0,0E0,0E0],"parents":[2147483647,0,0,1,1,2,2,3,3,4,4,5,5,6,6,7,7,8,8,9,9,10,10,11,11,12,12,13,13,14,14,15,15,16,16,17,17,18,18,21,21,22,22,23,23,24,24,25,25,26,26,27,27,28,28,30,30,31,31,32,32,33,33,34,34,35,35,36,36,37,37,38,38,39,39,40,40,44,44,45,45,46,46,47,47,48,48,49,49,50,50,51,51,52,52,53,53,54,54,55,55,56,56],"right_children":[2,4,6,8,10,12,14,16,18,20,22,24,26,28,30,32,34,36,38,-1,-1,40,42,44,46,48,50,52,54,-1,56,58,60,62,64,66,68,70,72,74,76,-1,-1,-1,78,80,82,84,86,88,90,92,94,96,98,100,102,-1,-1,-1,-1,-1,-1,-1,-1,-1,-1,-1,-1,-1,-1,-1,-1,-1,-1,-1,-1,-1,-1,-1,-1,-1,-1,-1,-1,-1,-1,-1,-1,-1,-1,-1,-1,-1,-1,-1,-1,-1,-1,-1,-1,-1,-1],"split_conditions":[3.005E1,6.326434E1,8.211958E1,-1.0586771E6,2.3892637E3,1.1771428E1,3.29974E3,2.4895714E1,3.8530906E3,7.4899673E-1,1.402E1,2.7616467E1,2.29023E3,6.1402026E3,3.32796E3,7.776112E0,-1.8924335E1,3.6887913E3,-7.73951E5,-6.689097E-2,7.508446E-2,3.292394E3,4.812803E1,1.6280892E3,1.2191322E1,-6.6897166E-1,-1.2905718E6,9.188253E1,1.280159E1,9.176545E-2,7.3167465E1,1.0781164E-1,-1.2645092E0,2.433727E3,2.3107524E3,-5.8371844E5,1.5089426E0,4.1601177E1,1.478981E3,7.485835E1,3.1656055E-3,-5.91096E-3,1.05193354E-1,-5.367427E-2,-2.96341E0,7.0121423E2,-1.0244434E6,1.2723943E1,8.784664E-1,6.281095E3,-2.2140322E0,2.44E1,-4.0428925E-2,-1.4026399E6,6.4E-1,3.21045E3,3.41423E3,4.872337E-2,1.0527636E-1,7.003012E-2,4.5098E-2,1.6019205E-2,8.35668E-2,9.101008E-3,4.3572903E-2,8.618488E-3,9.215676E-2,9.7092696E-2,1.2862149E-2,7.930295E-2,2.5581872E-2,2.9395794E-2,6.157872E-2,3.69824E-2,-4.7853377E-2,-6.710249E-2,3.7440665E-2,7.972848E-2,4.1172765E-3,8.590572E-2,-2.855948E-2,1.7459502E-2,3.575638E-2,5.0429296E-2,-4.1034635E-2,-1.1133361E-2,-6.5837435E-2,-9.402873E-3,5.810774E-2,1.6045632E-2,-2.8053045E-2,-5.6894023E-2,3.218457E-3,-4.1800063E-2,7.591951E-2,-5.104365E-2,5.6836706E-2,-8.477102E-3,-6.0290705E-2,5.8842547E-2,-4.7808938E-2,-4.5970544E-2,9.36838E-2],"split_indices":[29,83,79,20,76,82,52,17,49,72,26,67,48,53,55,81,71,77,20,0,0,18,15,61,81,85,20,24,67,0,19,80,2,5,74,20,34,83,76,70,21,0,0,0,3,19,20,80,34,57,3,26,22,20,27,63,56,0,0,0,0,0,0,0,0,0,0,0,0,0,0,0,0,0,0,0,0,0,0,0,0,0,0,0,0,0,0,0,0,0,0,0,0,0,0,0,0,0,0,0,0,0,0],"split_type":[0,0,0,0,0,0,0,0,0,0,0,0,0,0,0,0,0,0,0,0,0,0,0,0,0,0,0,0,0,0,0,0,0,0,0,0,0,0,0,0,0,0,0,0,0,0,0,0,0,0,0,0,0,0,0,0,0,0,0,0,0,0,0,0,0,0,0,0,0,0,0,0,0,0,0,0,0,0,0,0,0,0,0,0,0,0,0,0,0,0,0,0,0,0,0,0,0,0,0,0,0,0,0],"sum_hessian":[3.3092144E3,2.2675945E3,1.0416198E3,2.205791E3,6.180356E1,9.577195E2,8.390022E1,1.1716628E3,1.034128E3,1.3359876E1,4.8443684E1,7.9960406E2,1.5811542E2,6.071483E1,2.3185396E1,7.962528E2,3.754101E2,1.8162505E2,8.5250305E2,1.1931281E1,1.4285945E0,4.12508E1,7.1928825E0,6.030977E1,7.3929425E2,2.4450052E1,1.3366537E2,1.1450766E1,4.9264065E1,3.6064234E0,1.9578974E1,4.819229E1,7.480605E2,8.251335E1,2.9289673E2,3.709173E1,1.4453333E2,3.258029E2,5.2670013E2,3.346015E1,7.790646E0,1.4112028E0,5.78168E0,2.2677207E0,5.804205E1,2.999128E1,7.09303E2,8.561349E0,1.5888703E1,6.0016193E1,7.364918E1,4.742655E0,6.7081103E0,6.037827E0,4.322624E1,1.5526443E1,4.052531E0,5.427011E0,4.276528E1,3.1679965E2,4.3126086E2,2.5956665E1,5.6556686E1,1.326814E2,1.6021535E2,2.0922325E1,1.6169401E1,1.4063718E2,3.8961496E0,3.0043295E2,2.5369923E1,8.802296E1,4.3867722E2,2.8115015E1,5.345138E0,6.399406E0,1.3912401E0,4.9981247E1,8.060803E0,2.7291813E1,2.6994662E0,3.4334177E2,3.659612E2,4.214976E0,4.3463726E0,3.4195802E0,1.2469124E1,1.4958279E1,4.5057915E1,3.413675E1,3.951243E1,3.4629462E0,1.2797086E0,1.3048449E0,5.4032655E0,2.7971444E0,3.2406826E0,3.0988564E0,4.012738E1,1.7862499E0,1.3740192E1,1.715778E0,2.336753E0],"tree_param":{"num_deleted":"0","num_feature":"86","num_nodes":"103","size_leaf_vector":"1"}},{"base_weights":[-1.0104631E-1,-2.1667401E-1,1.02265505E-2,5.8535904E-1,-2.2368734E-1,-2.22205E-1,4.545348E-2,-5.6055952E-2,1.0455685E0,-3.5963032E-1,-1.8404034E-1,-5.706854E-1,-1.5815805E-1,2.474238E-2,3.5545948E-1,1.2028279E-1,1.77026E-3,-1.5435785E-1,-4.3674484E-1,-5.544651E-2,-2.3136985E-1,-6.62689E-1,6.2319856E-2,-1.8732429E-1,6.4393187E-1,1.6704676E-1,-2.2670219E-2,1.916468E-1,8.1035155E-1,-2.3133664E-1,5.773693E-1,-4.8709825E-1,-2.154603E-2,-1.4949268E-1,3.8657892E-1,-6.216944E-1,-2.0991014E-1,5.722963E-4,-6.941801E-2,-4.6339713E-2,-3.3267274E-1,-2.0712418E-2,1.1558992E-1,-1.881337E-1,2.830248E-1,-2.1947744E-1,4.2090673E-2,-5.366289E-1,2.888188E-1,-5.043759E-2,9.538989E-1,-1.1037177E-2,-6.743004E-2,-5.2670386E-2,1.1865915E-1,-5.1462747E-2,4.1730525E-3,-2.484918E-2,4.330384E-2,-4.056679E-2,-4.4810227E-3,7.7212445E-2,-8.241006E-3,-6.880297E-2,-2.023648E-2,-1.7448284E-2,-4.07203E-2,1.7318118E-2,-3.0594626E-2,-3.6202993E-2,8.033325E-2,6.160302E-3,-3.6667727E-2,6.5120965E-2,2.1029899E-2,-3.6621626E-2,-7.8436425E-3,-9.904451E-3,9.978793E-3,-6.418468E-2,-2.3294527E-3,-1.6382677E-2,4.9353886E-2,1.0612687E-1,7.653969E-3],"categories":[],"categories_nodes":[],"categories_segments":[],"categories_sizes":[],"default_left":[0,0,0,0,0,0,0,0,0,0,0,0,0,0,0,0,0,0,0,0,0,0,0,0,0,0,0,0,0,0,0,0,0,0,0,0,0,0,0,0,0,0,0,0,0,0,0,0,0,0,0,0,0,0,0,0,0,0,0,0,0,0,0,0,0,0,0,0,0,0,0,0,0,0,0,0,0,0,0,0,0,0,0,0,0],"id":11,"left_children":[1,3,5,7,9,11,13,-1,15,17,19,21,23,25,27,-1,-1,29,31,33,35,37,-1,39,41,43,45,47,49,51,53,55,57,59,61,63,65,-1,-1,67,69,-1,-1,71,73,75,77,79,81,-1,83,-1,-1,-1,-1,-1,-1,-1,-1,-1,-1,-1,-1,-1,-1,-1,-1,-1,-1,-1,-1,-1,-1,-1,-1,-1,-1,-1,-1,-1,-1,-1,-1,-1,-1],"loss_changes":[3.8873283E1,8.465019E0,1.2623752E1,7.5052333E0,7.854126E0,4.4387703E0,8.585844E0,0E0,1.5482254E0,5.1683273E0,6.9240646E0,3.8313923E0,4.1631083E0,8.47707E0,6.0859137E0,0E0,0E0,5.308404E0,5.0047684E0,1.2859523E1,6.845318E0,6.223774E-1,0E0,3.4172225E0,2.9793482E0,1.2986786E1,1.2026663E1,4.6055565E0,4.607788E0,4.4179564E0,6.699465E0,3.1354294E0,2.892287E0,6.81067E0,9.882757E0,1.0538445E0,5.457115E0,0E0,0E0,4.9651175E0,3.0361137E0,0E0,0E0,3.495473E0,6.211405E0,4.806039E0,5.7937403E0,4.0381765E-1,5.2827563E0,0E0,1.8084049E0,0E0,0E0,0E0,0E0,0E0,0E0,0E0,0E0,0E0,0E0,0E0,0E0,0E0,0E0,0E0,0E0,0E0,0E0,0E0,0E0,0E0,0E0,0E0,0E0,0E0,0E0,0E0,0E0,0E0,0E0,0E0,0E0,0E0,0E0],"parents":[2147483647,0,0,1,1,2,2,3,3,4,4,5,5,6,6,8,8,9,9,10,10,11,11,12,12,13,13,14,14,17,17,18,18,19,19,20,20,21,21,23,23,24,24,25,25,26,26,27,27,28,28,29,29,30,30,31,31,32,32,33,33,34,34,35,35,36,36,39,39,40,40,43,43,44,44,45,45,46,46,47,47,48,48,50,50],"right_children":[2,4,6,8,10,12,14,-1,16,18,20,22,24,26,28,-1,-1,30,32,34,36,38,-1,40,42,44,46,48,50,52,54,56,58,60,62,64,66,-1,-1,68,70,-1,-1,72,74,76,78,80,82,-1,84,-1,-1,-1,-1,-1,-1,-1,-1,-1,-1,-1,-1,-1,-1,-1,-1,-1,-1,-1,-1,-1,-1,-1,-1,-1,-1,-1,-1,-1,-1,-1,-1,-1,-1],"split_conditions":[2.217E1,1.5215289E3,1.7413743E0,7.940734E0,5.514833E-1,-2.9475014E1,7.951251E1,-5.6055952E-2,2.5842026E3,1.1718624E3,-2.5071885E6,8.049294E-1,1.3972234E4,6.83009E3,3.1773499E3,1.2028279E-1,1.77026E-3,1.2672574E3,7.3167465E1,8.824486E0,1.1608571E1,3.1195552E3,6.2319856E-2,6.785355E-3,1.1003408E0,1.6086315E1,3.0145714E1,7.858437E-2,-6.285495E-2,1.6186596E1,1.781844E-2,1.0245789E4,-9.9546656E5,3.679713E1,8.494853E3,1.2381067E1,8.371543E1,5.722963E-4,-6.941801E-2,1.8636621E0,7.6996813E0,-2.0712418E-2,1.1558992E-1,3.0971153E0,1.5985669E1,7.7411943E3,2.64882E3,5.6206352E1,-6.3330475E1,-5.043759E-2,7.300812E-3,-1.1037177E-2,-6.743004E-2,-5.2670386E-2,1.1865915E-1,-5.1462747E-2,4.1730525E-3,-2.484918E-2,4.330384E-2,-4.056679E-2,-4.4810227E-3,7.7212445E-2,-8.241006E-3,-6.880297E-2,-2.023648E-2,-1.7448284E-2,-4.07203E-2,1.7318118E-2,-3.0594626E-2,-3.6202993E-2,8.033325E-2,6.160302E-3,-3.6667727E-2,6.5120965E-2,2.1029899E-2,-3.6621626E-2,-7.8436425E-3,-9.904451E-3,9.978793E-3,-6.418468E-2,-2.3294527E-3,-1.6382677E-2,4.9353886E-2,1.0612687E-1,7.653969E-3],"split_indices":[29,75,82,24,80,19,83,0,77,76,20,8,61,77,6,0,0,74,19,65,17,61,0,25,82,81,17,7,23,81,7,49,20,70,75,79,15,0,0,2,3,0,0,84,24,53,51,67,68,0,85,0,0,0,0,0,0,0,0,0,0,0,0,0,0,0,0,0,0,0,0,0,0,0,0,0,0,0,0,0,0,0,0,0,0],"split_type":[0,0,0,0,0,0,0,0,0,0,0,0,0,0,0,0,0,0,0,0,0,0,0,0,0,0,0,0,0,0,0,0,0,0,0,0,0,0,0,0,0,0,0,0,0,0,0,0,0,0,0,0,0,0,0,0,0,0,0,0,0,0,0,0,0,0,0,0,0,0,0,0,0,0,0,0,0,0,0,0,0,0,0,0,0],"sum_hessian":[3.020171E3,1.4806383E3,1.5395327E3,1.2120253E1,1.4685181E3,2.0192162E2,1.3376111E3,3.410379E0,8.709873E0,3.2975885E2,1.1387592E3,3.012122E1,1.718004E2,1.2548556E3,8.275548E1,7.406491E0,1.3033829E0,9.0870575E1,2.3888826E2,3.0695007E2,8.3180914E2,2.837918E1,1.7420386E0,1.6651201E2,5.288391E0,3.129732E2,9.418824E2,6.1889534E1,2.086594E1,8.283958E1,8.030998E0,2.1289604E2,2.599223E1,2.5364574E2,5.3304348E1,4.1891228E1,7.899179E2,1.3136969E0,2.7065483E1,8.5194336E1,8.131767E1,2.210033E0,3.078358E0,7.688678E1,2.3608643E2,2.3260643E2,7.0927594E2,6.753273E0,5.513626E1,1.8065332E0,1.9059406E1,6.6051384E1,1.678819E1,2.9038665E0,5.1271324E0,2.0238722E2,1.0508811E1,1.7639359E1,8.352871E0,7.274689E1,1.8089885E2,2.8899963E1,2.4404383E1,3.561619E1,6.2750382E0,6.7126514E2,1.1865275E2,4.6341393E1,3.8852943E1,7.993332E1,1.3843602E0,3.232598E1,4.45608E1,3.7629147E1,1.9845729E2,1.1321806E2,1.1938837E2,2.0560995E2,5.0366602E2,5.396755E0,1.3565179E0,1.7233013E1,3.7903248E1,1.6794504E1,2.264902E0],"tree_param":{"num_deleted":"0","num_feature":"86","num_nodes":"85","size_leaf_vector":"1"}},{"base_weights":[-4.1631863E-1,-4.5020586E-1,-1.5770148E-1,-5.1964444E-1,-3.9053112E-1,-2.3034672E-1,3.126837E-1,-1.36002E-1,-5.271825E-1,-2.969686E-1,-4.3681362E-1,1.3221943E-1,-2.9966542E-1,4.2035627E-1,-5.4982662E-2,2.0578864E-1,-5.344558E-1,-5.4962015E-1,-4.1206285E-1,-3.1781197E-1,3.4841886E-1,7.803076E-2,-4.4041502E-1,-2.9775906E-1,2.9891002E-1,-4.7198242E-1,-1.8823014E-1,-5.7684787E-2,6.902615E-1,-5.648448E-2,7.541778E-1,-6.1569687E-2,5.7884697E-3,-5.5232996E-1,2.9146102E-1,-4.3736857E-1,1.4649817E-1,4.1840896E-1,-3.2990134E-1,-2.167684E-1,8.2271856E-1,-6.431981E-1,-4.1985133E-1,-5.527471E-1,7.731112E-2,4.900629E-1,-3.855783E-1,-1.2319584E-1,-6.2964004E-1,8.86158E-1,-2.2813447E-1,4.5503172E-1,-3.6525974E-1,8.376003E-1,3.1079974E-2,9.867052E-2,9.566417E-3,-5.640315E-2,-3.519055E-2,-3.8062457E-2,7.898285E-2,6.1948793E-3,-4.677131E-2,6.0243316E-2,-5.1335484E-2,1.0000079E-1,-5.0549366E-2,2.4584203E-3,-3.496353E-2,4.9911603E-2,-5.6167424E-2,7.1917134E-3,1.1105064E-1,4.4167567E-2,-6.673239E-2,-1.5502708E-2,-4.3329027E-2,7.1849823E-3,-6.352349E-2,9.390571E-2,2.4455678E-2,-6.0461797E-2,3.7524432E-2,-2.5242552E-2,5.091941E-2,-1.16635375E-2,-6.5932035E-2,1.11512326E-1,6.231495E-3,4.66863E-2,-2.5920227E-2,7.6220505E-2,-4.0211078E-2,2.1739276E-2,-6.1446812E-2,-3.740583E-2,9.316478E-2,5.3350277E-2,-5.1715292E-2],"categories":[],"categories_nodes":[],"categories_segments":[],"categories_sizes":[],"default_left":[0,0,0,0,0,0,0,0,0,0,0,0,0,0,0,0,0,0,0,0,0,0,0,0,0,0,0,0,0,0,0,0,0,0,0,0,0,0,0,0,0,0,0,0,0,0,0,0,0,0,0,0,0,0,0,0,0,0,0,0,0,0,0,0,0,0,0,0,0,0,0,0,0,0,0,0,0,0,0,0,0,0,0,0,0,0,0,0,0,0,0,0,0,0,0,0,0,0,0],"id":12,"left_children":[1,3,5,7,9,11,13,15,17,19,21,23,25,27,-1,29,31,33,35,37,39,-1,41,43,45,47,49,51,53,-1,55,-1,-1,57,59,61,63,65,67,69,71,73,75,77,-1,79,81,83,85,87,89,91,93,95,97,-1,-1,-1,-1,-1,-1,-1,-1,-1,-1,-1,-1,-1,-1,-1,-1,-1,-1,-1,-1,-1,-1,-1,-1,-1,-1,-1,-1,-1,-1,-1,-1,-1,-1,-1,-1,-1,-1,-1,-1,-1,-1,-1,-1],"loss_changes":[2.4111267E1,9.904022E0,1.1048275E1,3.179718E0,5.568161E0,7.047041E0,4.261184E0,3.2440827E0,2.620758E0,6.010769E0,4.1931763E0,3.346189E0,4.4116287E0,5.090647E0,0E0,5.966082E0,5.6035376E-1,2.2566833E0,2.6619873E0,3.9242706E0,3.9845765E0,0E0,3.3839264E0,4.03085E0,4.5391936E0,4.9472923E0,6.3755455E0,2.5394347E0,2.4114408E0,0E0,1.1439538E0,0E0,0E0,1.9518738E0,1.5089474E0,2.6968727E0,2.9311998E0,4.435293E0,2.9402657E0,2.0754244E0,1.6332917E0,2.3571548E0,2.7745056E0,6.2484455E-1,0E0,2.683782E0,1.5297053E0,2.5549066E0,8.776207E-1,9.4182587E-1,3.135953E0,1.9094285E0,1.5799452E0,2.68151E0,1.8248181E0,0E0,0E0,0E0,0E0,0E0,0E0,0E0,0E0,0E0,0E0,0E0,0E0,0E0,0E0,0E0,0E0,0E0,0E0,0E0,0E0,0E0,0E0,0E0,0E0,0E0,0E0,0E0,0E0,0E0,0E0,0E0,0E0,0E0,0E0,0E0,0E0,0E0,0E0,0E0,0E0,0E0,0E0,0E0,0E0],"parents":[2147483647,0,0,1,1,2,2,3,3,4,4,5,5,6,6,7,7,8,8,9,9,10,10,11,11,12,12,13,13,15,15,16,16,17,17,18,18,19,19,20,20,22,22,23,23,24,24,25,25,26,26,27,27,28,28,30,30,33,33,34,34,35,35,36,36,37,37,38,38,39,39,40,40,41,41,42,42,43,43,45,45,46,46,47,47,48,48,49,49,50,50,51,51,52,52,53,53,54,54],"right_children":[2,4,6,8,10,12,14,16,18,20,22,24,26,28,-1,30,32,34,36,38,40,-1,42,44,46,48,50,52,54,-1,56,-1,-1,58,60,62,64,66,68,70,72,74,76,78,-1,80,82,84,86,88,90,92,94,96,98,-1,-1,-1,-1,-1,-1,-1,-1,-1,-1,-1,-1,-1,-1,-1,-1,-1,-1,-1,-1,-1,-1,-1,-1,-1,-1,-1,-1,-1,-1,-1,-1,-1,-1,-1,-1,-1,-1,-1,-1,-1,-1,-1,-1],"split_conditions":[6.758266E3,1.99E1,8.991015E1,1.58789E3,2.5415073E3,2.28032E3,3.325202E3,6.889168E3,3.38265E1,1.4003801E4,2.413163E3,2.5649286E1,-4.3574315E-1,1.3972234E4,-5.4982662E-2,1.1601382E3,6.87744E1,4.976527E-2,1.1828323E4,-5.2792686E1,7.333825E-1,7.803076E-2,2.7986147E1,8.38061E1,4.0605813E-2,-8.482379E-3,-2.2101631E-2,1.0287417E2,4.4233494E-2,-5.648448E-2,5E0,-6.1569687E-2,5.7884697E-3,6.0510725E-1,5.317015E3,-8.116362E0,2.69808E3,8.384334E1,1.7012497E0,-1.524297E-2,4.868344E1,2.43167E3,-3.1374016E1,2.4632926E0,7.731112E-2,-2.6057828E6,7.911439E1,8.3217804E1,3.8671708E0,-1.1003274E1,3.6249676E-1,6.1392475E1,2.11684E3,2.011149E1,1.0795159E2,9.867052E-2,9.566417E-3,-5.640315E-2,-3.519055E-2,-3.8062457E-2,7.898285E-2,6.1948793E-3,-4.677131E-2,6.0243316E-2,-5.1335484E-2,1.0000079E-1,-5.0549366E-2,2.4584203E-3,-3.496353E-2,4.9911603E-2,-5.6167424E-2,7.1917134E-3,1.1105064E-1,4.4167567E-2,-6.673239E-2,-1.5502708E-2,-4.3329027E-2,7.1849823E-3,-6.352349E-2,9.390571E-2,2.4455678E-2,-6.0461797E-2,3.7524432E-2,-2.5242552E-2,5.091941E-2,-1.16635375E-2,-6.5932035E-2,1.11512326E-1,6.231495E-3,4.66863E-2,-2.5920227E-2,7.6220505E-2,-4.0211078E-2,2.1739276E-2,-6.1446812E-2,-3.740583E-2,9.316478E-2,5.3350277E-2,-5.1715292E-2],"split_indices":[74,29,79,58,12,62,9,77,83,77,10,17,85,61,0,74,70,23,76,2,69,0,70,64,25,21,66,24,22,0,27,0,0,85,76,3,4,81,84,22,68,63,65,84,0,20,81,24,84,1,80,0,59,84,24,0,0,0,0,0,0,0,0,0,0,0,0,0,0,0,0,0,0,0,0,0,0,0,0,0,0,0,0,0,0,0,0,0,0,0,0,0,0,0,0,0,0,0,0],"split_type":[0,0,0,0,0,0,0,0,0,0,0,0,0,0,0,0,0,0,0,0,0,0,0,0,0,0,0,0,0,0,0,0,0,0,0,0,0,0,0,0,0,0,0,0,0,0,0,0,0,0,0,0,0,0,0,0,0,0,0,0,0,0,0,0,0,0,0,0,0,0,0,0,0,0,0,0,0,0,0,0,0,0,0,0,0,0,0,0,0,0,0,0,0,0,0,0,0,0,0],"sum_hessian":[2.7583276E3,2.4381147E3,3.2021298E2,1.1233065E3,1.3148082E3,2.7781772E2,4.239526E1,2.2013063E1,1.1012935E3,4.3759763E2,8.772106E2,4.4444862E1,2.3337285E2,3.81459E1,4.249356E0,1.2109315E1,9.903748E0,9.1849756E2,1.8279585E2,4.2439883E2,1.3198768E1,1.9517106E0,8.7525885E2,1.2196831E1,3.224803E1,9.037963E1,1.4299323E2,1.4049134E1,2.4096767E1,5.0220227E0,7.087292E0,8.674576E0,1.2291719E0,9.1589E2,2.6075084E0,1.7508076E2,7.715098E0,6.313414E0,4.1808542E2,6.270115E0,6.9286523E0,7.779796E1,7.974609E2,1.0241929E1,1.9549019E0,2.543031E1,6.817722E0,2.8690016E1,6.1689613E1,4.361327E0,1.386319E2,5.0880756E0,8.961059E0,1.947344E1,4.6233277E0,4.8694587E0,2.2178338E0,8.636526E2,5.2237442E1,1.2108476E0,1.3966608E0,9.970774E0,1.6510999E2,4.614004E0,3.1010938E0,3.8238916E0,2.4895225E0,2.2034227E1,3.960512E2,1.8932953E0,4.3768196E0,2.2662349E0,4.6624174E0,1.3159513E0,7.648201E1,3.9119343E1,7.5834155E2,1.2098588E0,9.03207E0,7.99099E0,1.743932E1,5.453095E0,1.3646271E0,2.4320858E1,4.3691587E0,3.6435177E0,5.8046093E1,3.1361537E0,1.2251732E0,5.331746E0,1.3330014E2,3.8272634E0,1.2608124E0,2.7227943E0,6.238264E0,1.1881828E0,1.8285257E1,2.4264758E0,2.1968522E0],"tree_param":{"num_deleted":"0","num_feature":"86","num_nodes":"99","size_leaf_vector":"1"}},{"base_weights":[4.255757E-1,5.230147E-1,2.1198007E-1,-6.791718E-2,5.3370434E-1,2.5575376E-1,-2.1279378E-1,6.48426E-1,-3.1697285E-1,6.477183E-1,4.7943115E-1,2.6465023E-1,-5.015665E-1,6.8120062E-3,-5.178927E-1,-2.786391E-1,9.746875E-2,-4.0973735E-1,4.8256412E-1,6.278798E-2,6.591395E-1,4.9461216E-1,7.9050004E-2,6.8985164E-1,2.4966186E-1,-6.586357E-2,3.5650495E-2,5.1396954E-1,-1.8022786E-1,-5.57003E-1,2.221442E-2,6.458358E-4,-4.4032913E-2,6.0747374E-2,-6.348722E-1,7.4488476E-2,-1.777518E-4,4.710332E-1,-6.807095E-2,7.377746E-1,5.601162E-1,4.2550945E-1,5.601726E-1,-4.4099104E-1,2.2493145E-1,7.90492E-1,-2.8294206E-1,3.1055287E-1,1.6099371E-1,-3.7996005E-2,4.1545764E-2,7.122312E-1,-5.1095933E-2,4.6630704E-1,-2.6680547E-1,-9.889834E-2,-6.1995256E-1,2.9996771E-2,-5.3897124E-2,-6.978975E-3,-6.833456E-2,-2.0948997E-2,8.365778E-2,4.2557877E-2,7.844058E-2,2.8594011E-2,6.383445E-2,5.1830377E-2,3.0749394E-2,4.1726176E-2,6.069846E-2,-6.503953E-2,7.100984E-2,5.0061088E-2,-6.2493584E-3,-1.0127443E-2,8.931141E-2,-4.3237712E-2,-1.3629806E-3,3.4533367E-2,6.2807923E-4,3.2601338E-2,6.533373E-3,-4.085828E-2,8.598021E-2,1.0114781E-1,-4.6238687E-2,-7.362825E-3,-6.593379E-2,-4.941663E-2,3.7669696E-2,-6.714402E-2,-2.781393E-2],"categories":[],"categories_nodes":[],"categories_segments":[],"categories_sizes":[],"default_left":[0,0,0,0,0,0,0,0,0,0,0,0,0,0,0,0,0,0,0,0,0,0,0,0,0,0,0,0,0,0,0,0,0,0,0,0,0,0,0,0,0,0,0,0,0,0,0,0,0,0,0,0,0,0,0,0,0,0,0,0,0,0,0,0,0,0,0,0,0,0,0,0,0,0,0,0,0,0,0,0,0,0,0,0,0,0,0,0,0,0,0,0,0],"id":13,"left_children":[1,3,5,7,9,11,13,15,17,19,21,23,25,27,29,31,-1,33,35,37,39,41,43,45,47,-1,49,51,53,55,-1,-1,-1,57,59,-1,-1,61,-1,63,65,67,69,71,73,75,77,79,81,-1,-1,83,-1,85,87,89,91,-1,-1,-1,-1,-1,-1,-1,-1,-1,-1,-1,-1,-1,-1,-1,-1,-1,-1,-1,-1,-1,-1,-1,-1,-1,-1,-1,-1,-1,-1,-1,-1,-1,-1,-1,-1],"loss_changes":[6.955426E1,1.4552124E1,1.9583439E1,7.648304E0,1.3657043E1,6.551014E0,6.614461E0,3.626133E0,2.5434349E0,4.802887E0,9.279541E0,5.8325806E0,9.8594E-1,5.628541E0,1.3193407E0,1.7177996E-1,0E0,3.0975633E0,4.7740787E-1,4.871364E0,5.1241455E0,6.4527893E0,4.4384317E0,3.3090658E0,4.872364E0,0E0,7.1493113E-1,3.6118598E0,2.5523996E0,1.0783577E0,0E0,0E0,0E0,1.6335443E0,4.8973465E-1,0E0,0E0,2.7298965E0,0E0,5.3906555E0,6.657631E0,7.7605133E0,4.795807E0,3.5635402E0,3.6230702E0,2.7282715E0,1.4265507E-1,5.706608E0,5.8709536E0,0E0,0E0,2.6355715E0,0E0,3.2454703E0,2.9003763E0,1.3073735E0,4.214058E-1,0E0,0E0,0E0,0E0,0E0,0E0,0E0,0E0,0E0,0E0,0E0,0E0,0E0,0E0,0E0,0E0,0E0,0E0,0E0,0E0,0E0,0E0,0E0,0E0,0E0,0E0,0E0,0E0,0E0,0E0,0E0,0E0,0E0,0E0,0E0,0E0],"parents":[2147483647,0,0,1,1,2,2,3,3,4,4,5,5,6,6,7,7,8,8,9,9,10,10,11,11,12,12,13,13,14,14,15,15,17,17,18,18,19,19,20,20,21,21,22,22,23,23,24,24,26,26,27,27,28,28,29,29,33,33,34,34,37,37,39,39,40,40,41,41,42,42,43,43,44,44,45,45,46,46,47,47,48,48,51,51,53,53,54,54,55,55,56,56],"right_children":[2,4,6,8,10,12,14,16,18,20,22,24,26,28,30,32,-1,34,36,38,40,42,44,46,48,-1,50,52,54,56,-1,-1,-1,58,60,-1,-1,62,-1,64,66,68,70,72,74,76,78,80,82,-1,-1,84,-1,86,88,90,92,-1,-1,-1,-1,-1,-1,-1,-1,-1,-1,-1,-1,-1,-1,-1,-1,-1,-1,-1,-1,-1,-1,-1,-1,-1,-1,-1,-1,-1,-1,-1,-1,-1,-1,-1,-1],"split_conditions":[3.005E1,1.548589E3,6.800048E1,-2.6726622E6,1.383E1,4.571626E-2,7.182244E3,3.1829823E1,1E0,1.07891E3,6.326434E1,1.2191322E1,5.7930004E1,1.816114E1,3.8140183E3,1.3203551E-1,9.746875E-2,2.71E0,-1.2066505E0,5.0432217E1,2.6601715E-2,-1.1985465E6,2.3892637E3,7.0121423E2,1.0035536E0,-6.586357E-2,1.7725183E1,9.180873E1,-2.1404067E-2,2.5905535E0,2.221442E-2,6.458358E-4,-4.4032913E-2,9.01E0,1.01E0,7.4488476E-2,-1.777518E-4,7.5344116E2,-6.807095E-2,-5.117825E0,3.5408083E3,2.4895714E1,1.7372253E3,7.4899673E-1,9.30232E3,9.0809184E-1,2.504316E3,3.1793393E2,3.0790714E1,-3.7996005E-2,4.1545764E-2,2.1849578E3,-5.1095933E-2,1.8673029E1,3.365E3,1.9380975E4,3.647194E4,2.9996771E-2,-5.3897124E-2,-6.978975E-3,-6.833456E-2,-2.0948997E-2,8.365778E-2,4.2557877E-2,7.844058E-2,2.8594011E-2,6.383445E-2,5.1830377E-2,3.0749394E-2,4.1726176E-2,6.069846E-2,-6.503953E-2,7.100984E-2,5.0061088E-2,-6.2493584E-3,-1.0127443E-2,8.931141E-2,-4.3237712E-2,-1.3629806E-3,3.4533367E-2,6.2807923E-4,3.2601338E-2,6.533373E-3,-4.085828E-2,8.598021E-2,1.0114781E-1,-4.6238687E-2,-7.362825E-3,-6.593379E-2,-4.941663E-2,3.7669696E-2,-6.714402E-2,-2.781393E-2],"split_indices":[29,6,83,20,29,25,74,16,41,57,83,81,83,84,4,8,0,28,1,70,7,20,76,19,3,0,15,16,22,80,0,0,0,27,27,0,0,76,0,1,61,17,76,72,45,82,45,19,17,0,0,14,0,16,46,45,74,0,0,0,0,0,0,0,0,0,0,0,0,0,0,0,0,0,0,0,0,0,0,0,0,0,0,0,0,0,0,0,0,0,0,0,0],"split_type":[0,0,0,0,0,0,0,0,0,0,0,0,0,0,0,0,0,0,0,0,0,0,0,0,0,0,0,0,0,0,0,0,0,0,0,0,0,0,0,0,0,0,0,0,0,0,0,0,0,0,0,0,0,0,0,0,0,0,0,0,0,0,0,0,0,0,0,0,0,0,0,0,0,0,0,0,0,0,0,0,0,0,0,0,0,0,0,0,0,0,0,0,0],"sum_hessian":[3.3462612E3,2.29697E3,1.049291E3,4.0717384E1,2.2562527E3,9.516226E2,9.7668434E1,1.0090673E1,3.0626709E1,7.2412286E2,1.5321299E3,9.412164E2,1.0406214E1,5.7359543E1,4.0308895E1,2.6647644E0,7.425909E0,2.7879576E1,2.7471342E0,1.3992714E1,7.101301E2,1.4759325E3,5.619735E1,3.0515081E1,9.107013E2,7.877121E0,2.5290923E0,1.4983623E1,4.237592E1,3.8520454E1,1.7884429E0,1.3118038E0,1.3529605E0,9.259445E0,1.862013E1,1.4330554E0,1.3140787E0,9.269442E0,4.7232723E0,3.9221722E2,3.179129E2,7.222012E2,7.537313E2,1.1867809E1,4.432954E1,2.7823954E1,2.691128E0,5.384379E2,3.7226334E2,1.207434E0,1.3216584E0,1.2810632E1,2.17299E0,4.486455E0,3.7889465E1,4.9643435E0,3.355611E1,6.976446E0,2.282999E0,1.6638155E0,1.6956314E1,3.3883548E0,5.881087E0,5.2286358E1,3.3993088E2,7.160518E1,2.4630771E2,4.0240384E2,3.1979733E2,1.8842079E2,5.6531055E2,1.0409165E1,1.4586437E0,2.2248507E1,2.2081034E1,2.8728201E0,2.4951134E1,1.3413551E0,1.3497729E0,4.8308267E2,5.535529E1,1.3572348E2,2.3653986E2,1.2846762E0,1.1525956E1,2.7707825E0,1.7156725E0,2.6188747E1,1.1700716E1,2.6897993E0,2.2745442E0,2.8325123E1,5.2309856E0],"tree_param":{"num_deleted":"0","num_feature":"86","num_nodes":"93","size_leaf_vector":"1"}},{"base_weights":[-9.207936E-2,-2.012312E-1,1.1606284E-2,5.5909824E-1,-2.0803455E-1,-2.0860623E-1,4.45599E-2,-5.4300576E-2,9.8067695E-1,-4.4920662E-1,-1.8648477E-1,-5.523826E-1,-1.4653659E-1,2.5354067E-2,3.2960212E-1,1.1238643E-1,1.8849708E-3,8.234908E-2,-4.71178E-1,-1.9257222E-1,4.7293863E-1,-6.451914E-1,6.0006697E-2,-1.7487508E-1,6.121492E-1,1.613607E-1,-2.0181106E-2,1.7856798E-1,7.438289E-1,-4.926007E-1,4.640622E-2,-4.021963E-1,-1.7425834E-1,8.5047525E-1,-5.4208416E-2,1.2251665E-3,-6.770986E-2,-2.4849719E-1,9.4332136E-2,-1.9625025E-2,1.0788889E-1,-2.3809104E-1,2.5199208E-1,-2.0765865E-1,4.0853947E-2,-5.2294856E-1,2.701921E-1,-4.9346965E-2,8.753742E-1,4.818916E-3,-5.260182E-2,4.914301E-2,-4.385485E-2,-5.218765E-3,-2.130269E-2,1.1098727E-1,-4.2454943E-2,-2.4032386E-3,-3.8820352E-2,7.394675E-2,-1.4654371E-2,1.2180289E-2,-4.5775995E-2,7.949755E-2,2.0722829E-2,5.1261316E-4,-3.0223856E-2,2.351069E-3,4.8448138E-2,-6.2665485E-2,-2.3418611E-3,-4.2556237E-2,3.9023187E-2,1.3951674E-2,9.877213E-2],"categories":[],"categories_nodes":[],"categories_segments":[],"categories_sizes":[],"default_left":[0,0,0,0,0,0,0,0,0,0,0,0,0,0,0,0,0,0,0,0,0,0,0,0,0,0,0,0,0,0,0,0,0,0,0,0,0,0,0,0,0,0,0,0,0,0,0,0,0,0,0,0,0,0,0,0,0,0,0,0,0,0,0,0,0,0,0,0,0,0,0,0,0,0,0],"id":14,"left_children":[1,3,5,7,9,11,13,-1,15,17,19,21,23,25,27,-1,-1,-1,29,31,33,35,-1,37,39,41,43,45,47,49,-1,51,53,55,-1,-1,-1,57,59,-1,-1,61,63,65,67,69,71,-1,73,-1,-1,-1,-1,-1,-1,-1,-1,-1,-1,-1,-1,-1,-1,-1,-1,-1,-1,-1,-1,-1,-1,-1,-1,-1,-1],"loss_changes":[3.389522E1,7.663227E0,1.1161331E1,6.670227E0,7.435322E0,4.1911774E0,7.314076E0,0E0,1.3438339E0,3.6865292E0,5.4291573E0,3.6235886E0,3.7825246E0,7.770677E0,5.144368E0,0E0,0E0,0E0,2.564621E0,4.9910774E0,5.2331448E0,6.058464E-1,0E0,3.3050647E0,2.618115E0,1.1452953E1,1.077047E1,4.198949E0,4.0488605E0,2.0940094E0,0E0,3.6316376E0,5.735016E0,3.602024E0,0E0,0E0,0E0,4.076541E0,5.7464576E0,0E0,0E0,4.697336E0,6.081566E0,4.6535873E0,5.4540467E0,3.8076496E-1,4.884465E0,0E0,1.5525837E0,0E0,0E0,0E0,0E0,0E0,0E0,0E0,0E0,0E0,0E0,0E0,0E0,0E0,0E0,0E0,0E0,0E0,0E0,0E0,0E0,0E0,0E0,0E0,0E0,0E0,0E0],"parents":[2147483647,0,0,1,1,2,2,3,3,4,4,5,5,6,6,8,8,9,9,10,10,11,11,12,12,13,13,14,14,18,18,19,19,20,20,21,21,23,23,24,24,25,25,26,26,27,27,28,28,29,29,31,31,32,32,33,33,37,37,38,38,41,41,42,42,43,43,44,44,45,45,46,46,48,48],"right_children":[2,4,6,8,10,12,14,-1,16,18,20,22,24,26,28,-1,-1,-1,30,32,34,36,-1,38,40,42,44,46,48,50,-1,52,54,56,-1,-1,-1,58,60,-1,-1,62,64,66,68,70,72,-1,74,-1,-1,-1,-1,-1,-1,-1,-1,-1,-1,-1,-1,-1,-1,-1,-1,-1,-1,-1,-1,-1,-1,-1,-1,-1,-1],"split_conditions":[2.217E1,1.5215289E3,1.7413743E0,7.940734E0,2.4768706E-1,-2.9475014E1,7.951251E1,-5.4300576E-2,2.5842026E3,2.7782026E1,8.147912E1,8.049294E-1,1.3972234E4,6.83009E3,3.1773499E3,1.1238643E-1,1.8849708E-3,8.234908E-2,1.079E1,1.1872143E1,9.403799E3,1.7379205E3,6.0006697E-2,3.28924E3,1.1003408E0,1.4934252E1,3.0145714E1,7.858437E-2,-6.285495E-2,-6.6897166E-1,4.640622E-2,9.5165375E2,3.7422952E3,7.3E0,-5.4208416E-2,1.2251665E-3,-6.770986E-2,2.49288E3,2.1595006E0,-1.9625025E-2,1.0788889E-1,2.46054E3,8.2374084E-1,-3.1816953E-1,3.9098318E3,5.6206352E1,-2.5582155E6,-4.9346965E-2,1.3905215E1,4.818916E-3,-5.260182E-2,4.914301E-2,-4.385485E-2,-5.218765E-3,-2.130269E-2,1.1098727E-1,-4.2454943E-2,-2.4032386E-3,-3.8820352E-2,7.394675E-2,-1.4654371E-2,1.2180289E-2,-4.5775995E-2,7.949755E-2,2.0722829E-2,5.1261316E-4,-3.0223856E-2,2.351069E-3,4.8448138E-2,-6.2665485E-2,-2.3418611E-3,-4.2556237E-2,3.9023187E-2,1.3951674E-2,9.877213E-2],"split_indices":[29,75,82,24,80,19,83,0,77,0,81,8,61,77,6,0,0,0,28,17,76,45,0,62,82,81,17,7,23,85,0,49,61,27,0,0,0,60,84,0,0,9,34,85,12,67,20,0,16,0,0,0,0,0,0,0,0,0,0,0,0,0,0,0,0,0,0,0,0,0,0,0,0,0,0],"split_type":[0,0,0,0,0,0,0,0,0,0,0,0,0,0,0,0,0,0,0,0,0,0,0,0,0,0,0,0,0,0,0,0,0,0,0,0,0,0,0,0,0,0,0,0,0,0,0,0,0,0,0,0,0,0,0,0,0,0,0,0,0,0,0,0,0,0,0,0,0,0,0,0,0,0,0],"sum_hessian":[2.993738E3,1.4579673E3,1.5357708E3,1.2210079E1,1.4457572E3,1.9921127E2,1.3365596E3,3.2986407E0,8.911438E0,1.1696052E2,1.3287968E3,2.9259027E1,1.6995226E2,1.2532086E3,8.3350876E1,7.6100593E0,1.301379E0,1.365804E0,1.1559471E2,1.3173436E3,1.1453062E1,2.748571E1,1.7733164E0,1.6457455E2,5.377699E0,3.1369772E2,9.395109E2,6.2128757E1,2.1222116E1,1.1346887E2,2.1258423E0,1.0415903E2,1.2131846E3,8.466186E0,2.9868762E0,1.3007162E0,2.6184994E1,1.292928E2,3.5281746E1,2.1805267E0,3.197172E0,5.7711426E1,2.559863E2,2.3015524E2,7.0935565E2,6.6333346E0,5.5495426E1,1.7750353E0,1.944708E1,6.57789E0,1.0689098E2,3.58216E0,1.00576866E2,2.9299048E2,9.2019415E2,7.1425896E0,1.3235959E0,5.0049984E1,7.924282E1,9.02915E0,2.6252594E1,2.2042944E1,3.566848E1,1.821991E1,2.3776639E2,7.111265E1,1.5904259E2,6.836807E2,2.5674952E1,5.2822165E0,1.3511177E0,7.7913475E0,4.770408E1,2.8727584E0,1.6574324E1],"tree_param":{"num_deleted":"0","num_feature":"86","num_nodes":"75","size_leaf_vector":"1"}},{"base_weights":[-3.9756846E-1,-4.3093082E-1,-1.4737928E-1,-5.0238204E-1,-3.7323555E-1,-2.1320532E-1,3.2048517E-1,-1.0870803E-1,-5.1022273E-1,-2.7790368E-1,-4.2101413E-1,3.9093494E-2,-2.9527947E-1,6.186931E-2,7.9730356E-1,2.2759418E-1,-5.138139E-1,-5.292285E-1,-3.7584063E-1,-3.3021826E-1,-2.4967045E-2,7.6116875E-2,-4.2456302E-1,-2.8024293E-2,8.190909E-1,-4.969107E-1,-2.1319422E-1,8.9886256E-2,-1.970323E-1,1.848065E-2,8.7703717E-1,-5.420441E-2,7.1476865E-1,-6.003021E-2,7.8578405E-3,-5.3210646E-1,4.779438E-2,-4.1140467E-1,1.2140704E-1,-4.0812477E-1,-1.9242819E-1,6.9581024E-2,-4.9142256E-1,-6.2904567E-1,-4.0383416E-1,-1.1705243E-1,5.825219E-1,1.06000386E-1,1.8393118E-3,-5.375649E-1,2.9046074E-1,-1.1404596E-1,-4.8889807E-1,-4.1363075E-1,3.9027786E-1,9.359136E-2,2.7296914E-2,9.339896E-2,8.896683E-3,-5.3713787E-2,-8.031036E-3,-5.355177E-2,-2.5017126E-2,-3.6823567E-2,6.401285E-2,-4.2232674E-2,6.487809E-2,2.929687E-2,-2.6078714E-2,-1.7013833E-2,3.3897962E-2,4.0684026E-2,-6.299614E-2,4.290245E-2,-6.529678E-2,-4.3143608E-2,-2.699151E-2,-1.8470412E-2,6.991362E-2,8.9749426E-2,-4.393768E-2,-1.2648024E-2,-6.109577E-2,-3.710368E-2,7.6861985E-2,-2.7929729E-2,1.7808745E-2,-1.0756622E-2,-5.6645025E-2,4.7202345E-2,-6.356845E-2,-2.3319704E-2,7.9837985E-2],"categories":[],"categories_nodes":[],"categories_segments":[],"categories_sizes":[],"default_left":[0,0,0,0,0,0,0,0,0,0,0,0,0,0,0,0,0,0,0,0,0,0,0,0,0,0,0,0,0,0,0,0,0,0,0,0,0,0,0,0,0,0,0,0,0,0,0,0,0,0,0,0,0,0,0,0,0,0,0,0,0,0,0,0,0,0,0,0,0,0,0,0,0,0,0,0,0,0,0,0,0,0,0,0,0,0,0,0,0,0,0,0,0],"id":15,"left_children":[1,3,5,7,9,11,13,15,17,19,21,23,25,27,29,31,33,35,37,39,41,-1,43,45,47,49,51,-1,53,-1,55,-1,57,-1,-1,59,-1,61,63,65,67,69,71,73,75,77,79,-1,-1,81,83,85,87,89,91,-1,-1,-1,-1,-1,-1,-1,-1,-1,-1,-1,-1,-1,-1,-1,-1,-1,-1,-1,-1,-1,-1,-1,-1,-1,-1,-1,-1,-1,-1,-1,-1,-1,-1,-1,-1,-1,-1],"loss_changes":[2.227237E1,9.543732E0,9.811743E0,3.1907349E0,5.8493347E0,5.767068E0,4.8117585E0,3.087998E0,2.4339905E0,5.8174133E0,3.9758759E0,3.6408389E0,3.3671227E0,5.9505196E0,5.107994E-1,5.1150985E0,5.6971574E-1,2.865036E0,2.369793E0,3.836712E0,3.4095623E0,0E0,3.4279938E0,3.579503E0,1.0430887E0,2.0754528E0,4.068649E0,0E0,2.8542929E0,0E0,1.6861343E-1,0E0,1.0353513E0,0E0,0E0,1.999527E0,0E0,2.3204803E0,2.655787E0,3.7578545E0,4.510283E0,4.2238607E0,1.8768947E0,2.2584858E0,2.809311E0,3.2881036E0,3.0942423E0,0E0,0E0,1.6535206E0,1.4216901E0,5.4699593E0,1.1102705E0,3.4369388E0,1.768297E0,0E0,0E0,0E0,0E0,0E0,0E0,0E0,0E0,0E0,0E0,0E0,0E0,0E0,0E0,0E0,0E0,0E0,0E0,0E0,0E0,0E0,0E0,0E0,0E0,0E0,0E0,0E0,0E0,0E0,0E0,0E0,0E0,0E0,0E0,0E0,0E0,0E0,0E0],"parents":[2147483647,0,0,1,1,2,2,3,3,4,4,5,5,6,6,7,7,8,8,9,9,10,10,11,11,12,12,13,13,14,14,15,15,16,16,17,17,18,18,19,19,20,20,22,22,23,23,24,24,25,25,26,26,28,28,30,30,32,32,35,35,37,37,38,38,39,39,40,40,41,41,42,42,43,43,44,44,45,45,46,46,49,49,50,50,51,51,52,52,53,53,54,54],"right_children":[2,4,6,8,10,12,14,16,18,20,22,24,26,28,30,32,34,36,38,40,42,-1,44,46,48,50,52,-1,54,-1,56,-1,58,-1,-1,60,-1,62,64,66,68,70,72,74,76,78,80,-1,-1,82,84,86,88,90,92,-1,-1,-1,-1,-1,-1,-1,-1,-1,-1,-1,-1,-1,-1,-1,-1,-1,-1,-1,-1,-1,-1,-1,-1,-1,-1,-1,-1,-1,-1,-1,-1,-1,-1,-1,-1,-1,-1],"split_conditions":[6.758266E3,1.959E1,8.708201E1,1.58789E3,2.5415073E3,2.3503655E3,4.8698254E4,6.889168E3,3.6597797E1,1.0344294E4,2.413163E3,2.416258E3,3.248E1,-2.576712E6,2.26406E3,1.1424362E3,1.859E1,1.12232886E-1,3.174171E1,6.85412E-1,1.161562E4,7.6116875E-2,2.7986147E1,8.295404E1,2.5998694E3,2.1E1,3.37481E3,8.9886256E-2,5.604E1,1.848065E-2,2.2697989E-2,-5.420441E-2,2.6988655E3,-6.003021E-2,7.8578405E-3,1.28164375E4,4.779438E-2,4.636405E-4,5.21E0,1.9989207E4,5.753208E1,4.676363E1,1.5542434E3,2.43167E3,1.503E1,1.079E2,6.1225517E1,1.06000386E-1,1.8393118E-3,2.6432478E0,2.4184016E3,3.125363E3,-1.3185304E-2,5.42E0,1.78573E4,9.359136E-2,2.7296914E-2,9.339896E-2,8.896683E-3,-5.3713787E-2,-8.031036E-3,-5.355177E-2,-2.5017126E-2,-3.6823567E-2,6.401285E-2,-4.2232674E-2,6.487809E-2,2.929687E-2,-2.6078714E-2,-1.7013833E-2,3.3897962E-2,4.0684026E-2,-6.299614E-2,4.290245E-2,-6.529678E-2,-4.3143608E-2,-2.699151E-2,-1.8470412E-2,6.991362E-2,8.9749426E-2,-4.393768E-2,-1.2648024E-2,-6.109577E-2,-3.710368E-2,7.6861985E-2,-2.7929729E-2,1.7808745E-2,-1.0756622E-2,-5.6645025E-2,4.7202345E-2,-6.356845E-2,-2.3319704E-2,7.9837985E-2],"split_indices":[74,29,81,58,12,6,57,77,83,77,10,10,29,20,63,74,29,7,19,69,78,0,70,64,4,28,46,0,26,0,21,0,76,0,0,73,0,21,27,45,16,83,13,63,27,29,1,0,0,82,6,5,21,26,61,0,0,0,0,0,0,0,0,0,0,0,0,0,0,0,0,0,0,0,0,0,0,0,0,0,0,0,0,0,0,0,0,0,0,0,0,0,0],"split_type":[0,0,0,0,0,0,0,0,0,0,0,0,0,0,0,0,0,0,0,0,0,0,0,0,0,0,0,0,0,0,0,0,0,0,0,0,0,0,0,0,0,0,0,0,0,0,0,0,0,0,0,0,0,0,0,0,0,0,0,0,0,0,0,0,0,0,0,0,0,0,0,0,0,0,0,0,0,0,0,0,0,0,0,0,0,0,0,0,0,0,0,0,0],"sum_hessian":[2.6749468E3,2.3595781E3,3.153686E2,1.0506813E3,1.3088969E3,2.769478E2,3.842078E1,2.080784E1,1.0298734E3,4.3926144E2,8.6963544E2,6.810729E1,2.0884053E2,2.5642567E1,1.2778213E1,1.1608843E1,9.1989975E0,8.996911E2,1.3018233E2,3.6372675E2,7.553468E1,1.9638724E0,8.676716E2,6.3598774E1,4.5085225E0,5.895992E1,1.4988062E2,5.4740114E0,2.0168554E1,