{"learner":{"attributes":{"scikit_learn":"{\"_estimator_type\": \"classifier\"}"},"feature_names":[],"feature_types":[],"gradient_booster":{"model":{"gbtree_model_param":{"num_parallel_tree":"1","num_trees":"100"},"iteration_indptr":[0,1,2,3,4,5,6,7,8,9,10,11,12,13,14,15,16,17,18,19,20,21,22,23,24,25,26,27,28,29,30,31,32,33,34,35,36,37,38,39,40,41,42,43,44,45,46,47,48,49,50,51,52,53,54,55,56,57,58,59,60,61,62,63,64,65,66,67,68,69,70,71,72,73,74,75,76,77,78,79,80,81,82,83,84,85,86,87,88,89,90,91,92,93,94,95,96,97,98,99,100],"tree_info":[0,0,0,0,0,0,0,0,0,0,0,0,0,0,0,0,0,0,0,0,0,0,0,0,0,0,0,0,0,0,0,0,0,0,0,0,0,0,0,0,0,0,0,0,0,0,0,0,0,0,0,0,0,0,0,0,0,0,0,0,0,0,0,0,0,0,0,0,0,0,0,0,0,0,0,0,0,0,0,0,0,0,0,0,0,0,0,0,0,0,0,0,0,0,0,0,0,0,0,0],"trees":[{"base_weights":[9.511041E-3,-2.4517175E-2,1.158177E0,9.467676E-1,-6.716901E-2,1.2702162E0,-1.1175287E-2,-1.2625546E0,1.1598281E0,7.944562E-3,-3.9174893E-1,2.3851823E-2,1.3096855E0,2.3851823E-2,-1.9962859E-1,-1.426133E-1,1.3120161E0,-9.207799E-2,5.978465E-1,-2.0732028E0,-3.0229452E-1,1.3532329E-1,2.3851823E-2,1.3755679E-1,-2.504587E-2,-9.041481E-3,-9.095579E-1,1.2031213E0,1.6921465E-1,-2.6098034E-1,3.3659122E-3,-2.1372542E0,-2.1891163E-1,-1.3097695E-2,6.4159125E-2,-1.3440256E-1,3.1868886E-2,1.3011183E-1,-3.3150878E-2,-1.0030023E-1,6.0684748E-2,-2.62261E-1,-3.723299E-2,-1.1170291E-1,-2.8357934E-3],"categories":[],"categories_nodes":[],"categories_segments":[],"categories_sizes":[],"default_left":[0,0,0,0,0,0,0,0,0,0,0,0,0,0,0,0,0,0,0,0,0,0,0,0,0,0,0,0,0,0,0,0,0,0,0,0,0,0,0,0,0,0,0,0,0],"id":0,"left_children":[1,3,5,7,9,11,-1,13,15,17,19,-1,21,-1,-1,-1,23,25,27,29,31,-1,-1,-1,-1,33,35,37,39,-1,-1,41,43,-1,-1,-1,-1,-1,-1,-1,-1,-1,-1,-1,-1],"loss_changes":[3.2877678E1,3.3918316E1,3.5853004E0,1.7677216E1,1.9111696E1,5.9648895E-1,0E0,4.3400345E0,1.443903E1,3.766728E1,2.1531004E1,0E0,6.696167E-1,0E0,0E0,0E0,3.3910332E0,3.704838E1,2.380748E1,8.307482E0,2.1112091E1,0E0,0E0,0E0,0E0,3.9480305E1,2.7285076E1,6.176956E0,2.9000425E1,0E0,0E0,4.1772842E0,2.3247614E1,0E0,0E0,0E0,0E0,0E0,0E0,0E0,0E0,0E0,0E0,0E0,0E0],"parents":[2147483647,0,0,1,1,2,2,3,3,4,4,5,5,7,7,8,8,9,9,10,10,12,12,16,16,17,17,18,18,19,19,20,20,25,25,26,26,27,27,28,28,31,31,32,32],"right_children":[2,4,6,8,10,12,-1,14,16,18,20,-1,22,-1,-1,-1,24,26,28,30,32,-1,-1,-1,-1,34,36,38,40,-1,-1,42,44,-1,-1,-1,-1,-1,-1,-1,-1,-1,-1,-1,-1],"split_conditions":[1.3125331E3,-7.569087E2,1.7808512E4,-1.599504E3,6.372401E4,1.9786543E3,-1.1175287E-2,3.3389556E3,2.125138E4,5.1156E4,1.2667943E3,2.3851823E-2,2.308654E4,2.3851823E-2,-1.9962859E-1,-1.426133E-1,6.979078E1,4.2849E4,5.9132E4,6.778947E4,-1.1086859E3,1.3532329E-1,2.3851823E-2,1.3755679E-1,-2.504587E-2,3.055774E4,6.879908E1,6.325025E1,-4.0376776E2,-2.6098034E-1,3.3659122E-3,4.2108267E3,-3.9604532E2,-1.3097695E-2,6.4159125E-2,-1.3440256E-1,3.1868886E-2,1.3011183E-1,-3.3150878E-2,-1.0030023E-1,6.0684748E-2,-2.62261E-1,-3.723299E-2,-1.1170291E-1,-2.8357934E-3],"split_indices":[118,189,196,133,185,1,0,36,5,0,231,0,91,0,0,0,27,240,45,0,9,0,0,0,0,20,207,87,94,0,0,171,229,0,0,0,0,0,0,0,0,0,0,0,0],"split_type":[0,0,0,0,0,0,0,0,0,0,0,0,0,0,0,0,0,0,0,0,0,0,0,0,0,0,0,0,0,0,0,0,0,0,0,0,0,0,0,0,0,0,0,0,0],"sum_hessian":[8.394133E2,8.162124E2,2.3200916E1,3.344276E1,7.8276965E2,2.1319761E1,1.8811554E0,2.508207E0,3.0934555E1,6.364576E2,1.4631209E2,1.0450863E0,2.0274673E1,1.0450863E0,1.4631208E0,1.2541035E0,2.968045E1,5.44908E2,9.154956E1,6.270518E0,1.4004156E2,1.9229588E1,1.0450863E0,2.8635365E1,1.0450863E0,4.9557993E2,4.9328075E1,3.7205074E1,5.4344486E1,4.807397E0,1.4631208E0,5.016414E0,1.3502515E2,4.1803452E2,7.75454E1,3.6369003E1,1.295907E1,3.51149E1,2.0901725E0,1.4422191E1,3.99223E1,3.5532935E0,1.4631208E0,2.278288E1,1.1224227E2],"tree_param":{"num_deleted":"0","num_feature":"250","num_nodes":"45","size_leaf_vector":"1"}},{"base_weights":[-4.7861137E-3,-3.9695106E-2,1.1010851E0,8.6208755E-1,-7.745294E-2,1.2037196E0,-3.6551174E-2,-1.7501393E-1,1.0245005E0,4.014755E-1,-1.277679E-1,4.6018085E-1,1.2717925E0,1.1388304E0,-1.1629287E-1,8.0745023E-1,-3.4730813E-1,-5.92847E-1,-5.7568472E-2,-2.6754398E-2,8.5076265E-2,2.0225143E-2,1.3137634E-1,1.230827E0,-7.906594E-2,-6.301808E-1,9.8526925E-1,-7.4013686E-1,1.1775275E-1,3.5750806E-1,-8.5513484E-1,7.877529E-1,-1.05686024E-1,1.3272318E-1,-2.6623895E-2,-1.4322089E-1,9.011551E-2,-4.633707E-2,1.09906785E-1,9.534986E-4,-1.41377E-1,8.4962E-2,-1.152012E-1,-9.9827655E-2,7.5211644E-2,1.0636026E-1,-7.81362E-2,-5.5954E-3,-8.320868E-2],"categories":[],"categories_nodes":[],"categories_segments":[],"categories_sizes":[],"default_left":[0,0,0,0,0,0,0,0,0,0,0,0,0,0,0,0,0,0,0,0,0,0,0,0,0,0,0,0,0,0,0,0,0,0,0,0,0,0,0,0,0,0,0,0,0,0,0,0,0],"id":1,"left_children":[1,3,5,7,9,11,-1,-1,13,15,17,19,21,23,-1,25,27,29,31,-1,-1,-1,-1,33,-1,35,37,39,-1,41,43,45,47,-1,-1,-1,-1,-1,-1,-1,-1,-1,-1,-1,-1,-1,-1,-1,-1],"loss_changes":[3.2827744E1,2.813022E1,4.356867E0,1.5880539E1,1.9136183E1,6.574745E-1,0E0,0E0,9.300228E0,2.32424E1,2.3389647E1,1.2583492E0,7.185631E-1,6.4427147E0,0E0,1.3218948E1,1.7197363E1,2.3732773E1,2.5483604E1,0E0,0E0,0E0,0E0,4.654518E0,0E0,8.701984E0,7.803425E0,1.1268026E1,0E0,1.660348E1,1.7764229E1,1.5439543E1,2.1329681E1,0E0,0E0,0E0,0E0,0E0,0E0,0E0,0E0,0E0,0E0,0E0,0E0,0E0,0E0,0E0,0E0],"parents":[2147483647,0,0,1,1,2,2,3,3,4,4,5,5,8,8,9,9,10,10,11,11,12,12,13,13,15,15,16,16,17,17,18,18,23,23,25,25,26,26,27,27,29,29,30,30,31,31,32,32],"right_children":[2,4,6,8,10,12,-1,-1,14,16,18,20,22,24,-1,26,28,30,32,-1,-1,-1,-1,34,-1,36,38,40,-1,42,44,46,48,-1,-1,-1,-1,-1,-1,-1,-1,-1,-1,-1,-1,-1,-1,-1,-1],"split_conditions":[1.2551456E3,-7.569087E2,1.7808512E4,3.2904408E1,3.5002884E1,3.6179727E3,-3.6551174E-2,-1.7501393E-1,8.7957914E4,-5.5371265E1,-2.416313E2,6.3002E4,5.7143063E1,3.4584332E2,-1.1629287E-1,2.4325908E3,4.1003314E2,3.0227888E1,-1.8603842E2,-2.6754398E-2,8.5076265E-2,2.0225143E-2,1.3137634E-1,4.991297E2,-7.906594E-2,3.1856733E3,-8.9404486E2,-1.7132936E0,1.1775275E-1,5.83122E1,5.953126E1,4.0982816E4,7.000201E4,1.3272318E-1,-2.6623895E-2,-1.4322089E-1,9.011551E-2,-4.633707E-2,1.09906785E-1,9.534986E-4,-1.41377E-1,8.4962E-2,-1.152012E-1,-9.9827655E-2,7.5211644E-2,1.0636026E-1,-7.81362E-2,-5.5954E-3,-8.320868E-2],"split_indices":[118,184,196,7,247,76,0,0,171,208,224,0,97,113,0,76,98,187,203,0,0,0,0,243,0,116,228,4,0,62,247,61,245,0,0,0,0,0,0,0,0,0,0,0,0,0,0,0,0],"split_type":[0,0,0,0,0,0,0,0,0,0,0,0,0,0,0,0,0,0,0,0,0,0,0,0,0,0,0,0,0,0,0,0,0,0,0,0,0,0,0,0,0,0,0,0,0,0,0,0,0],"sum_hessian":[8.4822064E2,8.2319885E2,2.5021782E1,3.220498E1,7.909939E2,2.3552767E1,1.469015E0,1.3128833E0,3.0892096E1,7.4535965E1,7.1645795E2,2.626326E0,2.0926441E1,2.9813229E1,1.0788671E0,4.828079E1,2.6255177E1,9.2983925E1,6.23474E2,1.0272971E0,1.5990291E0,1.0099081E0,1.9916533E1,2.8802065E1,1.0111632E0,5.034437E0,4.324635E1,2.1286064E1,4.9691124E0,2.003338E1,7.295055E1,3.2750317E1,5.907237E2,2.7166126E1,1.6359389E0,3.3464737E0,1.6879636E0,2.9260674E0,4.0320282E1,1.0541026E1,1.0745038E1,1.5437748E1,4.5956326E0,6.733279E1,5.6177616E0,2.8127651E1,4.622664E0,5.5388007E2,3.6843605E1],"tree_param":{"num_deleted":"0","num_feature":"250","num_nodes":"49","size_leaf_vector":"1"}},{"base_weights":[1.792187E-2,-1.5123459E-2,9.350631E-1,3.9209157E-1,-8.903979E-2,1.0802586E0,-7.523743E-2,-1.5500237E0,4.6555623E-1,-1.8611577E-1,2.501566E-1,-2.8490325E-2,1.1432174E0,7.342608E-2,-2.3823403E-1,6.5859896E-1,-1.7946981E-1,-1.08383805E-1,-7.319403E-1,3.5138443E-1,-1.3351605E0,1.2067008E0,2.2519689E-2,9.7552586E-1,-5.6066476E-2,-5.601379E-1,1.0810282E0,-2.2922832E-1,4.6892953E-1,-1.2798034E0,4.063784E-1,-8.728963E-1,4.605732E-1,9.5279984E-2,-2.0404117E0,3.7561584E-1,1.2742711E0,1.0262417E-1,-5.9570916E-2,-1.4712493E-1,3.823409E-2,6.856948E-2,-1.0849899E-1,2.1409506E-2,1.1922028E-1,-1.707404E-2,-1.3935412E-1,9.63269E-2,1.7036315E-2,-9.161726E-2,-2.356698E-1,-3.2352637E-2,1.0656222E-1,-1.6324688E-1,6.9432236E-2,-7.8011355E-3,5.837826E-2,-2.5208166E-1,2.9547444E-2,7.874436E-2,-2.6607549E-2,4.372743E-2,1.315654E-1],"categories":[],"categories_nodes":[],"categories_segments":[],"categories_sizes":[],"default_left":[0,0,0,0,0,0,0,0,0,0,0,0,0,0,0,0,0,0,0,0,0,0,0,0,0,0,0,0,0,0,0,0,0,0,0,0,0,0,0,0,0,0,0,0,0,0,0,0,0,0,0,0,0,0,0,0,0,0,0,0,0,0,0],"id":2,"left_children":[1,3,5,7,9,11,-1,13,15,17,19,-1,21,-1,-1,23,25,27,29,31,33,35,-1,37,39,41,43,45,47,49,51,53,55,-1,57,59,61,-1,-1,-1,-1,-1,-1,-1,-1,-1,-1,-1,-1,-1,-1,-1,-1,-1,-1,-1,-1,-1,-1,-1,-1,-1,-1],"loss_changes":[2.5705763E1,2.4692966E1,8.039822E0,1.8704653E1,2.290401E1,2.6953812E0,0E0,1.0922677E1,1.5336161E1,2.2843708E1,2.5325245E1,0E0,1.2758408E0,0E0,0E0,2.1408379E1,1.4490517E1,3.318341E1,4.2414585E1,1.9970148E1,1.7280973E1,9.032593E-1,0E0,5.820305E0,1.91194E1,1.570727E1,4.245577E-1,2.6505095E1,1.1996271E1,1.5694061E1,1.1212675E1,1.5813304E1,9.007353E0,0E0,9.254988E0,1.0732068E0,1.984787E-1,0E0,0E0,0E0,0E0,0E0,0E0,0E0,0E0,0E0,0E0,0E0,0E0,0E0,0E0,0E0,0E0,0E0,0E0,0E0,0E0,0E0,0E0,0E0,0E0,0E0,0E0],"parents":[2147483647,0,0,1,1,2,2,3,3,4,4,5,5,7,7,8,8,9,9,10,10,12,12,15,15,16,16,17,17,18,18,19,19,20,20,21,21,23,23,24,24,25,25,26,26,27,27,28,28,29,29,30,30,31,31,32,32,34,34,35,35,36,36],"right_children":[2,4,6,8,10,12,-1,14,16,18,20,-1,22,-1,-1,24,26,28,30,32,34,36,-1,38,40,42,44,46,48,50,52,54,56,-1,58,60,62,-1,-1,-1,-1,-1,-1,-1,-1,-1,-1,-1,-1,-1,-1,-1,-1,-1,-1,-1,-1,-1,-1,-1,-1,-1,-1],"split_conditions":[1.2140869E3,3.858275E1,9.647297E4,2.0596441E1,3.558358E2,3.1445347E3,-7.523743E-2,-1.3521648E2,2.8848627E4,6.420356E4,1.0676755E3,-2.8490325E-2,8.515464E1,7.342608E-2,-2.3823403E-1,5.913712E4,5.913041E4,4.518482E4,6.821838E4,1.8224645E3,9.380023E2,3.829772E3,2.2519689E-2,6.347597E1,6.206732E4,3.9729935E1,3.204481E1,4.320815E4,5.8388E4,7.000201E4,-7.91873E1,6.5849426E2,-3.3457062E2,9.5279984E-2,7.7537094E1,6.066494E3,2.8533103E3,1.0262417E-1,-5.9570916E-2,-1.4712493E-1,3.823409E-2,6.856948E-2,-1.0849899E-1,2.1409506E-2,1.1922028E-1,-1.707404E-2,-1.3935412E-1,9.63269E-2,1.7036315E-2,-9.161726E-2,-2.356698E-1,-3.2352637E-2,1.0656222E-1,-1.6324688E-1,6.9432236E-2,-7.8011355E-3,5.837826E-2,-2.5208166E-1,2.9547444E-2,7.874436E-2,-2.6607549E-2,4.372743E-2,1.315654E-1],"split_indices":[153,112,245,62,24,131,0,9,36,140,213,0,92,0,0,245,211,215,40,171,43,116,0,62,85,212,212,245,40,245,3,128,243,0,52,1,181,0,0,0,0,0,0,0,0,0,0,0,0,0,0,0,0,0,0,0,0,0,0,0,0,0,0],"split_type":[0,0,0,0,0,0,0,0,0,0,0,0,0,0,0,0,0,0,0,0,0,0,0,0,0,0,0,0,0,0,0,0,0,0,0,0,0,0,0,0,0,0,0,0,0,0,0,0,0,0,0,0,0,0,0,0,0,0,0,0,0,0,0],"sum_hessian":[8.4670593E2,8.1820874E2,2.8497202E1,1.25040306E2,6.9316846E2,2.6570745E1,1.9264565E0,3.824946E0,1.2121536E2,5.392808E2,1.5388763E2,1.0159632E0,2.5554783E1,1.0529491E0,2.771997E0,9.327814E1,2.7937227E1,4.7310373E2,6.617708E1,1.4538281E2,8.50483E0,2.3607788E1,1.9469948E0,6.4368256E1,2.890988E1,2.1883938E1,6.053288E0,3.9171252E2,8.13912E1,4.4591347E1,2.1585728E1,1.1331689E1,1.3405112E2,1.9211785E0,6.5836515E0,2.2682467E0,2.133954E1,6.2691574E1,1.6766797E0,6.2804937E0,2.2629385E1,6.395822E0,1.5488116E1,1.0205842E0,5.032704E0,3.740683E2,1.7644245E1,2.9809307E1,5.158189E1,3.4718754E1,9.872593E0,1.0485541E1,1.1100185E1,7.604457E0,3.7272317E0,2.5025251E1,1.0902587E2,5.3949437E0,1.1887081E0,1.2432257E0,1.025021E0,1.5502964E0,1.9789244E1],"tree_param":{"num_deleted":"0","num_feature":"250","num_nodes":"63","size_leaf_vector":"1"}},{"base_weights":[-4.640095E-3,-3.3716947E-2,1.0505071E0,7.597126E-1,-6.433332E-2,2.727888E-1,1.1554271E0,-1.3992354E-1,1.0027755E0,-9.106735E-2,8.6795163E-1,8.727846E-2,-6.560276E-2,1.2413299E-1,3.104855E-1,1.196589E0,-1.1135053E-1,4.2033684E-1,-1.3571681E-1,-7.2987564E-2,1.0547521E0,-3.0354425E-2,7.347491E-2,1.2661219E-1,1.927521E-2,5.4150015E-1,-1.1997986E0,-6.875225E-2,-4.1938406E-1,7.766807E-2,1.2225548E0,-8.15646E-2,6.3307784E-2,-1.9112137E-1,3.815273E-2,-1.7428128E-2,5.4394573E-2,-1.0439547E-1,-6.792539E-3,-9.8504536E-2,9.0090506E-2,2.0900466E-2,1.2727368E-1],"categories":[],"categories_nodes":[],"categories_segments":[],"categories_sizes":[],"default_left":[0,0,0,0,0,0,0,0,0,0,0,0,0,0,0,0,0,0,0,0,0,0,0,0,0,0,0,0,0,0,0,0,0,0,0,0,0,0,0,0,0,0,0],"id":3,"left_children":[1,3,5,7,9,11,13,-1,15,17,19,-1,-1,-1,21,23,-1,25,27,-1,29,-1,-1,-1,-1,31,33,35,37,39,41,-1,-1,-1,-1,-1,-1,-1,-1,-1,-1,-1,-1],"loss_changes":[2.614641E1,2.0191998E1,1.5497475E0,1.7611034E1,2.0001175E1,2.8161278E0,1.0538445E0,0E0,1.2957846E1,1.782062E1,7.448887E0,0E0,0E0,0E0,1.0471501E0,1.6019783E0,0E0,1.2959901E1,1.3576533E1,0E0,3.2569847E0,0E0,0E0,0E0,0E0,7.853651E0,5.987932E0,3.7637695E1,2.9912603E1,4.443103E0,6.1796E-1,0E0,0E0,0E0,0E0,0E0,0E0,0E0,0E0,0E0,0E0,0E0,0E0],"parents":[2147483647,0,0,1,1,2,2,3,3,4,4,5,5,6,6,8,8,9,9,10,10,14,14,15,15,17,17,18,18,20,20,25,25,26,26,27,27,28,28,29,29,30,30],"right_children":[2,4,6,8,10,12,14,-1,16,18,20,-1,-1,-1,22,24,-1,26,28,-1,30,-1,-1,-1,-1,32,34,36,38,40,42,-1,-1,-1,-1,-1,-1,-1,-1,-1,-1,-1,-1],"split_conditions":[1.3125331E3,-7.569087E2,3.1309785E3,-1.3918552E3,7.87418E1,6.9996396E3,1.685012E4,-1.3992354E-1,6.909626E1,3.3956936E1,2.130662E3,8.727846E-2,-6.560276E-2,1.2413299E-1,6.4508745E3,1.9901125E4,-1.1135053E-1,6.874992E1,6.329856E4,-7.2987564E-2,3.1123916E3,-3.0354425E-2,7.347491E-2,1.2661219E-1,1.927521E-2,1.83177E3,5.3064007E1,5.121895E4,6.665631E4,9.8857294E2,6.93449E1,-8.15646E-2,6.3307784E-2,-1.9112137E-1,3.815273E-2,-1.7428128E-2,5.4394573E-2,-1.0439547E-1,-6.792539E-3,-9.8504536E-2,9.0090506E-2,2.0900466E-2,1.2727368E-1],"split_indices":[113,184,196,134,212,46,191,0,22,242,136,0,0,0,6,161,0,142,110,0,81,0,0,0,0,51,37,5,65,223,222,0,0,0,0,0,0,0,0,0,0,0,0],"split_type":[0,0,0,0,0,0,0,0,0,0,0,0,0,0,0,0,0,0,0,0,0,0,0,0,0,0,0,0,0,0,0,0,0,0,0,0,0,0,0,0,0,0,0],"sum_hessian":[8.500653E2,8.2821027E2,2.185507E1,2.9886318E1,7.983239E2,3.0258634E0,1.8829206E1,2.5429049E0,2.7343414E1,7.7694666E2,2.1377258E1,1.8749872E0,1.1508762E0,1.666572E1,2.1634862E0,2.5447462E1,1.8959523E0,6.1710884E1,7.152358E2,1.9332926E0,1.9443966E1,1.0003028E0,1.1631835E0,2.355462E1,1.8928415E0,5.803635E1,3.674534E0,5.796433E2,1.3559245E2,3.0642505E0,1.6379715E1,3.168831E0,5.486752E1,2.3904786E0,1.2840555E0,4.9508682E2,8.455651E1,4.8116024E1,8.747643E1,1.2517805E0,1.81247E0,1.0163777E0,1.5363337E1],"tree_param":{"num_deleted":"0","num_feature":"250","num_nodes":"43","size_leaf_vector":"1"}},{"base_weights":[-1.00170765E-2,-3.7137073E-2,1.0070016E0,9.886976E-2,-2.2961146E-1,1.1671472E0,-6.730204E-2,3.3522278E-2,8.0173904E-1,4.1542307E-1,-3.682154E-1,1.2523203E-1,1.9344002E-2,9.369886E-1,-1.7101021E-2,9.515297E-1,-1.6502927E-1,6.936014E-1,-2.6022747E-1,-5.8396494E-1,3.071085E-1,-6.925031E-2,1.0732569E0,-9.880878E-1,4.6545535E-2,3.565206E-1,1.2909205E0,8.604637E-1,-1.1544346E0,-2.0395067E-1,2.3162363E-1,-7.307643E-1,2.9363137E-1,-4.137019E-1,7.820374E-1,1.1520956E-1,-2.9173622E-2,-1.6097005E-1,2.5307715E-2,2.7397638E-2,-2.094131E-2,-1.7813751E-1,8.4015034E-2,2.0924356E-2,1.3287456E-1,1.16300575E-1,2.4282586E-2,-2.0992175E-1,7.4689105E-2,1.04624726E-1,-6.0672697E-2,-4.1982647E-2,-1.1586193E-1,-3.1284135E-2,1.02776825E-1,-1.0115407E-1,6.35271E-2,9.133168E-2,-6.7991935E-2],"categories":[],"categories_nodes":[],"categories_segments":[],"categories_sizes":[],"default_left":[0,0,0,0,0,0,0,0,0,0,0,0,0,0,0,0,0,0,0,0,0,0,0,0,0,0,0,0,0,0,0,0,0,0,0,0,0,0,0,0,0,0,0,0,0,0,0,0,0,0,0,0,0,0,0,0,0,0,0],"id":4,"left_children":[1,3,5,7,9,11,-1,13,15,17,19,-1,-1,21,23,25,-1,27,29,31,33,-1,35,37,39,41,43,45,47,-1,49,51,53,55,57,-1,-1,-1,-1,-1,-1,-1,-1,-1,-1,-1,-1,-1,-1,-1,-1,-1,-1,-1,-1,-1,-1,-1,-1],"loss_changes":[2.3245653E1,2.150294E1,6.675188E0,2.20889E1,3.055473E1,1.4455662E0,0E0,2.0212685E1,1.6597973E1,1.1573158E1,4.1038666E1,0E0,0E0,5.949871E0,2.5948803E1,7.4545403E0,0E0,1.43178425E1,1.6579496E1,2.7639809E1,2.379211E1,0E0,2.7069435E0,2.0334919E1,2.3011347E1,1.7644201E1,7.274933E-1,7.2302303E0,8.763012E0,0E0,1.1095536E1,2.3813828E1,1.4221528E1,1.8128414E1,8.618839E0,0E0,0E0,0E0,0E0,0E0,0E0,0E0,0E0,0E0,0E0,0E0,0E0,0E0,0E0,0E0,0E0,0E0,0E0,0E0,0E0,0E0,0E0,0E0,0E0],"parents":[2147483647,0,0,1,1,2,2,3,3,4,4,5,5,7,7,8,8,9,9,10,10,13,13,14,14,15,15,17,17,18,18,19,19,20,20,22,22,23,23,24,24,25,25,26,26,27,27,28,28,30,30,31,31,32,32,33,33,34,34],"right_children":[2,4,6,8,10,12,-1,14,16,18,20,-1,-1,22,24,26,-1,28,30,32,34,-1,36,38,40,42,44,46,48,-1,50,52,54,56,58,-1,-1,-1,-1,-1,-1,-1,-1,-1,-1,-1,-1,-1,-1,-1,-1,-1,-1,-1,-1,-1,-1,-1,-1],"split_conditions":[1.3125331E3,7.783988E1,9.647297E4,6.9187714E2,4.159041E1,1.7808512E4,-6.730204E-2,-7.3370496E2,9.647297E4,6.096622E4,6.481913E1,1.2523203E-1,1.9344002E-2,-1.3918552E3,-5.9743256E2,-4.4786575E2,-1.6502927E-1,6.819444E1,6.178761E4,7.1505394E1,6.425755E1,-6.925031E-2,1.01047664E5,4.118001E1,2.699011E4,5.923201E4,1.9336746E3,6.237081E1,6.830383E4,-2.0395067E-1,5.8022102E1,7.2042026E3,4.262368E1,7.874191E3,1.1201743E3,1.1520956E-1,-2.9173622E-2,-1.6097005E-1,2.5307715E-2,2.7397638E-2,-2.094131E-2,-1.7813751E-1,8.4015034E-2,2.0924356E-2,1.3287456E-1,1.16300575E-1,2.4282586E-2,-2.0992175E-1,7.4689105E-2,1.04624726E-1,-6.0672697E-2,-4.1982647E-2,-1.1586193E-1,-3.1284135E-2,1.02776825E-1,-1.0115407E-1,6.35271E-2,9.133168E-2,-6.7991935E-2],"split_indices":[158,198,245,9,27,196,0,174,5,15,2,0,0,134,88,198,0,92,130,242,52,0,141,37,245,80,151,142,1,0,232,201,14,86,208,0,0,0,0,0,0,0,0,0,0,0,0,0,0,0,0,0,0,0,0,0,0,0,0],"split_type":[0,0,0,0,0,0,0,0,0,0,0,0,0,0,0,0,0,0,0,0,0,0,0,0,0,0,0,0,0,0,0,0,0,0,0,0,0,0,0,0,0,0,0,0,0,0,0,0,0,0,0,0,0,0,0,0,0,0,0],"sum_hessian":[8.4044147E2,8.1955066E2,2.0890795E1,4.8050272E2,3.3904797E2,1.9351429E1,1.5393664E0,4.4058786E2,3.991484E1,5.9614952E1,2.79433E2,1.753174E1,1.8196892E0,2.2448256E1,4.1813962E2,3.81936E1,1.7212427E0,4.2209793E1,1.7405157E1,2.1187833E2,6.755469E1,1.4173783E0,2.1030876E1,2.4828802E1,3.9331082E2,1.4617368E1,2.3576231E1,3.9204357E1,3.0054367E0,3.0879292E0,1.4317227E1,1.8165878E2,3.021954E1,2.688287E1,4.067182E1,2.0029964E1,1.0009118E0,1.6345537E1,8.483264E0,2.0822397E2,1.8508685E2,2.2016377E0,1.241573E1,1.0172747E0,2.2558956E1,2.572185E1,1.3482509E1,1.938233E0,1.0672035E0,7.1355977E0,7.1816297E0,1.06350914E2,7.530787E1,1.6862907E1,1.3356634E1,1.7146364E1,9.736505E0,3.76649E1,3.0069194E0],"tree_param":{"num_deleted":"0","num_feature":"250","num_nodes":"59","size_leaf_vector":"1"}},{"base_weights":[-6.9218446E-3,-2.941368E-2,9.6010727E-1,9.1419056E-2,-1.9661927E-1,1.0891558E0,-3.655123E-2,1.8374482E-1,-4.700199E-1,-3.4529632E-1,3.1345144E-1,2.8181463E-1,1.1874149E-1,5.045072E-1,-2.8494834E-3,-1.4033394E0,-2.0259921E-1,4.140082E-1,-5.274103E-1,1.1503544E0,8.917079E-2,7.137048E-2,-3.331202E-2,7.100578E-1,-2.7667415E-1,-8.1592345E-1,2.6121506E-1,4.519124E-1,-2.2213268E0,6.209185E-1,-6.284831E-1,8.8854335E-2,1.0507789E0,-5.8864653E-1,1.1480179E0,-1.056439E-2,1.2584459E0,-6.125617E-1,6.908958E-1,1.4553273E-2,9.516839E-2,7.946829E-3,-1.7222302E-1,-5.5346604E-2,-2.4943681E-1,-5.732208E-3,6.125564E-2,1.125566E-1,-1.2019477E-1,-2.4195896E-1,-2.255941E-2,-1.0503242E-1,9.706461E-2,2.4046846E-2,-1.1758882E-1,5.501765E-2,-7.4388765E-2,6.964866E-3,1.2469224E-1,-6.93027E-2,4.0992808E-2,1.24724224E-1,2.4987344E-2,1.922894E-2,1.3191758E-1,2.0484611E-2,-1.2469321E-1,-1.6146107E-1,8.398435E-2],"categories":[],"categories_nodes":[],"categories_segments":[],"categories_sizes":[],"default_left":[0,0,0,0,0,0,0,0,0,0,0,0,0,0,0,0,0,0,0,0,0,0,0,0,0,0,0,0,0,0,0,0,0,0,0,0,0,0,0,0,0,0,0,0,0,0,0,0,0,0,0,0,0,0,0,0,0,0,0,0,0,0,0,0,0,0,0,0,0],"id":5,"left_children":[1,3,5,7,9,11,-1,13,15,17,19,21,-1,23,25,27,29,31,33,35,37,-1,-1,39,41,43,45,47,49,51,53,55,57,59,61,-1,63,65,67,-1,-1,-1,-1,-1,-1,-1,-1,-1,-1,-1,-1,-1,-1,-1,-1,-1,-1,-1,-1,-1,-1,-1,-1,-1,-1,-1,-1,-1,-1],"loss_changes":[1.848119E1,1.6788986E1,3.702118E0,2.5099297E1,2.654012E1,1.0815239E0,0E0,2.484734E1,1.679433E1,3.7602676E1,1.4761219E1,1.1004034E0,0E0,2.4712181E1,5.6775238E1,2.387502E1,1.9454205E1,1.085099E1,2.3092499E1,2.3937283E0,2.7251373E1,0E0,0E0,1.6387196E1,1.6881233E1,2.7176777E1,2.2375175E1,7.4165263E0,3.6595917E0,1.21429825E1,1.7561306E1,1.4271263E1,3.3338585E0,2.2323914E1,4.0513992E-1,0E0,7.4412346E-1,1.5739398E1,1.3263561E1,0E0,0E0,0E0,0E0,0E0,0E0,0E0,0E0,0E0,0E0,0E0,0E0,0E0,0E0,0E0,0E0,0E0,0E0,0E0,0E0,0E0,0E0,0E0,0E0,0E0,0E0,0E0,0E0,0E0,0E0],"parents":[2147483647,0,0,1,1,2,2,3,3,4,4,5,5,7,7,8,8,9,9,10,10,11,11,13,13,14,14,15,15,16,16,17,17,18,18,19,19,20,20,23,23,24,24,25,25,26,26,27,27,28,28,29,29,30,30,31,31,32,32,33,33,34,34,36,36,37,37,38,38],"right_children":[2,4,6,8,10,12,-1,14,16,18,20,22,-1,24,26,28,30,32,34,36,38,-1,-1,40,42,44,46,48,50,52,54,56,58,60,62,-1,64,66,68,-1,-1,-1,-1,-1,-1,-1,-1,-1,-1,-1,-1,-1,-1,-1,-1,-1,-1,-1,-1,-1,-1,-1,-1,-1,-1,-1,-1,-1,-1],"split_conditions":[1.3125331E3,7.854157E1,1.7808512E4,4.1432574E4,6.532034E1,4.501104E3,-3.655123E-2,2.706922E4,1.695065E4,4.1615284E1,2.307277E4,6.724254E1,1.1874149E-1,3.8613727E4,3.03853E4,1.659908E4,1.935971E4,5.4083466E2,9.235685E4,5.1200695E1,2.7967035E2,7.137048E-2,-3.331202E-2,-1.11745766E2,2.215252E4,6.1826935E1,-2.4129346E2,-2.474037E1,5.026328E1,-2.9154285E2,-1.0349175E2,6.0619354E1,5.3106873E1,9.8857294E2,5.565985E1,-1.056439E-2,2.7011338E4,2.890773E4,2.726654E4,1.4553273E-2,9.516839E-2,7.946829E-3,-1.7222302E-1,-5.5346604E-2,-2.4943681E-1,-5.732208E-3,6.125564E-2,1.125566E-1,-1.2019477E-1,-2.4195896E-1,-2.255941E-2,-1.0503242E-1,9.706461E-2,2.4046846E-2,-1.1758882E-1,5.501765E-2,-7.4388765E-2,6.964866E-3,1.2469224E-1,-6.93027E-2,4.0992808E-2,1.24724224E-1,2.4987344E-2,1.922894E-2,1.3191758E-1,2.0484611E-2,-1.2469321E-1,-1.6146107E-1,8.398435E-2],"split_indices":[118,178,196,1,52,76,0,245,220,37,180,42,0,26,30,245,245,188,5,97,14,0,0,48,160,52,214,243,162,158,128,247,222,143,217,0,56,20,90,0,0,0,0,0,0,0,0,0,0,0,0,0,0,0,0,0,0,0,0,0,0,0,0,0,0,0,0,0,0],"split_type":[0,0,0,0,0,0,0,0,0,0,0,0,0,0,0,0,0,0,0,0,0,0,0,0,0,0,0,0,0,0,0,0,0,0,0,0,0,0,0,0,0,0,0,0,0,0,0,0,0,0,0,0,0,0,0,0,0,0,0,0,0,0,0,0,0,0,0,0,0],"sum_hessian":[8.4740137E2,8.2908746E2,1.831391E1,4.8154648E2,3.4754095E2,1.6851774E1,1.4621344E0,4.141194E2,6.742709E1,2.6935233E2,7.8188644E1,2.2481356E0,1.4603639E1,1.5167714E2,2.6244226E2,1.4070889E1,5.3356205E1,5.1858913E1,2.1749341E2,1.5652454E1,6.253619E1,1.226267E0,1.0218687E0,1.2015266E2,3.1524473E1,6.3826366E1,1.9861589E2,4.442508E0,9.628381E0,1.8031443E1,3.532476E1,3.5083687E1,1.6775225E1,2.1045021E2,7.043205E0,1.2421064E0,1.4410348E1,2.8860744E1,3.3675446E1,3.649337E1,8.3659294E1,2.605124E1,5.473233E0,5.6345417E1,7.48095E0,1.0461E2,9.400589E1,3.3836887E0,1.0588198E0,8.565113E0,1.0632682E0,2.7736654E0,1.5257778E1,1.386931E1,2.1455452E1,2.2795027E1,1.2288662E1,3.0206602E0,1.3754565E1,1.9081082E2,1.9639378E1,5.9924855E0,1.0507196E0,1.0011305E0,1.3409217E1,1.2906878E1,1.5953866E1,1.446438E0,3.2229008E1],"tree_param":{"num_deleted":"0","num_feature":"250","num_nodes":"69","size_leaf_vector":"1"}},{"base_weights":[-1.4123771E-2,-3.9054178E-2,9.8125845E-1,1.7856231E-1,-1.3367039E-1,1.0642377E0,-2.2304624E-2,-5.481038E-1,2.692039E-1,-3.1261435E-1,3.678293E-2,1.2077953E-1,1.8195632E-1,-1.0287392E0,6.273465E-1,3.9392182E-1,-4.318228E-1,-3.8412786E-1,7.581086E-1,1.0004492E0,-3.5608415E-2,7.9617E-2,-7.391947E-2,2.5838727E-1,-1.3033826E0,1.13980256E-1,-1.07809365E-1,8.0937386E-1,9.48709E-2,-2.023494E0,1.1803805E-1,-1.5960176E-1,-9.377316E-1,-1.1091919E-1,1.051694E0,1.1098652E-1,1.1533682E0,-4.907514E-1,2.235593E-1,-7.712199E-2,9.097112E-2,-5.798792E-3,-1.6899851E-1,1.0236286E-1,4.0630963E-2,3.1394478E-2,-4.653971E-2,-3.8132642E-3,-2.3619564E-1,-9.4548486E-2,6.7162834E-2,9.709312E-3,-4.937287E-2,4.788543E-2,-1.1371893E-1,-6.1310556E-2,1.277319E-1,9.3834184E-2,-1.1425456E-1,-2.4293356E-2,1.2573087E-1,-8.503566E-2,2.57846E-2,6.781819E-2,-1.8826878E-2],"categories":[],"categories_nodes":[],"categories_segments":[],"categories_sizes":[],"default_left":[0,0,0,0,0,0,0,0,0,0,0,0,0,0,0,0,0,0,0,0,0,0,0,0,0,0,0,0,0,0,0,0,0,0,0,0,0,0,0,0,0,0,0,0,0,0,0,0,0,0,0,0,0,0,0,0,0,0,0,0,0,0,0,0,0],"id":6,"left_children":[1,3,5,7,9,11,-1,13,15,17,19,-1,21,23,25,27,29,31,33,35,37,-1,-1,39,41,-1,-1,43,45,47,49,51,53,-1,55,57,59,61,63,-1,-1,-1,-1,-1,-1,-1,-1,-1,-1,-1,-1,-1,-1,-1,-1,-1,-1,-1,-1,-1,-1,-1,-1,-1,-1],"loss_changes":[2.0821255E1,1.6866596E1,2.2861805E0,1.6502686E1,1.7418602E1,2.231535E0,0E0,1.6389458E1,1.9530834E1,2.1617695E1,2.0487926E1,0E0,2.7870204E0,7.4628143E0,8.840145E0,2.3344967E1,2.9928032E1,3.2384792E1,1.0910383E1,2.66292E0,3.2389862E1,0E0,0E0,3.6385162E0,7.9806156E0,0E0,0E0,6.3865776E0,1.3739308E1,5.799858E0,1.6035498E1,1.6123085E1,2.1826195E1,0E0,6.7451096E0,5.341561E0,2.8311062E0,2.7032022E1,3.2902645E1,0E0,0E0,0E0,0E0,0E0,0E0,0E0,0E0,0E0,0E0,0E0,0E0,0E0,0E0,0E0,0E0,0E0,0E0,0E0,0E0,0E0,0E0,0E0,0E0,0E0,0E0],"parents":[2147483647,0,0,1,1,2,2,3,3,4,4,5,5,7,7,8,8,9,9,10,10,12,12,13,13,14,14,15,15,16,16,17,17,18,18,19,19,20,20,23,23,24,24,27,27,28,28,29,29,30,30,31,31,32,32,34,34,35,35,36,36,37,37,38,38],"right_children":[2,4,6,8,10,12,-1,14,16,18,20,-1,22,24,26,28,30,32,34,36,38,-1,-1,40,42,-1,-1,44,46,48,50,52,54,-1,56,58,60,62,64,-1,-1,-1,-1,-1,-1,-1,-1,-1,-1,-1,-1,-1,-1,-1,-1,-1,-1,-1,-1,-1,-1,-1,-1,-1,-1],"split_conditions":[1.3125331E3,4.484532E1,9.068419E4,-7.017718E2,2.5752207E1,7.1989006E1,-2.2304624E-2,6.390501E4,6.423201E4,6.985023E1,1.899714E4,1.2077953E-1,4.5638405E1,-6.044864E2,5.8165333E1,6.290748E3,6.678469E4,3.7165257E1,4.377361E1,4.2075893E1,3.050481E4,7.9617E-2,-7.391947E-2,-7.622901E2,3.1510994E3,1.13980256E-1,-1.07809365E-1,1.9497147E1,4.8455868E1,3.976386E1,-5.624392E2,2.927428E4,-6.7403796E2,-1.1091919E-1,3.051893E3,2.783931E4,4.5803474E1,2.9298624E2,3.8081833E2,-7.712199E-2,9.097112E-2,-5.798792E-3,-1.6899851E-1,1.0236286E-1,4.0630963E-2,3.1394478E-2,-4.653971E-2,-3.8132642E-3,-2.3619564E-1,-9.4548486E-2,6.7162834E-2,9.709312E-3,-4.937287E-2,4.788543E-2,-1.1371893E-1,-6.1310556E-2,1.277319E-1,9.3834184E-2,-1.1425456E-1,-2.4293356E-2,1.2573087E-1,-8.503566E-2,2.57846E-2,6.781819E-2,-1.8826878E-2],"split_indices":[158,117,20,93,8,227,0,50,155,62,0,0,22,188,242,31,50,68,137,207,80,0,0,38,106,0,0,243,87,132,213,195,4,0,161,6,37,74,83,0,0,0,0,0,0,0,0,0,0,0,0,0,0,0,0,0,0,0,0,0,0,0,0,0,0],"split_type":[0,0,0,0,0,0,0,0,0,0,0,0,0,0,0,0,0,0,0,0,0,0,0,0,0,0,0,0,0,0,0,0,0,0,0,0,0,0,0,0,0,0,0,0,0,0,0,0,0,0,0,0,0,0,0,0,0,0,0,0,0,0,0,0,0],"sum_hessian":[8.365053E2,8.1700336E2,1.9501955E1,2.4730855E2,5.696948E2,1.8353653E1,1.1483014E0,2.6867458E1,2.204411E2,2.775185E2,2.921763E2,1.5467898E1,2.8857546E0,1.9158474E1,7.708984E0,1.8751826E2,3.292283E1,2.6074463E2,1.6773869E1,1.9519163E1,2.7265714E2,1.8127267E0,1.0730278E0,3.379503E0,1.5778971E1,6.182818E0,1.5261658E0,7.777041E1,1.09747856E2,7.7651615E0,2.5157667E1,1.8642442E2,7.4320206E1,1.9015151E0,1.48723545E1,3.116667E0,1.6402496E1,9.860184E1,1.740553E2,1.2381563E0,2.1413467E0,4.010288E0,1.17686825E1,4.9773148E1,2.7997261E1,7.921368E1,3.053418E1,1.2930459E0,6.472116E0,8.369945E0,1.6787724E1,1.05829636E2,8.0594795E1,8.999964E0,6.532024E1,1.5700667E0,1.3302287E1,2.0289578E0,1.0877092E0,1.0437577E0,1.5358738E1,6.65143E1,3.2087536E1,8.24219E1,9.16334E1],"tree_param":{"num_deleted":"0","num_feature":"250","num_nodes":"65","size_leaf_vector":"1"}},{"base_weights":[-3.6860688E-3,-2.4711963E-2,9.286432E-1,9.6611656E-2,-1.9028336E-1,-3.1231394E-2,1.0195644E0,9.069253E-3,5.861506E-1,-2.9081923E-1,4.36671E-1,1.1140629E0,8.9401975E-3,-9.240049E-1,7.9160616E-2,9.437334E-1,1.094695E-1,-4.9555525E-1,3.1089043E-2,5.2071154E-1,-1.04330026E-1,1.7236352E-2,1.1676873E-1,5.8486456E-1,-1.531446E0,9.4876766E-1,2.0066122E-2,-7.805561E-1,1.0683594E0,-5.34224E-1,9.1212547E-1,1.96333E-1,-7.841314E-1,1.6565843E-1,-1.5380856E0,-5.9358954E-1,6.4174706E-1,1.08240955E-1,-1.0919793E-1,-2.2657077E-1,-4.9744308E-2,-9.1370545E-2,1.11171186E-1,-1.0567459E-1,8.86984E-3,3.4346838E-2,-1.6130263E-1,-7.589212E-2,1.1386945E-1,4.2922143E-2,-1.8195757E-1,1.14213824E-1,-4.8870556E-2,5.970037E-2,-4.9700804E-2,9.640127E-2,-8.7446235E-2,5.5031557E-2,-2.0742496E-2,-1.9379136E-1,1.920621E-2,-1.2729223E-1,5.080193E-2,7.492652E-2,-6.637329E-2],"categories":[],"categories_nodes":[],"categories_segments":[],"categories_sizes":[],"default_left":[0,0,0,0,0,0,0,0,0,0,0,0,0,0,0,0,0,0,0,0,0,0,0,0,0,0,0,0,0,0,0,0,0,0,0,0,0,0,0,0,0,0,0,0,0,0,0,0,0,0,0,0,0,0,0,0,0,0,0,0,0,0,0,0,0],"id":7,"left_children":[1,3,5,7,9,-1,11,13,15,17,19,21,-1,23,25,27,29,31,33,35,-1,-1,-1,37,39,41,43,45,47,49,51,53,55,57,59,61,63,-1,-1,-1,-1,-1,-1,-1,-1,-1,-1,-1,-1,-1,-1,-1,-1,-1,-1,-1,-1,-1,-1,-1,-1,-1,-1,-1,-1],"loss_changes":[1.6459024E1,1.6508938E1,2.4077406E0,2.0326683E1,2.2030064E1,0E0,1.4375687E0,2.646075E1,1.2161638E1,1.9792051E1,6.5658655E0,5.959873E-1,0E0,2.6806494E1,1.9313885E1,9.640671E0,1.70064E1,3.6787354E1,2.508669E1,6.650649E0,0E0,0E0,0E0,8.555489E0,1.4385532E1,8.274082E0,2.6203339E1,3.679547E0,5.8305473E0,2.3534674E1,5.261997E0,1.552071E1,2.1320168E1,1.5786851E1,6.8647175E0,4.4439874E0,6.4505043E0,0E0,0E0,0E0,0E0,0E0,0E0,0E0,0E0,0E0,0E0,0E0,0E0,0E0,0E0,0E0,0E0,0E0,0E0,0E0,0E0,0E0,0E0,0E0,0E0,0E0,0E0,0E0,0E0],"parents":[2147483647,0,0,1,1,2,2,3,3,4,4,6,6,7,7,8,8,9,9,10,10,11,11,13,13,14,14,15,15,16,16,17,17,18,18,19,19,23,23,24,24,25,25,26,26,27,27,28,28,29,29,30,30,31,31,32,32,33,33,34,34,35,35,36,36],"right_children":[2,4,6,8,10,-1,12,14,16,18,20,22,-1,24,26,28,30,32,34,36,-1,-1,-1,38,40,42,44,46,48,50,52,54,56,58,60,62,64,-1,-1,-1,-1,-1,-1,-1,-1,-1,-1,-1,-1,-1,-1,-1,-1,-1,-1,-1,-1,-1,-1,-1,-1,-1,-1,-1,-1],"split_conditions":[1.3125331E3,7.783988E1,2.702474E3,2.1590637E1,7.234398E1,-3.1231394E-2,1.5387573E4,1.699639E4,1.07225746E2,1.8491904E2,1.051752E3,3.8866383E1,8.9401975E-3,1.659931E4,-7.569087E2,2.6435024E3,3.670109E4,4.19748E1,1.0626735E3,2.9795825E2,-1.04330026E-1,1.7236352E-2,1.1676873E-1,-3.754193E1,-6.957871E1,-1.3918552E3,-5.9743256E2,5.7617695E3,3.1832739E1,3.590794E1,8.317655E3,4.2377773E1,1.709274E4,5.525887E1,8.605108E3,4.8048695E1,6.709276E4,1.08240955E-1,-1.0919793E-1,-2.2657077E-1,-4.9744308E-2,-9.1370545E-2,1.11171186E-1,-1.0567459E-1,8.86984E-3,3.4346838E-2,-1.6130263E-1,-7.589212E-2,1.1386945E-1,4.2922143E-2,-1.8195757E-1,1.14213824E-1,-4.8870556E-2,5.970037E-2,-4.9700804E-2,9.640127E-2,-8.7446235E-2,5.5031557E-2,-2.0742496E-2,-1.9379136E-1,1.920621E-2,-1.2729223E-1,5.080193E-2,7.492652E-2,-6.637329E-2],"split_indices":[113,198,131,208,217,0,126,170,249,79,93,222,0,240,179,76,95,32,234,243,0,0,0,238,33,139,88,6,2,119,136,7,100,232,71,17,65,0,0,0,0,0,0,0,0,0,0,0,0,0,0,0,0,0,0,0,0,0,0,0,0,0,0,0,0],"split_type":[0,0,0,0,0,0,0,0,0,0,0,0,0,0,0,0,0,0,0,0,0,0,0,0,0,0,0,0,0,0,0,0,0,0,0,0,0,0,0,0,0,0,0,0,0,0,0,0,0,0,0,0,0,0,0,0,0,0,0,0,0,0,0,0,0],"sum_hessian":[8.374446E2,8.1992706E2,1.7517504E1,4.734325E2,3.4649454E2,1.029613E0,1.648789E1,4.0247748E2,7.095501E1,2.990726E2,4.7421944E1,1.4787834E1,1.7000568E0,2.7269958E1,3.7520752E2,3.998238E1,3.0972628E1,1.8247668E2,1.1659593E2,4.5487106E1,1.934837E0,1.0237646E0,1.376407E1,7.8379183E0,1.9432041E1,2.2916971E1,3.5229056E2,2.3402448E0,3.7642136E1,1.7373945E1,1.3598682E1,5.380171E1,1.2867497E2,1.0821044E2,8.3854885E0,4.074194E0,4.1412914E1,6.317821E0,1.5200971E0,1.0666436E1,8.765605E0,1.4729931E0,2.1443977E1,2.024576E1,3.320448E2,1.2456901E0,1.0945548E0,1.0323373E0,3.66098E1,1.0311184E1,7.062762E0,1.1839361E1,1.759321E0,3.4185436E1,1.9616272E1,5.847046E0,1.2282792E2,5.304492E1,5.516552E1,6.713865E0,1.671624E0,2.4239168E0,1.650277E0,3.8655357E1,2.7575576E0],"tree_param":{"num_deleted":"0","num_feature":"250","num_nodes":"65","size_leaf_vector":"1"}},{"base_weights":[-2.506938E-4,-7.2993025E-2,2.745408E-1,6.8640715E-1,-1.1008026E-1,3.2800576E-1,-1.3492308E0,-1.1696001E0,8.656955E-1,-1.3557562E-1,9.655719E-1,-4.6708497E-1,4.123091E-1,-1.8639931E-1,3.3088144E-2,-1.582683E-1,-1.88036E-2,9.8285425E-1,-1.12231426E-1,-7.83244E-2,-5.3960776E-1,1.20350055E-1,2.2034854E-1,6.8713844E-1,-9.711844E-1,7.0101255E-1,1.9550541E-1,1.100846E0,-7.6843195E-2,1.8924756E-1,-2.0425859E-1,-8.0596554E-1,6.641697E-1,-9.747455E-2,9.03387E-2,-3.5394076E-2,1.0880275E-1,-1.3974576E0,4.463048E-1,8.665151E-1,-3.7049413E-1,-3.4389555E-1,4.1291803E-1,1.2562528E-1,3.7507992E-2,9.9294044E-2,6.474012E-3,-2.6236141E-2,6.935478E-2,1.1311102E-1,-9.219317E-2,-9.6928835E-2,1.0042355E-1,2.9249943E-3,-1.9364858E-1,8.512293E-2,-2.9895896E-2,-8.1454664E-2,9.232562E-2,-1.9412142E-1,9.753679E-2,5.6156527E-2,-1.09886505E-1,8.200875E-2,-8.255883E-3],"categories":[],"categories_nodes":[],"categories_segments":[],"categories_sizes":[],"default_left":[0,0,0,0,0,0,0,0,0,0,0,0,0,0,0,0,0,0,0,0,0,0,0,0,0,0,0,0,0,0,0,0,0,0,0,0,0,0,0,0,0,0,0,0,0,0,0,0,0,0,0,0,0,0,0,0,0,0,0,0,0,0,0,0,0],"id":8,"left_children":[1,3,5,7,9,11,13,15,17,19,21,23,25,-1,-1,-1,-1,27,-1,29,31,-1,33,35,37,39,41,43,-1,45,47,49,51,-1,-1,-1,-1,53,55,57,59,61,63,-1,-1,-1,-1,-1,-1,-1,-1,-1,-1,-1,-1,-1,-1,-1,-1,-1,-1,-1,-1,-1,-1],"loss_changes":[1.6911541E1,1.8916046E1,1.5816219E1,1.1423626E1,1.764584E1,1.1737965E1,5.6679573E0,9.923563E-1,7.88216E0,1.4409217E1,2.3785925E0,1.0547723E1,9.643822E0,0E0,0E0,0E0,0E0,6.6356983E0,0E0,1.8517353E1,2.5343096E1,0E0,4.825364E0,2.7839022E0,8.0156765E0,1.2137413E1,1.0770609E1,2.535923E0,0E0,1.7549284E1,1.9658678E1,1.5375553E1,9.064663E0,0E0,0E0,0E0,0E0,7.475733E0,1.3367429E0,6.285988E0,2.2220066E1,1.8788202E1,1.3191086E1,0E0,0E0,0E0,0E0,0E0,0E0,0E0,0E0,0E0,0E0,0E0,0E0,0E0,0E0,0E0,0E0,0E0,0E0,0E0,0E0,0E0,0E0],"parents":[2147483647,0,0,1,1,2,2,3,3,4,4,5,5,6,6,7,7,8,8,9,9,10,10,11,11,12,12,17,17,19,19,20,20,22,22,23,23,24,24,25,25,26,26,27,27,29,29,30,30,31,31,32,32,37,37,38,38,39,39,40,40,41,41,42,42],"right_children":[2,4,6,8,10,12,14,16,18,20,22,24,26,-1,-1,-1,-1,28,-1,30,32,-1,34,36,38,40,42,44,-1,46,48,50,52,-1,-1,-1,-1,54,56,58,60,62,64,-1,-1,-1,-1,-1,-1,-1,-1,-1,-1,-1,-1,-1,-1,-1,-1,-1,-1,-1,-1,-1,-1],"split_conditions":[3.641057E2,3.0529669E1,9.719644E4,2.433066E3,1.1470725E3,1.9246782E3,9.4400397E2,5.080826E1,1.2966079E5,6.432525E4,6.1454693E1,3.437686E3,5.3708384E3,-1.8639931E-1,3.3088144E-2,-1.582683E-1,-1.88036E-2,5.913041E4,-1.12231426E-1,4.495607E1,6.951E4,1.20350055E-1,7.04891E1,1.4110505E3,6.6240485E2,6.2801064E1,-2.5529309E2,1.16032555E2,-7.6843195E-2,-2.8743097E2,6.042784E4,-5.632998E2,2.4654143E3,-9.747455E-2,9.03387E-2,-3.5394076E-2,1.0880275E-1,6.2784E4,6.095982E3,1.1136731E3,7.073334E2,4.137992E1,1.7986066E2,1.2562528E-1,3.7507992E-2,9.9294044E-2,6.474012E-3,-2.6236141E-2,6.935478E-2,1.1311102E-1,-9.219317E-2,-9.6928835E-2,1.0042355E-1,2.9249943E-3,-1.9364858E-1,8.512293E-2,-2.9895896E-2,-8.1454664E-2,9.232562E-2,-1.9412142E-1,9.753679E-2,5.6156527E-2,-1.09886505E-1,8.200875E-2,-8.255883E-3],"split_indices":[4,232,245,111,234,171,133,127,216,125,32,56,11,0,0,0,0,116,0,102,25,0,32,166,143,197,238,4,0,238,5,144,111,0,0,0,0,40,91,96,203,247,248,0,0,0,0,0,0,0,0,0,0,0,0,0,0,0,0,0,0,0,0,0,0],"split_type":[0,0,0,0,0,0,0,0,0,0,0,0,0,0,0,0,0,0,0,0,0,0,0,0,0,0,0,0,0,0,0,0,0,0,0,0,0,0,0,0,0,0,0,0,0,0,0,0,0,0,0,0,0,0,0,0,0,0,0,0,0,0,0,0,0],"sum_hessian":[8.440409E2,6.6795526E2,1.760856E2,3.0287096E1,6.376682E2,1.7124512E2,4.840488E0,2.181409E0,2.8105688E1,6.237577E2,1.39105E1,1.5981178E1,1.5526395E2,3.6214745E0,1.2190133E0,1.104275E0,1.0771339E0,2.7018993E1,1.0866934E0,5.4738696E2,7.637071E1,1.0077945E1,3.8325543E0,4.747606E0,1.1233572E1,6.563228E1,8.963166E1,2.5661476E1,1.3575186E0,1.7501994E2,3.7236703E2,6.280453E1,1.3566183E1,1.2385042E0,2.5940502E0,1.3524652E0,3.395141E0,8.647264E0,2.5863092E0,5.7016884E1,8.61539E0,2.5581692E1,6.404997E1,2.0533705E1,5.12777E0,2.2541311E1,1.5247864E2,3.503983E2,2.1968744E1,3.0530572E0,5.9751472E1,2.0188112E0,1.1547372E1,2.6305146E0,6.0167484E0,1.5836687E0,1.0026406E0,1.4255896E0,5.5591297E1,3.7714603E0,4.84393E0,1.1748039E1,1.38336525E1,3.4798424E1,2.9251549E1],"tree_param":{"num_deleted":"0","num_feature":"250","num_nodes":"65","size_leaf_vector":"1"}},{"base_weights":[-1.2469264E-2,-2.8473737E-2,1.09898865E-1,5.8975744E-1,-5.4572735E-2,-1.0835316E0,8.150463E-1,9.0898263E-1,-7.457447E-2,-1.6841233E-2,-1.6062303E-1,-2.4687944E-1,9.7010565E-1,-5.385663E-2,1.1217593E0,-8.515897E-1,-4.808205E-2,8.21678E-2,-1.1079897E-1,1.0648613E0,-3.7852645E-2,1.2385696E0,-1.5499896E-2,5.2451277E-1,-1.8597865E0,8.011394E-1,-9.674132E-2,-1.1123647E-2,1.16587676E-1,1.3039395E-1,2.44764E-2,1.03574276E-1,-1.03595674E-1,-2.0975296E-1,3.283033E-2,9.426632E-2,-1.2549308E-1,-2.74408E-2,5.5516525E-3],"categories":[],"categories_nodes":[],"categories_segments":[],"categories_sizes":[],"default_left":[0,0,0,0,0,0,0,0,0,0,0,0,0,0,0,0,0,0,0,0,0,0,0,0,0,0,0,0,0,0,0,0,0,0,0,0,0,0,0],"id":9,"left_children":[1,3,-1,5,7,9,11,13,15,-1,-1,17,19,-1,21,23,25,-1,-1,27,-1,29,-1,31,33,35,37,-1,-1,-1,-1,-1,-1,-1,-1,-1,-1,-1,-1],"loss_changes":[1.468043E1,1.3147071E1,0E0,1.3326318E1,1.51160345E1,1.8083692E0,5.1236935E0,5.5181503E0,1.5724062E1,0E0,0E0,5.121418E0,3.7365665E0,0E0,2.3148289E0,3.5924934E1,3.0724659E1,0E0,0E0,3.056467E0,0E0,5.352726E-1,0E0,1.0192929E1,8.366299E0,1.29098015E1,1.90148E1,0E0,0E0,0E0,0E0,0E0,0E0,0E0,0E0,0E0,0E0,0E0,0E0],"parents":[2147483647,0,0,1,1,3,3,4,4,5,5,6,6,7,7,8,8,11,11,12,12,14,14,15,15,16,16,19,19,21,21,23,23,24,24,25,25,26,26],"right_children":[2,4,-1,6,8,10,12,14,16,-1,-1,18,20,-1,22,24,26,-1,-1,28,-1,30,-1,32,34,36,38,-1,-1,-1,-1,-1,-1,-1,-1,-1,-1,-1,-1],"split_conditions":[1.5159631E3,3.0227888E1,1.09898865E-1,1.831368E4,1.664337E4,3.1510258E1,-3.3394058E2,1.9661914E4,1.69174E4,-1.6841233E-2,-1.6062303E-1,5.201706E3,6.055194E1,-5.385663E-2,1.669075E4,4.5551277E1,1.935971E4,8.21678E-2,-1.1079897E-1,2.1143816E3,-3.7852645E-2,1.4751315E2,-1.5499896E-2,1.686385E4,5.2002094E1,1.75481E2,3.064803E4,-1.1123647E-2,1.16587676E-1,1.3039395E-1,2.44764E-2,1.03574276E-1,-1.03595674E-1,-2.0975296E-1,3.283033E-2,9.426632E-2,-1.2549308E-1,-2.74408E-2,5.5516525E-3],"split_indices":[128,192,0,205,50,212,33,211,220,0,0,26,122,0,40,247,245,0,0,161,0,123,0,215,177,208,90,0,0,0,0,0,0,0,0,0,0,0,0],"split_type":[0,0,0,0,0,0,0,0,0,0,0,0,0,0,0,0,0,0,0,0,0,0,0,0,0,0,0,0,0,0,0,0,0,0,0,0,0,0,0],"sum_hessian":[8.225267E2,8.1181134E2,1.0715321E1,3.2008133E1,7.798032E2,3.3461013E0,2.8662031E1,1.49543295E1,7.648489E2,1.6970952E0,1.6490061E0,3.5764573E0,2.5085573E1,1.7202303E0,1.3234098E1,2.4190937E1,7.4065796E2,1.6164216E0,1.9600358E0,2.3635353E1,1.4502201E0,1.2152206E1,1.0818924E0,1.0431958E1,1.3758979E1,3.9300755E1,7.013572E2,1.8614749E0,2.1773878E1,1.1109395E1,1.0428116E0,8.110964E0,2.3209941E0,1.24478655E1,1.311114E0,3.727646E1,2.0242975E0,3.2330118E2,3.78056E2],"tree_param":{"num_deleted":"0","num_feature":"250","num_nodes":"39","size_leaf_vector":"1"}},{"base_weights":[2.3205686E-2,8.75454E-3,1.2321774E-1,-1.0256507E-2,8.5509324E-1,1.762081E-2,-7.4202996E-1,1.3243504E-1,1.0179574E0,-2.2430671E-2,5.142381E-1,-9.635797E-2,-1.4237463E0,-6.18819E-2,7.885907E-2,2.2543253E-2,1.1214211E-1,4.4105556E-2,-5.5210006E-1,6.427412E-1,-1.4641167E-1,-6.2119275E-1,1.1220925E-1,-1.8593304E0,8.704926E-2,1.0532414E-2,-3.0420443E-2,-6.530046E-2,1.1143545E-1,-3.7448187E-3,8.763357E-2,-1.17783904E-1,1.0097418E-1,-2.1817875E-1,1.653773E-2],"categories":[],"categories_nodes":[],"categories_segments":[],"categories_sizes":[],"default_left":[0,0,0,0,0,0,0,0,0,0,0,0,0,0,0,0,0,0,0,0,0,0,0,0,0,0,0,0,0,0,0,0,0,0,0],"id":10,"left_children":[1,3,-1,5,7,9,11,13,15,17,19,21,23,-1,-1,-1,-1,25,27,29,-1,31,-1,33,-1,-1,-1,-1,-1,-1,-1,-1,-1,-1,-1],"loss_changes":[1.4550568E1,1.3276724E1,0E0,1.6485806E1,1.9987755E0,1.5502771E1,1.2916418E1,2.6981645E0,9.480028E-1,2.5457565E1,1.57283125E1,1.1122766E1,1.5961807E1,0E0,0E0,0E0,0E0,1.3722658E1,1.42827835E1,8.821472E0,0E0,1.2118683E1,0E0,8.444477E0,0E0,0E0,0E0,0E0,0E0,0E0,0E0,0E0,0E0,0E0,0E0],"parents":[2147483647,0,0,1,1,3,3,4,4,5,5,6,6,7,7,8,8,9,9,10,10,11,11,12,12,17,17,18,18,19,19,21,21,23,23],"right_children":[2,4,-1,6,8,10,12,14,16,18,20,22,24,-1,-1,-1,-1,26,28,30,-1,32,-1,34,-1,-1,-1,-1,-1,-1,-1,-1,-1,-1,-1],"split_conditions":[8.321921E1,1.2551456E3,1.2321774E-1,9.868802E2,4.501104E3,7.35273E2,6.500614E1,6.839839E4,1.1832269E3,3.9470612E2,1.4523136E3,7.280955E1,1.5159631E3,-6.18819E-2,7.885907E-2,2.2543253E-2,1.1214211E-1,3.8509438E4,6.881003E4,2.9372507E3,-1.4641167E-1,9.682513E2,1.1220925E-1,1.2140869E3,8.704926E-2,1.0532414E-2,-3.0420443E-2,-6.530046E-2,1.1143545E-1,-3.7448187E-3,8.763357E-2,-1.17783904E-1,1.0097418E-1,-2.1817875E-1,1.653773E-2],"split_indices":[242,118,0,129,76,184,137,215,103,183,4,87,8,0,0,0,0,1,0,61,0,164,0,108,0,0,0,0,0,0,0,0,0,0,0],"split_type":[0,0,0,0,0,0,0,0,0,0,0,0,0,0,0,0,0,0,0,0,0,0,0,0,0,0,0,0,0,0,0,0,0,0,0],"sum_hessian":[8.3245734E2,8.236197E2,8.837693E0,8.064916E2,1.7128092E1,7.778354E2,2.8656153E1,3.4836526E0,1.364444E1,7.206693E2,5.7166122E1,1.5303316E1,1.3352836E1,1.6506599E0,1.8329926E0,1.9426584E0,1.1701781E1,6.4105743E2,7.9611885E1,5.431334E1,2.8527842E0,1.1038692E1,4.2646236E0,1.1381509E1,1.9713268E0,5.4582196E2,9.523544E1,7.564E1,3.9718835E0,1.4099005E1,4.0214333E1,8.436937E0,2.6017559E0,9.750977E0,1.6305326E0],"tree_param":{"num_deleted":"0","num_feature":"250","num_nodes":"35","size_leaf_vector":"1"}},{"base_weights":[-9.199795E-3,-2.8486669E-2,7.9294187E-1,1.11770645E-1,-1.3709027E-1,9.3216693E-1,-4.025694E-2,2.1676446E-1,-3.1363073E-1,9.0343213E-1,-1.683271E-1,1.0278788E0,-3.1367447E-2,-3.7786853E-2,4.55677E-1,-9.576942E-1,4.8526373E-2,1.2284314E-1,-3.7777483E-1,-1.488077E0,-1.4028966E-1,-1.2035848E-2,1.127561E0,1.98017E-1,-4.867692E-1,6.2523085E-1,-3.300538E-1,-1.283108E0,4.4948938E-1,-4.3813315E-1,1.1286595E0,-1.4967273E-1,7.921275E-2,3.3823695E-2,-1.8279289E0,7.722326E-1,-1.9056986E-1,1.1880966E-1,1.431452E-2,-1.7225344E-2,6.682452E-2,-7.4962648E-3,-1.5350352E-1,-3.9046336E-2,7.7234484E-2,8.507867E-2,-9.206458E-2,-4.5533847E-2,-2.1030664E-1,1.07383005E-1,-1.0627095E-1,2.8684055E-2,-1.6251087E-1,-2.1492213E-2,1.24618016E-1,-2.144207E-1,-6.465807E-3,1.0002341E-1,-3.803348E-2,-4.0494617E-2,-2.7054942E-3],"categories":[],"categories_nodes":[],"categories_segments":[],"categories_sizes":[],"default_left":[0,0,0,0,0,0,0,0,0,0,0,0,0,0,0,0,0,0,0,0,0,0,0,0,0,0,0,0,0,0,0,0,0,0,0,0,0,0,0,0,0,0,0,0,0,0,0,0,0,0,0,0,0,0,0,0,0,0,0,0,0],"id":11,"left_children":[1,3,5,7,9,11,-1,13,15,17,19,21,-1,23,25,27,29,-1,31,33,35,-1,37,39,41,43,45,47,49,51,53,-1,-1,-1,55,57,59,-1,-1,-1,-1,-1,-1,-1,-1,-1,-1,-1,-1,-1,-1,-1,-1,-1,-1,-1,-1,-1,-1,-1,-1],"loss_changes":[1.2982513E1,1.2490676E1,3.6548395E0,1.6056276E1,1.5169397E1,2.4628077E0,0E0,1.7513538E1,1.6670143E1,6.1366606E0,1.6420527E1,2.0704288E0,0E0,1.4940897E1,1.9987799E1,1.2344875E1,2.497426E1,0E0,5.7952385E0,6.356312E0,2.0388672E1,0E0,7.625141E-1,1.6245049E1,2.0852089E1,1.8601994E1,1.9619064E1,1.3385395E1,6.3974714E0,2.871308E1,2.5959911E0,0E0,0E0,0E0,4.2952385E0,6.486767E0,1.4674084E1,0E0,0E0,0E0,0E0,0E0,0E0,0E0,0E0,0E0,0E0,0E0,0E0,0E0,0E0,0E0,0E0,0E0,0E0,0E0,0E0,0E0,0E0,0E0,0E0],"parents":[2147483647,0,0,1,1,2,2,3,3,4,4,5,5,7,7,8,8,9,9,10,10,11,11,13,13,14,14,15,15,16,16,18,18,19,19,20,20,22,22,23,23,24,24,25,25,26,26,27,27,28,28,29,29,30,30,34,34,35,35,36,36],"right_children":[2,4,6,8,10,12,-1,14,16,18,20,22,-1,24,26,28,30,-1,32,34,36,-1,38,40,42,44,46,48,50,52,54,-1,-1,-1,56,58,60,-1,-1,-1,-1,-1,-1,-1,-1,-1,-1,-1,-1,-1,-1,-1,-1,-1,-1,-1,-1,-1,-1,-1,-1],"split_conditions":[1.2551456E3,4.8884575E1,9.647297E4,5.9710926E1,1.66287E4,8.515464E1,-4.025694E-2,-6.1405495E1,-2.6024237E2,1.673822E4,1.69146E4,2.8351042E3,-3.1367447E-2,-1.722951E2,3.138152E4,6.741999E4,4.7175656E2,1.2284314E-1,1.683635E4,1.658577E4,1.914594E4,-1.2035848E-2,1.9267262E4,-2.5753305E2,2.928109E4,2.127003E3,1.5695054E1,3.9939114E2,1.0015659E3,4.841953E1,5.565985E1,-1.4967273E-1,7.921275E-2,3.3823695E-2,5.4546185E1,4.4875625E4,3.061703E4,1.1880966E-1,1.431452E-2,-1.7225344E-2,6.682452E-2,-7.4962648E-3,-1.5350352E-1,-3.9046336E-2,7.7234484E-2,8.507867E-2,-9.206458E-2,-4.5533847E-2,-2.1030664E-1,1.07383005E-1,-1.0627095E-1,2.8684055E-2,-1.6251087E-1,-2.1492213E-2,1.24618016E-1,-2.144207E-1,-6.465807E-3,1.0002341E-1,-3.803348E-2,-4.0494617E-2,-2.7054942E-3],"split_indices":[163,177,245,77,45,102,0,38,219,95,215,116,0,43,56,215,58,0,80,80,115,0,61,158,100,91,74,18,9,247,32,0,0,0,92,6,165,0,0,0,0,0,0,0,0,0,0,0,0,0,0,0,0,0,0,0,0,0,0,0,0],"split_type":[0,0,0,0,0,0,0,0,0,0,0,0,0,0,0,0,0,0,0,0,0,0,0,0,0,0,0,0,0,0,0,0,0,0,0,0,0,0,0,0,0,0,0,0,0,0,0,0,0,0,0,0,0,0,0,0,0,0,0,0,0],"sum_hessian":[8.3670215E2,8.1799854E2,1.8703653E1,3.569641E2,4.610344E2,1.6949993E1,1.7536594E0,2.8669504E2,7.02691E1,1.2623222E1,4.484112E2,1.5903182E1,1.0468111E0,1.3921214E2,1.4748288E2,2.4699272E1,4.5569824E1,1.0101901E1,2.5213218E0,8.244813E0,4.4016635E2,1.2537565E0,1.46494255E1,9.1641396E1,4.7570755E1,1.2147409E2,2.6008783E1,2.0131905E1,4.567367E0,3.1825191E1,1.3744633E1,1.1459334E0,1.3753884E0,1.2942823E0,6.9505305E0,2.2236856E1,4.179295E2,1.3605843E1,1.0435834E0,5.1624523E1,4.001687E1,3.4922947E1,1.264781E1,1.5159152E1,1.0631494E2,8.524392E0,1.748439E1,1.0792208E1,9.339696E0,3.437866E0,1.1295011E0,2.0228497E1,1.1596695E1,1.0388577E0,1.2705774E1,5.7102447E0,1.2402861E0,1.8674772E1,3.5620837E0,1.8020074E2,2.3772876E2],"tree_param":{"num_deleted":"0","num_feature":"250","num_nodes":"61","size_leaf_vector":"1"}},{"base_weights":[1.2796142E-2,-3.1279963E-3,8.8152415E-1,-1.7864786E-2,8.57572E-1,9.914838E-1,-2.8307823E-2,6.771752E-2,-1.6921872E-1,1.1474975E0,-4.987644E-2,1.10897146E-1,-2.0268723E-2,-1.1069214E-1,2.8660768E-1,-3.777189E-2,-7.004588E-1,2.2746207E-2,1.2218543E-1,-1.1392856E-1,8.7782644E-2,2.400306E-2,-1.2229425E0,-5.473821E-2,5.416873E-1,-1.9036661E-1,4.303489E-1,8.4925246E-1,-8.285114E-1,4.0188383E-2,-1.7559404E-2,-1.534164E-1,6.988414E-2,4.3340724E-2,-5.2074786E-2,9.726014E-2,9.251111E-3,9.104831E-2,-2.9200796E-2,-4.9385946E-2,6.710469E-2,2.1954503E-2,9.56276E-2,-9.4939105E-2,7.065665E-2],"categories":[],"categories_nodes":[],"categories_segments":[],"categories_sizes":[],"default_left":[0,0,0,0,0,0,0,0,0,0,0,0,0,0,0,0,0,0,0,0,0,0,0,0,0,0,0,0,0,0,0,0,0,0,0,0,0,0,0,0,0,0,0,0,0],"id":12,"left_children":[1,3,5,7,9,11,-1,13,15,17,19,-1,-1,21,23,25,27,-1,-1,-1,-1,29,31,33,35,37,39,41,43,-1,-1,-1,-1,-1,-1,-1,-1,-1,-1,-1,-1,-1,-1,-1,-1],"loss_changes":[1.1440301E1,1.0326104E1,2.186966E0,1.0376564E1,3.662774E0,2.1642714E0,0E0,2.0021559E1,2.0176672E1,4.354496E-1,5.3223023E0,0E0,0E0,4.2387466E1,2.0067963E1,1.672495E1,1.2080599E1,0E0,0E0,0E0,0E0,1.9166094E1,1.9350376E1,2.2822317E1,2.5421703E1,2.000413E1,1.3141235E1,1.1822677E-1,1.0591061E1,0E0,0E0,0E0,0E0,0E0,0E0,0E0,0E0,0E0,0E0,0E0,0E0,0E0,0E0,0E0,0E0],"parents":[2147483647,0,0,1,1,2,2,3,3,4,4,5,5,7,7,8,8,9,9,10,10,13,13,14,14,15,15,16,16,21,21,22,22,23,23,24,24,25,25,26,26,27,27,28,28],"right_children":[2,4,6,8,10,12,-1,14,16,18,20,-1,-1,22,24,26,28,-1,-1,-1,-1,30,32,34,36,38,40,42,44,-1,-1,-1,-1,-1,-1,-1,-1,-1,-1,-1,-1,-1,-1,-1,-1],"split_conditions":[1.3125331E3,9.340192E4,1.951447E4,5.6112434E1,5.629466E1,9.710889E4,-2.8307823E-2,3.055774E4,6.2724E4,2.8115133E1,6.437722E1,1.10897146E-1,-2.0268723E-2,2.934574E4,-2.399043E2,7.01776E1,4.2356014E1,2.2746207E-2,1.2218543E-1,-1.1392856E-1,8.7782644E-2,1.0741627E4,4.5308636E2,4.1263294E1,1.4291888E2,3.708303E1,6.249551E1,6.349043E4,1.4345488E4,4.0188383E-2,-1.7559404E-2,-1.534164E-1,6.988414E-2,4.3340724E-2,-5.2074786E-2,9.726014E-2,9.251111E-3,9.104831E-2,-2.9200796E-2,-4.9385946E-2,6.710469E-2,2.1954503E-2,9.56276E-2,-9.4939105E-2,7.065665E-2],"split_indices":[148,201,231,242,37,220,0,20,5,17,102,0,0,195,233,222,192,0,0,0,0,186,93,242,223,102,202,35,41,0,0,0,0,0,0,0,0,0,0,0,0,0,0,0,0],"split_type":[0,0,0,0,0,0,0,0,0,0,0,0,0,0,0,0,0,0,0,0,0,0,0,0,0,0,0,0,0,0,0,0,0,0,0,0,0,0,0,0,0,0,0,0,0],"sum_hessian":[8.257858E2,8.118997E2,1.3886054E1,7.9919525E2,1.270447E1,1.2823895E1,1.0621588E0,5.1087576E2,2.8831952E2,9.4278E0,3.2766695E0,1.1740191E1,1.083704E0,2.8173654E2,2.2913924E2,2.3198872E2,5.633078E1,1.0084955E0,8.419305E0,1.4021002E0,1.8745693E0,2.5217604E2,2.9560482E1,9.833432E1,1.3080492E2,1.7540483E2,5.6583893E1,3.8694968E0,5.246128E1,8.681081E1,1.6536523E2,2.5614124E1,3.946358E0,4.806068E1,5.027364E1,6.616484E1,6.4640076E1,1.415357E1,1.6125127E2,1.1474286E1,4.5109608E1,1.0053816E0,2.8641152E0,4.8985462E1,3.47582E0],"tree_param":{"num_deleted":"0","num_feature":"250","num_nodes":"45","size_leaf_vector":"1"}},{"base_weights":[1.2452151E-3,-1.5812196E-2,7.8583604E-1,7.049688E-1,-3.5035703E-2,9.480018E-1,-6.339254E-2,9.954879E-1,-9.9160904E-1,2.341276E-2,-2.8985837E-1,1.1117239E0,-1.18498385E-1,1.127048E0,-4.040381E-2,-1.1129092E-2,-1.356758E-1,-4.8360884E-2,4.6358606E-1,-7.705952E-1,-4.3706782E-2,1.7251331E-2,1.1713083E-1,5.6364108E-2,-7.333515E-2,1.1729946E-1,1.957996E-2,-1.8781036E-3,-1.3415022E0,1.0304918E0,1.3380134E-1,-1.1108216E0,9.822316E-1,8.815781E-1,-2.1383905E-1,-8.582234E-2,2.8598947E-3,-1.5405713E-1,7.693443E-2,-3.3841755E-2,1.1387266E-1,-9.0885445E-2,4.739988E-2,4.0672965E-2,-1.3728455E-1,1.1829773E-1,-1.6688643E-2,-2.5139203E-2,1.03102826E-1,-3.6191486E-2,8.572524E-2],"categories":[],"categories_nodes":[],"categories_segments":[],"categories_sizes":[],"default_left":[0,0,0,0,0,0,0,0,0,0,0,0,0,0,0,0,0,0,0,0,0,0,0,0,0,0,0,0,0,0,0,0,0,0,0,0,0,0,0,0,0,0,0,0,0,0,0,0,0,0,0],"id":13,"left_children":[1,3,5,7,9,11,-1,13,15,17,19,21,23,25,-1,-1,-1,27,29,31,33,-1,-1,-1,-1,-1,-1,35,37,39,41,43,45,47,49,-1,-1,-1,-1,-1,-1,-1,-1,-1,-1,-1,-1,-1,-1,-1,-1],"loss_changes":[1.1050418E1,1.1223102E1,4.6460257E0,1.1358721E1,1.1745637E1,2.9549742E0,0E0,3.8551807E0,9.989643E-1,2.0306116E1,1.7376282E1,5.877495E-1,1.6948633E0,5.038109E-1,0E0,0E0,0E0,3.3233353E1,1.6708063E1,3.0767069E1,1.5672963E1,0E0,0E0,0E0,0E0,0E0,0E0,1.3980766E1,9.246559E0,5.2732773E0,2.1045082E1,1.73157E1,2.1857843E0,2.8790016E0,1.3615608E1,0E0,0E0,0E0,0E0,0E0,0E0,0E0,0E0,0E0,0E0,0E0,0E0,0E0,0E0,0E0,0E0],"parents":[2147483647,0,0,1,1,2,2,3,3,4,4,5,5,7,7,8,8,9,9,10,10,11,11,12,12,13,13,17,17,18,18,19,19,20,20,27,27,28,28,29,29,30,30,31,31,32,32,33,33,34,34],"right_children":[2,4,6,8,10,12,-1,14,16,18,20,22,24,26,-1,-1,-1,28,30,32,34,-1,-1,-1,-1,-1,-1,36,38,40,42,44,46,48,50,-1,-1,-1,-1,-1,-1,-1,-1,-1,-1,-1,-1,-1,-1,-1,-1],"split_conditions":[1.2551456E3,-8.2192737E2,9.804734E4,2.0090008E4,6.373049E4,7.1989006E1,-6.339254E-2,6.2033417E1,3.9844505E1,5.1156E4,6.677305E4,4.11158E1,6.2378223E3,1.2843967E4,-4.040381E-2,-1.1129092E-2,-1.356758E-1,4.39316E4,5.9132E4,5.955527E2,6.66309E4,1.7251331E-2,1.1713083E-1,5.6364108E-2,-7.333515E-2,1.1729946E-1,1.957996E-2,-4.977846E2,1.0952594E3,-1.3918552E3,-4.3339264E2,-5.707721E2,6.764422E1,1.9246782E3,9.574281E4,-8.582234E-2,2.8598947E-3,-1.5405713E-1,7.693443E-2,-3.3841755E-2,1.1387266E-1,-9.0885445E-2,4.739988E-2,4.0672965E-2,-1.3728455E-1,1.1829773E-1,-1.6688643E-2,-2.5139203E-2,1.03102826E-1,-3.6191486E-2,8.572524E-2],"split_indices":[168,194,225,136,190,227,0,227,197,0,240,237,161,71,0,0,0,45,45,114,155,0,0,0,0,0,0,89,173,4,64,159,127,196,155,0,0,0,0,0,0,0,0,0,0,0,0,0,0,0,0],"split_type":[0,0,0,0,0,0,0,0,0,0,0,0,0,0,0,0,0,0,0,0,0,0,0,0,0,0,0,0,0,0,0,0,0,0,0,0,0,0,0,0,0,0,0,0,0,0,0,0,0,0,0],"sum_hessian":[8.2377167E2,8.072025E2,1.6569155E1,2.0042467E1,7.8716003E2,1.5168843E1,1.400311E0,1.7465023E1,2.5774434E0,6.410346E2,1.4612544E2,1.3113362E1,2.055481E0,1.6142288E1,1.3227355E0,1.1381999E0,1.4392433E0,5.519285E2,8.910606E1,4.8762047E1,9.73634E1,1.0146724E0,1.209869E1,1.0139078E0,1.0415732E0,1.5135907E1,1.0063809E0,5.337442E2,1.8184319E1,3.1989979E1,5.7116077E1,4.1142494E1,7.619552E0,1.4472304E1,8.28911E1,1.7409578E1,5.1633466E2,1.686407E1,1.3202466E0,2.1881719E0,2.9801807E1,1.3639978E1,4.34761E1,5.9764876E0,3.5166004E1,6.461323E0,1.1582295E0,1.6070757E0,1.2865229E1,7.340512E1,9.485973E0],"tree_param":{"num_deleted":"0","num_feature":"250","num_nodes":"51","size_leaf_vector":"1"}},{"base_weights":[5.574997E-3,3.7060413E-1,-3.1344518E-2,-9.6904546E-1,4.9090984E-1,-6.329587E-2,4.175382E-1,3.8031182E-1,-1.7291182E-1,7.5835717E-1,-1.9616733E-1,-7.899279E-2,8.533184E-1,6.7537224E-1,-3.9984107E-1,-2.3448637E-2,7.678186E-2,-5.151211E-1,8.4308726E-1,-7.49572E-1,1.1238309E-1,1.2084137E-2,-2.5941277E-1,1.0749837E-1,-2.9527614E-2,8.426898E-1,-9.818868E-1,-1.6413817E0,2.8414974E-1,-1.322492E-1,6.585519E-2,9.519856E-1,-3.5703275E-1,5.928222E-1,-1.1108088E0,-1.2892437E-1,3.8961136E-1,2.7571586E-1,-3.7845975E-1,7.984588E-2,1.2162157E0,-1.5478389E-1,3.1174961E-2,-2.09081E-2,-2.006251E-1,-9.283056E-1,8.213957E-1,-5.329583E-2,1.00725524E-1,5.479742E-2,-1.207641E-1,-2.217069E-2,9.583747E-2,-2.4954809E-2,-1.7645977E-1,-4.258167E-3,-9.9188894E-2,1.3505903E-2,8.108445E-2,-9.023575E-2,7.076692E-2,-1.685745E-1,-2.8709654E-2,1.0795989E-1,-4.495113E-2,1.2553301E-1,1.9465022E-2,-9.207161E-3,-1.273697E-1,-2.816779E-2,1.0703236E-1],"categories":[],"categories_nodes":[],"categories_segments":[],"categories_sizes":[],"default_left":[0,0,0,0,0,0,0,0,0,0,0,0,0,0,0,0,0,0,0,0,0,0,0,0,0,0,0,0,0,0,0,0,0,0,0,0,0,0,0,0,0,0,0,0,0,0,0,0,0,0,0,0,0,0,0,0,0,0,0,0,0,0,0,0,0,0,0,0,0,0,0],"id":14,"left_children":[1,3,5,7,9,11,13,15,-1,17,19,21,23,25,27,-1,-1,29,31,33,-1,35,37,-1,-1,39,41,43,45,-1,-1,47,49,51,53,55,57,59,61,63,65,-1,-1,-1,-1,67,69,-1,-1,-1,-1,-1,-1,-1,-1,-1,-1,-1,-1,-1,-1,-1,-1,-1,-1,-1,-1,-1,-1,-1,-1],"loss_changes":[1.1150137E1,1.2723367E1,1.0804877E1,7.424965E0,1.3084318E1,1.0174119E1,1.0822055E1,9.4175005E-1,0E0,5.923971E0,1.5830924E1,1.1366392E1,3.3501005E0,1.1484913E1,1.1195772E1,0E0,0E0,4.466655E0,6.623768E0,7.960043E0,0E0,2.4564856E1,1.4885671E1,0E0,0E0,1.0003586E1,3.401121E0,2.0031443E0,6.6243196E0,0E0,0E0,4.177124E0,4.300807E0,1.3572576E0,6.4362335E0,2.4995327E1,1.334473E1,2.241968E1,2.223588E1,7.2181854E0,7.036896E-1,0E0,0E0,0E0,0E0,8.163905E-1,2.1594415E0,0E0,0E0,0E0,0E0,0E0,0E0,0E0,0E0,0E0,0E0,0E0,0E0,0E0,0E0,0E0,0E0,0E0,0E0,0E0,0E0,0E0,0E0,0E0,0E0],"parents":[2147483647,0,0,1,1,2,2,3,3,4,4,5,5,6,6,7,7,9,9,10,10,11,11,12,12,13,13,14,14,17,17,18,18,19,19,21,21,22,22,25,25,26,26,27,27,28,28,31,31,32,32,33,33,34,34,35,35,36,36,37,37,38,38,39,39,40,40,45,45,46,46],"right_children":[2,4,6,8,10,12,14,16,-1,18,20,22,24,26,28,-1,-1,30,32,34,-1,36,38,-1,-1,40,42,44,46,-1,-1,48,50,52,54,56,58,60,62,64,66,-1,-1,-1,-1,68,70,-1,-1,-1,-1,-1,-1,-1,-1,-1,-1,-1,-1,-1,-1,-1,-1,-1,-1,-1,-1,-1,-1,-1,-1],"split_conditions":[3.5002884E1,1.8847849E3,7.37306E1,4.7757946E1,4.956714E1,1.3125331E3,4.011493E2,1.8847849E3,-1.7291182E-1,-1.1517212E3,3.4924298E2,1.5663947E2,6.643472E1,6.939317E4,4.4066843E2,-2.3448637E-2,7.678186E-2,3.9598132E2,5.917887E4,2.073054E4,1.1238309E-1,1.9182444E1,2.6054E4,1.0749837E-1,-2.9527614E-2,1.0312432E2,6.824571E4,5.5761597E3,6.4075485E1,-1.322492E-1,6.585519E-2,1.565747E3,2.128511E4,1.686944E4,8.0391484E3,6.551646E1,3.055774E4,2.073054E4,2.812654E4,4.2587067E1,7.607414E4,-1.5478389E-1,3.1174961E-2,-2.09081E-2,-2.006251E-1,6.931399E1,3.796456E3,-5.329583E-2,1.00725524E-1,5.479742E-2,-1.207641E-1,-2.217069E-2,9.583747E-2,-2.4954809E-2,-1.7645977E-1,-4.258167E-3,-9.9188894E-2,1.3505903E-2,8.108445E-2,-9.023575E-2,7.076692E-2,-1.685745E-1,-2.8709654E-2,1.0795989E-1,-4.495113E-2,1.2553301E-1,1.9465022E-2,-9.207161E-3,-1.273697E-1,-2.816779E-2,1.0703236E-1],"split_indices":[247,86,232,47,187,113,148,96,0,233,109,248,222,225,164,0,0,14,106,225,0,238,75,0,0,219,75,211,202,0,0,121,135,0,221,97,10,180,215,152,141,0,0,0,0,147,106,0,0,0,0,0,0,0,0,0,0,0,0,0,0,0,0,0,0,0,0,0,0,0,0],"split_type":[0,0,0,0,0,0,0,0,0,0,0,0,0,0,0,0,0,0,0,0,0,0,0,0,0,0,0,0,0,0,0,0,0,0,0,0,0,0,0,0,0,0,0,0,0,0,0,0,0,0,0,0,0,0,0,0,0,0,0,0,0,0,0,0,0,0,0,0,0,0,0],"sum_hessian":[8.2550214E2,7.49933E1,7.5050885E2,5.598379E0,6.939492E1,7.014396E2,4.9069294E1,2.1972458E0,3.4011333E0,4.987655E1,1.9518373E1,6.9052814E2,1.0911396E1,3.7434647E1,1.1634647E1,1.0021583E0,1.1950877E0,2.7946026E0,4.7081944E1,1.4057118E1,5.461256E0,4.5950214E2,2.3102602E2,9.199993E0,1.7114035E0,3.4448254E1,2.9863942E0,3.6356719E0,7.9989753E0,1.5805457E0,1.2140568E0,4.3354717E1,3.7272294E0,2.844726E0,1.1212392E1,3.3502643E2,1.24475716E2,4.1802666E1,1.8922336E2,1.1722141E1,2.272611E1,1.9408089E0,1.0455853E0,1.0574933E0,2.5781784E0,2.2325854E0,5.76639E0,1.245614E0,4.21091E1,1.9782503E0,1.7489791E0,1.0031022E0,1.841624E0,5.4347224E0,5.7776694E0,3.0550854E2,2.9517883E1,7.841185E1,4.606387E1,1.0923047E1,3.087962E1,1.12206E1,1.7800276E2,3.698202E0,8.02394E0,2.1667658E1,1.058454E0,1.0228105E0,1.2097749E0,1.0374733E0,4.7289166E0],"tree_param":{"num_deleted":"0","num_feature":"250","num_nodes":"71","size_leaf_vector":"1"}},{"base_weights":[1.5957354E-2,4.7651318E-1,-2.0259297E-2,-8.0615714E-2,8.5362494E-1,-1.3942403E-1,1.0683335E-1,4.9386436E-1,-7.147801E-1,9.705329E-1,-3.3324525E-1,-4.139178E-2,-9.515594E-1,6.6085804E-1,-1.7828653E-2,-7.9892486E-1,9.223535E-1,-1.3857691E0,5.675085E-1,1.0817617E0,-2.1866279E-2,5.284768E-2,-1.0930037E-1,-1.2967429E-1,6.7191195E-1,-1.2669196E0,8.930406E-1,-1.9311768E-1,8.035649E-1,-1.1815965E0,4.16422E-2,2.776433E-2,-1.3774021E-1,1.1518486E-1,9.462153E-3,1.14572756E-1,-1.9706653E0,-3.9900433E-2,1.0290293E-1,-2.3705807E-2,1.1414881E0,-7.705464E-2,6.0618997E-2,3.5244342E-2,-4.4365305E-1,1.1693553E0,-3.3121282E-1,6.35279E-1,-1.461955E0,1.1398864E-1,-2.1293797E-2,8.8049555E-1,-1.1799567E-1,9.293788E-2,-1.522086E0,2.4416496E-1,-1.3236928E-1,7.069466E-2,-7.0726626E-2,-6.25584E-2,7.654945E-2,-5.3820737E-2,-2.1971789E-1,-1.2759956E-2,1.2055885E-1,3.0407557E-2,-4.1996755E-2,-6.185037E-2,2.6540285E-2,1.2382572E-1,1.1603905E-2,3.3521768E-2,-1.629001E-1,-1.9475942E-2,1.00015245E-1,-1.8059282E-1,-8.172201E-3,9.672237E-2,-5.2997153E-2,-1.8082806E-1,7.430601E-2,3.720443E-2,-8.832726E-2,-5.5994477E-2,9.111115E-3],"categories":[],"categories_nodes":[],"categories_segments":[],"categories_sizes":[],"default_left":[0,0,0,0,0,0,0,0,0,0,0,0,0,0,0,0,0,0,0,0,0,0,0,0,0,0,0,0,0,0,0,0,0,0,0,0,0,0,0,0,0,0,0,0,0,0,0,0,0,0,0,0,0,0,0,0,0,0,0,0,0,0,0,0,0,0,0,0,0,0,0,0,0,0,0,0,0,0,0,0,0,0,0,0,0],"id":15,"left_children":[1,3,5,7,9,11,13,15,17,19,21,23,25,27,29,31,33,35,37,39,41,-1,-1,43,45,47,49,-1,51,53,55,-1,-1,-1,57,59,61,-1,-1,-1,63,-1,-1,65,67,69,71,73,75,-1,-1,77,-1,-1,79,81,83,-1,-1,-1,-1,-1,-1,-1,-1,-1,-1,-1,-1,-1,-1,-1,-1,-1,-1,-1,-1,-1,-1,-1,-1,-1,-1,-1,-1],"loss_changes":[1.3598761E1,1.25563E1,1.1468559E1,9.426403E0,5.253454E0,3.1069702E1,2.532628E1,8.303247E0,1.1323234E1,3.6221752E0,3.1508467E0,2.2108608E1,2.5586933E1,2.6464825E1,2.0824514E1,2.8337E0,2.2355976E0,7.5357695E0,2.603592E0,2.5812187E0,2.4729276E0,0E0,0E0,1.6172604E1,1.9686565E1,1.44018135E1,2.078576E0,0E0,1.0887653E1,1.192861E1,1.0130668E1,0E0,0E0,0E0,2.080916E0,2.0598946E0,7.8001595E-1,0E0,0E0,0E0,2.450756E0,0E0,0E0,2.5275684E1,1.3495134E1,1.7487564E0,1.2308961E1,1.4287395E0,1.5634285E1,0E0,0E0,8.183117E0,0E0,0E0,9.755192E0,1.9471891E1,1.4840183E1,0E0,0E0,0E0,0E0,0E0,0E0,0E0,0E0,0E0,0E0,0E0,0E0,0E0,0E0,0E0,0E0,0E0,0E0,0E0,0E0,0E0,0E0,0E0,0E0,0E0,0E0,0E0,0E0],"parents":[2147483647,0,0,1,1,2,2,3,3,4,4,5,5,6,6,7,7,8,8,9,9,10,10,11,11,12,12,13,13,14,14,15,15,16,16,17,17,18,18,19,19,20,20,23,23,24,24,25,25,26,26,28,28,29,29,30,30,34,34,35,35,36,36,40,40,43,43,44,44,45,45,46,46,47,47,48,48,51,51,54,54,55,55,56,56],"right_children":[2,4,6,8,10,12,14,16,18,20,22,24,26,28,30,32,34,36,38,40,42,-1,-1,44,46,48,50,-1,52,54,56,-1,-1,-1,58,60,62,-1,-1,-1,64,-1,-1,66,68,70,72,74,76,-1,-1,78,-1,-1,80,82,84,-1,-1,-1,-1,-1,-1,-1,-1,-1,-1,-1,-1,-1,-1,-1,-1,-1,-1,-1,-1,-1,-1,-1,-1,-1,-1,-1,-1],"split_conditions":[3.400609E1,-4.293282E0,3.050931E4,4.5986095E1,7.022186E1,2.936335E4,4.261111E4,-4.8197647E2,3.323189E1,6.769313E1,6.251047E1,3.7385873E2,4.6079318E2,-5.325536E2,4.244599E4,4.1146763E3,4.7539246E1,-3.885366E2,-1.9833879E2,-6.6498834E2,5.5182034E1,5.284768E-2,-1.0930037E-1,3.3493902E4,7.6301994E1,-1.172275E2,8.679952E1,-1.9311768E-1,1.0626735E3,5.1872364E1,6.372401E4,2.776433E-2,-1.3774021E-1,1.1518486E-1,6.68954E3,4.6427998E1,-8.9404486E2,-3.9900433E-2,1.0290293E-1,-2.3705807E-2,1.4578377E1,-7.705464E-2,6.0618997E-2,2.699011E4,2.2730832E2,8.041216E1,2.9916E4,4.7086646E3,3.03853E4,1.1398864E-1,-2.1293797E-2,4.782368E2,-1.1799567E-1,9.293788E-2,1.120309E3,7.04891E1,6.677301E4,7.069466E-2,-7.0726626E-2,-6.25584E-2,7.654945E-2,-5.3820737E-2,-2.1971789E-1,-1.2759956E-2,1.2055885E-1,3.0407557E-2,-4.1996755E-2,-6.185037E-2,2.6540285E-2,1.2382572E-1,1.1603905E-2,3.3521768E-2,-1.629001E-1,-1.9475942E-2,1.00015245E-1,-1.8059282E-1,-8.172201E-3,9.672237E-2,-5.2997153E-2,-1.8082806E-1,7.430601E-2,3.720443E-2,-8.832726E-2,-5.5994477E-2,9.111115E-3],"split_indices":[197,3,85,62,77,130,240,123,182,42,107,243,83,84,120,26,82,168,19,83,107,0,0,131,167,64,77,0,39,247,185,0,0,0,46,112,213,0,0,0,247,0,0,245,79,12,225,31,30,0,0,238,0,0,224,32,235,0,0,0,0,0,0,0,0,0,0,0,0,0,0,0,0,0,0,0,0,0,0,0,0,0,0,0,0],"split_type":[0,0,0,0,0,0,0,0,0,0,0,0,0,0,0,0,0,0,0,0,0,0,0,0,0,0,0,0,0,0,0,0,0,0,0,0,0,0,0,0,0,0,0,0,0,0,0,0,0,0,0,0,0,0,0,0,0,0,0,0,0,0,0,0,0,0,0,0,0,0,0,0,0,0,0,0,0,0,0,0,0,0,0,0,0],"sum_hessian":[8.137049E2,5.8435947E1,7.55269E2,2.3905382E1,3.4530567E1,3.8974185E2,3.6552713E2,1.2659009E1,1.1246372E1,3.1600191E1,2.9303768E0,3.4870135E2,4.1040504E1,6.6350426E1,2.991767E2,2.9360807E0,9.722928E0,7.3300457E0,3.9163265E0,2.8334402E1,3.2657886E0,1.515689E0,1.4146878E0,3.110253E2,3.7676044E1,3.5315926E1,5.724577E0,2.8083792E0,6.3542046E1,1.3627893E1,2.855488E2,1.2079968E0,1.7280838E0,7.5605063E0,2.162422E0,2.281581E0,5.048465E0,1.3094805E0,2.6068459E0,1.0989672E0,2.7235435E1,1.3863285E0,1.8794601E0,2.0449907E2,1.0652622E2,2.5075533E1,1.2600514E1,3.0743408E0,3.2241585E1,4.654966E0,1.069611E0,6.170492E1,1.837123E0,1.6525898E0,1.1975304E1,1.3177718E2,1.5377164E2,1.1028402E0,1.0595816E0,1.0858254E0,1.1957556E0,1.150271E0,3.8981938E0,1.261865E0,2.597357E1,1.2877899E2,7.572008E1,8.555611E1,2.097012E1,2.3371147E1,1.7043853E0,8.815397E0,3.7851164E0,1.0811336E0,1.9932072E0,2.5562609E1,6.6789784E0,5.8426586E1,3.2783382E0,1.0811053E1,1.1642509E0,1.18954765E2,1.2822407E1,5.226661E1,1.0150503E2],"tree_param":{"num_deleted":"0","num_feature":"250","num_nodes":"85","size_leaf_vector":"1"}},{"base_weights":[3.2848313E-2,-8.482368E-2,1.7263763E-1,3.512415E-2,-8.7249047E-1,8.2972777E-1,8.364801E-2,-3.963117E-2,9.242046E-1,-1.0762908E0,5.8601356E-1,9.2215043E-1,-9.2665374E-2,-2.820811E-1,1.8456347E-1,1.385086E-1,-4.3051398E-1,-3.2951134E-1,1.036171E0,-1.347528E0,2.1596916E-1,-5.8173545E-2,9.9495816E-1,1.0033284E0,-1.0975277E-1,-7.30885E-2,-1.2918748E0,9.36227E-1,8.114697E-2,9.968245E-1,1.7671078E-2,1.6155297E-1,-8.6152315E-1,-1.2923394E-1,6.991094E-2,1.0901464E0,-1.2954242E-2,6.103662E-1,-1.5740479E0,-1.5596889E0,1.1620957E-1,1.12127446E-1,2.0430228E-2,-7.073836E-2,1.0663724E0,1.392683E-1,-1.0296181E0,-1.629734E0,3.0967418E-2,1.0788119E0,-5.280317E-1,-3.0208325E-1,2.7286997E-1,1.08028114E-1,-6.25703E-2,3.6989287E-2,-2.0491201E-2,1.1133193E-1,-2.5028173E-2,-1.3183437E-1,3.752433E-2,-5.875574E-3,1.15478136E-1,-6.574277E-2,1.11381605E-1,-1.7982788E-1,-2.7037768E-2,-2.0987128E-1,-1.7059378E-2,1.14922754E-1,-1.0315287E-2,3.3690393E-2,-8.969296E-2,6.036259E-2,-1.3960075E-1,-6.7578936E-3,-1.8431714E-1,-5.89359E-2,1.2110021E-1,-1.284163E-1,6.1691206E-2,4.8552886E-2,-6.2274184E-2,4.431595E-2,-2.7777052E-2],"categories":[],"categories_nodes":[],"categories_segments":[],"categories_sizes":[],"default_left":[0,0,0,0,0,0,0,0,0,0,0,0,0,0,0,0,0,0,0,0,0,0,0,0,0,0,0,0,0,0,0,0,0,0,0,0,0,0,0,0,0,0,0,0,0,0,0,0,0,0,0,0,0,0,0,0,0,0,0,0,0,0,0,0,0,0,0,0,0,0,0,0,0,0,0,0,0,0,0,0,0,0,0,0,0],"id":16,"left_children":[1,3,5,7,9,11,13,15,17,19,21,23,-1,25,27,29,31,33,35,37,39,-1,41,43,-1,45,47,49,51,53,55,57,59,-1,-1,61,-1,63,65,67,-1,-1,-1,-1,69,71,73,75,-1,77,79,81,83,-1,-1,-1,-1,-1,-1,-1,-1,-1,-1,-1,-1,-1,-1,-1,-1,-1,-1,-1,-1,-1,-1,-1,-1,-1,-1,-1,-1,-1,-1,-1,-1],"loss_changes":[1.3322782E1,4.1595818E1,2.1571852E1,2.547627E1,1.7924397E1,8.002195E0,1.2123369E1,2.4711575E1,4.514492E0,1.8307072E1,4.294299E0,8.041653E0,0E0,1.4916035E1,1.9897182E1,2.5284613E1,2.8484747E1,4.068761E0,1.8735428E0,1.9863228E1,1.8240767E1,0E0,3.8327932E-1,5.199768E0,0E0,1.232886E1,7.0717163E0,7.0377827E0,1.6758137E1,4.7502365E0,1.6921034E1,1.895127E1,3.6902092E1,0E0,0E0,2.0297756E0,0E0,4.013157E0,1.0762581E1,2.5068417E0,0E0,0E0,0E0,0E0,4.009365E0,1.0535937E1,7.43573E0,3.2703094E0,0E0,7.01165E0,3.75341E0,1.953603E1,1.4357501E1,0E0,0E0,0E0,0E0,0E0,0E0,0E0,0E0,0E0,0E0,0E0,0E0,0E0,0E0,0E0,0E0,0E0,0E0,0E0,0E0,0E0,0E0,0E0,0E0,0E0,0E0,0E0,0E0,0E0,0E0,0E0,0E0],"parents":[2147483647,0,0,1,1,2,2,3,3,4,4,5,5,6,6,7,7,8,8,9,9,10,10,11,11,13,13,14,14,15,15,16,16,17,17,18,18,19,19,20,20,22,22,23,23,25,25,26,26,27,27,28,28,29,29,30,30,31,31,32,32,35,35,37,37,38,38,39,39,44,44,45,45,46,46,47,47,49,49,50,50,51,51,52,52],"right_children":[2,4,6,8,10,12,14,16,18,20,22,24,-1,26,28,30,32,34,36,38,40,-1,42,44,-1,46,48,50,52,54,56,58,60,-1,-1,62,-1,64,66,68,-1,-1,-1,-1,70,72,74,76,-1,78,80,82,84,-1,-1,-1,-1,-1,-1,-1,-1,-1,-1,-1,-1,-1,-1,-1,-1,-1,-1,-1,-1,-1,-1,-1,-1,-1,-1,-1,-1,-1,-1,-1,-1],"split_conditions":[3.084655E4,2.932853E4,4.119704E4,3.9470612E2,4.5071036E2,4.782368E2,4.951861E4,6.686516E1,2.7525377E1,3.044731E4,4.1662974E3,1.120309E3,-9.2665374E-2,9.8564795E3,5.8388E4,3.350797E3,2.332684E4,3.6318805E4,2.990172E4,-1.328051E2,3.034497E4,-5.8173545E-2,9.050797E3,3.6019314E1,-1.0975277E-1,8.738553E3,7.958437E2,9.254171E2,-1.7005988E2,2.8171353E2,4.6294598E1,3.4588395E4,2.719626E4,-1.2923394E-1,6.991094E-2,5.635033E1,-1.2954242E-2,3.005615E1,6.812639E1,3.6646514E3,1.1620957E-1,1.12127446E-1,2.0430228E-2,-7.073836E-2,1.1314829E4,9.54803E3,2.8250447E3,3.1262505E3,3.0967418E-2,-1.599504E3,1.0907008E3,6.16E4,6.2618668E1,1.08028114E-1,-6.25703E-2,3.6989287E-2,-2.0491201E-2,1.1133193E-1,-2.5028173E-2,-1.3183437E-1,3.752433E-2,-5.875574E-3,1.15478136E-1,-6.574277E-2,1.11381605E-1,-1.7982788E-1,-2.7037768E-2,-2.0987128E-1,-1.7059378E-2,1.14922754E-1,-1.0315287E-2,3.3690393E-2,-8.969296E-2,6.036259E-2,-1.3960075E-1,-6.7578936E-3,-1.8431714E-1,-5.89359E-2,1.2110021E-1,-1.284163E-1,6.1691206E-2,4.8552886E-2,-6.2274184E-2,4.431595E-2,-2.7777052E-2],"split_indices":[115,175,240,248,114,248,0,129,77,25,236,29,0,36,40,246,150,16,200,74,70,0,211,102,0,31,53,78,4,243,247,131,0,0,0,212,0,2,247,96,0,0,0,0,216,21,161,111,0,23,79,240,182,0,0,0,0,0,0,0,0,0,0,0,0,0,0,0,0,0,0,0,0,0,0,0,0,0,0,0,0,0,0,0,0],"split_type":[0,0,0,0,0,0,0,0,0,0,0,0,0,0,0,0,0,0,0,0,0,0,0,0,0,0,0,0,0,0,0,0,0,0,0,0,0,0,0,0,0,0,0,0,0,0,0,0,0,0,0,0,0,0,0,0,0,0,0,0,0,0,0,0,0,0,0,0,0,0,0,0,0,0,0,0,0,0,0,0,0,0,0,0,0],"sum_hessian":[8.0804047E2,4.3894125E2,3.690992E2,3.8176114E2,5.7180115E1,4.303194E1,3.2606726E2,3.53033E2,2.8728157E1,5.0399696E1,6.7804174E0,4.1331978E1,1.6999617E0,7.0126305E1,2.5594096E2,2.4295503E2,1.1007795E2,2.1960037E0,2.6532154E1,4.1620956E1,8.778741E0,1.6490359E0,5.1313815E0,4.021867E1,1.113307E0,5.898982E1,1.1136487E1,2.9980476E1,2.2596048E2,2.9088491E1,2.1386653E2,4.6637844E1,6.344011E1,1.0018517E0,1.194152E0,2.541997E1,1.1121842E0,4.140301E0,3.7480656E1,2.826174E0,5.952567E0,4.06396E0,1.0674216E0,1.0662143E0,3.915246E1,4.8972057E1,1.0017763E1,9.181896E0,1.9545908E0,2.7560007E1,2.4204686E0,7.515649E1,1.50804E2,2.7983335E1,1.1051574E0,8.255978E1,1.3130676E2,1.3571123E1,3.306672E1,4.6279892E1,1.7160215E1,1.358753E0,2.4061216E1,1.0898874E0,3.0504138E0,3.1656372E1,5.8242826E0,1.6680543E0,1.1581197E0,3.657841E1,2.5740447E0,4.169447E1,7.2775865E0,1.716897E0,8.300866E0,1.2619878E0,7.9199085E0,1.7696418E0,2.5790365E1,1.3845226E0,1.0359461E0,2.1596437E1,5.3560047E1,1.1533196E2,3.547204E1],"tree_param":{"num_deleted":"0","num_feature":"250","num_nodes":"85","size_leaf_vector":"1"}},{"base_weights":[-1.1900089E-2,-4.7147092E-1,1.7546613E-2,-3.9436042E-2,-9.5738316E-1,2.4090834E-1,-8.305629E-2,7.8844297E-1,-9.3368524E-1,-1.1556191E0,6.42361E-2,-3.5114375E-1,3.15389E-1,-2.361174E-1,1.2894903E-1,-8.5933894E-2,1.0250292E0,8.093839E-2,-1.2754418E0,-2.3483144E-1,-1.636485E0,-1.4963915E0,6.989162E-1,3.944409E-1,-2.9732764E-1,2.7796084E-1,-3.5572833E-1,1.0970094E0,4.9149886E-2,1.222724E0,-3.311614E-2,-1.8142707E0,-3.8766194E-2,6.410545E-1,-9.9520004E-1,-1.800794E0,1.8581355E-2,-1.808446E0,7.5144574E-2,9.6788067E-1,-9.125914E-2,4.8705652E-1,-1.7624213E-1,-8.1737155E-1,5.461501E-1,-1.2315905E0,5.544708E-1,-1.528467E-1,-1.086673E0,-4.571373E-2,1.2571019E0,2.4786624E-1,-2.695907E-1,1.2821007E-1,3.2282576E-2,-3.4145575E-2,-2.0248044E-1,7.853941E-2,-1.2410965E-1,-2.103169E-2,9.518557E-2,3.633721E-2,-1.5541007E-1,-1.1846558E-2,-1.9509168E-1,-2.2957936E-1,-5.470828E-2,-6.523923E-2,1.1702102E-1,-7.621815E-2,5.289128E-2,6.37239E-2,-9.655542E-2,1.0805026E-2,-2.102289E-1,1.1024045E-1,-2.300342E-2,7.6770455E-2,-1.6932097E-1,1.0640692E-1,2.1556672E-2,-5.2665103E-2,8.728954E-3,-1.2854333E-1,8.7516E-2,1.3230328E-1,1.8719202E-2,-2.7853385E-2,5.133462E-2,-4.260586E-2,7.356056E-2],"categories":[],"categories_nodes":[],"categories_segments":[],"categories_sizes":[],"default_left":[0,0,0,0,0,0,0,0,0,0,0,0,0,0,0,0,0,0,0,0,0,0,0,0,0,0,0,0,0,0,0,0,0,0,0,0,0,0,0,0,0,0,0,0,0,0,0,0,0,0,0,0,0,0,0,0,0,0,0,0,0,0,0,0,0,0,0,0,0,0,0,0,0,0,0,0,0,0,0,0,0,0,0,0,0,0,0,0,0,0,0],"id":17,"left_children":[1,3,5,7,9,11,13,15,17,19,-1,21,23,25,27,-1,29,-1,31,33,35,37,39,41,43,45,47,49,51,53,-1,55,57,59,61,63,-1,65,-1,67,-1,69,71,73,75,77,79,81,83,-1,85,87,89,-1,-1,-1,-1,-1,-1,-1,-1,-1,-1,-1,-1,-1,-1,-1,-1,-1,-1,-1,-1,-1,-1,-1,-1,-1,-1,-1,-1,-1,-1,-1,-1,-1,-1,-1,-1,-1,-1],"loss_changes":[1.0848667E1,1.0095941E1,1.6957893E1,2.0425491E1,7.9335575E0,1.0443876E1,1.691866E1,6.475995E0,8.921255E0,8.707346E0,0E0,3.3104256E1,1.0224604E1,1.870493E1,1.6852478E1,0E0,3.892087E0,0E0,7.5663605E0,6.1070786E0,4.323311E0,1.0526482E1,7.2065353E0,9.877388E0,1.1156467E1,2.4757263E1,3.630172E1,4.709753E0,1.2939345E1,2.0404625E-1,0E0,1.7770023E0,5.433679E0,1.370893E0,4.1999826E0,2.8786354E0,0E0,5.9791794E0,0E0,5.021044E0,0E0,8.751213E0,1.7695774E1,1.8663374E1,4.5330434E0,9.827237E0,8.308563E0,1.7428802E1,2.1894085E1,0E0,8.34013E-1,1.7710371E1,1.2663937E1,0E0,0E0,0E0,0E0,0E0,0E0,0E0,0E0,0E0,0E0,0E0,0E0,0E0,0E0,0E0,0E0,0E0,0E0,0E0,0E0,0E0,0E0,0E0,0E0,0E0,0E0,0E0,0E0,0E0,0E0,0E0,0E0,0E0,0E0,0E0,0E0,0E0,0E0],"parents":[2147483647,0,0,1,1,2,2,3,3,4,4,5,5,6,6,7,7,8,8,9,9,11,11,12,12,13,13,14,14,16,16,18,18,19,19,20,20,21,21,22,22,23,23,24,24,25,25,26,26,27,27,28,28,29,29,31,31,32,32,33,33,34,34,35,35,37,37,39,39,41,41,42,42,43,43,44,44,45,45,46,46,47,47,48,48,50,50,51,51,52,52],"right_children":[2,4,6,8,10,12,14,16,18,20,-1,22,24,26,28,-1,30,-1,32,34,36,38,40,42,44,46,48,50,52,54,-1,56,58,60,62,64,-1,66,-1,68,-1,70,72,74,76,78,80,82,84,-1,86,88,90,-1,-1,-1,-1,-1,-1,-1,-1,-1,-1,-1,-1,-1,-1,-1,-1,-1,-1,-1,-1,-1,-1,-1,-1,-1,-1,-1,-1,-1,-1,-1,-1,-1,-1,-1,-1,-1,-1],"split_conditions":[-6.477226E2,-8.3985645E2,4.6107094E1,5.610427E1,6.706387E4,1.935971E4,2.0725569E2,-4.39629E2,5.521001E4,3.7010574E3,6.42361E-2,-1.09184395E2,6.1627197E1,1.986782E4,2.113481E4,-8.5933894E-2,4.056546E1,8.093839E-2,6.265212E4,5.919074E4,4.6475613E1,6.3610816E4,1.942363E4,1.9657741E2,-7.609367E1,-1.2895975E2,2.0090008E4,5.06902E1,5.568683E1,-7.347932E2,-3.311614E-2,3.8372017E1,4.1948196E1,2.7796326E3,4.6368805E1,-5.624392E2,1.8581355E-2,4.0828224E1,7.5144574E-2,3.8372017E1,-9.125914E-2,2.0596441E1,4.469776E1,-1.9975542E2,5.8930723E3,-7.282843E1,-7.608149E0,3.6170962E3,6.531919E1,-4.571373E-2,7.958437E2,4.191322E1,1.17752E3,1.2821007E-1,3.2282576E-2,-3.4145575E-2,-2.0248044E-1,7.853941E-2,-1.2410965E-1,-2.103169E-2,9.518557E-2,3.633721E-2,-1.5541007E-1,-1.1846558E-2,-1.9509168E-1,-2.2957936E-1,-5.470828E-2,-6.523923E-2,1.1702102E-1,-7.621815E-2,5.289128E-2,6.37239E-2,-9.655542E-2,1.0805026E-2,-2.102289E-1,1.1024045E-1,-2.300342E-2,7.6770455E-2,-1.6932097E-1,1.0640692E-1,2.1556672E-2,-5.2665103E-2,8.728954E-3,-1.2854333E-1,8.7516E-2,1.3230328E-1,1.8719202E-2,-2.7853385E-2,5.133462E-2,-4.260586E-2,7.356056E-2],"split_indices":[68,53,72,237,50,45,84,238,65,116,0,58,12,175,10,0,42,0,75,70,82,51,225,174,88,168,136,102,237,43,0,127,27,141,227,193,0,17,0,157,0,72,47,118,186,104,243,66,2,0,33,207,139,0,0,0,0,0,0,0,0,0,0,0,0,0,0,0,0,0,0,0,0,0,0,0,0,0,0,0,0,0,0,0,0,0,0,0,0,0,0],"split_type":[0,0,0,0,0,0,0,0,0,0,0,0,0,0,0,0,0,0,0,0,0,0,0,0,0,0,0,0,0,0,0,0,0,0,0,0,0,0,0,0,0,0,0,0,0,0,0,0,0,0,0,0,0,0,0,0,0,0,0,0,0,0,0,0,0,0,0,0,0,0,0,0,0,0,0,0,0,0,0,0,0,0,0,0,0,0,0,0,0,0,0],"sum_hessian":[8.000434E2,4.7271545E1,7.5277185E2,2.5595343E1,2.1676203E1,2.333302E2,5.1944165E2,1.3352328E1,1.2243014E1,1.953331E1,2.1428921E0,2.5658047E1,2.0767215E2,3.0158972E2,2.1785191E2,1.345928E0,1.20064E1,1.7826442E0,1.046037E1,7.2119093E0,1.2321401E1,1.2069449E1,1.3588598E1,1.8425594E2,2.3416212E1,5.6676174E1,2.4491356E2,1.5619637E1,2.0223228E2,1.0564765E1,1.4416356E0,6.9605503E0,3.4998198E0,3.4242983E0,3.7876112E0,1.1313142E1,1.0082581E0,1.0769811E1,1.299639E0,1.1987286E1,1.6013125E0,1.5865457E2,2.560137E1,1.4504471E1,8.911742E0,8.239609E0,4.8436565E1,1.9265044E2,5.226311E1,1.2854339E0,1.4334203E1,1.2470701E2,7.752527E1,9.5124035E0,1.0523609E0,1.1984559E0,5.7620945E0,2.2822094E0,1.2176105E0,1.0022266E0,2.4220717E0,1.2059764E0,2.581635E0,1.0733973E0,1.0239745E1,7.1768374E0,3.592973E0,1.0837897E0,1.0903496E1,4.5855374E0,1.5406903E2,1.27025385E1,1.2898831E1,8.964195E0,5.5402746E0,4.94652E0,3.9652224E0,1.4212098E0,6.818399E0,1.849162E1,2.9944944E1,7.488646E1,1.17763985E2,4.776831E1,4.4947977E0,1.3279311E1,1.0548921E0,4.179188E1,8.291513E1,6.758171E1,9.94356E0],"tree_param":{"num_deleted":"0","num_feature":"250","num_nodes":"91","size_leaf_vector":"1"}},{"base_weights":[2.253035E-2,-2.3683822E-2,3.726537E-1,2.1554958E-2,-3.9584783E-1,9.0197444E-1,1.2850162E-1,-4.688651E-1,5.991683E-2,-7.705847E-1,1.22630246E-1,1.1531547E-1,1.0913007E0,-2.7504602E-1,7.308551E-1,-2.67874E-3,-9.758586E-1,1.1606976E-1,-2.9755664E-1,2.014405E-1,-1.1608493E0,5.00959E-1,-8.443039E-1,-8.984104E-1,7.443707E-1,-3.336541E-2,1.1993116E0,1.536349E-1,-7.595088E-1,-7.639214E-2,8.2834685E-1,-4.2903805E-1,8.153977E-1,-1.243051E0,7.522463E-2,3.2235697E-1,1.2522551E-2,3.7953293E-1,-6.2263536E-1,-7.606883E-1,8.076117E-1,-1.3581778E0,8.2966834E-2,7.2409254E-1,-1.5806878E-1,-1.4584599E0,8.643852E-2,-1.2365358E-1,-1.1847001E-2,1.0288837E-1,-1.3351229E-2,2.0500535E-2,1.278528E-1,8.205265E-1,-2.373863E-1,4.126134E-1,-1.2270454E0,9.114764E-1,-3.9720204E-2,-1.2677795E-1,1.8629896E-2,1.0940956E-1,-4.6225812E-2,7.835873E-2,-1.4081264E-1,5.791683E-2,1.4237438E-2,-1.4792834E-1,3.264029E-3,-2.8500492E-2,1.06538594E-1,-8.438604E-2,1.1433734E-1,-1.7877428E-1,6.609457E-2,-7.047901E-2,1.0967475E-1,-7.753584E-3,-1.6594188E-1,-8.397496E-2,9.574411E-2,-1.8612348E-1,3.388572E-2,-4.2865183E-2,1.10518925E-1,7.120408E-2,-7.162639E-2,9.610664E-2,-5.0448984E-2,-1.4945589E-1,8.206916E-2,-3.1908493E-2,1.0050354E-1],"categories":[],"categories_nodes":[],"categories_segments":[],"categories_sizes":[],"default_left":[0,0,0,0,0,0,0,0,0,0,0,0,0,0,0,0,0,0,0,0,0,0,0,0,0,0,0,0,0,0,0,0,0,0,0,0,0,0,0,0,0,0,0,0,0,0,0,0,0,0,0,0,0,0,0,0,0,0,0,0,0,0,0,0,0,0,0,0,0,0,0,0,0,0,0,0,0,0,0,0,0,0,0,0,0,0,0,0,0,0,0,0,0],"id":18,"left_children":[1,3,5,7,9,11,13,15,17,19,21,23,25,27,29,31,33,35,37,39,41,43,45,47,49,-1,51,53,55,-1,57,59,61,63,-1,65,67,69,71,73,75,77,-1,79,-1,81,-1,-1,-1,-1,-1,-1,-1,83,85,87,89,91,-1,-1,-1,-1,-1,-1,-1,-1,-1,-1,-1,-1,-1,-1,-1,-1,-1,-1,-1,-1,-1,-1,-1,-1,-1,-1,-1,-1,-1,-1,-1,-1,-1,-1,-1],"loss_changes":[1.2886224E1,1.1861126E1,1.1884634E1,1.1854993E1,1.4929048E1,4.2149143E0,1.5931388E1,1.0803404E1,1.1755699E1,1.7098284E1,1.2456578E1,4.9871163E0,3.9975643E0,8.315496E0,4.455988E0,9.007327E0,1.1046448E1,1.0790882E1,1.7746384E1,8.5390005E0,1.3644375E1,1.241834E1,1.1359545E1,6.568482E-1,1.3176975E0,0E0,1.4663391E0,5.873441E0,1.0754896E1,0E0,2.9200783E0,8.995771E0,3.6566386E0,7.574585E0,0E0,7.7222767E0,1.0177683E1,1.2348018E1,2.2111189E1,9.6018E0,4.630312E0,1.1203087E1,0E0,9.053967E0,0E0,6.0246935E0,0E0,0E0,0E0,0E0,0E0,0E0,0E0,3.4157057E0,7.104043E0,3.5434906E0,8.6878605E0,3.0627575E0,0E0,0E0,0E0,0E0,0E0,0E0,0E0,0E0,0E0,0E0,0E0,0E0,0E0,0E0,0E0,0E0,0E0,0E0,0E0,0E0,0E0,0E0,0E0,0E0,0E0,0E0,0E0,0E0,0E0,0E0,0E0,0E0,0E0,0E0,0E0],"parents":[2147483647,0,0,1,1,2,2,3,3,4,4,5,5,6,6,7,7,8,8,9,9,10,10,11,11,12,12,13,13,14,14,15,15,16,16,17,17,18,18,19,19,20,20,21,21,22,22,23,23,24,24,26,26,27,27,28,28,30,30,31,31,32,32,33,33,35,35,36,36,37,37,38,38,39,39,40,40,41,41,43,43,45,45,53,53,54,54,55,55,56,56,57,57],"right_children":[2,4,6,8,10,12,14,16,18,20,22,24,26,28,30,32,34,36,38,40,42,44,46,48,50,-1,52,54,56,-1,58,60,62,64,-1,66,68,70,72,74,76,78,-1,80,-1,82,-1,-1,-1,-1,-1,-1,-1,84,86,88,90,92,-1,-1,-1,-1,-1,-1,-1,-1,-1,-1,-1,-1,-1,-1,-1,-1,-1,-1,-1,-1,-1,-1,-1,-1,-1,-1,-1,-1,-1,-1,-1,-1,-1,-1,-1],"split_conditions":[6.679943E2,4.0191217E2,5.153314E1,-5.9743256E2,5.123376E1,3.1679521E3,6.66618E1,-4.276947E2,4.213974E4,4.13185E1,6.931034E2,6.0840183E1,1.5575566E3,6.259504E4,5.933112E1,6.11355E4,5.8143055E1,4.5986526E1,-6.548919E1,4.197281E4,6.911515E1,1.1509014E3,6.648443E4,5.007526E1,1.0171528E3,-3.336541E-2,1.8502598E3,1.0390103E2,6.044025E1,-7.639214E-2,8.515464E1,4.5026638E1,6.753201E4,1.4578377E1,7.522463E-2,4.351835E1,1.1136731E3,4.3093664E4,5.176816E2,5.2775977E2,2.0276332E3,3.2430376E3,8.2966834E-2,1.9729277E3,-1.5806878E-1,7.2792465E1,8.643852E-2,-1.2365358E-1,-1.1847001E-2,1.0288837E-1,-1.3351229E-2,2.0500535E-2,1.278528E-1,5.996147E1,7.099649E1,5.5244656E1,1.1699797E4,1.9749078E3,-3.9720204E-2,-1.2677795E-1,1.8629896E-2,1.0940956E-1,-4.6225812E-2,7.835873E-2,-1.4081264E-1,5.791683E-2,1.4237438E-2,-1.4792834E-1,3.264029E-3,-2.8500492E-2,1.06538594E-1,-8.438604E-2,1.1433734E-1,-1.7877428E-1,6.609457E-2,-7.047901E-2,1.0967475E-1,-7.753584E-3,-1.6594188E-1,-8.397496E-2,9.574411E-2,-1.8612348E-1,3.388572E-2,-4.2865183E-2,1.10518925E-1,7.120408E-2,-7.162639E-2,9.610664E-2,-5.0448984E-2,-1.4945589E-1,8.206916E-2,-3.1908493E-2,1.0050354E-1],"split_indices":[189,178,32,78,7,141,12,174,6,37,8,127,76,25,32,120,172,72,9,120,62,228,70,82,159,0,186,28,192,0,62,212,85,22,0,137,141,201,24,183,181,166,0,191,0,22,0,0,0,0,0,0,0,107,137,242,71,201,0,0,0,0,0,0,0,0,0,0,0,0,0,0,0,0,0,0,0,0,0,0,0,0,0,0,0,0,0,0,0,0,0,0,0],"split_type":[0,0,0,0,0,0,0,0,0,0,0,0,0,0,0,0,0,0,0,0,0,0,0,0,0,0,0,0,0,0,0,0,0,0,0,0,0,0,0,0,0,0,0,0,0,0,0,0,0,0,0,0,0,0,0,0,0,0,0,0,0,0,0,0,0,0,0,0,0,0,0,0,0,0,0,0,0,0,0,0,0,0,0,0,0,0,0,0,0,0,0,0,0],"sum_hessian":[7.948512E2,7.0299274E2,9.1858444E1,6.2764124E2,7.53515E1,2.8145279E1,6.3713165E1,4.471974E1,5.829215E2,4.3456497E1,3.1895E1,5.771894E0,2.2373384E1,3.8478092E1,2.5235075E1,2.382118E1,2.0898563E1,5.043691E2,7.85524E1,1.2587892E1,3.0868605E1,2.3271542E1,8.62346E0,2.046216E0,3.725678E0,1.4292063E0,2.094418E1,2.077661E1,1.770148E1,1.126558E0,2.4108517E1,1.5972366E1,7.848813E0,1.8343113E1,2.555451E0,1.6785483E2,3.3651428E2,2.5426128E1,5.312627E1,4.7668815E0,7.82101E0,2.8373495E1,2.4951096E0,2.1607561E1,1.66398E0,6.451158E0,2.1723013E0,1.0190198E0,1.0271963E0,2.6838603E0,1.0418177E0,1.8102511E0,1.9133928E1,7.273369E0,1.3503242E1,5.0809445E0,1.2620537E1,2.2817095E1,1.2914228E0,6.3104887E0,9.661878E0,6.5612607E0,1.2875525E0,1.09936E0,1.7243752E1,6.825131E1,9.9603516E1,3.512572E0,3.330017E2,1.3210571E1,1.2215556E1,4.7676125E1,5.450145E0,2.617994E0,2.1488876E0,1.0245025E0,6.796508E0,5.6426644E0,2.2730831E1,2.468125E0,1.9139437E1,5.2410803E0,1.2100778E0,1.2559764E0,6.0173926E0,4.3640804E0,9.139161E0,3.1495123E0,1.9314322E0,1.14012375E1,1.2192993E0,1.4418776E0,2.1375217E1],"tree_param":{"num_deleted":"0","num_feature":"250","num_nodes":"93","size_leaf_vector":"1"}},{"base_weights":[-1.5218858E-2,5.309009E-1,-3.4140248E-2,-9.828322E-1,8.643112E-1,7.6012814E-1,-4.795209E-2,-1.5412377E-1,1.9780999E-2,1.1082555E-1,1.0281582E0,-7.188299E-2,1.0601013E0,-6.603371E-1,-2.7539613E-2,-1.1991352E-1,7.4667066E-1,1.1760587E0,-1.9233061E-2,1.2094525E-1,-2.2257213E-2,-1.3652742E0,1.3780567E-1,5.6574446E-1,-6.53801E-2,8.982807E-2,1.4201461E-2,2.3037648E-2,1.2329377E-1,5.306753E-1,-1.7955858E0,-1.3070698E0,1.0607444E0,-1.1826252E0,7.210108E-1,8.1737065E-1,-8.543133E-2,7.199434E-2,7.947186E-3,-1.8914326E-1,-5.1524717E-2,6.5861135E-3,-1.6758509E-1,2.0441523E-2,1.1546693E-1,3.9050968E-3,-1.6740152E-1,8.874538E-2,-7.044722E-2,1.0755161E-1,-6.272268E-2,-1.3150674E-2,2.1668345E-2],"categories":[],"categories_nodes":[],"categories_segments":[],"categories_sizes":[],"default_left":[0,0,0,0,0,0,0,0,0,0,0,0,0,0,0,0,0,0,0,0,0,0,0,0,0,0,0,0,0,0,0,0,0,0,0,0,0,0,0,0,0,0,0,0,0,0,0,0,0,0,0,0,0],"id":19,"left_children":[1,3,5,7,9,11,13,-1,-1,15,17,-1,19,21,23,-1,25,27,-1,-1,-1,29,31,33,35,-1,-1,-1,-1,37,39,41,43,45,47,49,51,-1,-1,-1,-1,-1,-1,-1,-1,-1,-1,-1,-1,-1,-1,-1,-1],"loss_changes":[8.22155E0,1.4296973E1,8.464215E0,3.7840924E0,2.6474648E0,6.6138024E0,9.432586E0,0E0,0E0,5.156579E0,3.5208035E0,0E0,2.4473286E0,1.3885392E1,1.6486204E1,0E0,2.4465775E-1,5.991535E-1,0E0,0E0,0E0,1.1574223E1,1.782332E1,1.2806351E1,1.2277067E1,0E0,0E0,0E0,0E0,2.1435928E-1,3.555336E-1,2.769724E0,4.1331673E-1,2.448832E0,1.0368076E1,6.4220123E0,9.428061E0,0E0,0E0,0E0,0E0,0E0,0E0,0E0,0E0,0E0,0E0,0E0,0E0,0E0,0E0,0E0,0E0],"parents":[2147483647,0,0,1,1,2,2,3,3,4,4,5,5,6,6,9,9,10,10,12,12,13,13,14,14,16,16,17,17,21,21,22,22,23,23,24,24,29,29,30,30,31,31,32,32,33,33,34,34,35,35,36,36],"right_children":[2,4,6,8,10,12,14,-1,-1,16,18,-1,20,22,24,-1,26,28,-1,-1,-1,30,32,34,36,-1,-1,-1,-1,38,40,42,44,46,48,50,52,-1,-1,-1,-1,-1,-1,-1,-1,-1,-1,-1,-1,-1,-1,-1,-1],"split_conditions":[2.9031977E1,-7.2088086E2,1.659508E4,4.310838E1,3.642159E1,-1.6381976E2,1.685405E4,-1.5412377E-1,1.9780999E-2,2.140463E4,4.8403775E2,-7.188299E-2,6.788855E1,-6.486159E1,1.935971E4,-1.1991352E-1,3.728318E1,2.8094837E1,-1.9233061E-2,1.2094525E-1,-2.2257213E-2,-1.2530515E2,-8.038463E1,-2.788652E2,-8.714983E2,8.982807E-2,1.4201461E-2,2.3037648E-2,1.2329377E-1,3.7666594E4,5.1654366E1,4.8301876E1,1.9283705E4,2.002359E4,1.3726224E2,4.1032578E1,7.073334E2,7.199434E-2,7.947186E-3,-1.8914326E-1,-5.1524717E-2,6.5861135E-3,-1.6758509E-1,2.0441523E-2,1.1546693E-1,3.9050968E-3,-1.6740152E-1,8.874538E-2,-7.044722E-2,1.0755161E-1,-6.272268E-2,-1.3150674E-2,2.1668345E-2],"split_indices":[112,98,50,12,47,14,190,0,0,235,4,0,117,44,220,0,152,202,0,0,0,248,143,169,209,0,0,0,0,116,167,22,86,15,228,177,223,0,0,0,0,0,0,0,0,0,0,0,0,0,0,0,0],"split_type":[0,0,0,0,0,0,0,0,0,0,0,0,0,0,0,0,0,0,0,0,0,0,0,0,0,0,0,0,0,0,0,0,0,0,0,0,0,0,0,0,0,0,0,0,0,0,0,0,0,0,0,0,0],"sum_hessian":[7.9287897E2,2.5644844E1,7.6723413E2,4.2773256E0,2.1367517E1,1.2190125E1,7.55044E2,2.6965306E0,1.580795E0,4.1159267E0,1.725159E1,1.8201119E0,1.0370013E1,2.3344584E1,7.316994E2,1.0555019E0,3.0604248E0,1.5419444E1,1.8321466E0,9.339618E0,1.030396E0,1.2018774E1,1.1325809E1,4.3034225E1,6.886652E2,2.0586405E0,1.0017843E0,1.1613233E0,1.42581215E1,2.1800878E0,9.838687E0,4.2524014E0,7.073407E0,2.9703207E0,4.0063904E1,1.4412092E1,6.742531E2,1.116245E0,1.0638427E0,8.709405E0,1.1292816E0,1.0743022E0,3.178099E0,1.0131074E0,6.0603E0,1.1160835E0,1.8542372E0,3.6213017E1,3.8508868E0,1.2443895E1,1.9681975E0,5.855203E2,8.873277E1],"tree_param":{"num_deleted":"0","num_feature":"250","num_nodes":"53","size_leaf_vector":"1"}},{"base_weights":[-1.5959779E-2,-1.3165344E0,-7.2770715E-3,-1.6236915E-1,-4.9124765E-3,3.2522678E-1,-3.533245E-2,-9.206366E-1,4.18145E-1,5.639511E-1,-5.5320375E-2,3.3548158E-2,-1.5289973E-1,5.9125996E-1,-2.8589416E-1,7.20439E-1,-1.2892912E-1,-7.296198E-2,6.082441E-1,-1.2045562E-1,7.805401E-1,1.9249132E-1,-1.6556442E-1,-7.952671E-2,8.4871376E-1,-8.86787E-2,6.748952E-1,-8.775529E-2,8.026726E-1,7.708219E-2,-6.014998E-2,9.16966E-2,-3.6796298E-2,7.3034324E-2,-1.0215365E-1,2.963284E-2,1.112494E-1,-1.038066E-2,7.569502E-2,9.5295765E-2,-5.9935786E-2,-1.1348784E-2,1.0603284E-1],"categories":[],"categories_nodes":[],"categories_segments":[],"categories_sizes":[],"default_left":[0,0,0,0,0,0,0,0,0,0,0,0,0,0,0,0,0,0,0,0,0,0,0,0,0,0,0,0,0,0,0,0,0,0,0,0,0,0,0,0,0,0,0],"id":20,"left_children":[1,3,5,-1,-1,7,9,11,13,15,17,-1,-1,19,21,23,-1,25,27,29,31,33,-1,-1,35,37,39,-1,41,-1,-1,-1,-1,-1,-1,-1,-1,-1,-1,-1,-1,-1,-1],"loss_changes":[8.984202E0,1.974246E0,7.40119E0,0E0,0E0,7.531808E0,8.792525E0,4.025984E0,7.255065E0,7.801278E0,8.34099E0,0E0,0E0,6.4243546E0,8.279205E0,5.048299E0,0E0,8.184904E0,6.037558E0,5.067558E0,6.174402E0,7.2102585E0,0E0,0E0,2.7625837E0,8.750948E0,5.65375E0,0E0,4.0972443E0,0E0,0E0,0E0,0E0,0E0,0E0,0E0,0E0,0E0,0E0,0E0,0E0,0E0,0E0],"parents":[2147483647,0,0,1,1,2,2,5,5,6,6,7,7,8,8,9,9,10,10,13,13,14,14,15,15,17,17,18,18,19,19,20,20,21,21,24,24,25,25,26,26,28,28],"right_children":[2,4,6,-1,-1,8,10,12,14,16,18,-1,-1,20,22,24,-1,26,28,30,32,34,-1,-1,36,38,40,-1,42,-1,-1,-1,-1,-1,-1,-1,-1,-1,-1,-1,-1,-1,-1],"split_conditions":[1.625821E4,4.9305107E1,3.432017E1,-1.6236915E-1,-4.9124765E-3,1.8342167E3,1.565747E3,5.2621665E3,4.3938992E4,7.134999E4,7.87418E1,3.3548158E-2,-1.5289973E-1,3.1499949E3,2.215252E4,2.0313951E3,-1.2892912E-1,1.2551456E3,2.2428389E3,2.786722E3,6.884016E1,8.746364E1,-1.6556442E-1,-7.952671E-2,1.7972001E3,9.359716E4,9.804734E4,-8.775529E-2,7.592866E1,7.708219E-2,-6.014998E-2,9.16966E-2,-3.6796298E-2,7.3034324E-2,-1.0215365E-1,2.963284E-2,1.112494E-1,-1.038066E-2,7.569502E-2,9.5295765E-2,-5.9935786E-2,-1.1348784E-2,1.0603284E-1],"split_indices":[165,7,242,0,0,71,86,236,246,175,212,0,0,126,225,241,0,163,106,161,32,164,0,0,61,155,195,0,217,0,0,0,0,0,0,0,0,0,0,0,0,0,0],"split_type":[0,0,0,0,0,0,0,0,0,0,0,0,0,0,0,0,0,0,0,0,0,0,0,0,0,0,0,0,0,0,0,0,0,0,0,0,0,0,0,0,0,0,0],"sum_hessian":[7.9543805E2,4.2762446E0,7.911618E2,3.2157874E0,1.0604573E0,6.0736687E1,7.304251E2,3.597171E0,5.7139515E1,2.2697186E1,7.0772797E2,1.3200774E0,2.2770936E0,4.5991047E1,1.1148469E1,2.1493525E1,1.2036605E0,6.902665E2,1.746146E1,9.738133E0,3.6252914E1,8.899713E0,2.248757E0,1.2713554E0,2.022217E1,6.7692194E2,1.3344551E1,1.6139979E0,1.5847462E1,3.2023797E0,6.535754E0,3.2583996E1,3.668917E0,6.443469E0,2.4562433E0,7.221963E0,1.3000207E1,6.658868E2,1.1035149E1,1.1161154E1,2.1833978E0,3.6013792E0,1.2246082E1],"tree_param":{"num_deleted":"0","num_feature":"250","num_nodes":"43","size_leaf_vector":"1"}},{"base_weights":[1.5958525E-2,-5.272204E-2,1.6450167E-1,2.4540702E-2,-5.287188E-1,9.22413E-2,8.750417E-1,-2.2627866E-2,6.8824965E-1,-1.0333833E0,-2.7578639E-2,-5.1053625E-1,1.684247E-1,-9.514608E-2,1.0844159E0,8.7935165E-2,-3.930831E-1,-5.3197855E-1,8.7297046E-1,4.1249194E-3,-1.4612685E0,9.577989E-1,-3.6065516E-1,6.897725E-1,-9.308053E-1,3.9765462E-1,-1.5872157E-1,1.2604436E0,-7.5366475E-2,-1.2541063E-1,3.1382614E-1,1.46677E-1,-6.8094575E-1,-1.0807575E-1,6.583861E-2,-8.934044E-2,1.1517009E0,-1.1936387E0,7.55306E-1,1.0347658E-1,-1.7472042E0,1.195778E-1,7.726835E-2,-9.836694E-1,7.388919E-2,9.794643E-2,-4.8890714E-2,-1.2931558E0,1.7325287E-1,-5.5638045E-1,4.8380288E-1,-4.236095E-1,2.4866544E-1,1.3054383E-1,2.725718E-2,7.303759E-2,-1.9991336E-2,3.60963E-2,-1.5904236E-1,5.0715454E-2,-8.998171E-2,-8.5970454E-2,4.4137258E-2,-6.4474985E-2,9.522797E-2,1.22162186E-1,-1.0515716E-2,-1.5831064E-1,-1.6808754E-3,-6.6910433E-3,1.0221992E-1,4.301509E-2,-1.9708802E-1,7.3007345E-2,-6.48632E-2,8.910487E-2,-1.4407283E-1,4.4923134E-2,-6.810003E-2,-4.731824E-2,-1.6782027E-1,1.0866623E-1,-1.3413133E-1,-1.3739468E-1,6.944301E-2,-1.5654339E-2,6.2297083E-2,6.084465E-2,-6.3799016E-2,9.9264055E-2,-1.9837793E-2],"categories":[],"categories_nodes":[],"categories_segments":[],"categories_sizes":[],"default_left":[0,0,0,0,0,0,0,0,0,0,0,0,0,0,0,0,0,0,0,0,0,0,0,0,0,0,0,0,0,0,0,0,0,0,0,0,0,0,0,0,0,0,0,0,0,0,0,0,0,0,0,0,0,0,0,0,0,0,0,0,0,0,0,0,0,0,0,0,0,0,0,0,0,0,0,0,0,0,0,0,0,0,0,0,0,0,0,0,0,0,0],"id":21,"left_children":[1,3,5,7,9,11,13,15,17,19,21,23,25,-1,27,29,31,33,35,37,39,41,43,45,47,49,51,53,-1,55,57,59,61,-1,-1,63,65,67,69,-1,71,-1,73,75,77,-1,-1,79,81,83,85,87,89,-1,-1,-1,-1,-1,-1,-1,-1,-1,-1,-1,-1,-1,-1,-1,-1,-1,-1,-1,-1,-1,-1,-1,-1,-1,-1,-1,-1,-1,-1,-1,-1,-1,-1,-1,-1,-1,-1],"loss_changes":[7.9343615E0,1.9578373E1,1.2543221E1,1.4374628E1,1.877233E1,1.0385836E1,9.666294E0,1.7613997E1,7.331357E0,1.6436794E1,1.2924594E1,1.3462669E1,1.5052229E1,0E0,7.655199E0,1.6008757E1,1.5456568E1,3.7340696E0,7.3016644E0,1.1522383E1,2.051226E1,1.9938564E0,8.024227E0,2.9254825E0,7.9249725E0,9.951954E0,9.069044E0,5.014553E-1,0E0,1.1056908E1,1.5046637E1,1.3734921E1,1.3346933E1,0E0,0E0,4.6380806E0,1.9636517E0,2.2363358E0,1.7947745E0,0E0,1.2480606E1,0E0,1.9839467E0,1.1684501E1,5.4720397E0,0E0,0E0,3.819067E0,9.257891E0,1.1407667E1,9.774553E0,1.1607005E1,1.1291819E1,0E0,0E0,0E0,0E0,0E0,0E0,0E0,0E0,0E0,0E0,0E0,0E0,0E0,0E0,0E0,0E0,0E0,0E0,0E0,0E0,0E0,0E0,0E0,0E0,0E0,0E0,0E0,0E0,0E0,0E0,0E0,0E0,0E0,0E0,0E0,0E0,0E0,0E0],"parents":[2147483647,0,0,1,1,2,2,3,3,4,4,5,5,6,6,7,7,8,8,9,9,10,10,11,11,12,12,14,14,15,15,16,16,17,17,18,18,19,19,20,20,21,21,22,22,23,23,24,24,25,25,26,26,27,27,29,29,30,30,31,31,32,32,35,35,36,36,37,37,38,38,40,40,42,42,43,43,44,44,47,47,48,48,49,49,50,50,51,51,52,52],"right_children":[2,4,6,8,10,12,14,16,18,20,22,24,26,-1,28,30,32,34,36,38,40,42,44,46,48,50,52,54,-1,56,58,60,62,-1,-1,64,66,68,70,-1,72,-1,74,76,78,-1,-1,80,82,84,86,88,90,-1,-1,-1,-1,-1,-1,-1,-1,-1,-1,-1,-1,-1,-1,-1,-1,-1,-1,-1,-1,-1,-1,-1,-1,-1,-1,-1,-1,-1,-1,-1,-1,-1,-1,-1,-1,-1,-1],"split_conditions":[1.7961482E2,1.0224693E2,4.8020613E4,7.35273E2,2.76944E4,-5.0196356E2,3.6627857E1,1.9009323E2,2.043627E3,2.082977E4,-4.9933205E0,-7.779366E2,5.6112434E1,-9.514608E-2,8.1857216E1,-6.957871E1,4.1699684E1,-2.9270155E1,3.3456426E3,1.685877E4,2.7370508E3,6.1454693E1,3.7196914E3,6.8191635E1,4.977205E1,1.8225198E3,7.2842017E2,9.8857294E2,-7.5366475E-2,3.323189E1,7.099649E1,6.084399E4,7.37306E1,-1.0807575E-1,6.583861E-2,6.7561714E1,5.667356E1,6.859908E1,1.2323832E2,1.0347658E-1,-4.6784196E0,1.195778E-1,6.5021133E3,-2.6785532E1,5.83122E1,9.794643E-2,-4.8890714E-2,-8.3985645E2,7.383523E3,6.0903603E1,3.641241E1,4.7024002E1,9.8857294E2,1.3054383E-1,2.725718E-2,7.303759E-2,-1.9991336E-2,3.60963E-2,-1.5904236E-1,5.0715454E-2,-8.998171E-2,-8.5970454E-2,4.4137258E-2,-6.4474985E-2,9.522797E-2,1.22162186E-1,-1.0515716E-2,-1.5831064E-1,-1.6808754E-3,-6.6910433E-3,1.0221992E-1,4.301509E-2,-1.9708802E-1,7.3007345E-2,-6.48632E-2,8.910487E-2,-1.4407283E-1,4.4923134E-2,-6.810003E-2,-4.731824E-2,-1.6782027E-1,1.0866623E-1,-1.3413133E-1,-1.3739468E-1,6.944301E-2,-1.5654339E-2,6.2297083E-2,6.084465E-2,-6.3799016E-2,9.9264055E-2,-1.9837793E-2],"split_indices":[79,89,76,224,65,188,127,203,111,35,138,189,242,0,37,33,17,3,191,205,6,62,101,37,137,201,238,88,0,242,17,20,247,0,0,147,27,77,89,0,118,0,201,183,52,0,0,223,226,17,227,157,228,0,0,0,0,0,0,0,0,0,0,0,0,0,0,0,0,0,0,0,0,0,0,0,0,0,0,0,0,0,0,0,0,0,0,0,0,0,0],"split_type":[0,0,0,0,0,0,0,0,0,0,0,0,0,0,0,0,0,0,0,0,0,0,0,0,0,0,0,0,0,0,0,0,0,0,0,0,0,0,0,0,0,0,0,0,0,0,0,0,0,0,0,0,0,0,0,0,0,0,0,0,0,0,0,0,0,0,0,0,0,0,0,0,0,0,0,0,0,0,0,0,0,0,0,0,0,0,0,0,0,0,0],"sum_hessian":[7.7587384E2,5.3100354E2,2.448703E2,4.5766486E2,7.333871E1,2.2329182E2,2.1578474E1,4.2819943E2,2.9465435E1,3.6011692E1,3.732701E1,2.441492E1,1.988769E2,1.8546746E0,1.9723799E1,3.3036426E2,9.7835175E1,3.6269078E0,2.5838526E1,1.0804356E1,2.5207336E1,8.955965E0,2.8371046E1,6.1652904E0,1.824963E1,1.16811844E2,8.2065056E1,1.8286787E1,1.437012E0,1.7012871E2,1.6023555E2,3.4199497E1,6.3635677E1,2.5454772E0,1.0814308E0,5.9557824E0,1.9882744E1,3.937295E0,6.867061E0,2.3216803E0,2.2885656E1,6.7686076E0,2.187357E0,1.113825E1,1.7232796E1,5.084625E0,1.0806656E0,1.3611182E1,4.6384478E0,9.222323E0,1.0758952E2,4.970588E1,3.235918E1,1.71827E1,1.104087E0,1.2919829E1,1.5720888E2,1.5715584E2,3.0797129E0,2.5820642E1,8.378855E0,5.5094433E1,8.541245E0,4.133006E0,1.8227761E0,1.8861485E1,1.0212594E0,2.6988807E0,1.2384144E0,1.8664367E0,5.000624E0,2.045995E0,2.0839663E1,1.1486354E0,1.0387216E0,1.997124E0,9.141127E0,1.1780341E1,5.452454E0,5.061469E0,8.549713E0,3.069693E0,1.5687547E0,5.5174875E0,3.7048364E0,1.9185844E1,8.840368E1,8.233001E0,4.1472878E1,1.16877775E1,2.0671402E1],"tree_param":{"num_deleted":"0","num_feature":"250","num_nodes":"91","size_leaf_vector":"1"}},{"base_weights":[8.009543E-3,7.651914E-1,-5.314312E-3,-7.0426576E-2,9.8629636E-1,-7.786695E-1,1.2266641E-2,-4.3019768E-2,1.1611302E0,-3.0270211E-2,-1.4685683E0,2.631838E-1,-3.3557642E-2,1.2367065E-1,2.3810782E-2,-1.2197474E0,5.9036976E-1,-1.7427366E0,2.2263547E-2,3.7037498E-1,-7.772079E-1,-1.6780274E-1,9.952922E-2,-3.4271013E-2,-1.4585236E-1,9.143184E-1,-3.9765906E-2,-1.8419255E-2,-1.9703184E-1,4.8134652E-1,-2.198176E-1,3.5541147E-1,-1.5135918E0,-3.4962595E-2,-9.379984E-1,6.254028E-1,-1.026609E-2,1.05421476E-1,1.6329164E-2,6.866085E-2,-6.0695303E-3,3.228129E-2,-1.6090411E-1,9.426101E-2,-7.349211E-2,-1.6889832E-3,-1.8392985E-1,-1.0455005E-2,5.3987533E-2,-1.2015831E-1,1.664736E-3,-1.8159E-2,9.658612E-2,-1.2574248E-1,4.4438606E-3],"categories":[],"categories_nodes":[],"categories_segments":[],"categories_sizes":[],"default_left":[0,0,0,0,0,0,0,0,0,0,0,0,0,0,0,0,0,0,0,0,0,0,0,0,0,0,0,0,0,0,0,0,0,0,0,0,0,0,0,0,0,0,0,0,0,0,0,0,0,0,0,0,0,0,0],"id":22,"left_children":[1,3,5,-1,7,9,11,-1,13,15,17,19,21,-1,-1,23,25,27,-1,29,31,33,35,-1,-1,37,-1,-1,-1,39,41,43,45,47,49,51,53,-1,-1,-1,-1,-1,-1,-1,-1,-1,-1,-1,-1,-1,-1,-1,-1,-1,-1],"loss_changes":[7.767339E0,5.020245E0,1.0304651E1,0E0,3.4685755E0,8.653733E0,8.532957E0,0E0,4.6883297E-1,7.439316E0,4.4427414E0,1.30677185E1,1.1232328E1,0E0,0E0,2.2197819E-1,2.493601E0,2.346323E0,0E0,6.9545383E0,9.734702E0,3.1979864E1,1.8243973E1,0E0,0E0,3.8625336E-1,0E0,0E0,0E0,9.8696575E0,1.3512856E1,3.992772E0,3.3191195E0,1.0772897E1,1.1592117E1,1.5169359E1,1.7950817E1,0E0,0E0,0E0,0E0,0E0,0E0,0E0,0E0,0E0,0E0,0E0,0E0,0E0,0E0,0E0,0E0,0E0,0E0],"parents":[2147483647,0,0,1,1,2,2,4,4,5,5,6,6,8,8,9,9,10,10,11,11,12,12,15,15,16,16,17,17,19,19,20,20,21,21,22,22,25,25,29,29,30,30,31,31,32,32,33,33,34,34,35,35,36,36],"right_children":[2,4,6,-1,8,10,12,-1,14,16,18,20,22,-1,-1,24,26,28,-1,30,32,34,36,-1,-1,38,-1,-1,-1,40,42,44,46,48,50,52,54,-1,-1,-1,-1,-1,-1,-1,-1,-1,-1,-1,-1,-1,-1,-1,-1,-1,-1],"split_conditions":[2.4624962E1,2.3047458E3,2.7536552E1,-7.0426576E-2,1.682202E4,-1.27221756E2,3.977239E1,-4.3019768E-2,9.323397E4,-7.38408E1,5.223547E1,7.0200775E1,3.061703E4,1.2367065E-1,2.3810782E-2,4.2417957E1,6.3328114E1,-7.779366E2,2.2263547E-2,3.85679E4,4.344163E1,2.858087E4,4.247198E4,-3.4271013E-2,-1.4585236E-1,4.549481E2,-3.9765906E-2,-1.8419255E-2,-1.9703184E-1,5.897799E4,2.340283E4,4.0041117E4,6.0032754E3,3.7385873E2,3.038059E4,4.908367E1,4.158083E4,1.05421476E-1,1.6329164E-2,6.866085E-2,-6.0695303E-3,3.228129E-2,-1.6090411E-1,9.426101E-2,-7.349211E-2,-1.6889832E-3,-1.8392985E-1,-1.0455005E-2,5.3987533E-2,-1.2015831E-1,1.664736E-3,-1.8159E-2,9.658612E-2,-1.2574248E-1,4.4438606E-3],"split_indices":[22,166,47,0,205,23,117,0,241,239,87,12,165,0,0,162,237,124,0,41,242,0,245,0,0,203,0,0,0,245,60,151,136,248,25,22,20,0,0,0,0,0,0,0,0,0,0,0,0,0,0,0,0,0,0],"split_type":[0,0,0,0,0,0,0,0,0,0,0,0,0,0,0,0,0,0,0,0,0,0,0,0,0,0,0,0,0,0,0,0,0,0,0,0,0,0,0,0,0,0,0,0,0,0,0,0,0,0,0,0,0,0,0],"sum_hessian":[7.685109E2,1.231355E1,7.561974E2,1.3246636E0,1.0988886E1,1.5846517E1,7.403509E2,1.0468397E0,9.942046E0,8.101702E0,7.744815E0,1.1359617E2,6.267547E2,8.875484E0,1.066562E0,2.446876E0,5.6548257E0,6.638197E0,1.1066176E0,1.0356944E2,1.002672E1,3.1188977E2,3.1486493E2,1.0447459E0,1.40213E0,4.3147397E0,1.3400859E0,1.0763563E0,5.5618405E0,8.7333E1,1.6236444E1,4.1543465E0,5.8723736E0,2.6690118E2,4.498861E1,5.3573624E1,2.612913E2,3.296914E0,1.0178256E0,6.315179E1,2.4181211E1,1.2227871E1,4.008574E0,2.7882292E0,1.366117E0,1.2375203E0,4.6348534E0,2.3880997E2,2.8091206E1,3.5051865E1,9.936743E0,1.6034197E1,3.7539425E1,1.0055694E1,2.5123561E2],"tree_param":{"num_deleted":"0","num_feature":"250","num_nodes":"55","size_leaf_vector":"1"}},{"base_weights":[2.2665612E-2,9.43216E-2,-1.1774207E-1,9.148119E-3,3.505692E-1,1.5313546E-1,-3.0804825E-1,4.4886738E-2,-8.513679E-1,2.4595195E-1,1.1116934E0,-3.782757E-1,3.2389548E-1,-9.484312E-1,-1.4434318E-1,8.9956474E-1,8.7042E-3,-1.1997609E0,8.869985E-2,4.220639E-1,-4.8688737E-1,-2.7147014E-2,1.2345679E-1,5.319161E-1,-8.435918E-1,8.119533E-1,7.539196E-2,-6.2837295E-2,-1.3534744E0,6.129393E-1,-2.7973357E-1,-1.3237782E-1,1.0738504E-1,-2.7369535E-1,1.2913416E-1,-9.9099986E-2,-1.841039E0,8.0958366E-1,-9.650825E-2,6.721556E-1,-9.5443696E-1,-4.8348898E-1,1.104388E-1,-1.3823495E0,1.1110302E-1,-5.2362014E-2,8.868134E-1,-3.1157953E-1,7.767219E-1,-1.1334091E0,9.7393394E-1,7.03077E-2,-1.499403E0,-1.3887279E-1,9.718889E-1,-5.4915126E-2,-8.7129855E-1,-4.7218673E-2,2.709156E-2,-1.291358E-1,-1.7068863E-2,4.028621E-2,-2.5292814E-3,-1.0272391E-1,7.485085E-2,-4.50381E-2,-1.9840614E-1,1.1017188E-2,1.0863725E-1,-9.215918E-2,5.9268456E-2,1.1600951E-1,-9.96139E-2,-1.219783E-1,8.29327E-2,-1.1814361E-1,6.795421E-2,1.47103295E-2,-1.5876578E-1,8.007974E-2,-9.036647E-2,-2.5871603E-2,9.941714E-2,5.457284E-2,-7.794311E-2,9.23194E-2,-7.12923E-2,2.1871759E-2,-1.7278306E-1,2.529337E-2,1.07856296E-1,-1.8648384E-2,-1.7330192E-1,6.541489E-2,-1.2473249E-1,-1.5756497E-3,1.13567464E-1,-2.7075727E-2,4.769985E-2,-1.2011113E-1,6.069993E-2],"categories":[],"categories_nodes":[],"categories_segments":[],"categories_sizes":[],"default_left":[0,0,0,0,0,0,0,0,0,0,0,0,0,0,0,0,0,0,0,0,0,0,0,0,0,0,0,0,0,0,0,0,0,0,0,0,0,0,0,0,0,0,0,0,0,0,0,0,0,0,0,0,0,0,0,0,0,0,0,0,0,0,0,0,0,0,0,0,0,0,0,0,0,0,0,0,0,0,0,0,0,0,0,0,0,0,0,0,0,0,0,0,0,0,0,0,0,0,0,0,0],"id":23,"left_children":[1,3,5,7,9,11,13,15,17,19,21,23,25,27,29,31,33,35,-1,37,39,-1,-1,41,43,45,47,49,51,53,55,57,-1,59,61,63,65,67,69,71,73,75,-1,77,79,-1,81,83,85,87,89,-1,91,93,95,97,99,-1,-1,-1,-1,-1,-1,-1,-1,-1,-1,-1,-1,-1,-1,-1,-1,-1,-1,-1,-1,-1,-1,-1,-1,-1,-1,-1,-1,-1,-1,-1,-1,-1,-1,-1,-1,-1,-1,-1,-1,-1,-1,-1,-1],"loss_changes":[7.796898E0,1.119165E1,1.3549532E1,1.1908943E1,9.913342E0,9.991114E0,1.6026062E1,1.1482209E1,1.0416274E1,1.48870735E1,2.9142761E0,1.1845231E1,9.986404E0,1.1109917E1,1.2881678E1,2.854498E0,1.2192719E1,9.197172E0,0E0,1.8616667E1,1.2837183E1,0E0,0E0,6.1818466E0,9.510867E0,3.248602E0,1.5439017E1,1.3139174E1,7.466427E0,5.2934775E0,1.4029914E1,5.485436E-1,0E0,1.1015916E1,1.0632088E1,5.4489894E0,7.651539E-1,1.0121864E1,2.3489626E1,6.8990746E0,8.797302E0,4.210844E0,0E0,3.9087124E0,5.9646845E0,0E0,3.5458508E0,1.5185158E1,5.0649776E0,5.0369997E0,1.8332195E-1,0E0,5.8939667E0,7.0150137E0,2.131011E0,9.057806E0,1.4908642E1,0E0,0E0,0E0,0E0,0E0,0E0,0E0,0E0,0E0,0E0,0E0,0E0,0E0,0E0,0E0,0E0,0E0,0E0,0E0,0E0,0E0,0E0,0E0,0E0,0E0,0E0,0E0,0E0,0E0,0E0,0E0,0E0,0E0,0E0,0E0,0E0,0E0,0E0,0E0,0E0,0E0,0E0,0E0,0E0],"parents":[2147483647,0,0,1,1,2,2,3,3,4,4,5,5,6,6,7,7,8,8,9,9,10,10,11,11,12,12,13,13,14,14,15,15,16,16,17,17,19,19,20,20,23,23,24,24,25,25,26,26,27,27,28,28,29,29,30,30,31,31,33,33,34,34,35,35,36,36,37,37,38,38,39,39,40,40,41,41,43,43,44,44,46,46,47,47,48,48,49,49,50,50,52,52,53,53,54,54,55,55,56,56],"right_children":[2,4,6,8,10,12,14,16,18,20,22,24,26,28,30,32,34,36,-1,38,40,-1,-1,42,44,46,48,50,52,54,56,58,-1,60,62,64,66,68,70,72,74,76,-1,78,80,-1,82,84,86,88,90,-1,92,94,96,98,100,-1,-1,-1,-1,-1,-1,-1,-1,-1,-1,-1,-1,-1,-1,-1,-1,-1,-1,-1,-1,-1,-1,-1,-1,-1,-1,-1,-1,-1,-1,-1,-1,-1,-1,-1,-1,-1,-1,-1,-1,-1,-1,-1,-1],"split_conditions":[1.6770895E2,2.1721022E1,4.9828285E1,7.543839E1,5.1381085E2,-5.148405E2,2.3095007E2,-7.569087E2,8.5199677E2,1.7078308E2,-1.5970636E2,5.747701E4,-1.5618645E2,5.4221323E3,5.5423367E1,1.9591024E1,4.3577442E1,5.0000128E2,8.869985E-2,6.554283E1,4.0959915E3,-2.7147014E-2,1.2345679E-1,2.9031977E1,6.387994E4,2.182559E4,6.0303856E1,-2.6186163E1,1.68336E4,5.5787045E1,6.256133E4,5.6250286E1,1.0738504E-1,1.694809E4,4.875929E1,3.5604336E1,-3.3736398E2,-9.6912445E1,2.798277E4,6.7561714E1,6.213793E1,5.49289E2,1.104388E-1,5.605908E4,4.7140976E1,-5.2362014E-2,2.766072E3,2.592555E4,2.138318E4,3.6179727E3,4.5798237E1,7.03077E-2,3.851725E3,5.329138E1,5.3959587E1,5.225882E4,1.15061045E4,-4.7218673E-2,2.709156E-2,-1.291358E-1,-1.7068863E-2,4.028621E-2,-2.5292814E-3,-1.0272391E-1,7.485085E-2,-4.50381E-2,-1.9840614E-1,1.1017188E-2,1.0863725E-1,-9.215918E-2,5.9268456E-2,1.1600951E-1,-9.96139E-2,-1.219783E-1,8.29327E-2,-1.1814361E-1,6.795421E-2,1.47103295E-2,-1.5876578E-1,8.007974E-2,-9.036647E-2,-2.5871603E-2,9.941714E-2,5.457284E-2,-7.794311E-2,9.23194E-2,-7.12923E-2,2.1871759E-2,-1.7278306E-1,2.529337E-2,1.07856296E-1,-1.8648384E-2,-1.7330192E-1,6.541489E-2,-1.2473249E-1,-1.5756497E-3,1.13567464E-1,-2.7075727E-2,4.769985E-2,-1.2011113E-1,6.069993E-2],"split_indices":[243,233,67,22,133,94,233,184,73,228,243,60,43,6,237,137,52,43,0,39,221,0,0,32,40,160,49,29,60,112,15,7,0,75,82,137,179,13,135,172,2,228,0,140,32,0,181,85,161,226,157,0,201,132,172,180,36,0,0,0,0,0,0,0,0,0,0,0,0,0,0,0,0,0,0,0,0,0,0,0,0,0,0,0,0,0,0,0,0,0,0,0,0,0,0,0,0,0,0,0,0],"split_type":[0,0,0,0,0,0,0,0,0,0,0,0,0,0,0,0,0,0,0,0,0,0,0,0,0,0,0,0,0,0,0,0,0,0,0,0,0,0,0,0,0,0,0,0,0,0,0,0,0,0,0,0,0,0,0,0,0,0,0,0,0,0,0,0,0,0,0,0,0,0,0,0,0,0,0,0,0,0,0,0,0,0,0,0,0,0,0,0,0,0,0,0,0,0,0,0,0,0,0,0,0],"sum_hessian":[7.7285474E2,5.119256E2,2.609291E2,3.849941E2,1.2693151E2,1.0775227E2,1.5317683E2,3.705523E2,1.4441797E1,1.1275621E2,1.41753025E1,2.5908588E1,8.184368E1,3.0209501E1,1.2296734E2,1.4080924E1,3.5647137E2,