{"learner":{"attributes":{"scikit_learn":"{\"_estimator_type\": \"classifier\"}"},"feature_names":[],"feature_types":[],"gradient_booster":{"model":{"gbtree_model_param":{"num_parallel_tree":"1","num_trees":"100"},"iteration_indptr":[0,1,2,3,4,5,6,7,8,9,10,11,12,13,14,15,16,17,18,19,20,21,22,23,24,25,26,27,28,29,30,31,32,33,34,35,36,37,38,39,40,41,42,43,44,45,46,47,48,49,50,51,52,53,54,55,56,57,58,59,60,61,62,63,64,65,66,67,68,69,70,71,72,73,74,75,76,77,78,79,80,81,82,83,84,85,86,87,88,89,90,91,92,93,94,95,96,97,98,99,100],"tree_info":[0,0,0,0,0,0,0,0,0,0,0,0,0,0,0,0,0,0,0,0,0,0,0,0,0,0,0,0,0,0,0,0,0,0,0,0,0,0,0,0,0,0,0,0,0,0,0,0,0,0,0,0,0,0,0,0,0,0,0,0,0,0,0,0,0,0,0,0,0,0,0,0,0,0,0,0,0,0,0,0,0,0,0,0,0,0,0,0,0,0,0,0,0,0,0,0,0,0,0,0],"trees":[{"base_weights":[9.813645E-5,2.7339184E-1,-9.834721E-2,3.1291893E-1,-6.175644E-1,-8.206016E-2,-1.3899093E0,7.8291047E-1,2.5548232E-1,9.555149E-1,-1.1895367E0,2.2486173E-1,-1.4936355E-1,1.1951567E-1,-1.5736072E0,4.2081413E-1,1.1483439E0,1.942234E-1,7.729639E-1,-2.2184674E-3,1.3485353E0,-1.5392872E0,1.2397182E0,3.3334795E-1,-4.020917E-1,-1.623631E-1,9.496007E-1,-1.274611E-1,1.0031754E0,-7.2667056E-1,-1.9725456E0,7.904345E-1,-4.0126032E-1,-1.0194384E-1,1.5004177E0,-6.825334E-1,2.2554657E-1,-1.1225471E0,8.721666E-1,8.689009E-1,-1.0584276E0,-3.7216235E-2,1.5466614E-1,1.9191542E-1,-1.7048033E0,1.4683668E-1,7.660764E-3,1.970528E-1,7.7546763E-1,-9.5947665E-1,7.189406E-1,-2.253896E-1,4.1674368E-2,-1.2788373E0,1.2171175E0,1.289892E-1,7.660764E-3,-1.4988492E0,5.804167E-1,-2.8879049E-3,-2.1061304E0,2.370337E-2,1.322703E-1,-1.5618639E-1,5.068291E-2,9.386309E-2,-1.18308716E-1,-1.1970027E-2,1.6107385E-1,5.20491E-2,-1.4206515E-1,1.6006386E-2,8.105017E-2,-1.9294041E-1,1.1174237E-1,9.419321E-2,-1.384838E-1,7.660764E-3,1.1712569E-1,-3.7216235E-2,-1.2697023E-1,9.666685E-2,-9.681393E-2,-1.8549655E-1,-1.0413852E-2,1.3590954E-2,1.0959977E-1,1.1105277E-1,3.0378807E-2,-1.1585033E-1,3.740937E-2,1.2751514E-1,7.174471E-3,2.3277297E-3,-3.433081E-2,1.9250866E-2,-4.7100432E-2,-1.7199568E-1,7.660764E-3,1.4232102E-1,-1.347727E-1,-1.8870148E-1,9.7414754E-2,-1.1893804E-1,1.4412849E-1,-3.7216235E-2,-2.1633373E-1],"categories":[],"categories_nodes":[],"categories_segments":[],"categories_sizes":[],"default_left":[0,0,0,0,0,0,0,0,0,0,0,0,0,0,0,0,0,0,0,0,0,0,0,0,0,0,0,0,0,0,0,0,0,0,0,0,0,0,0,0,0,0,0,0,0,0,0,0,0,0,0,0,0,0,0,0,0,0,0,0,0,0,0,0,0,0,0,0,0,0,0,0,0,0,0,0,0,0,0,0,0,0,0,0,0,0,0,0,0,0,0,0,0,0,0,0,0,0,0,0,0,0,0,0,0,0,0],"id":0,"left_children":[1,3,5,7,9,11,13,15,17,19,21,23,25,27,29,31,33,35,37,39,41,43,45,47,49,51,53,-1,55,57,59,61,63,65,67,69,71,73,75,77,79,-1,-1,81,83,-1,-1,85,87,89,91,93,95,97,99,-1,-1,101,103,-1,105,-1,-1,-1,-1,-1,-1,-1,-1,-1,-1,-1,-1,-1,-1,-1,-1,-1,-1,-1,-1,-1,-1,-1,-1,-1,-1,-1,-1,-1,-1,-1,-1,-1,-1,-1,-1,-1,-1,-1,-1,-1,-1,-1,-1,-1,-1],"loss_changes":[1.6844217E2,5.858268E1,9.6708206E1,4.267372E1,6.481084E1,9.395001E1,1.606411E1,2.2338692E1,4.476145E1,7.314617E0,4.6381058E1,5.5775986E1,5.3432854E1,1.0076592E1,1.5837189E1,2.7120329E1,3.7684837E1,3.4980263E1,2.911467E1,7.0384493E0,5.2715263E0,1.3565956E1,1.786766E0,4.1904472E1,7.6376854E1,4.7419197E1,2.7635025E1,0E0,1.21106E0,1.8987703E1,8.809784E0,1.7709682E1,3.0325808E1,2.323984E1,1.2094971E1,3.9802265E1,4.6798454E1,1.6395155E1,2.3781593E1,9.1487217E-1,2.8642893E-2,0E0,0E0,5.3672776E0,9.96714E0,0E0,0E0,2.9247385E1,2.5600311E1,2.2020111E1,1.4594633E1,8.260295E1,6.743629E1,3.2267199E0,2.2834106E1,0E0,0E0,1.2938404E1,1.2969134E1,0E0,2.3645172E0,0E0,0E0,0E0,0E0,0E0,0E0,0E0,0E0,0E0,0E0,0E0,0E0,0E0,0E0,0E0,0E0,0E0,0E0,0E0,0E0,0E0,0E0,0E0,0E0,0E0,0E0,0E0,0E0,0E0,0E0,0E0,0E0,0E0,0E0,0E0,0E0,0E0,0E0,0E0,0E0,0E0,0E0,0E0,0E0,0E0,0E0],"parents":[2147483647,0,0,1,1,2,2,3,3,4,4,5,5,6,6,7,7,8,8,9,9,10,10,11,11,12,12,13,13,14,14,15,15,16,16,17,17,18,18,19,19,20,20,21,21,22,22,23,23,24,24,25,25,26,26,28,28,29,29,30,30,31,31,32,32,33,33,34,34,35,35,36,36,37,37,38,38,39,39,40,40,43,43,44,44,47,47,48,48,49,49,50,50,51,51,52,52,53,53,54,54,57,57,58,58,60,60],"right_children":[2,4,6,8,10,12,14,16,18,20,22,24,26,28,30,32,34,36,38,40,42,44,46,48,50,52,54,-1,56,58,60,62,64,66,68,70,72,74,76,78,80,-1,-1,82,84,-1,-1,86,88,90,92,94,96,98,100,-1,-1,102,104,-1,106,-1,-1,-1,-1,-1,-1,-1,-1,-1,-1,-1,-1,-1,-1,-1,-1,-1,-1,-1,-1,-1,-1,-1,-1,-1,-1,-1,-1,-1,-1,-1,-1,-1,-1,-1,-1,-1,-1,-1,-1,-1,-1,-1,-1,-1,-1],"split_conditions":[-4.690569E0,3.8177952E3,3.8790784E3,1.5959148E3,-1.0941268E0,-1.8088914E0,3.90422E3,1.3668861E3,1.0427261E1,3.7358593E1,3.9813075E0,3.4098435E3,1.02039585E1,1.6405684E0,1.9885106E0,1.245991E3,-1.5531016E1,1.5141532E3,1.6169858E3,-6.727663E-1,-8.886553E0,-6.2918158E0,1.8578109E0,1.6933773E1,3.7190056E3,2.74562E3,3.3586555E1,-1.274611E-1,1.6206034E1,5.2627777E1,-5.7370963E0,-7.812052E0,1.2912794E3,3.716529E1,-3.4024708E0,1.5444448E3,5.625339E0,4.487259E0,8.045354E0,3.9151936E3,3.627911E-1,-3.7216235E-2,1.5466614E-1,4.550262E1,6.1555637E1,1.4683668E-1,7.660764E-3,1.7693127E1,2.9545171E0,3.937489E0,3.8386858E3,1.6104895E3,3.5813556E0,5.1766464E1,1.0751957E1,1.289892E-1,7.660764E-3,3.6812823E0,3.92779E3,-2.8879049E-3,3.8614558E3,2.370337E-2,1.322703E-1,-1.5618639E-1,5.068291E-2,9.386309E-2,-1.18308716E-1,-1.1970027E-2,1.6107385E-1,5.20491E-2,-1.4206515E-1,1.6006386E-2,8.105017E-2,-1.9294041E-1,1.1174237E-1,9.419321E-2,-1.384838E-1,7.660764E-3,1.1712569E-1,-3.7216235E-2,-1.2697023E-1,9.666685E-2,-9.681393E-2,-1.8549655E-1,-1.0413852E-2,1.3590954E-2,1.0959977E-1,1.1105277E-1,3.0378807E-2,-1.1585033E-1,3.740937E-2,1.2751514E-1,7.174471E-3,2.3277297E-3,-3.433081E-2,1.9250866E-2,-4.7100432E-2,-1.7199568E-1,7.660764E-3,1.4232102E-1,-1.347727E-1,-1.8870148E-1,9.7414754E-2,-1.1893804E-1,1.4412849E-1,-3.7216235E-2,-2.1633373E-1],"split_indices":[466,103,791,134,740,180,784,342,115,241,793,519,681,89,9,551,19,775,37,4,4,100,9,35,184,789,769,0,18,113,420,547,757,321,612,598,729,20,20,7,18,0,0,241,1,0,0,643,786,532,21,312,265,241,73,0,0,633,480,0,437,0,0,0,0,0,0,0,0,0,0,0,0,0,0,0,0,0,0,0,0,0,0,0,0,0,0,0,0,0,0,0,0,0,0,0,0,0,0,0,0,0,0,0,0,0,0],"split_type":[0,0,0,0,0,0,0,0,0,0,0,0,0,0,0,0,0,0,0,0,0,0,0,0,0,0,0,0,0,0,0,0,0,0,0,0,0,0,0,0,0,0,0,0,0,0,0,0,0,0,0,0,0,0,0,0,0,0,0,0,0,0,0,0,0,0,0,0,0,0,0,0,0,0,0,0,0,0,0,0,0,0,0,0,0,0,0,0,0,0,0,0,0,0,0,0,0,0,0,0,0,0,0,0,0,0,0],"sum_hessian":[6.2587466E3,1.6569944E3,4.601752E3,1.5872262E3,6.976818E1,4.545495E3,5.625674E1,1.714725E2,1.4157537E3,1.8424696E1,5.1343487E1,8.1707385E2,3.7284214E3,6.1415653E0,5.0115173E1,8.721023E1,8.4262276E1,1.2671278E3,1.4862589E2,5.65024E0,1.2774456E1,4.520192E1,6.1415653E0,6.969448E2,1.2012902E2,3.6856763E3,4.2745296E1,2.2109635E0,3.9306018E0,1.695072E1,3.316445E1,6.018734E1,2.7022888E1,1.8670359E1,6.559192E1,4.299096E1,1.2241368E3,6.8785534E0,1.4174733E2,3.193614E0,2.4566262E0,1.2283131E0,1.1546143E1,3.9306018E0,4.127132E1,4.9132524E0,1.2283131E0,5.338249E2,1.6311998E2,8.033167E1,3.9797344E1,2.815785E3,8.698913E2,4.1762643E0,3.856903E1,2.7022889E0,1.2283131E0,1.0563493E1,6.387228E0,2.2109635E0,3.095349E1,3.0216501E1,2.9970839E1,1.1546143E1,1.5476745E1,9.580842E0,9.089517E0,4.1762643E0,6.1415653E1,1.6459394E1,2.6531563E1,1.1020425E3,1.2209432E2,5.158915E0,1.7196383E0,1.380624E2,3.6849391E0,1.2283131E0,1.9653009E0,1.2283131E0,1.2283131E0,2.4566262E0,1.4739757E0,3.758638E1,3.6849391E0,5.0090607E2,3.291879E1,9.458011E1,6.853987E1,7.001385E1,1.031783E1,2.0881323E1,1.8916021E1,9.060037E2,1.9097811E3,6.7262427E2,1.9726707E2,2.9479513E0,1.2283131E0,3.6112404E1,2.4566262E0,9.335179E0,1.2283131E0,1.9653009E0,4.421927E0,1.2283131E0,2.9725176E1],"tree_param":{"num_deleted":"0","num_feature":"800","num_nodes":"107","size_leaf_vector":"1"}},{"base_weights":[-8.632191E-3,2.1943069E-1,-1.1126951E-1,3.1608626E-1,-2.7325127E-1,-1.8729156E-1,1.6398714E-1,2.6088312E-1,8.097919E-1,-1.4984031E0,-1.3313918E-1,-1.2022527E-1,-4.246036E-1,-1.8325783E-1,3.4081966E-1,2.047721E-1,8.830693E-1,9.8303604E-1,1.2902259E-2,-1.7764101E0,4.1875628E-1,-3.0808775E-2,-1.2366481E0,9.1981876E-1,-1.340093E-1,-8.2639396E-1,-2.2414047E-1,-6.77325E-2,-1.0931046E0,8.051037E-1,2.3617975E-1,2.6500717E-1,-1.7205526E-1,1.0345715E0,-3.971639E-1,-4.6186326E-3,1.0883509E0,1.2347931E0,-5.479028E-1,-1.9890397E0,5.6670055E-2,-8.8463746E-2,1.240467E-1,-7.001318E-1,2.3154968E-1,7.019063E-1,-1.5879508E0,-1.769545E-1,1.2110399E0,-1.4438758E0,-1.2082399E-1,-5.4677325E-1,-1.2168368E0,-1.4604397E-1,-1.0369124E0,-4.2967218E-1,2.8300822E-1,5.193951E-1,-1.433822E0,2.8708977E-1,1.1303521E0,-9.158197E-1,3.0064312E-1,3.4503773E-2,-5.3449366E-3,-1.17306076E-1,4.4091004E-3,1.3453203E-1,3.4151208E-2,-1.551765E-1,1.13701224E-1,-1.426246E-1,5.917241E-2,1.2983735E-1,4.1891214E-2,2.5244863E-3,1.4032759E-1,-8.9112125E-2,1.0738478E-1,-2.056332E-1,-3.579369E-2,-1.24812484E-1,1.1083398E-1,-3.6311578E-2,-1.4213754E-1,-1.189778E-1,3.0709911E-2,1.2045634E-1,-3.3357736E-2,3.6386035E-2,-1.7802939E-1,-1.2834184E-1,1.3181594E-1,1.3340266E-1,-5.699941E-2,-8.043587E-3,-2.0631333E-1,1.0604757E-2,-1.820903E-2,-8.196321E-2,-6.3401023E-3,1.18142664E-1,-1.2757151E-1,4.7573425E-2,-2.3391455E-2,9.851901E-2,-1.18276775E-1,-1.1195117E-1,-1.2483568E-2,-5.922916E-2,4.8095502E-2,-1.1779838E-1,1.432675E-1,6.0359627E-2,-1.8624263E-1,7.547345E-2,-1.7083545E-1,-1.0103115E-1,1.2246984E-1,6.7378014E-2,-1.4144321E-1,-1.5305543E-1,3.373553E-2],"categories":[],"categories_nodes":[],"categories_segments":[],"categories_sizes":[],"default_left":[0,0,0,0,0,0,0,0,0,0,0,0,0,0,0,0,0,0,0,0,0,0,0,0,0,0,0,0,0,0,0,0,0,0,0,0,0,0,0,0,0,0,0,0,0,0,0,0,0,0,0,0,0,0,0,0,0,0,0,0,0,0,0,0,0,0,0,0,0,0,0,0,0,0,0,0,0,0,0,0,0,0,0,0,0,0,0,0,0,0,0,0,0,0,0,0,0,0,0,0,0,0,0,0,0,0,0,0,0,0,0,0,0,0,0,0,0,0,0,0,0,0,0],"id":1,"left_children":[1,3,5,7,9,11,13,15,17,19,21,23,25,27,29,31,33,35,37,39,41,43,45,47,49,51,53,55,57,59,61,63,65,67,69,71,73,75,77,79,81,-1,-1,83,85,87,89,91,93,95,97,99,101,103,105,107,109,111,113,115,117,119,121,-1,-1,-1,-1,-1,-1,-1,-1,-1,-1,-1,-1,-1,-1,-1,-1,-1,-1,-1,-1,-1,-1,-1,-1,-1,-1,-1,-1,-1,-1,-1,-1,-1,-1,-1,-1,-1,-1,-1,-1,-1,-1,-1,-1,-1,-1,-1,-1,-1,-1,-1,-1,-1,-1,-1,-1,-1,-1,-1,-1],"loss_changes":[1.4609715E2,9.233268E1,9.009939E1,4.3937073E1,5.442864E1,5.3635628E1,5.729338E1,5.0735664E1,2.2412376E1,1.8098907E1,3.2333977E1,3.78463E1,5.964714E1,3.3049892E1,2.9829124E1,3.0440758E1,2.37529E1,1.3882004E1,2.124778E1,1.1271339E1,6.380729E0,4.6411037E1,1.766499E1,1.1248138E1,4.469228E1,2.6289078E1,3.1393042E1,3.5755066E1,2.0215237E1,1.8753342E1,3.7827133E1,2.945356E1,4.011323E1,2.27762E1,2.5601992E1,1.2586554E1,1.6406876E1,1.9517612E0,1.2795642E1,2.0827255E0,6.800804E0,0E0,0E0,1.7571602E1,2.076331E1,2.7033663E0,8.486683E0,1.5125532E1,6.767555E0,2.161581E1,3.5783054E1,1.9161785E1,1.5940094E1,2.4946648E1,1.3965805E1,2.8993486E1,2.5088497E1,1.2408816E1,2.6905083E1,4.3295204E1,1.5216896E1,2.238773E1,3.2760162E1,0E0,0E0,0E0,0E0,0E0,0E0,0E0,0E0,0E0,0E0,0E0,0E0,0E0,0E0,0E0,0E0,0E0,0E0,0E0,0E0,0E0,0E0,0E0,0E0,0E0,0E0,0E0,0E0,0E0,0E0,0E0,0E0,0E0,0E0,0E0,0E0,0E0,0E0,0E0,0E0,0E0,0E0,0E0,0E0,0E0,0E0,0E0,0E0,0E0,0E0,0E0,0E0,0E0,0E0,0E0,0E0,0E0,0E0,0E0,0E0],"parents":[2147483647,0,0,1,1,2,2,3,3,4,4,5,5,6,6,7,7,8,8,9,9,10,10,11,11,12,12,13,13,14,14,15,15,16,16,17,17,18,18,19,19,20,20,21,21,22,22,23,23,24,24,25,25,26,26,27,27,28,28,29,29,30,30,31,31,32,32,33,33,34,34,35,35,36,36,37,37,38,38,39,39,40,40,43,43,44,44,45,45,46,46,47,47,48,48,49,49,50,50,51,51,52,52,53,53,54,54,55,55,56,56,57,57,58,58,59,59,60,60,61,61,62,62],"right_children":[2,4,6,8,10,12,14,16,18,20,22,24,26,28,30,32,34,36,38,40,42,44,46,48,50,52,54,56,58,60,62,64,66,68,70,72,74,76,78,80,82,-1,-1,84,86,88,90,92,94,96,98,100,102,104,106,108,110,112,114,116,118,120,122,-1,-1,-1,-1,-1,-1,-1,-1,-1,-1,-1,-1,-1,-1,-1,-1,-1,-1,-1,-1,-1,-1,-1,-1,-1,-1,-1,-1,-1,-1,-1,-1,-1,-1,-1,-1,-1,-1,-1,-1,-1,-1,-1,-1,-1,-1,-1,-1,-1,-1,-1,-1,-1,-1,-1,-1,-1,-1,-1,-1],"split_conditions":[-1.1488338E0,3.3983213E3,3.5933948E0,2.020835E1,9.902803E-1,6.152352E1,1.9167874E0,3.34725E3,4.348855E0,3.5458052E0,3.8987012E3,1.196407E3,1.3561063E0,4.398174E0,1.51379E3,6.1145463E0,3.6017231E3,-4.8936357E0,4.810655E1,1.5240191E0,4.0773457E1,3.563464E3,-4.824544E0,9.8344046E-1,1.2190651E3,6.0043297E0,5.741515E0,-1.2518535E0,-5.493433E0,1.3399442E3,1.5111713E3,2.624676E3,1.2409633E0,3.3979502E3,3.4481685E3,1.6084465E0,5.7610657E1,-2.1856873E1,3.3187688E3,1.0290219E0,3.5425999E3,-8.8463746E-2,1.240467E-1,2.6792977E0,3.4310188E3,4.7324047E1,3.90979E3,1.1757644E3,1.5913371E0,1.21025E3,1.6050983E3,2.0455604E0,-2.7057323E0,1.8688986E0,-1.4196506E0,1.1693586E0,4.471332E1,-7.835312E0,4.742713E1,1.3105E3,-3.806298E1,4.0579295E0,7.780229E-1,3.4503773E-2,-5.3449366E-3,-1.17306076E-1,4.4091004E-3,1.3453203E-1,3.4151208E-2,-1.551765E-1,1.13701224E-1,-1.426246E-1,5.917241E-2,1.2983735E-1,4.1891214E-2,2.5244863E-3,1.4032759E-1,-8.9112125E-2,1.0738478E-1,-2.056332E-1,-3.579369E-2,-1.24812484E-1,1.1083398E-1,-3.6311578E-2,-1.4213754E-1,-1.189778E-1,3.0709911E-2,1.2045634E-1,-3.3357736E-2,3.6386035E-2,-1.7802939E-1,-1.2834184E-1,1.3181594E-1,1.3340266E-1,-5.699941E-2,-8.043587E-3,-2.0631333E-1,1.0604757E-2,-1.820903E-2,-8.196321E-2,-6.3401023E-3,1.18142664E-1,-1.2757151E-1,4.7573425E-2,-2.3391455E-2,9.851901E-2,-1.18276775E-1,-1.1195117E-1,-1.2483568E-2,-5.922916E-2,4.8095502E-2,-1.1779838E-1,1.432675E-1,6.0359627E-2,-1.8624263E-1,7.547345E-2,-1.7083545E-1,-1.0103115E-1,1.2246984E-1,6.7378014E-2,-1.4144321E-1,-1.5305543E-1,3.373553E-2],"split_indices":[244,551,777,3,105,337,505,790,249,708,727,520,738,249,272,627,6,692,769,306,257,8,468,313,166,547,153,51,740,390,167,760,217,789,790,361,785,306,503,89,599,0,0,489,743,529,0,455,740,736,663,356,324,409,786,473,481,2,353,544,546,761,233,0,0,0,0,0,0,0,0,0,0,0,0,0,0,0,0,0,0,0,0,0,0,0,0,0,0,0,0,0,0,0,0,0,0,0,0,0,0,0,0,0,0,0,0,0,0,0,0,0,0,0,0,0,0,0,0,0,0,0,0],"split_type":[0,0,0,0,0,0,0,0,0,0,0,0,0,0,0,0,0,0,0,0,0,0,0,0,0,0,0,0,0,0,0,0,0,0,0,0,0,0,0,0,0,0,0,0,0,0,0,0,0,0,0,0,0,0,0,0,0,0,0,0,0,0,0,0,0,0,0,0,0,0,0,0,0,0,0,0,0,0,0,0,0,0,0,0,0,0,0,0,0,0,0,0,0,0,0,0,0,0,0,0,0,0,0,0,0,0,0,0,0,0,0,0,0,0,0,0,0,0,0,0,0,0,0],"sum_hessian":[6.2393545E3,1.9361156E3,4.303239E3,1.6188785E3,3.1723715E2,3.372203E3,9.310359E2,1.4574445E3,1.6143404E2,3.1562008E1,2.8567514E2,2.6303513E3,7.418517E2,3.1413483E2,6.1690106E2,1.3380989E3,1.1934553E2,1.3241367E2,2.9020367E1,2.7628954E1,3.9330556E0,2.6237277E2,2.3302385E1,3.3545128E1,2.5968062E3,2.458898E2,4.9596188E2,2.7969568E2,3.443916E1,1.1223293E2,5.046681E2,1.1539407E3,1.8415828E2,1.068883E2,1.2457227E1,1.2851058E1,1.1956261E2,8.75123E0,2.0269136E1,2.4680983E1,2.9479704E0,1.4911771E0,2.4418786E0,7.3413445E1,1.8895934E2,3.421867E0,1.9880518E1,7.1205745E0,2.6424551E1,2.4797989E1,2.572008E3,1.446775E2,1.01212296E2,4.535605E2,4.2401386E1,1.3753954E2,1.4215614E2,5.916058E0,2.8523102E1,4.4014675E1,6.8218254E1,2.6043743E1,4.7862436E2,9.221211E2,2.3181953E2,3.1917309E1,1.5224097E2,7.314911E1,3.373919E1,7.1013656E0,5.355861E0,3.3864388E0,9.46462E0,9.029493E1,2.9267677E1,1.2105381E0,7.540692E0,1.7100582E1,3.1685548E0,2.3452726E1,1.228256E0,1.232285E0,1.7156854E0,5.1058678E1,2.2354763E1,8.792667E0,1.8016666E2,2.1936924E0,1.2281744E0,1.7034048E0,1.8177114E1,4.1735306E0,2.9470437E0,2.4952478E1,1.472074E0,8.098076E0,1.6699915E1,5.4672675E2,2.0252814E3,9.2031166E1,5.2646343E1,1.9684052E0,9.924389E1,5.561449E1,3.97946E2,2.4655137E0,3.9935875E1,4.1332447E1,9.6207085E1,2.5851475E1,1.1630467E2,1.9682056E0,3.9478526E0,4.8864627E0,2.3636639E1,3.6161724E1,7.852953E0,2.4698668E0,6.574839E1,6.1347046E0,1.9909039E1,8.607216E0,4.7001715E2],"tree_param":{"num_deleted":"0","num_feature":"800","num_nodes":"123","size_leaf_vector":"1"}},{"base_weights":[5.000414E-3,2.1872927E-1,-8.475025E-2,3.158104E-1,-2.613117E-1,1.8036711E-1,-1.4967065E-1,2.6501584E-1,8.3058274E-1,-1.332273E0,-1.2530616E-1,6.6714686E-1,8.202277E-2,-2.504089E-1,1.2368204E-2,1.8746825E-1,6.1430746E-1,1.33225E0,4.8740536E-1,-7.010891E-1,-1.9444078E-1,-6.8989456E-1,6.1334915E-2,-5.5537814E-1,8.1371063E-1,1.3248388E-1,-8.3284533E-1,-3.495483E-1,-1.06444664E-1,-6.440374E-2,4.2172003E-1,5.937958E-1,1.1759581E-1,6.9218475E-1,-9.6701425E-1,1.4140338E0,-9.9118136E-2,-7.405419E-1,7.0904756E-1,-1.1963124E0,8.4358215E-1,2.4367343E-1,-1.0247582E0,2.0925646E-1,-1.0590119E0,8.657288E-1,-1.4832784E0,9.632085E-1,-3.4148708E-1,-1.7168721E0,1.5460439E-1,1.104522E0,-1.5642365E0,-9.500228E-2,-4.9353123E-1,3.0571613E-1,-2.9225403E-1,2.6742682E-1,-1.6554889E-1,4.9184656E-1,-1.3007027E0,1.4594245E-2,1.054846E-1,-1.8601628E-2,2.55615E-2,1.1567032E-1,4.3481525E-2,-2.1462524E-1,1.3107577E-1,-7.729802E-2,1.480245E-1,-1.7864616E-1,7.720141E-2,-1.0276828E-1,9.2397295E-2,-1.4634542E-1,9.5510095E-2,-3.0968253E-2,1.2855737E-1,-1.0721084E-1,1.0350551E-1,1.26283E-1,-1.1555282E-1,-1.2523584E-1,2.9808272E-2,6.782916E-2,-1.46946E-1,1.3729474E-1,-8.463507E-2,-1.7691325E-1,-3.5334695E-3,4.6904486E-2,1.2389045E-1,-1.22094E-1,1.0387184E-1,-1.9153129E-1,-3.3406813E-2,-1.1804019E-3,3.883031E-2,1.4246225E-1,-5.7435926E-2,-1.7002375E-1,3.3772375E-2,-6.610585E-2,1.3636797E-2,-1.0029097E-1,-4.176494E-2,-3.905801E-2,4.5735084E-2,-4.429497E-2,1.9890375E-2,4.481551E-2,-4.3820992E-2,-1.3913694E-1,-1.3060256E-2,-6.475719E-2,5.8736272E-2,-1.8554698E-1,-5.879062E-3],"categories":[],"categories_nodes":[],"categories_segments":[],"categories_sizes":[],"default_left":[0,0,0,0,0,0,0,0,0,0,0,0,0,0,0,0,0,0,0,0,0,0,0,0,0,0,0,0,0,0,0,0,0,0,0,0,0,0,0,0,0,0,0,0,0,0,0,0,0,0,0,0,0,0,0,0,0,0,0,0,0,0,0,0,0,0,0,0,0,0,0,0,0,0,0,0,0,0,0,0,0,0,0,0,0,0,0,0,0,0,0,0,0,0,0,0,0,0,0,0,0,0,0,0,0,0,0,0,0,0,0,0,0,0,0,0,0,0,0],"id":2,"left_children":[1,3,5,7,9,11,13,15,17,19,21,23,25,27,29,31,33,35,37,39,-1,41,43,45,47,49,51,53,55,57,59,61,63,65,67,69,-1,71,73,75,77,79,81,83,85,87,89,91,93,95,97,99,101,103,105,107,109,111,113,115,117,-1,-1,-1,-1,-1,-1,-1,-1,-1,-1,-1,-1,-1,-1,-1,-1,-1,-1,-1,-1,-1,-1,-1,-1,-1,-1,-1,-1,-1,-1,-1,-1,-1,-1,-1,-1,-1,-1,-1,-1,-1,-1,-1,-1,-1,-1,-1,-1,-1,-1,-1,-1,-1,-1,-1,-1,-1,-1],"loss_changes":[1.19565865E2,8.598906E1,7.558204E1,3.9883575E1,4.507866E1,4.130443E1,5.7573547E1,3.7737495E1,2.2984787E1,1.212085E1,2.920311E1,2.6444885E1,3.334398E1,3.1003204E1,4.2547638E1,3.2438305E1,3.188144E1,1.18880005E1,2.3140123E1,1.5349229E1,0E0,2.1768814E1,3.4840794E1,2.2546186E1,2.2770172E1,2.8210827E1,5.5244118E1,4.7139862E1,6.8122345E1,3.8312714E1,2.6465073E1,3.4485565E1,4.1040504E1,2.8445183E1,3.588709E1,8.923378E0,0E0,2.2252369E1,2.7413864E1,9.793867E0,3.0168526E0,2.0873552E1,1.6672356E1,2.4439606E1,1.848787E1,7.24147E0,4.1275616E0,1.5129433E1,2.0237652E1,1.5984516E0,2.629225E1,6.6957617E0,7.773308E0,6.117245E1,3.1357285E1,2.9375374E1,4.5446407E1,3.4213005E1,3.7278275E1,2.2818325E1,5.8427963E0,0E0,0E0,0E0,0E0,0E0,0E0,0E0,0E0,0E0,0E0,0E0,0E0,0E0,0E0,0E0,0E0,0E0,0E0,0E0,0E0,0E0,0E0,0E0,0E0,0E0,0E0,0E0,0E0,0E0,0E0,0E0,0E0,0E0,0E0,0E0,0E0,0E0,0E0,0E0,0E0,0E0,0E0,0E0,0E0,0E0,0E0,0E0,0E0,0E0,0E0,0E0,0E0,0E0,0E0,0E0,0E0,0E0,0E0],"parents":[2147483647,0,0,1,1,2,2,3,3,4,4,5,5,6,6,7,7,8,8,9,9,10,10,11,11,12,12,13,13,14,14,15,15,16,16,17,17,18,18,19,19,21,21,22,22,23,23,24,24,25,25,26,26,27,27,28,28,29,29,30,30,31,31,32,32,33,33,34,34,35,35,37,37,38,38,39,39,40,40,41,41,42,42,43,43,44,44,45,45,46,46,47,47,48,48,49,49,50,50,51,51,52,52,53,53,54,54,55,55,56,56,57,57,58,58,59,59,60,60],"right_children":[2,4,6,8,10,12,14,16,18,20,22,24,26,28,30,32,34,36,38,40,-1,42,44,46,48,50,52,54,56,58,60,62,64,66,68,70,-1,72,74,76,78,80,82,84,86,88,90,92,94,96,98,100,102,104,106,108,110,112,114,116,118,-1,-1,-1,-1,-1,-1,-1,-1,-1,-1,-1,-1,-1,-1,-1,-1,-1,-1,-1,-1,-1,-1,-1,-1,-1,-1,-1,-1,-1,-1,-1,-1,-1,-1,-1,-1,-1,-1,-1,-1,-1,-1,-1,-1,-1,-1,-1,-1,-1,-1,-1,-1,-1,-1,-1,-1,-1,-1],"split_conditions":[-1.2677008E0,3.3991304E3,-5.0511923E0,3.3549453E3,1.0045884E0,1.6363895E3,3.3157232E-1,1.4596705E1,3.310991E3,-3.395976E-1,3.563464E3,-1.9395306E1,3.8141838E3,1.0038353E0,1.716679E1,1.57067E3,3.2531343E3,7.100325E1,-4.1032953E0,-7.719661E-1,-1.9444078E-1,3.47562E3,3.897174E3,1.4434567E3,2.423273E0,1.5454443E3,-1.1505615E0,-4.4139137E0,1.3836026E0,1.6167982E3,2.8436785E1,1.3453503E3,1.8514349E3,-2.2365763E0,3.3527866E3,-5.6367443E1,-9.9118136E-2,3.9533153E0,3.2638994E3,6.0366745E1,-3.6324472E0,3.4531594E3,8.3703184E-1,3.4680002E3,-5.156132E0,1.5329346E3,1.4402084E-1,3.6392593E1,3.9252903E1,1.606448E3,2.1366305E0,1.6664817E0,4.167849E0,-1.2001199E1,7.338827E-1,-2.748233E-1,3.199135E0,1.3059499E0,1.579642E3,9.183198E-1,4.7964816E0,1.4594245E-2,1.054846E-1,-1.8601628E-2,2.55615E-2,1.1567032E-1,4.3481525E-2,-2.1462524E-1,1.3107577E-1,-7.729802E-2,1.480245E-1,-1.7864616E-1,7.720141E-2,-1.0276828E-1,9.2397295E-2,-1.4634542E-1,9.5510095E-2,-3.0968253E-2,1.2855737E-1,-1.0721084E-1,1.0350551E-1,1.26283E-1,-1.1555282E-1,-1.2523584E-1,2.9808272E-2,6.782916E-2,-1.46946E-1,1.3729474E-1,-8.463507E-2,-1.7691325E-1,-3.5334695E-3,4.6904486E-2,1.2389045E-1,-1.22094E-1,1.0387184E-1,-1.9153129E-1,-3.3406813E-2,-1.1804019E-3,3.883031E-2,1.4246225E-1,-5.7435926E-2,-1.7002375E-1,3.3772375E-2,-6.610585E-2,1.3636797E-2,-1.0029097E-1,-4.176494E-2,-3.905801E-2,4.5735084E-2,-4.429497E-2,1.9890375E-2,4.481551E-2,-4.3820992E-2,-1.3913694E-1,-1.3060256E-2,-6.475719E-2,5.8736272E-2,-1.8554698E-1,-5.879062E-3],"split_indices":[212,471,514,790,121,294,580,3,695,468,8,786,215,3,771,16,295,17,20,340,0,85,791,325,98,661,740,3,425,758,194,486,7,755,376,482,0,594,327,769,180,488,313,789,452,198,20,65,417,488,281,276,793,19,793,242,761,274,8,201,713,0,0,0,0,0,0,0,0,0,0,0,0,0,0,0,0,0,0,0,0,0,0,0,0,0,0,0,0,0,0,0,0,0,0,0,0,0,0,0,0,0,0,0,0,0,0,0,0,0,0,0,0,0,0,0,0,0,0],"split_type":[0,0,0,0,0,0,0,0,0,0,0,0,0,0,0,0,0,0,0,0,0,0,0,0,0,0,0,0,0,0,0,0,0,0,0,0,0,0,0,0,0,0,0,0,0,0,0,0,0,0,0,0,0,0,0,0,0,0,0,0,0,0,0,0,0,0,0,0,0,0,0,0,0,0,0,0,0,0,0,0,0,0,0,0,0,0,0,0,0,0,0,0,0,0,0,0,0,0,0,0,0,0,0,0,0,0,0,0,0,0,0,0,0,0,0,0,0,0,0],"sum_hessian":[6.2311665E3,1.8423726E3,4.388794E3,1.5327407E3,3.0963187E2,8.6295215E2,3.5258418E3,1.3964613E3,1.3627937E2,3.389934E1,2.757325E2,1.44068E2,7.1888416E2,2.1738384E3,1.3520034E3,1.1440116E3,2.5244977E2,5.418621E1,8.209316E1,1.7746204E1,1.6153135E1,6.7835144E1,2.0789737E2,1.5124173E1,1.2894383E2,6.821161E2,3.676809E1,1.286486E3,8.873526E2,1.1391954E3,2.1280789E2,1.6675969E2,9.772519E2,2.411365E2,1.1313267E1,5.272183E1,1.4643825E0,1.219408E1,6.9899086E1,1.3608748E1,4.1374564E0,1.798025E1,4.9854897E1,1.8436812E2,2.3529255E1,6.000789E0,9.123384E0,1.1431602E2,1.4627811E1,7.1569185E0,6.7495917E2,9.936728E0,2.6831362E1,4.6538904E2,8.2109686E2,2.7552966E2,6.1182294E2,2.6573737E2,8.734581E2,2.0516911E2,7.6387873E0,8.52583E1,8.150138E1,3.0530338E2,6.719485E2,8.472484E1,1.5641165E2,7.4921856E0,3.8210812E0,1.235566E0,5.1486263E1,7.1020117E0,5.092069E0,7.2811637E0,6.261792E1,1.2390043E1,1.2187053E0,1.2292885E0,2.908168E0,6.6195683E0,1.1360682E1,2.2277348E0,4.762716E1,9.812173E0,1.7455595E2,4.3718715E0,1.9157383E1,4.7821245E0,1.2186644E0,7.433946E0,1.6894385E0,4.1905304E1,7.241071E1,9.005189E0,5.6226225E0,5.9219847E0,1.2349337E0,3.9479172E2,2.8016745E2,8.472735E0,1.4639921E0,2.5139784E1,1.6915786E0,1.34492E2,3.3089703E2,1.04875206E2,7.162217E2,4.8990913E1,2.2653874E2,4.68253E2,1.4356992E2,2.1184447E2,5.3892895E1,2.3134926E1,8.503232E2,1.5421794E1,1.8974731E2,4.9386363E0,2.7001512E0],"tree_param":{"num_deleted":"0","num_feature":"800","num_nodes":"119","size_leaf_vector":"1"}},{"base_weights":[-8.808591E-3,2.1375811E-1,-8.530755E-2,2.9989526E-1,-2.8493485E-1,-7.176232E-2,-1.1587288E0,-6.3365236E-2,3.8747907E-1,-1.693086E0,-1.6071488E-1,1.2841228E-1,-1.3665135E-1,4.9275476E-2,-1.322642E0,7.5557965E-1,-3.0151072E-1,1.6296473E-1,5.0548583E-1,-1.9238149E0,9.3060344E-2,-2.7977148E-1,8.5137093E-1,1.992487E-1,-3.5750487E-1,-1.565285E-1,4.719078E-1,7.638607E-1,-8.41731E-1,-6.5246695E-1,-1.6680517E0,4.195777E-1,1.2814678E0,-5.2723974E-1,1.7404015E-1,6.757379E-1,1.4822278E-2,2.1267336E-2,6.000322E-1,-2.0761357E-1,-1.4057268E-2,-3.22379E-2,-8.929883E-1,-1.5904704E-1,1.218465E0,1.1996384E-1,6.5874493E-1,-6.6912675E-1,4.60397E-1,-1.4235064E-1,-1.3998532E0,6.8288183E-1,-9.038118E-1,1.24071494E-1,-3.645909E-2,1.5650572E-2,-1.3507776E-1,8.803435E-1,-1.2059572E0,-1.7474475E0,2.1873182E-2,6.127089E-2,-9.417762E-2,-4.1647717E-2,1.4361249E-1,1.2911718E-1,-6.4692505E-2,-1.2882847E-1,4.0251624E-2,7.8954235E-2,-1.6939108E-1,1.8701896E-2,-4.245032E-2,-1.8082755E-2,9.1149576E-2,5.2541852E-2,1.02816224E-1,-1.101108E-1,1.2680701E-2,7.742819E-2,-1.2438698E-1,1.4699544E-1,1.9820414E-3,5.167635E-3,8.639998E-2,8.7120235E-2,-3.8923398E-2,-8.364957E-2,6.8019636E-2,-3.8210962E-2,1.03513815E-1,-1.5350434E-2,1.1351208E-1,-1.7048647E-1,1.1384243E-1,1.4607023E-1,3.0164042E-2,-1.7711914E-1,7.5134695E-2,1.3055708E-1,-3.4919642E-2,-1.5433149E-1,1.985441E-2,-7.023909E-2,-1.8499516E-1],"categories":[],"categories_nodes":[],"categories_segments":[],"categories_sizes":[],"default_left":[0,0,0,0,0,0,0,0,0,0,0,0,0,0,0,0,0,0,0,0,0,0,0,0,0,0,0,0,0,0,0,0,0,0,0,0,0,0,0,0,0,0,0,0,0,0,0,0,0,0,0,0,0,0,0,0,0,0,0,0,0,0,0,0,0,0,0,0,0,0,0,0,0,0,0,0,0,0,0,0,0,0,0,0,0,0,0,0,0,0,0,0,0,0,0,0,0,0,0,0,0,0,0,0,0],"id":3,"left_children":[1,3,5,7,9,11,13,15,17,19,21,23,25,27,29,31,33,35,37,39,-1,41,43,45,47,49,51,53,55,57,59,61,63,65,67,69,71,73,75,-1,-1,77,79,-1,81,83,85,87,89,91,93,95,97,-1,-1,-1,-1,99,101,103,-1,-1,-1,-1,-1,-1,-1,-1,-1,-1,-1,-1,-1,-1,-1,-1,-1,-1,-1,-1,-1,-1,-1,-1,-1,-1,-1,-1,-1,-1,-1,-1,-1,-1,-1,-1,-1,-1,-1,-1,-1,-1,-1,-1,-1],"loss_changes":[1.06232025E2,6.8643036E1,6.742908E1,4.3339027E1,4.0935715E1,5.959211E1,1.15093E1,5.197588E1,2.898384E1,1.3287422E1,2.6456573E1,3.8736412E1,4.1978043E1,5.65344E0,1.070047E1,1.0075123E1,2.2234516E1,2.8814018E1,3.28871E1,4.538475E0,0E0,2.9637222E1,2.2688559E1,3.5661175E1,3.682632E1,5.894793E1,3.249131E1,3.0844033E0,2.232885E0,1.714992E1,5.3202744E0,1.0603121E1,6.618908E0,3.1332172E1,2.2953133E1,2.426783E1,2.2427773E1,2.147198E1,1.866478E1,0E0,0E0,2.3985678E1,3.3821373E1,0E0,6.2078266E0,4.252731E1,3.2432568E1,2.4091324E1,1.9823143E1,4.7460022E1,3.1141632E1,2.7963814E1,2.2912167E1,0E0,0E0,0E0,0E0,3.38843E0,7.107733E0,2.1010895E0,0E0,0E0,0E0,0E0,0E0,0E0,0E0,0E0,0E0,0E0,0E0,0E0,0E0,0E0,0E0,0E0,0E0,0E0,0E0,0E0,0E0,0E0,0E0,0E0,0E0,0E0,0E0,0E0,0E0,0E0,0E0,0E0,0E0,0E0,0E0,0E0,0E0,0E0,0E0,0E0,0E0,0E0,0E0,0E0,0E0],"parents":[2147483647,0,0,1,1,2,2,3,3,4,4,5,5,6,6,7,7,8,8,9,9,10,10,11,11,12,12,13,13,14,14,15,15,16,16,17,17,18,18,19,19,21,21,22,22,23,23,24,24,25,25,26,26,27,27,28,28,29,29,30,30,31,31,32,32,33,33,34,34,35,35,36,36,37,37,38,38,41,41,42,42,44,44,45,45,46,46,47,47,48,48,49,49,50,50,51,51,52,52,57,57,58,58,59,59],"right_children":[2,4,6,8,10,12,14,16,18,20,22,24,26,28,30,32,34,36,38,40,-1,42,44,46,48,50,52,54,56,58,60,62,64,66,68,70,72,74,76,-1,-1,78,80,-1,82,84,86,88,90,92,94,96,98,-1,-1,-1,-1,100,102,104,-1,-1,-1,-1,-1,-1,-1,-1,-1,-1,-1,-1,-1,-1,-1,-1,-1,-1,-1,-1,-1,-1,-1,-1,-1,-1,-1,-1,-1,-1,-1,-1,-1,-1,-1,-1,-1,-1,-1,-1,-1,-1,-1,-1,-1],"split_conditions":[-4.946969E0,3.39836E3,3.8792498E3,-1.2186324E1,3.5355962E3,-1.1228619E0,3.90422E3,-2.8093653E1,3.9519894E1,5.9288185E1,1.9554434E1,3.399423E3,3.762728E3,1E0,1.9644955E0,7.0503583E0,-9.672408E0,-4.1589446E0,1.2748996E0,3.4826E3,9.3060344E-2,3.77845E3,3.4650076E3,1.9507418E1,3.7147805E3,3.6792075E3,4.468064E0,6.0990948E1,4.198502E1,3.886296E3,3.695032E1,8.198541E0,1E0,-4.6139245E0,1.49831E3,3.6314343E3,1.0278171E0,2.8713435E3,3.097159E0,-2.0761357E-1,-1.4057268E-2,3.430036E3,-1.7780845E0,-1.5904704E-1,3.0114374E1,3.139134E3,3.29112E3,2.4800756E0,2.166507E0,1.0169704E1,3.715732E3,3.7788308E3,6.6307816E1,1.24071494E-1,-3.645909E-2,1.5650572E-2,-1.3507776E-1,1.7375788E1,3.964813E3,-5.2933564E0,2.1873182E-2,6.127089E-2,-9.417762E-2,-4.1647717E-2,1.4361249E-1,1.2911718E-1,-6.4692505E-2,-1.2882847E-1,4.0251624E-2,7.8954235E-2,-1.6939108E-1,1.8701896E-2,-4.245032E-2,-1.8082755E-2,9.1149576E-2,5.2541852E-2,1.02816224E-1,-1.101108E-1,1.2680701E-2,7.742819E-2,-1.2438698E-1,1.4699544E-1,1.9820414E-3,5.167635E-3,8.639998E-2,8.7120235E-2,-3.8923398E-2,-8.364957E-2,6.8019636E-2,-3.8210962E-2,1.03513815E-1,-1.5350434E-2,1.1351208E-1,-1.7048647E-1,1.1384243E-1,1.4607023E-1,3.0164042E-2,-1.7711914E-1,7.5134695E-2,1.3055708E-1,-3.4919642E-2,-1.5433149E-1,1.985441E-2,-7.023909E-2,-1.8499516E-1],"split_indices":[450,567,775,50,246,228,784,387,593,529,19,503,774,380,9,777,386,260,601,480,0,784,455,35,69,358,393,593,17,5,195,788,190,724,736,7,131,295,4,0,0,791,772,0,50,759,64,660,505,473,56,230,561,0,0,0,0,290,295,388,0,0,0,0,0,0,0,0,0,0,0,0,0,0,0,0,0,0,0,0,0,0,0,0,0,0,0,0,0,0,0,0,0,0,0,0,0,0,0,0,0,0,0,0,0],"split_type":[0,0,0,0,0,0,0,0,0,0,0,0,0,0,0,0,0,0,0,0,0,0,0,0,0,0,0,0,0,0,0,0,0,0,0,0,0,0,0,0,0,0,0,0,0,0,0,0,0,0,0,0,0,0,0,0,0,0,0,0,0,0,0,0,0,0,0,0,0,0,0,0,0,0,0,0,0,0,0,0,0,0,0,0,0,0,0,0,0,0,0,0,0,0,0,0,0,0,0,0,0,0,0,0,0],"sum_hessian":[6.2372847E3,1.5949961E3,4.6422886E3,1.3604159E3,2.3458028E2,4.5854927E3,5.6796337E1,2.6433658E2,1.0960792E3,1.7992176E1,2.165881E2,1.122314E3,3.4631785E3,6.869442E0,4.9926895E1,5.90613E1,2.052753E2,3.7844592E2,7.1763336E2,1.6783018E1,1.209157E0,1.9443887E2,2.2149225E1,9.800355E2,1.4227846E2,3.354359E3,1.0881945E2,3.891315E0,2.978127E0,1.796316E1,3.1963734E1,3.713362E1,2.1927675E1,1.3912726E2,6.614803E1,8.402935E1,2.944166E2,1.1743191E2,6.002014E2,1.5310942E1,1.4720767E0,1.3927225E2,5.5166626E1,2.4591067E0,1.9690119E1,8.3689294E2,1.4314258E2,1.0315728E2,3.9121178E1,3.3176418E3,3.6717186E1,9.478697E1,1.4032475E1,2.6654718E0,1.2258432E0,1.239678E0,1.738449E0,4.608914E0,1.3354245E1,3.0743881E1,1.2198524E0,3.3001698E1,4.131925E0,1.6892195E0,2.0238455E1,7.987216E0,1.3114005E2,8.311703E0,5.7836327E1,8.081496E1,3.214398E0,2.119253E2,8.249129E1,9.635483E1,2.1077082E1,5.1302045E2,8.718098E1,1.7271944E1,1.22000305E2,9.381625E0,4.5785E1,1.6088268E1,3.6018512E0,7.675196E2,6.937336E1,1.19154915E2,2.398767E1,9.2111855E1,1.104542E1,1.600086E1,2.312032E1,3.289798E3,2.7843636E1,3.30715E1,3.6456895E0,3.0246233E1,6.454074E1,9.161384E0,4.871092E0,3.3786101E0,1.2303038E0,1.0688146E1,2.6660998E0,3.4475458E0,2.7296335E1],"tree_param":{"num_deleted":"0","num_feature":"800","num_nodes":"105","size_leaf_vector":"1"}},{"base_weights":[-1.6159277E-3,2.0848751E-1,-7.175406E-2,1.22783944E-1,5.050319E-1,-2.8194836E-1,-1.3043868E-2,1.6918388E-1,-8.239135E-1,8.754346E-1,2.707772E-1,1.7382E-1,-4.4207707E-1,9.311387E-2,-1.6629748E-1,-2.5586465E-1,2.5175643E-1,5.745633E-1,-1.1981831E0,4.4570652E-1,1.2033291E0,9.701969E-1,8.037244E-2,-1.1496997E-1,6.8097603E-1,-4.7941414E-1,7.2508794E-1,5.937956E-2,6.708459E-1,-3.445698E-1,-5.5925795E-3,9.0657574E-1,-4.1919255E-1,2.853334E-1,-8.833937E-1,-1.3272087E-1,1.0501577E0,-1.5107702E0,-2.1556793E-1,1.1945284E-1,1.3245438E0,-5.068289E-1,1.2670432E0,1.1989657E-1,1.2010852E0,-5.249381E-1,2.8287673E-1,-7.939353E-3,-1.855847E0,1.2535801E0,3.6190978E-1,-1.1086086E0,-4.2279032E-1,1.2334595E0,-2.861328E-1,1.0184155E-1,-3.5305557E-1,8.3505E-1,-1.0092503E0,7.552318E-2,-5.544305E-1,1.342761E-1,-3.434264E-1,1.3596452E-2,1.4352468E-1,-2.9671771E-2,-1.9920401E-1,-1.1890272E-2,3.704053E-2,-1.5618512E-1,-6.677384E-3,-7.9354085E-2,1.3734886E-1,6.374617E-2,-1.626553E-1,1.369256E-1,-1.2225083E-1,1.186113E-1,-3.7882563E-2,-1.918271E-2,1.547651E-1,-1.2889142E-1,5.0644834E-2,1.3144861E-1,-8.4469914E-2,1.3781594E-1,-1.0870892E-1,1.2739323E-1,-5.258577E-2,-1.5180804E-1,-7.0372414E-5,-1.138272E-2,6.7041956E-2,-1.5227233E-2,1.5347674E-1,-2.0190561E-1,-3.854611E-2,1.5062386E-1,-4.367381E-2,-1.372204E-1,9.4320476E-2,1.35208E-1,-1.2715022E-1,9.8158546E-2,-4.615368E-2,-1.5410902E-2,1.3847406E-1,1.2587838E-1,-1.3495646E-1,6.0281875E-3,6.083687E-2,-1.3172892E-1,-1.3942097E-2,9.752855E-2,-1.0363662E-1,7.075166E-2,-1.6961075E-1,-3.0767778E-2,4.814918E-2,-5.9837054E-2,1.19323276E-1,2.1774031E-2,-5.353078E-2,1.8437853E-2,-6.499054E-2],"categories":[],"categories_nodes":[],"categories_segments":[],"categories_sizes":[],"default_left":[0,0,0,0,0,0,0,0,0,0,0,0,0,0,0,0,0,0,0,0,0,0,0,0,0,0,0,0,0,0,0,0,0,0,0,0,0,0,0,0,0,0,0,0,0,0,0,0,0,0,0,0,0,0,0,0,0,0,0,0,0,0,0,0,0,0,0,0,0,0,0,0,0,0,0,0,0,0,0,0,0,0,0,0,0,0,0,0,0,0,0,0,0,0,0,0,0,0,0,0,0,0,0,0,0,0,0,0,0,0,0,0,0,0,0,0,0,0,0,0,0,0,0,0,0],"id":4,"left_children":[1,3,5,7,9,11,13,15,17,19,21,23,25,27,29,31,33,35,37,39,41,43,45,47,49,51,53,55,57,59,61,63,65,67,69,-1,71,73,75,77,79,81,83,85,87,89,91,93,95,97,99,101,103,105,107,109,111,113,115,117,119,121,123,-1,-1,-1,-1,-1,-1,-1,-1,-1,-1,-1,-1,-1,-1,-1,-1,-1,-1,-1,-1,-1,-1,-1,-1,-1,-1,-1,-1,-1,-1,-1,-1,-1,-1,-1,-1,-1,-1,-1,-1,-1,-1,-1,-1,-1,-1,-1,-1,-1,-1,-1,-1,-1,-1,-1,-1,-1,-1,-1,-1,-1,-1],"loss_changes":[9.16548E1,3.9500023E1,5.754049E1,5.3244713E1,3.0018593E1,7.437448E1,5.9332184E1,4.0542095E1,3.0342388E1,1.8435478E1,2.8561043E1,3.8948997E1,3.3189865E1,4.1951912E1,4.2753857E1,3.6092113E1,3.7078667E1,1.2823822E1,1.3501839E1,1.7005241E1,8.899422E0,8.872467E0,2.1002083E1,3.1653553E1,1.7165413E1,2.557045E1,1.25669155E1,3.5706474E1,3.360911E1,6.2416344E1,3.7180904E1,9.374231E0,3.1310905E1,3.2342194E1,1.5410313E1,0E0,7.4490356E0,9.49041E0,2.0873701E1,2.4235628E1,5.7460575E0,3.3758607E0,8.458611E0,1.8080164E1,5.19981E0,2.2385069E1,1.9774633E1,3.6109436E1,1.5830917E0,1.5222107E1,6.513845E1,2.5659714E1,3.7027687E1,3.5717812E0,1.6091036E1,3.88547E1,3.9027134E1,2.9549286E1,1.4203158E1,3.695176E1,3.6954605E1,3.1217215E1,3.7386845E1,0E0,0E0,0E0,0E0,0E0,0E0,0E0,0E0,0E0,0E0,0E0,0E0,0E0,0E0,0E0,0E0,0E0,0E0,0E0,0E0,0E0,0E0,0E0,0E0,0E0,0E0,0E0,0E0,0E0,0E0,0E0,0E0,0E0,0E0,0E0,0E0,0E0,0E0,0E0,0E0,0E0,0E0,0E0,0E0,0E0,0E0,0E0,0E0,0E0,0E0,0E0,0E0,0E0,0E0,0E0,0E0,0E0,0E0,0E0,0E0,0E0,0E0],"parents":[2147483647,0,0,1,1,2,2,3,3,4,4,5,5,6,6,7,7,8,8,9,9,10,10,11,11,12,12,13,13,14,14,15,15,16,16,17,17,18,18,19,19,20,20,21,21,22,22,23,23,24,24,25,25,26,26,27,27,28,28,29,29,30,30,31,31,32,32,33,33,34,34,36,36,37,37,38,38,39,39,40,40,41,41,42,42,43,43,44,44,45,45,46,46,47,47,48,48,49,49,50,50,51,51,52,52,53,53,54,54,55,55,56,56,57,57,58,58,59,59,60,60,61,61,62,62],"right_children":[2,4,6,8,10,12,14,16,18,20,22,24,26,28,30,32,34,36,38,40,42,44,46,48,50,52,54,56,58,60,62,64,66,68,70,-1,72,74,76,78,80,82,84,86,88,90,92,94,96,98,100,102,104,106,108,110,112,114,116,118,120,122,124,-1,-1,-1,-1,-1,-1,-1,-1,-1,-1,-1,-1,-1,-1,-1,-1,-1,-1,-1,-1,-1,-1,-1,-1,-1,-1,-1,-1,-1,-1,-1,-1,-1,-1,-1,-1,-1,-1,-1,-1,-1,-1,-1,-1,-1,-1,-1,-1,-1,-1,-1,-1,-1,-1,-1,-1,-1,-1,-1,-1,-1,-1],"split_conditions":[-5.055463E0,4.0625677E0,1.0930219E0,3.8177952E3,3.6812823E0,1.6180192E3,8.2249355E-1,-1.1521818E1,-7.327576E-1,-1.12826605E1,-2.9974678E1,1.5407216E3,2.1160967E1,2.1132847E1,2.2763215E3,-2.994004E1,7.2789826E0,1.5707659E0,3.9924195E0,7.272726E0,1.2386798E0,5.868303E0,4.813549E0,1.5089576E3,1.5598676E3,1.6578765E3,7.210883E1,3.5052925E3,4.753359E0,1.5619358E3,5.0881824E0,-3.8852494E0,6.8363223E0,1.300542E0,3.2924097E3,-1.3272087E-1,-4.86157E0,-7.735893E0,1.4784555E0,-1.3302125E1,-4.963014E0,4.586592E1,1.0261043E1,7.3020597E0,3.4343254E1,-1.204936E1,1.8357073E3,1.35862E3,5.433681E1,1.5851E3,1.560347E3,-4.265425E0,1.6652346E3,8.6529654E-1,1.5659173E0,1.9481071E1,3.5602454E3,6.786963E1,4.414861E1,1.3870029E3,1.0154556E1,4.468064E0,3.1647476E3,1.3596452E-2,1.4352468E-1,-2.9671771E-2,-1.9920401E-1,-1.1890272E-2,3.704053E-2,-1.5618512E-1,-6.677384E-3,-7.9354085E-2,1.3734886E-1,6.374617E-2,-1.626553E-1,1.369256E-1,-1.2225083E-1,1.186113E-1,-3.7882563E-2,-1.918271E-2,1.547651E-1,-1.2889142E-1,5.0644834E-2,1.3144861E-1,-8.4469914E-2,1.3781594E-1,-1.0870892E-1,1.2739323E-1,-5.258577E-2,-1.5180804E-1,-7.0372414E-5,-1.138272E-2,6.7041956E-2,-1.5227233E-2,1.5347674E-1,-2.0190561E-1,-3.854611E-2,1.5062386E-1,-4.367381E-2,-1.372204E-1,9.4320476E-2,1.35208E-1,-1.2715022E-1,9.8158546E-2,-4.615368E-2,-1.5410902E-2,1.3847406E-1,1.2587838E-1,-1.3495646E-1,6.0281875E-3,6.083687E-2,-1.3172892E-1,-1.3942097E-2,9.752855E-2,-1.0363662E-1,7.075166E-2,-1.6961075E-1,-3.0767778E-2,4.814918E-2,-5.9837054E-2,1.19323276E-1,2.1774031E-2,-5.353078E-2,1.8437853E-2,-6.499054E-2],"split_indices":[434,777,9,119,633,39,212,2,756,210,402,744,770,658,535,419,692,553,131,105,425,761,649,407,152,454,561,38,297,567,212,148,393,585,327,0,19,84,201,643,196,641,52,553,114,131,726,528,33,320,71,227,134,185,180,51,550,209,33,38,233,393,630,0,0,0,0,0,0,0,0,0,0,0,0,0,0,0,0,0,0,0,0,0,0,0,0,0,0,0,0,0,0,0,0,0,0,0,0,0,0,0,0,0,0,0,0,0,0,0,0,0,0,0,0,0,0,0,0,0,0,0,0,0,0],"split_type":[0,0,0,0,0,0,0,0,0,0,0,0,0,0,0,0,0,0,0,0,0,0,0,0,0,0,0,0,0,0,0,0,0,0,0,0,0,0,0,0,0,0,0,0,0,0,0,0,0,0,0,0,0,0,0,0,0,0,0,0,0,0,0,0,0,0,0,0,0,0,0,0,0,0,0,0,0,0,0,0,0,0,0,0,0,0,0,0,0,0,0,0,0,0,0,0,0,0,0,0,0,0,0,0,0,0,0,0,0,0,0,0,0,0,0,0,0,0,0,0,0,0,0,0,0],"sum_hessian":[6.217662E3,1.5556466E3,4.6620156E3,1.207953E3,3.4769357E2,1.0170324E3,3.644983E3,1.1522975E3,5.5655598E1,1.3364207E2,2.140515E2,2.6439868E2,7.526337E2,2.1535947E3,1.4913882E3,1.8709795E2,9.6519946E2,1.1637255E1,4.4018345E1,5.8860577E1,7.4781494E1,4.4926422E1,1.6912508E2,1.6896068E2,9.543801E1,7.298746E2,2.2759106E1,2.035824E3,1.1777087E2,7.065062E2,7.848819E2,2.2488901E1,1.6460904E2,9.381969E2,2.7002586E1,1.969826E0,9.667429E0,3.2987076E1,1.1031268E1,4.3753674E1,1.51069E1,2.436212E0,7.234528E1,9.918499E0,3.5007923E1,4.19974E1,1.2712768E2,1.6012086E2,8.8398075E0,3.3102516E1,6.2335495E1,5.8727375E1,6.711472E2,1.49989195E1,7.760186E0,1.8464745E3,1.8934952E2,1.0774354E2,1.00273285E1,2.3557643E2,4.709298E2,5.554989E2,2.2938303E2,9.662154E0,1.2826746E1,1.5381999E2,1.0789042E1,1.6304733E2,7.751496E2,1.4250512E1,1.2752073E1,1.2254416E0,8.441987E0,1.4565514E0,3.1530525E1,4.1460233E0,6.8852453E0,1.3491698E1,3.0261976E1,1.9556081E0,1.3151292E1,1.2214366E0,1.2147756E0,7.112491E1,1.2203754E0,4.786663E0,5.131836E0,3.3842667E1,1.1652576E0,1.3854591E1,2.8142809E1,6.317034E1,6.3957336E1,1.4724608E2,1.2874792E1,7.6207747E0,1.2190326E0,2.8892714E1,4.2098036E0,1.5308054E1,4.7027443E1,3.1930106E0,5.5534363E1,1.736635E1,6.537809E2,1.4726757E0,1.3526244E1,3.0889575E0,4.671229E0,1.7074963E3,1.3897812E2,3.3406075E1,1.5594344E2,1.0067803E2,7.065506E0,2.8568044E0,7.1705246E0,1.2131097E2,1.14265465E2,4.6002148E2,1.0908316E1,4.945301E2,6.096879E1,8.441153E1,1.449715E2],"tree_param":{"num_deleted":"0","num_feature":"800","num_nodes":"125","size_leaf_vector":"1"}},{"base_weights":[5.2295267E-3,1.7525585E-2,-9.933141E-1,-2.0956898E-1,7.2871424E-2,-1.165754E0,3.8780794E-1,1.7242007E-1,-3.2030526E-1,1.611975E-1,-8.629726E-2,-4.806857E-1,-1.511251E0,1.17922544E-1,-5.455041E-1,-9.618362E-2,7.143586E-1,-4.7675252E-1,-3.5704546E-2,5.297599E-2,2.9422647E-1,1.5180543E-1,-1.6809341E-1,-1.4680107E0,-2.5070254E-3,-1.5935117E-1,-1.6090673E0,4.5654994E-2,-1.2217108E-1,2.3110747E-1,-7.372092E-1,8.142058E-2,1.0356091E0,-1.0646578E0,-4.0991122E-1,-1.4352459E-1,6.968108E-1,-7.764636E-3,3.299501E-1,2.5616992E-1,8.489179E-1,-4.226199E-1,2.978599E-1,-1.9594203E-1,5.406111E-1,-4.6747245E-2,-1.5768942E-1,-6.3613206E-1,1.2740198E-1,1.01916455E-1,-1.140212E-1,-1.6838785E0,-8.031052E-1,5.579684E-2,-6.940093E-2,-1.6567935E-1,1.5235618E-2,-6.3303865E-2,1.5327989E-1,1.1617591E-1,-1.5268055E-1,-1.4607881E-1,-1.25730755E-2,-6.826096E-2,-2.3949018E-2,7.992091E-2,-2.4324462E-2,-1.24956004E-1,9.978226E-2,3.5147797E-2,-7.910814E-3,5.432251E-2,-4.0753044E-2,4.0703233E-2,1.2884552E-2,-4.3756776E-3,1.1475899E-1,9.765537E-3,-8.794676E-2,-1.6654341E-3,4.937308E-2,-1.6510615E-2,-9.9656E-2,-5.0600953E-2,9.904564E-2,-1.0230644E-1,1.121516E-1,-5.676183E-2,-1.7309582E-1,-1.3722214E-1,6.3045375E-2],"categories":[],"categories_nodes":[],"categories_segments":[],"categories_sizes":[],"default_left":[0,0,0,0,0,0,0,0,0,0,0,0,0,0,0,0,0,0,0,0,0,0,0,0,0,0,0,0,0,0,0,0,0,0,0,0,0,0,0,0,0,0,0,0,0,0,0,0,0,0,0,0,0,0,0,0,0,0,0,0,0,0,0,0,0,0,0,0,0,0,0,0,0,0,0,0,0,0,0,0,0,0,0,0,0,0,0,0,0,0,0],"id":5,"left_children":[1,3,5,7,9,11,13,15,17,19,21,23,25,-1,27,29,31,33,35,37,39,41,43,45,47,49,51,-1,-1,53,55,57,59,61,63,65,67,69,71,73,75,77,79,81,83,-1,-1,85,-1,-1,-1,87,89,-1,-1,-1,-1,-1,-1,-1,-1,-1,-1,-1,-1,-1,-1,-1,-1,-1,-1,-1,-1,-1,-1,-1,-1,-1,-1,-1,-1,-1,-1,-1,-1,-1,-1,-1,-1,-1,-1],"loss_changes":[7.618365E1,7.7048065E1,1.8427658E1,5.086838E1,6.930475E1,1.5214264E1,7.3855896E0,3.946243E1,4.146392E1,4.5622604E1,3.4295204E1,1.1348428E1,5.6022034E0,0E0,3.8591828E0,3.8317265E1,1.817482E1,2.3184036E1,2.6285526E1,2.9431055E1,2.9796791E1,3.7916893E1,2.5963676E1,1.1738205E-1,1.47233925E1,5.900583E0,1.1320877E0,0E0,0E0,3.7014572E1,5.072078E1,3.3446156E1,2.1001015E1,2.2406754E1,2.4994888E1,2.7441782E1,2.6269945E1,3.6821774E1,4.970951E1,2.5532722E1,2.4273499E1,2.1888046E1,2.216828E1,3.0975384E1,2.3948856E1,0E0,0E0,9.418808E0,0E0,0E0,0E0,9.510498E-1,5.2802706E0,0E0,0E0,0E0,0E0,0E0,0E0,0E0,0E0,0E0,0E0,0E0,0E0,0E0,0E0,0E0,0E0,0E0,0E0,0E0,0E0,0E0,0E0,0E0,0E0,0E0,0E0,0E0,0E0,0E0,0E0,0E0,0E0,0E0,0E0,0E0,0E0,0E0,0E0],"parents":[2147483647,0,0,1,1,2,2,3,3,4,4,5,5,6,6,7,7,8,8,9,9,10,10,11,11,12,12,14,14,15,15,16,16,17,17,18,18,19,19,20,20,21,21,22,22,23,23,24,24,25,25,26,26,29,29,30,30,31,31,32,32,33,33,34,34,35,35,36,36,37,37,38,38,39,39,40,40,41,41,42,42,43,43,44,44,47,47,51,51,52,52],"right_children":[2,4,6,8,10,12,14,16,18,20,22,24,26,-1,28,30,32,34,36,38,40,42,44,46,48,50,52,-1,-1,54,56,58,60,62,64,66,68,70,72,74,76,78,80,82,84,-1,-1,86,-1,-1,-1,88,90,-1,-1,-1,-1,-1,-1,-1,-1,-1,-1,-1,-1,-1,-1,-1,-1,-1,-1,-1,-1,-1,-1,-1,-1,-1,-1,-1,-1,-1,-1,-1,-1,-1,-1,-1,-1,-1,-1],"split_conditions":[3.8794092E3,1.0768803E0,3.8927684E0,1.6215745E3,9.276602E-1,4.456172E1,1.8882651E0,1.54481E3,6.876107E-1,5.4914993E-1,-3.7021964E0,4.5231434E1,-6.4344673E0,1.17922544E-1,2.5296848E0,8.133324E-1,-1.3171929E-1,6.1084074E-1,1.2651484E0,1.41831875E1,2.2080475E1,1.5323973E0,3.8085457E3,4.5508694E1,5.274991E-1,2.0836947E0,1E0,4.5654994E-2,-1.2217108E-1,1.3000603E3,1.3099043E3,1.5932976E3,1.6508844E3,7.6660943E-1,-6.994366E-1,6.260996E-1,1.7642977E3,-3.899858E0,5.9219675E0,8.768098E-1,2.387417E3,2.7722545E0,-1.13252735E1,3.609E3,-8.7695765E-1,-4.6747245E-2,-1.5768942E-1,3.9655344E3,1.2740198E-1,1.01916455E-1,-1.140212E-1,3.8162205E1,1.6220009E0,5.579684E-2,-6.940093E-2,-1.6567935E-1,1.5235618E-2,-6.3303865E-2,1.5327989E-1,1.1617591E-1,-1.5268055E-1,-1.4607881E-1,-1.25730755E-2,-6.826096E-2,-2.3949018E-2,7.992091E-2,-2.4324462E-2,-1.24956004E-1,9.978226E-2,3.5147797E-2,-7.910814E-3,5.432251E-2,-4.0753044E-2,4.0703233E-2,1.2884552E-2,-4.3756776E-3,1.1475899E-1,9.765537E-3,-8.794676E-2,-1.6654341E-3,4.937308E-2,-1.6510615E-2,-9.9656E-2,-5.0600953E-2,9.904564E-2,-1.0230644E-1,1.121516E-1,-5.676183E-2,-1.7309582E-1,-1.3722214E-1,6.3045375E-2],"split_indices":[759,57,649,69,196,785,25,560,772,596,562,113,708,0,457,323,195,393,404,19,626,265,758,273,356,185,93,0,0,407,773,5,342,35,323,329,166,3,707,754,742,553,98,752,52,0,0,7,0,0,0,529,777,0,0,0,0,0,0,0,0,0,0,0,0,0,0,0,0,0,0,0,0,0,0,0,0,0,0,0,0,0,0,0,0,0,0,0,0,0,0],"split_type":[0,0,0,0,0,0,0,0,0,0,0,0,0,0,0,0,0,0,0,0,0,0,0,0,0,0,0,0,0,0,0,0,0,0,0,0,0,0,0,0,0,0,0,0,0,0,0,0,0,0,0,0,0,0,0,0,0,0,0,0,0,0,0,0,0,0,0,0,0,0,0,0,0,0,0,0,0,0,0,0,0,0,0,0,0,0,0,0,0,0,0],"sum_hessian":[6.2023965E3,6.12792E3,7.447671E1,1.2002555E3,4.9276646E3,6.634869E1,8.128022E0,2.6962314E2,9.306324E2,3.1690684E3,1.758596E3,2.3045076E1,4.3303608E1,4.255779E0,3.8722432E0,1.8082332E2,8.879983E1,6.0008545E2,3.305469E2,1.7482407E3,1.4208278E3,4.4944327E2,1.3091527E3,6.8439493E0,1.6201128E1,3.0992072E0,4.0204403E1,1.6910921E0,2.1811512E0,1.2012836E2,6.0694965E1,3.0318598E1,5.8481236E1,5.973713E1,5.403483E2,2.8883664E2,4.171024E1,1.4346031E3,3.1363754E2,1.3309735E3,8.985427E1,9.0726524E1,3.5871674E2,1.2603506E3,4.880207E1,1.1912056E0,5.652744E0,1.1162237E1,5.0388904E0,1.3900248E0,1.7091824E0,3.5792763E1,4.411639E0,8.905902E1,3.1069336E1,2.9419847E1,3.1275116E1,2.069504E1,9.623558E0,5.6258205E1,2.2230287E0,4.1621387E1,1.8115742E1,2.0665886E2,3.3368948E2,2.6958807E1,2.6187784E2,5.164553E0,3.6545685E1,2.3704779E2,1.1975553E3,2.4348619E2,7.015136E1,6.0817303E2,7.228004E2,2.274054E1,6.711373E1,4.2786217E1,4.794031E1,1.3801613E2,2.207006E2,1.2147699E3,4.5580753E1,1.4632622E1,3.4169453E1,9.49084E0,1.6713977E0,1.9769031E0,3.381586E1,3.188576E0,1.2230632E0],"tree_param":{"num_deleted":"0","num_feature":"800","num_nodes":"91","size_leaf_vector":"1"}},{"base_weights":[8.442339E-3,2.463311E-1,-3.5896737E-2,5.374615E-1,1.2400801E-1,-2.5240961E-2,-9.0678376E-1,6.375691E-1,3.3566658E-3,4.808412E-1,3.046093E-2,1.2222026E-1,-8.7627575E-2,-1.1487414E0,3.814288E-1,1.383807E0,5.5861056E-1,1.2969673E-1,-1.6110967E-1,9.2332494E-1,2.4884622E-1,4.931037E-3,1.118E0,-2.59604E-1,1.8523717E-1,1.1404648E0,-9.448152E-2,3.9299777E-1,-1.2864003E0,8.038103E-1,-1.05613075E-1,-9.07152E-3,1.5050541E-1,-6.022125E-1,6.191761E-1,7.047252E-1,-1.4491908E-1,9.875019E-1,-8.807802E-2,-7.07857E-1,3.9005846E-1,1.0347432E-1,-3.1604254E-1,1.3927536E0,-1.629184E-2,1.2048389E0,-3.463414E-1,4.0596813E-1,7.914833E-2,1.344833E0,-6.6300504E-2,-1.463074E-1,5.9293706E-2,-8.971725E-2,1.0066505E-1,-3.0266398E-1,-1.3950106E0,1.1688639E0,-8.711505E-2,-1.0299859E-1,7.901208E-2,4.238088E-2,8.564803E-2,-7.4770056E-2,1.0180729E-1,-5.2779194E-2,6.940984E-2,-7.6757096E-2,1.05096E-1,3.286211E-2,-1.5057823E-1,2.7704323E-2,1.3258357E-1,1.806002E-2,-2.7114093E-2,-5.6268185E-2,2.3209786E-2,3.546372E-2,1.4814751E-1,1.5128824E-1,-9.270502E-2,-1.5515143E-2,-8.655457E-2,-1.5221113E-1,4.577821E-2,-1.6954498E-2,1.773189E-2,-7.199777E-3,1.443172E-1,-1.1533569E-2,-1.5395778E-1,7.6779515E-2,-6.048595E-3,8.044862E-2,-1.0694001E-1,-1.5400859E-2,-1.4619337E-1,-1.1581662E-3,1.3737775E-1],"categories":[],"categories_nodes":[],"categories_segments":[],"categories_sizes":[],"default_left":[0,0,0,0,0,0,0,0,0,0,0,0,0,0,0,0,0,0,0,0,0,0,0,0,0,0,0,0,0,0,0,0,0,0,0,0,0,0,0,0,0,0,0,0,0,0,0,0,0,0,0,0,0,0,0,0,0,0,0,0,0,0,0,0,0,0,0,0,0,0,0,0,0,0,0,0,0,0,0,0,0,0,0,0,0,0,0,0,0,0,0,0,0,0,0,0,0,0,0],"id":6,"left_children":[1,3,5,7,9,11,13,15,17,19,21,23,25,27,29,31,33,35,-1,37,39,41,43,45,47,49,51,53,55,57,-1,-1,-1,59,61,63,65,67,-1,69,71,73,75,77,-1,79,81,83,85,87,-1,89,91,-1,-1,93,95,97,-1,-1,-1,-1,-1,-1,-1,-1,-1,-1,-1,-1,-1,-1,-1,-1,-1,-1,-1,-1,-1,-1,-1,-1,-1,-1,-1,-1,-1,-1,-1,-1,-1,-1,-1,-1,-1,-1,-1,-1,-1],"loss_changes":[6.5486984E1,3.4668987E1,4.854276E1,1.5411423E1,2.2955132E1,4.7583244E1,2.0146687E1,1.3531342E1,9.6952915E0,1.4435249E1,1.5161172E1,3.704901E1,3.0699345E1,1.1856171E1,7.3757324E0,4.1684456E0,1.5925652E1,7.0594983E0,0E0,6.516342E0,1.3122551E1,1.6946161E1,4.634838E0,2.8141048E1,3.089043E1,8.354221E0,2.8819588E1,4.980344E0,4.848572E0,6.445386E0,0E0,0E0,0E0,7.6492386E0,9.407204E0,7.319794E0,1.0211516E1,6.104187E0,0E0,1.0903495E1,8.463838E0,1.189139E1,1.7145124E1,4.3409348E-1,0E0,9.563974E0,2.039722E1,4.3495438E1,2.183462E1,2.683815E0,0E0,1.1651192E2,7.744056E1,0E0,0E0,6.1082125E0,3.4415588E0,1.8819809E0,0E0,0E0,0E0,0E0,0E0,0E0,0E0,0E0,0E0,0E0,0E0,0E0,0E0,0E0,0E0,0E0,0E0,0E0,0E0,0E0,0E0,0E0,0E0,0E0,0E0,0E0,0E0,0E0,0E0,0E0,0E0,0E0,0E0,0E0,0E0,0E0,0E0,0E0,0E0,0E0,0E0],"parents":[2147483647,0,0,1,1,2,2,3,3,4,4,5,5,6,6,7,7,8,8,9,9,10,10,11,11,12,12,13,13,14,14,15,15,16,16,17,17,19,19,20,20,21,21,22,22,23,23,24,24,25,25,26,26,27,27,28,28,29,29,33,33,34,34,35,35,36,36,37,37,39,39,40,40,41,41,42,42,43,43,45,45,46,46,47,47,48,48,49,49,51,51,52,52,55,55,56,56,57,57],"right_children":[2,4,6,8,10,12,14,16,18,20,22,24,26,28,30,32,34,36,-1,38,40,42,44,46,48,50,52,54,56,58,-1,-1,-1,60,62,64,66,68,-1,70,72,74,76,78,-1,80,82,84,86,88,-1,90,92,-1,-1,94,96,98,-1,-1,-1,-1,-1,-1,-1,-1,-1,-1,-1,-1,-1,-1,-1,-1,-1,-1,-1,-1,-1,-1,-1,-1,-1,-1,-1,-1,-1,-1,-1,-1,-1,-1,-1,-1,-1,-1,-1,-1,-1],"split_conditions":[1E0,1E0,3.8790784E3,4.9724746E0,4.011302E1,-1.1541573E0,3.7464378E0,-2.4846008E1,9.541089E0,4.1946632E1,6.6142106E0,1.0930219E0,1.159737E3,-6.7523146E0,2.8865626E0,2.764566E1,-1.8482485E1,4.2650124E1,-1.6110967E-1,1.0822491E1,2.5206846E1,3.1456E3,1E0,1.32309E3,1.7711608E0,1.00153675E1,2.74562E3,1.3997755E0,3.848054E1,3.310551E0,-1.05613075E-1,-9.07152E-3,1.5050541E-1,4.4195133E1,1.9495726E3,3.0685783E1,6.2347225E1,1.837784E1,-8.807802E-2,-2.1135277E1,6.8922706E0,1.8444515E0,3.7515286E-1,1.1263533E0,-1.629184E-2,5.336911E1,2.7299516E0,-1.36863E1,1.8244846E3,-2.237102E0,-6.6300504E-2,2.649505E3,2.9449001E3,-8.971725E-2,1.0066505E-1,-6.0341734E-1,-6.7402E0,1.3896008E0,-8.711505E-2,-1.0299859E-1,7.901208E-2,4.238088E-2,8.564803E-2,-7.4770056E-2,1.0180729E-1,-5.2779194E-2,6.940984E-2,-7.6757096E-2,1.05096E-1,3.286211E-2,-1.5057823E-1,2.7704323E-2,1.3258357E-1,1.806002E-2,-2.7114093E-2,-5.6268185E-2,2.3209786E-2,3.546372E-2,1.4814751E-1,1.5128824E-1,-9.270502E-2,-1.5515143E-2,-8.655457E-2,-1.5221113E-1,4.577821E-2,-1.6954498E-2,1.773189E-2,-7.199777E-3,1.443172E-1,-1.1533569E-2,-1.5395778E-1,7.6779515E-2,-6.048595E-3,8.044862E-2,-1.0694001E-1,-1.5400859E-2,-1.4619337E-1,-1.1581662E-3,1.3737775E-1],"split_indices":[794,618,791,260,241,260,649,115,596,705,644,9,407,740,9,497,67,161,0,249,193,528,557,64,153,658,789,601,785,281,0,0,0,1,645,193,449,641,0,402,489,644,612,9,0,593,633,3,7,340,0,552,167,0,0,610,692,9,0,0,0,0,0,0,0,0,0,0,0,0,0,0,0,0,0,0,0,0,0,0,0,0,0,0,0,0,0,0,0,0,0,0,0,0,0,0,0,0,0],"split_type":[0,0,0,0,0,0,0,0,0,0,0,0,0,0,0,0,0,0,0,0,0,0,0,0,0,0,0,0,0,0,0,0,0,0,0,0,0,0,0,0,0,0,0,0,0,0,0,0,0,0,0,0,0,0,0,0,0,0,0,0,0,0,0,0,0,0,0,0,0,0,0,0,0,0,0,0,0,0,0,0,0,0,0,0,0,0,0,0,0,0,0,0,0,0,0,0,0,0,0],"sum_hessian":[6.2067715E3,9.7439197E2,5.23238E3,2.8727655E2,6.871154E2,5.170149E3,6.2230602E1,2.4176808E2,4.5508457E1,1.4185867E2,5.452568E2,1.5367719E3,3.6333772E3,5.248156E1,9.749043E0,2.1552225E1,2.2021587E2,4.305855E1,2.4499087E0,4.7768993E1,9.408968E1,5.33732E2,1.1524781E1,2.1725963E2,1.3195122E3,1.9247297E1,3.61413E3,4.1498303E0,4.833173E1,7.87583E0,1.8732132E0,1.6566787E0,1.9895548E1,1.0476476E1,2.0973938E2,1.3410847E1,2.9647703E1,4.6565178E1,1.203815E0,1.1585564E1,8.250412E1,4.0887836E2,1.2485363E2,9.417454E0,2.1073275E0,1.1427706E1,2.0583192E2,4.2740872E2,8.9210345E2,1.751663E1,1.7306675E0,2.7031523E3,9.1097754E2,1.1886791E0,2.9611511E0,5.1820526E0,4.3149677E1,6.7145624E0,1.1612679E0,8.213306E0,2.2631698E0,1.1656223E2,9.3177155E1,2.1338549E0,1.1276992E1,2.0612461E1,9.035242E0,1.2377149E0,4.5327465E1,5.295301E0,6.290262E0,7.477008E1,7.734038E0,3.3949994E2,6.937842E1,8.609024E1,3.876339E1,1.1349355E0,8.282518E0,1.02386465E1,1.1890594E0,1.513852E2,5.444673E1,1.0442705E1,4.1696603E2,2.5228033E2,6.398231E2,1.154264E0,1.6362366E1,2.6454287E3,5.772379E1,1.3095622E2,7.800213E2,2.10019E0,3.0818627E0,2.3767724E0,4.0772903E1,1.1327294E0,5.581833E0],"tree_param":{"num_deleted":"0","num_feature":"800","num_nodes":"99","size_leaf_vector":"1"}},{"base_weights":[-2.2723074E-3,1.6388424E-1,-5.7645965E-2,2.8031278E-1,-2.8935697E-2,-4.9255278E-2,-1.124832E0,-2.1818863E-2,4.0082955E-1,3.758508E-2,-8.1962144E-1,-1.2402765E-1,7.3092185E-2,9.629621E-2,-1.2236552E0,-9.5556355E-1,8.1579566E-2,4.6799096E-1,-1.2714362E-1,-3.5865653E-1,1.8392968E-1,-1.0289805E0,9.6558243E-1,-2.1510173E-1,2.4788538E-2,1.350922E-1,-4.2821676E-1,6.6686235E-2,-1.3254051E0,-1.310399E0,3.8552117E-1,-4.4244877E-1,2.5185633E-1,2.8260288E-1,6.739494E-1,-5.860915E-1,7.651868E-1,-7.446623E-1,3.2698697E-1,9.4632065E-1,1.1582861E-1,-1.3592538E0,3.5333356E-1,-1.4942327E-3,1.253768E-1,-1.6522016E-1,-6.040456E-1,3.317856E-1,-1.0122208E-1,1.9098017E-1,-2.8080684E-1,-8.672517E-2,-8.68206E-1,-1.4131975E0,2.8711814E-2,-1.5361226E-1,5.2310582E-2,-7.720035E-2,9.485094E-2,-8.35038E-2,2.6674995E-2,7.6596335E-2,-3.2953692E-3,-9.652483E-2,3.506234E-2,7.366693E-2,-2.2752581E-2,2.7570978E-2,-1.1075095E-1,-6.6912554E-2,1.1413679E-1,5.2646037E-2,-9.60114E-2,-2.1463396E-2,8.860931E-2,-1.4528595E-1,1.1287524E-1,-1.6596949E-2,3.4276035E-2,-1.49621E-1,7.609284E-2,1.2609802E-1,-7.236194E-2,-2.547284E-2,1.824341E-2,-7.011917E-2,6.384152E-2,8.268543E-2,1.1579414E-2,-1.598798E-2,8.3992E-2,9.437389E-4,3.517231E-2,-7.2337836E-2,3.848312E-2,1.1008985E-2,-9.20276E-2,-1.01805426E-1,8.4097855E-2,-1.5872894E-1,-7.304613E-2],"categories":[],"categories_nodes":[],"categories_segments":[],"categories_sizes":[],"default_left":[0,0,0,0,0,0,0,0,0,0,0,0,0,0,0,0,0,0,0,0,0,0,0,0,0,0,0,0,0,0,0,0,0,0,0,0,0,0,0,0,0,0,0,0,0,0,0,0,0,0,0,0,0,0,0,0,0,0,0,0,0,0,0,0,0,0,0,0,0,0,0,0,0,0,0,0,0,0,0,0,0,0,0,0,0,0,0,0,0,0,0,0,0,0,0,0,0,0,0,0,0],"id":7,"left_children":[1,3,5,7,9,11,13,15,17,19,21,23,25,-1,27,29,31,33,35,37,39,41,43,45,47,49,51,-1,53,55,57,59,61,63,65,67,69,71,73,75,77,79,81,-1,-1,83,85,87,89,91,93,95,97,99,-1,-1,-1,-1,-1,-1,-1,-1,-1,-1,-1,-1,-1,-1,-1,-1,-1,-1,-1,-1,-1,-1,-1,-1,-1,-1,-1,-1,-1,-1,-1,-1,-1,-1,-1,-1,-1,-1,-1,-1,-1,-1,-1,-1,-1,-1,-1],"loss_changes":[5.6964355E1,3.4750935E1,4.152626E1,3.5147316E1,3.072399E1,4.2168774E1,8.64312E0,2.6737013E1,2.4523155E1,3.1334446E1,1.7935091E1,3.8778156E1,5.441113E1,0E0,7.613659E0,1.3642315E1,2.2375727E1,2.3187103E1,3.265529E1,3.8825172E1,2.036998E1,1.9223503E1,1.5089722E0,3.4333008E1,4.2083427E1,3.624506E1,2.8880562E1,0E0,5.1529846E0,9.932606E0,4.9999475E0,1.7361408E1,2.7693321E1,2.7834703E1,1.6525803E1,2.389615E1,1.540954E1,2.613203E1,1.6301441E1,1.5735878E1,2.328585E1,1.0820583E1,9.427535E0,0E0,0E0,4.9039116E1,2.475235E1,3.375415E1,4.272093E1,4.0068638E1,5.4734352E1,1.8083921E1,2.2396088E1,2.6405678E0,0E0,0E0,0E0,0E0,0E0,0E0,0E0,0E0,0E0,0E0,0E0,0E0,0E0,0E0,0E0,0E0,0E0,0E0,0E0,0E0,0E0,0E0,0E0,0E0,0E0,0E0,0E0,0E0,0E0,0E0,0E0,0E0,0E0,0E0,0E0,0E0,0E0,0E0,0E0,0E0,0E0,0E0,0E0,0E0,0E0,0E0,0E0],"parents":[2147483647,0,0,1,1,2,2,3,3,4,4,5,5,6,6,7,7,8,8,9,9,10,10,11,11,12,12,14,14,15,15,16,16,17,17,18,18,19,19,20,20,21,21,22,22,23,23,24,24,25,25,26,26,28,28,29,29,30,30,31,31,32,32,33,33,34,34,35,35,36,36,37,37,38,38,39,39,40,40,41,41,42,42,45,45,46,46,47,47,48,48,49,49,50,50,51,51,52,52,53,53],"right_children":[2,4,6,8,10,12,14,16,18,20,22,24,26,-1,28,30,32,34,36,38,40,42,44,46,48,50,52,-1,54,56,58,60,62,64,66,68,70,72,74,76,78,80,82,-1,-1,84,86,88,90,92,94,96,98,100,-1,-1,-1,-1,-1,-1,-1,-1,-1,-1,-1,-1,-1,-1,-1,-1,-1,-1,-1,-1,-1,-1,-1,-1,-1,-1,-1,-1,-1,-1,-1,-1,-1,-1,-1,-1,-1,-1,-1,-1,-1,-1,-1,-1,-1,-1,-1],"split_conditions":[-5.0460005E0,2.3318903E0,3.95901E3,2.1451583E0,3.6704023E3,2.5057716E0,-1.6258333E1,3.0128199E1,2.4967139E0,2.4168983E0,4.7530622E0,2.2651281E0,4.9100213E0,9.629621E-2,3.3840088E1,2.2365367E0,1.2614347E0,-3.7721827E0,3.0325124E0,-7.315461E0,-2.944611E1,5.7533298E0,3.480244E1,3.0708961E0,1.6416316E3,3.4675422E3,5.423281E0,6.6686235E-2,5.891932E0,4.770242E0,-1.7265018E1,6.693304E-1,2.2365532E3,7.5990754E-1,5.606866E1,4.7659107E1,1.44055E3,4.02498E1,-7.468759E-1,1.7671345E0,-1.88951E1,6.278441E0,1.2056341E1,-1.4942327E-3,1.253768E-1,1.271099E0,2.3515678E1,-1.5598397E0,3.7172495E3,2.0507944E3,3.7315652E3,7.651562E1,1.1887073E1,4.00501E3,2.8711814E-2,-1.5361226E-1,5.2310582E-2,-7.720035E-2,9.485094E-2,-8.35038E-2,2.6674995E-2,7.6596335E-2,-3.2953692E-3,-9.652483E-2,3.506234E-2,7.366693E-2,-2.2752581E-2,2.7570978E-2,-1.1075095E-1,-6.6912554E-2,1.1413679E-1,5.2646037E-2,-9.60114E-2,-2.1463396E-2,8.860931E-2,-1.4528595E-1,1.1287524E-1,-1.6596949E-2,3.4276035E-2,-1.49621E-1,7.609284E-2,1.2609802E-1,-7.236194E-2,-2.547284E-2,1.824341E-2,-7.011917E-2,6.384152E-2,8.268543E-2,1.1579414E-2,-1.598798E-2,8.3992E-2,9.437389E-4,3.517231E-2,-7.2337836E-2,3.848312E-2,1.1008985E-2,-9.20276E-2,-1.01805426E-1,8.4097855E-2,-1.5872894E-1,-7.304613E-2],"split_indices":[386,788,720,361,7,19,258,769,164,441,793,601,249,0,785,612,553,787,793,435,83,147,257,409,182,21,787,0,564,617,386,788,742,9,433,545,768,673,180,345,579,633,146,0,0,4,371,708,790,229,294,113,265,48,0,0,0,0,0,0,0,0,0,0,0,0,0,0,0,0,0,0,0,0,0,0,0,0,0,0,0,0,0,0,0,0,0,0,0,0,0,0,0,0,0,0,0,0,0,0,0],"split_type":[0,0,0,0,0,0,0,0,0,0,0,0,0,0,0,0,0,0,0,0,0,0,0,0,0,0,0,0,0,0,0,0,0,0,0,0,0,0,0,0,0,0,0,0,0,0,0,0,0,0,0,0,0,0,0,0,0,0,0,0,0,0,0,0,0,0,0,0,0,0,0,0,0,0,0,0,0,0,0,0,0,0,0,0,0,0,0,0,0,0,0,0,0,0,0,0,0,0,0,0,0],"sum_hessian":[6.1892827E3,1.5465823E3,4.6427E3,9.6402875E2,5.825536E2,4.60752E3,3.5180202E1,2.751231E2,6.8890564E2,5.382249E2,4.432866E1,2.8597666E3,1.7477535E3,1.1947584E0,3.3985443E1,2.6606867E1,2.4851624E2,6.112629E2,7.764277E1,1.4477698E2,3.9344794E2,4.0054848E1,4.2738094E0,1.773783E3,1.0859836E3,1.556039E3,1.9171452E2,1.4520662E0,3.253338E1,2.1058037E1,5.5488315E0,6.055604E1,1.8796019E2,3.2294473E2,2.8831815E2,5.149882E1,2.6143946E1,9.2573555E1,5.220343E1,3.1205599E1,3.6224234E2,3.234372E1,7.7111306E0,1.1861606E0,3.0876489E0,1.5734187E3,2.0036423E2,3.155595E2,7.704241E2,1.372187E3,1.8385191E2,1.0861309E2,8.310144E1,3.097081E1,1.5625675E0,1.8894161E1,2.1638746E0,1.6942106E0,3.8546207E0,3.8864494E1,2.1691547E1,6.640463E1,1.2155556E2,1.6011929E1,3.0693283E2,2.6973425E2,1.8583883E1,1.9590618E1,3.1908205E1,5.2703385E0,2.0873606E1,1.3207627E1,7.936593E1,2.6829294E1,2.5374138E1,1.7130628E0,2.9492537E1,1.6170714E2,2.0053519E2,3.0657646E1,1.6860719E0,4.091756E0,3.6193748E0,1.2514766E3,3.2194217E2,1.862382E2,1.4126033E1,9.499519E1,2.2056433E2,7.260051E2,4.4418938E1,6.448985E2,7.272885E2,1.1037722E2,7.347469E1,8.856853E1,2.0044558E1,7.677477E1,6.326665E0,2.3622402E1,7.3484073E0],"tree_param":{"num_deleted":"0","num_feature":"800","num_nodes":"101","size_leaf_vector":"1"}},{"base_weights":[5.422611E-3,5.8800388E-2,-1.4753215E-1,3.639331E-2,6.465278E-1,-3.1849492E-1,1.4559799E-2,7.508307E-2,-2.6425982E-1,1.0815033E0,2.3546898E-1,-1.18192814E-1,-1.0036591E0,1.5501608E0,-1.9286115E-2,4.525371E-2,5.471119E-1,-1.2149434E0,-1.4151502E-1,1.2672E0,3.4198013E-1,-2.5905374E-1,6.361862E-1,6.2352663E-1,-1.9876724E-1,9.73618E-1,-1.0683411E0,1.093185E-2,1.6506433E0,-6.774463E-1,3.0712137E-2,1.951338E-2,5.2391535E-1,2.0321561E-1,8.9992225E-1,-1.4238756E0,4.5510706E-1,-1.0167339E0,-5.5368494E-2,-3.9871927E-2,1.320641E0,7.081816E-1,-1.5430653E-1,-1.6389405E0,6.0681682E-2,7.7938443E-1,-1.4450689E-1,1.5777186E-1,1.5131024E0,-2.4559648E-1,1.0780718E0,-3.7438057E-2,1.386608E-1,-1.2311932E0,-3.022597E-1,4.830442E-2,1.7109263E-1,-1.116831E0,2.8948638E-1,-6.3224214E-1,7.634221E-2,2.280953E-2,-5.639212E-3,-3.1322327E-2,6.984454E-2,-6.077389E-2,5.090028E-2,1.119499E-1,-2.3451125E-2,-1.5100847E-1,8.967811E-2,1.3663156E-1,-7.520308E-2,9.0690814E-2,-1.6735682E-1,5.527252E-3,-9.216275E-2,1.3704209E-1,3.0439356E-3,-8.13348E-2,9.8750316E-2,-1.9637948E-1,4.128517E-3,-9.006882E-2,3.5900455E-2,-5.2717473E-2,1.033957E-1,5.2125867E-2,-1.379749E-1,1.6511534E-1,-3.483715E-2,-5.2943405E-2,-3.3464867E-3,-7.310951E-2,1.325544E-1,1.0458021E-2,-1.3011532E-1,-1.2575696E-1,9.109924E-2,-3.10984E-2,-1.3848211E-1,-7.9164125E-2,9.535234E-2,3.2854967E-2,-1.24544874E-1,1.1216426E-1,3.8336457E-3],"categories":[],"categories_nodes":[],"categories_segments":[],"categories_sizes":[],"default_left":[0,0,0,0,0,0,0,0,0,0,0,0,0,0,0,0,0,0,0,0,0,0,0,0,0,0,0,0,0,0,0,0,0,0,0,0,0,0,0,0,0,0,0,0,0,0,0,0,0,0,0,0,0,0,0,0,0,0,0,0,0,0,0,0,0,0,0,0,0,0,0,0,0,0,0,0,0,0,0,0,0,0,0,0,0,0,0,0,0,0,0,0,0,0,0,0,0,0,0,0,0,0,0,0,0,0,0],"id":8,"left_children":[1,3,5,7,9,11,13,15,17,19,21,23,25,27,29,31,33,35,37,39,41,43,45,47,49,51,53,-1,55,57,59,61,63,65,67,69,71,73,75,-1,77,79,-1,81,83,85,-1,87,89,91,93,-1,-1,95,97,-1,-1,99,101,103,105,-1,-1,-1,-1,-1,-1,-1,-1,-1,-1,-1,-1,-1,-1,-1,-1,-1,-1,-1,-1,-1,-1,-1,-1,-1,-1,-1,-1,-1,-1,-1,-1,-1,-1,-1,-1,-1,-1,-1,-1,-1,-1,-1,-1,-1,-1],"loss_changes":[5.050665E1,6.0367813E1,4.4353607E1,5.141589E1,2.9846825E1,1.0677972E2,4.277598E1,5.5105988E1,5.8638596E1,1.0761307E1,1.7570343E1,3.6212227E1,2.3557953E1,2.3892403E0,2.6534039E1,4.5377686E1,2.8042824E1,2.0710579E1,3.3682785E1,6.29451E0,1.3332443E1,1.7758848E1,1.5672659E1,2.4376877E1,3.2878426E1,3.9152327E0,2.0957184E1,0E0,3.3639526E-1,2.4509783E1,2.2729498E1,5.5376957E1,2.7679546E1,2.9843117E1,2.8793358E1,1.1626694E1,8.893528E0,5.2110004E1,3.9197792E1,0E0,4.0048904E0,7.404226E0,0E0,4.210512E0,9.919775E0,1.5950359E1,0E0,2.313616E1,5.7919197E0,3.1710838E1,9.691673E0,0E0,0E0,1.328157E1,3.742043E1,0E0,0E0,8.066898E0,1.4094137E1,2.8919085E1,2.7861004E1,0E0,0E0,0E0,0E0,0E0,0E0,0E0,0E0,0E0,0E0,0E0,0E0,0E0,0E0,0E0,0E0,0E0,0E0,0E0,0E0,0E0,0E0,0E0,0E0,0E0,0E0,0E0,0E0,0E0,0E0,0E0,0E0,0E0,0E0,0E0,0E0,0E0,0E0,0E0,0E0,0E0,0E0,0E0,0E0,0E0,0E0],"parents":[2147483647,0,0,1,1,2,2,3,3,4,4,5,5,6,6,7,7,8,8,9,9,10,10,11,11,12,12,13,13,14,14,15,15,16,16,17,17,18,18,19,19,20,20,21,21,22,22,23,23,24,24,25,25,26,26,28,28,29,29,30,30,31,31,32,32,33,33,34,34,35,35,36,36,37,37,38,38,40,40,41,41,43,43,44,44,45,45,47,47,48,48,49,49,50,50,53,53,54,54,57,57,58,58,59,59,60,60],"right_children":[2,4,6,8,10,12,14,16,18,20,22,24,26,28,30,32,34,36,38,40,42,44,46,48,50,52,54,-1,56,58,60,62,64,66,68,70,72,74,76,-1,78,80,-1,82,84,86,-1,88,90,92,94,-1,-1,96,98,-1,-1,100,102,104,106,-1,-1,-1,-1,-1,-1,-1,-1,-1,-1,-1,-1,-1,-1,-1,-1,-1,-1,-1,-1,-1,-1,-1,-1,-1,-1,-1,-1,-1,-1,-1,-1,-1,-1,-1,-1,-1,-1,-1,-1,-1,-1,-1,-1,-1,-1],"split_conditions":[5.794572E1,1.9623129E1,2.0939575E3,3.39836E3,1.4722717E0,1.8791901E3,2.2197231E3,3.322464E3,9.520305E-1,3.0181735E0,1.4040512E0,-5.97063E0,-1.4354638E1,2.2153316E0,-1.36863E1,1.4596705E1,-8.425789E0,5.7465167E0,3.4346116E3,9.108783E0,7.405741E1,1.7532661E0,4.7644057E0,1.662855E3,9.710004E0,-1.1375988E1,3.151489E0,1.093185E-2,2.15741E3,1.5116198E-1,2.2818965E3,1.63624E3,4.8803257E1,2.507743E0,8.564197E0,1.7882348E0,8.340128E-1,3.4430957E3,3.90422E3,-3.9871927E-2,1.750045E1,1.8826672E0,-1.5430653E-1,3.687656E0,2.295E3,1.0239213E0,-1.4450689E-1,1.6034673E3,4.687259E1,-1.3537241E0,3.3981814E0,-3.7438057E-2,1.386608E-1,-5.842654E0,-1.6354555E0,4.830442E-2,1.7109263E-1,5.902592E1,4.8582807E0,2.2904727E3,2.281921E3,2.280953E-2,-5.639212E-3,-3.1322327E-2,6.984454E-2,-6.077389E-2,5.090028E-2,1.119499E-1,-2.3451125E-2,-1.5100847E-1,8.967811E-2,1.3663156E-1,-7.520308E-2,9.0690814E-2,-1.6735682E-1,5.527252E-3,-9.216275E-2,1.3704209E-1,3.0439356E-3,-8.13348E-2,9.8750316E-2,-1.9637948E-1,4.128517E-3,-9.006882E-2,3.5900455E-2,-5.2717473E-2,1.033957E-1,5.2125867E-2,-1.379749E-1,1.6511534E-1,-3.483715E-2,-5.2943405E-2,-3.3464867E-3,-7.310951E-2,1.325544E-1,1.0458021E-2,-1.3011532E-1,-1.2575696E-1,9.109924E-2,-3.10984E-2,-1.3848211E-1,-7.9164125E-2,9.535234E-2,3.2854967E-2,-1.24544874E-1,1.1216426E-1,3.8336457E-3],"split_indices":[321,674,181,567,370,582,773,293,137,324,34,67,786,338,3,3,402,226,487,754,609,409,313,646,393,658,132,0,384,596,551,198,97,345,451,84,137,357,784,0,466,441,0,420,208,345,0,725,33,580,553,0,0,82,564,0,0,305,372,454,311,0,0,0,0,0,0,0,0,0,0,0,0,0,0,0,0,0,0,0,0,0,0,0,0,0,0,0,0,0,0,0,0,0,0,0,0,0,0,0,0,0,0,0,0,0,0],"split_type":[0,0,0,0,0,0,0,0,0,0,0,0,0,0,0,0,0,0,0,0,0,0,0,0,0,0,0,0,0,0,0,0,0,0,0,0,0,0,0,0,0,0,0,0,0,0,0,0,0,0,0,0,0,0,0,0,0,0,0,0,0,0,0,0,0,0,0,0,0,0,0,0,0,0,0,0,0,0,0,0,0,0,0,0,0,0,0,0,0,0,0,0,0,0,0,0,0,0,0,0,0,0,0,0,0,0,0],"sum_hessian":[6.1841533E3,4.5847827E3,1.5993706E3,4.41743E3,1.6735239E2,7.779164E2,8.214543E2,3.9144473E3,5.0298312E2,8.051829E1,8.683411E1,6.028505E2,1.7506586E2,1.674893E1,8.047053E2,3.6828118E3,2.3163547E2,5.649782E1,4.464853E2,6.3787506E1,1.6730782E1,3.9025944E1,4.780816E1,5.841146E1,5.444391E2,5.1003284E0,1.6996552E2,1.2280194E0,1.552091E1,5.592874E1,7.487766E2,3.4958604E3,1.8695132E2,1.1809765E2,1.1353783E2,5.03466E1,6.1512218E0,3.9040897E1,4.074444E2,1.7818244E0,6.200568E1,1.4532011E1,2.1987693E0,6.565443E0,3.2460503E1,4.5315784E1,2.492376E0,3.911132E1,1.930014E1,5.259568E2,1.8482292E1,1.2180625E0,3.882266E0,1.3966803E2,3.0297495E1,1.2044915E0,1.4316419E1,3.8347984E1,1.758076E1,4.7390438E1,7.0138617E2,9.3221295E2,2.5636475E3,3.2115173E1,1.5483615E2,3.2067215E1,8.603043E1,9.513669E1,1.8401138E1,4.8880062E1,1.4665394E0,3.430126E0,2.7210958E0,9.840558E0,2.920034E1,3.6212854E2,4.5315872E1,5.9642323E1,2.3633573E0,1.9574507E0,1.2574561E1,5.360313E0,1.2051302E0,7.209174E0,2.5251328E1,7.2149906E0,3.8100792E1,3.2167538E1,6.9437838E0,1.8072805E1,1.2273338E0,2.2431789E2,3.016389E2,1.9887918E0,1.64935E1,6.926299E0,1.3274173E2,1.6930197E1,1.3367298E1,1.01094055E1,2.8238577E1,6.616379E0,1.096438E1,1.8643465E1,2.8746971E1,2.3606508E1,6.7777966E2],"tree_param":{"num_deleted":"0","num_feature":"800","num_nodes":"107","size_leaf_vector":"1"}},{"base_weights":[-9.25301E-3,1.5048689E-1,-5.9829723E-2,9.407858E-2,5.118618E-1,-1.2966307E-1,4.999902E-2,-2.7895486E-1,1.7291947E-1,1.1098499E0,3.9487034E-1,1.7414998E-1,-1.7397074E-1,-9.6419575E-3,4.260009E-1,-1.1517411E0,-1.297523E-1,-1.857547E-1,2.419178E-1,1.2759947E0,-1.04629874E-1,-2.3675494E-1,6.209137E-1,3.9847186E-1,-2.9403862E-1,1.1638697E0,-1.8450022E-1,3.7515832E-3,-1.4210808E0,-9.9240616E-2,6.2617046E-1,1.0411135E-1,-1.2883512E0,-3.8340352E-2,-1.4208812E0,2.140263E-1,-6.295681E-1,4.4947562E-1,9.5942594E-2,1.3622864E0,-4.4728156E-2,1.2666237E-1,-1.1477225E0,8.341701E-1,2.6843272E-2,9.854152E-1,1.7059429E-1,-1.2076039E0,-7.628081E-2,-5.573159E-1,1.5296056E0,7.343398E-2,-2.3553942E-1,8.364688E-2,-2.1498823E-1,-1.5320107E-1,-5.6725154E-3,2.4575634E-1,-9.457229E-1,7.967436E-1,-1.2998131E-1,2.8481752E-2,-1.5416262E-1,-3.263139E-2,5.3002592E-2,1.7042225E-2,-1.6346489E-1,5.003473E-2,-5.7775863E-2,2.4492988E-2,-9.6293285E-2,8.027204E-2,3.1507254E-2,1.41442595E-2,-9.536003E-2,-1.5528554E-2,1.4274722E-1,7.056903E-2,-7.6805495E-2,-1.6427444E-1,9.753157E-2,-4.4573694E-2,9.8280005E-2,-7.905423E-2,8.321094E-2,-3.9679106E-2,1.2130969E-1,2.420106E-2,-1.6561636E-1,4.5281403E-2,-1.4832847E-1,1.8819204E-2,-9.256842E-2,-1.4720476E-1,9.2765965E-2,1.5931992E-1,3.484893E-2,-2.997197E-2,2.9335633E-2,-5.469658E-2,-1.6728146E-2,-5.2341044E-2,1.2812323E-2,-2.6662934E-3,-4.831092E-2,5.0288994E-2,-1.0722595E-1,9.752529E-2,-1.2352488E-1,8.593311E-2,-1.4562061E-1,4.7743563E-2,-9.035101E-2],"categories":[],"categories_nodes":[],"categories_segments":[],"categories_sizes":[],"default_left":[0,0,0,0,0,0,0,0,0,0,0,0,0,0,0,0,0,0,0,0,0,0,0,0,0,0,0,0,0,0,0,0,0,0,0,0,0,0,0,0,0,0,0,0,0,0,0,0,0,0,0,0,0,0,0,0,0,0,0,0,0,0,0,0,0,0,0,0,0,0,0,0,0,0,0,0,0,0,0,0,0,0,0,0,0,0,0,0,0,0,0,0,0,0,0,0,0,0,0,0,0,0,0,0,0,0,0,0,0,0,0,0,0],"id":9,"left_children":[1,3,5,7,9,11,13,15,17,19,21,23,25,27,29,31,33,35,37,39,-1,41,43,45,47,49,51,53,55,57,59,-1,61,63,65,67,69,71,73,75,-1,77,79,81,83,85,87,89,91,93,95,97,99,101,103,-1,-1,105,107,109,111,-1,-1,-1,-1,-1,-1,-1,-1,-1,-1,-1,-1,-1,-1,-1,-1,-1,-1,-1,-1,-1,-1,-1,-1,-1,-1,-1,-1,-1,-1,-1,-1,-1,-1,-1,-1,-1,-1,-1,-1,-1,-1,-1,-1,-1,-1,-1,-1,-1,-1,-1,-1],"loss_changes":[4.982973E1,3.0186668E1,3.593432E1,3.7816517E1,1.3556221E1,3.8581623E1,4.0851604E1,2.9077747E1,2.6296171E1,1.2862839E1,2.4255543E1,3.8451744E1,3.5429794E1,2.9743732E1,2.6282612E1,1.111908E1,2.2700855E1,3.059923E1,2.6923698E1,5.1192207E0,0E0,1.5118358E1,1.5766899E1,3.28945E1,2.3543404E1,1.322743E1,3.268184E1,2.7269169E1,2.1515388E0,2.0581463E1,2.341166E1,0E0,1.2859608E1,2.9811375E1,4.605562E0,2.0936787E1,2.4031105E1,1.7182213E1,2.5149141E1,3.1032104E0,0E0,1.775753E1,1.5261263E1,1.787775E1,2.3007053E1,2.2171486E1,2.3788713E1,1.1108768E1,2.1966608E1,7.040916E0,6.826477E-1,3.3786438E1,4.394474E1,3.0924202E1,2.1066002E1,0E0,0E0,1.7585516E1,1.2540846E1,2.2062576E1,1.6463568E1,0E0,0E0,0E0,0E0,0E0,0E0,0E0,0E0,0E0,0E0,0E0,0E0,0E0,0E0,0E0,0E0,0E0,0E0,0E0,0E0,0E0,0E0,0E0,0E0,0E0,0E0,0E0,0E0,0E0,0E0,0E0,0E0,0E0,0E0,0E0,0E0,0E0,0E0,0E0,0E0,0E0,0E0,0E0,0E0,0E0,0E0,0E0,0E0,0E0,0E0,0E0,0E0],"parents":[2147483647,0,0,1,1,2,2,3,3,4,4,5,5,6,6,7,7,8,8,9,9,10,10,11,11,12,12,13,13,14,14,15,15,16,16,17,17,18,18,19,19,21,21,22,22,23,23,24,24,25,25,26,26,27,27,28,28,29,29,30,30,32,32,33,33,34,34,35,35,36,36,37,37,38,38,39,39,41,41,42,42,43,43,44,44,45,45,46,46,47,47,48,48,49,49,50,50,51,51,52,52,53,53,54,54,57,57,58,58,59,59,60,60],"right_children":[2,4,6,8,10,12,14,16,18,20,22,24,26,28,30,32,34,36,38,40,-1,42,44,46,48,50,52,54,56,58,60,-1,62,64,66,68,70,72,74,76,-1,78,80,82,84,86,88,90,92,94,96,98,100,102,104,-1,-1,106,108,110,112,-1,-1,-1,-1,-1,-1,-1,-1,-1,-1,-1,-1,-1,-1,-1,-1,-1,-1,-1,-1,-1,-1,-1,-1,-1,-1,-1,-1,-1,-1,-1,-1,-1,-1,-1,-1,-1,-1,-1,-1,-1,-1,-1,-1,-1,-1,-1,-1,-1,-1,-1,-1],"split_conditions":[-5.3235865E0,5.4276986E0,1.732579E-1,-1.2776115E1,-2.7648037E1,-2.4660563E0,1.766324E1,1.8213065E0,1.0938442E0,5.4519814E1,-1.204936E1,3.165289E3,1.1592056E3,3.853035E3,2.2130718E3,8.8003963E-1,3.6992644E3,2.2723E3,1.1804835E0,5.224816E1,-1.04629874E-1,-1.5720507E1,8.358496E0,-4.4801784E0,-7.2672834E0,-9.465457E-1,-4.33083E0,8.845319E0,3.2251744E0,1.91814E3,4.1275516E0,1.0411135E-1,-2.7617403E1,3.4422007E3,4.0403748E1,4.805334E-1,-2.2967522E0,1.7304546E0,3.7894316E3,2.2667215E1,-4.4728156E-2,2.4065E0,2.7428188E1,3.2009354E1,2.0773222E-3,-7.8612523E0,5.7563643E0,-9.27116E0,5.454506E0,3.1399152E0,1.0189517E1,-1.0619066E1,4.69875E1,6.3386106E-1,5.524943E-1,-1.5320107E-1,-5.6725154E-3,3.1592603E0,1.8213776E1,1.521573E1,3.3473176E3,2.8481752E-2,-1.5416262E-1,-3.263139E-2,5.3002592E-2,1.7042225E-2,-1.6346489E-1,5.003473E-2,-5.7775863E-2,2.4492988E-2,-9.6293285E-2,8.027204E-2,3.1507254E-2,1.41442595E-2,-9.536003E-2,-1.5528554E-2,1.4274722E-1,7.056903E-2,-7.6805495E-2,-1.6427444E-1,9.753157E-2,-4.4573694E-2,9.8280005E-2,-7.905423E-2,8.321094E-2,-3.9679106E-2,1.2130969E-1,2.420106E-2,-1.6561636E-1,4.5281403E-2,-1.4832847E-1,1.8819204E-2,-9.256842E-2,-1.4720476E-1,9.2765965E-2,1.5931992E-1,3.484893E-2,-2.997197E-2,2.9335633E-2,-5.469658E-2,-1.6728146E-2,-5.2341044E-2,1.2812323E-2,-2.6662934E-3,-4.831092E-2,5.0288994E-2,-1.0722595E-1,9.752529E-2,-1.2352488E-1,8.593311E-2,-1.4562061E-1,4.7743563E-2,-9.035101E-2],"split_indices":[466,777,612,131,115,4,707,265,121,497,131,726,327,631,455,793,792,496,788,305,0,195,745,771,68,4,51,706,153,432,313,0,99,166,737,243,196,185,103,481,0,388,706,193,4,371,633,530,244,569,729,19,17,425,164,0,0,196,723,4,485,0,0,0,0,0,0,0,0,0,0,0,0,0,0,0,0,0,0,0,0,0,0,0,0,0,0,0,0,0,0,0,0,0,0,0,0,0,0,0,0,0,0,0,0,0,0,0,0,0,0,0,0],"split_type":[0,0,0,0,0,0,0,0,0,0,0,0,0,0,0,0,0,0,0,0,0,0,0,0,0,0,0,0,0,0,0,0,0,0,0,0,0,0,0,0,0,0,0,0,0,0,0,0,0,0,0,0,0,0,0,0,0,0,0,0,0,0,0,0,0,0,0,0,0,0,0,0,0,0,0,0,0,0,0,0,0,0,0,0,0,0,0,0,0,0,0,0,0,0,0,0,0,0,0,0,0,0,0,0,0,0,0,0,0,0,0,0,0],"sum_hessian":[6.165604E3,1.4822229E3,4.6833813E3,1.2831862E3,1.9903676E2,2.8628748E3,1.8205063E3,2.2344136E2,1.0597448E3,3.1179554E1,1.6785721E2,3.6400446E2,2.4988704E3,1.5721139E3,2.4839252E2,3.1639763E1,1.918016E2,1.7070041E2,8.890444E2,2.9327866E1,1.8516887E0,4.4227215E1,1.2362999E2,2.4619475E2,1.1780969E2,1.8658415E1,2.480212E3,1.5583239E3,1.3790032E1,6.868044E1,1.7971208E2,1.4672066E0,3.0172556E1,1.8008153E2,1.172008E1,9.0077545E1,8.062286E1,3.662315E2,5.228128E2,2.8128815E1,1.199051E0,3.2230343E1,1.1996871E1,9.0675575E1,3.295442E1,6.792256E1,1.7827219E2,2.180114E1,9.600855E1,3.1781127E0,1.5480302E1,4.096329E2,2.070579E3,1.1418702E3,4.1645355E2,1.2639487E1,1.150545E0,4.9297966E1,1.9382475E1,1.4659045E2,3.312163E1,4.166791E0,2.6005764E1,1.1980561E2,6.0275913E1,1.4119782E0,1.0308102E1,6.642527E1,2.3652275E1,2.2324768E1,5.8298096E1,9.956842E1,2.666631E2,5.019188E2,2.0894053E1,1.1015587E0,2.7027256E1,1.969545E1,1.2534895E1,9.911961E0,2.0849106E0,9.226223E0,8.144935E1,1.6363216E1,1.6591202E1,9.501042E0,5.842152E1,1.7239981E2,5.8723774E0,3.0127711E0,1.8788368E1,7.3806404E1,2.2202147E1,1.9720521E0,1.2060606E0,1.4358329E1,1.1219734E0,1.5176407E2,2.5786884E2,3.709787E2,1.6996003E3,7.721362E1,1.0646566E3,2.4527469E2,1.7117886E2,4.1767864E1,7.5301027E0,2.228454E0,1.7154022E1,1.4323006E2,3.360391E0,1.8767305E1,1.4354327E1],"tree_param":{"num_deleted":"0","num_feature":"800","num_nodes":"113","size_leaf_vector":"1"}},{"base_weights":[-8.0047725E-3,1.9557148E-1,-4.4779014E-2,-2.3201829E-1,2.4768667E-1,3.9284104E-3,-2.1514043E-1,1.4146407E-1,-5.799266E-1,8.060098E-2,3.93786E-1,4.018654E-2,-2.645249E-1,-3.9834914E-1,-9.449525E-2,-4.3924296E-1,6.194874E-1,-2.3667076E-1,-1.1225408E0,2.5016937E-1,-2.2186093E-1,2.184381E-1,5.832247E-1,7.240964E-3,5.7651997E-1,-8.5115474E-1,-9.865628E-2,-6.1060524E-1,-1.7184779E-2,-3.604124E-2,-1.05269E0,3.0764577E-1,-1.0890696E0,7.427009E-1,-9.455126E-2,-6.8814546E-1,5.931986E-1,6.621054E-2,-1.3730634E0,3.7674424E-1,-9.246661E-2,1.2888399E-1,-5.8792347E-1,2.1244664E-2,5.562389E-1,1.7107889E-1,7.53837E-1,-7.9748064E-2,1.702897E-1,-9.719346E-1,6.919493E-1,1.139258E0,-9.931542E-1,3.594766E-2,-6.712604E-1,-5.3155795E-2,-7.423618E-1,-4.0117553E-1,2.1180919E-1,5.6215566E-1,-8.804528E-2,-1.2732629E0,7.425033E-1,6.345918E-2,-8.652063E-2,3.389885E-2,-1.424937E-1,2.856262E-2,1.4087898E-1,-1.4333886E-1,-1.6754074E-2,1.0259195E-1,-5.004534E-2,-1.6088825E-1,4.300734E-2,1.699019E-2,6.814807E-2,-6.2010568E-2,3.1712778E-2,-1.24494985E-1,3.2890927E-2,-7.282134E-2,5.1870175E-2,-5.9547313E-2,2.2938548E-2,-9.017387E-3,7.734397E-2,-8.292134E-3,1.3402167E-1,9.3316756E-2,3.6200702E-2,-2.3596963E-2,3.0410008E-3,3.4310095E-2,3.163681E-3,4.72447E-2,-1.6426516E-1,-1.3409583E-1,7.564145E-2,1.4625464E-1,-3.351766E-2,-1.5738384E-1,-5.1448006E-2,-6.590524E-2,1.5190423E-2,-1.09412804E-1,-1.7701557E-2,-1.15597285E-1,2.6965534E-2,-1.01410486E-1,-4.1791108E-2,4.580591E-2,-6.7973964E-2,-1.098881E-1,3.2799643E-2,-6.8992116E-2,8.224551E-2,-1.1155427E-2,1.3558327E-1,-5.853433E-3,-1.4561711E-1,1.1794563E-1,-3.273172E-2],"categories":[],"categories_nodes":[],"categories_segments":[],"categories_sizes":[],"default_left":[0,0,0,0,0,0,0,0,0,0,0,0,0,0,0,0,0,0,0,0,0,0,0,0,0,0,0,0,0,0,0,0,0,0,0,0,0,0,0,0,0,0,0,0,0,0,0,0,0,0,0,0,0,0,0,0,0,0,0,0,0,0,0,0,0,0,0,0,0,0,0,0,0,0,0,0,0,0,0,0,0,0,0,0,0,0,0,0,0,0,0,0,0,0,0,0,0,0,0,0,0,0,0,0,0,0,0,0,0,0,0,0,0,0,0,0,0,0,0,0,0,0,0],"id":10,"left_children":[1,3,5,7,9,11,13,15,17,19,21,23,25,27,29,31,33,35,37,39,41,43,45,47,49,51,53,55,57,59,61,63,65,67,-1,69,71,-1,73,75,77,79,81,83,85,87,89,91,93,95,97,99,101,103,105,107,109,111,113,115,117,119,121,-1,-1,-1,-1,-1,-1,-1,-1,-1,-1,-1,-1,-1,-1,-1,-1,-1,-1,-1,-1,-1,-1,-1,-1,-1,-1,-1,-1,-1,-1,-1,-1,-1,-1,-1,-1,-1,-1,-1,-1,-1,-1,-1,-1,-1,-1,-1,-1,-1,-1,-1,-1,-1,-1,-1,-1,-1,-1,-1,-1],"loss_changes":[4.5878826E1,2.0952118E1,4.307087E1,1.338549E1,2.0382603E1,3.930942E1,2.5470932E1,1.4201865E1,9.6436E0,2.0128315E1,1.4684296E1,6.2862858E1,4.6675457E1,3.703649E1,3.9009888E1,1.161554E1,6.089633E0,1.309244E1,1.000646E1,1.0931337E1,1.8195362E1,1.5519448E1,1.4900497E1,4.7570507E1,3.7472786E1,3.103286E1,2.8985619E1,2.1561096E1,1.4577453E1,2.0522268E1,1.6803497E1,4.9945664E0,6.5499153E0,7.65333E0,0E0,8.44636E0,6.412734E0,0E0,8.417351E0,1.1461363E1,1.5018137E1,2.0439802E1,1.1126205E1,1.9167755E1,1.213031E1,1.9077766E1,1.0263321E1,3.7646023E1,2.7947426E1,1.5016215E1,2.6201324E1,4.0703087E0,2.6786972E1,2.4695229E1,1.4764351E1,2.0710491E1,2.0541916E1,1.5131067E1,1.6182804E1,1.7766493E1,2.0732712E1,7.9211044E0,2.729873E0,0E0,0E0,0E0,0E0,0E0,0E0,0E0,0E0,0E0,0E0,0E0,0E0,0E0,0E0,0E0,0E0,0E0,0E0,0E0,0E0,0E0,0E0,0E0,0E0,0E0,0E0,0E0,0E0,0E0,0E0,0E0,0E0,0E0,0E0,0E0,0E0,0E0,0E0,0E0,0E0,0E0,0E0,0E0,0E0,0E0,0E0,0E0,0E0,0E0,0E0,0E0,0E0,0E0,0E0,0E0,0E0,0E0,0E0,0E0,0E0],"parents":[2147483647,0,0,1,1,2,2,3,3,4,4,5,5,6,6,7,7,8,8,9,9,10,10,11,11,12,12,13,13,14,14,15,15,16,16,17,17,18,18,19,19,20,20,21,21,22,22,23,23,24,24,25,25,26,26,27,27,28,28,29,29,30,30,31,31,32,32,33,33,35,35,36,36,38,38,39,39,40,40,41,41,42,42,43,43,44,44,45,45,46,46,47,47,48,48,49,49,50,50,51,51,52,52,53,53,54,54,55,55,56,56,57,57,58,58,59,59,60,60,61,61,62,62],"right_children":[2,4,6,8,10,12,14,16,18,20,22,24,26,28,30,32,34,36,38,40,42,44,46,48,50,52,54,56,58,60,62,64,66,68,-1,70,72,-1,74,76,78,80,82,84,86,88,90,92,94,96,98,100,102,104,106,108,110,112,114,116,118,120,122,-1,-1,-1,-1,-1,-1,-1,-1,-1,-1,-1,-1,-1,-1,-1,-1,-1,-1,-1,-1,-1,-1,-1,-1,-1,-1,-1,-1,-1,-1,-1,-1,-1,-1,-1,-1,-1,-1,-1,-1,-1,-1,-1,-1,-1,-1,-1,-1,-1,-1,-1,-1,-1,-1,-1,-1,-1,-1,-1,-1],"split_conditions":[1E0,1.1885204E0,5.9359055E1,4.901009E1,3.4920125E0,3.3983213E3,1.3072773E0,-2.13499E0,2.0199454E0,3.478829E0,2.763484E-1,3.3224927E3,3.51236E3,2.3081155E0,2.8436785E1,-1.794921E0,3.1926415E0,9.9144554E-1,-2.9446568E0,5.8407894E1,4.9246925E1,2.6423284E3,2.2182658E0,1.7270584E0,-2.4914976E1,3.4185686E3,3.395586E0,7.833428E-1,1.940762E0,2.721851E0,4.5397325E0,1.1708485E0,1.8341686E0,1.318737E0,-9.455126E-2,-4.1912694E0,5.5540485E1,6.621054E-2,2.3716265E1,2.250566E0,5.2095093E1,1.3179073E0,6.029348E0,-1.8183515E0,2.2594376E0,9.222254E0,5.7812595E1,1.4896528E0,1.7711608E0,3.7791138E0,-3.8079338E1,1.2813488E1,1.9222914E0,9.902803E-1,3.0338485E0,-2.4698915E0,2.25285E3,1.295564E0,-1.8482485E1,4.2018837E1,1.0189517E1,6.3902946E0,6.2688877E1,6.345918E-2,-8.652063E-2,3.389885E-2,-1.424937E-1,2.856262E-2,1.4087898E-1,-1.4333886E-1,-1.6754074E-2,1.0259195E-1,-5.004534E-2,-1.6088825E-1,4.300734E-2,1.699019E-2,6.814807E-2,-6.2010568E-2,3.1712778E-2,-1.24494985E-1,3.2890927E-2,-7.282134E-2,5.1870175E-2,-5.9547313E-2,2.2938548E-2,-9.017387E-3,7.734397E-2,-8.292134E-3,1.3402167E-1,9.3316756E-2,3.6200702E-2,-2.3596963E-2,3.0410008E-3,3.4310095E-2,3.163681E-3,4.72447E-2,-1.6426516E-1,-1.3409583E-1,7.564145E-2,1.4625464E-1,-3.351766E-2,-1.5738384E-1,-5.1448006E-2,-6.590524E-2,1.5190423E-2,-1.09412804E-1,-1.7701557E-2,-1.15597285E-1,2.6965534E-2,-1.01410486E-1,-4.1791108E-2,4.580591E-2,-6.7973964E-2,-1.098881E-1,3.2799643E-2,-6.8992116E-2,8.224551E-2,-1.1155427E-2,1.3558327E-1,-5.853433E-3,-1.4561711E-1,1.1794563E-1,-3.273172E-2],"split_indices":[730,473,353,337,729,551,786,466,562,73,52,357,224,57,194,164,201,498,420,337,785,310,297,3,147,360,361,9,521,611,713,457,777,233,0,770,481,0,755,9,785,649,196,260,473,793,753,457,153,388,770,738,73,105,585,692,470,793,67,561,617,50,785,0,0,0,0,0,0,0,0,0,0,0,0,0,0,0,0,0,0,0,0,0,0,0,0,0,0,0,0,0,0,0,0,0,0,0,0,0,0,0,0,0,0,0,0,0,0,0,0,0,0,0,0,0,0,0,0,0,0,0,0],"split_type":[0,0,0,0,0,0,0,0,0,0,0,0,0,0,0,0,0,0,0,0,0,0,0,0,0,0,0,0,0,0,0,0,0,0,0,0,0,0,0,0,0,0,0,0,0,0,0,0,0,0,0,0,0,0,0,0,0,0,0,0,0,0,0,0,0,0,0,0,0,0,0,0,0,0,0,0,0,0,0,0,0,0,0,0,0,0,0,0,0,0,0,0,0,0,0,0,0,0,0,0,0,0,0,0,0,0,0,0,0,0,0,0,0,0,0,0,0,0,0,0,0,0,0],"sum_hessian":[6.1261504E3,9.36656E2,5.189494E3,1.01383354E2,8.3527264E2,4.03643E3,1.1530643E3,4.9180782E1,5.220257E1,3.903746E2,4.4489804E2,3.5568774E3,4.795525E2,4.5691025E2,6.9615405E2,2.2242058E1,2.6938726E1,3.2854866E1,1.9347708E1,2.5025032E2,1.4012427E2,2.3215979E2,2.1273825E2,3.351987E3,2.048904E2,1.0479414E2,3.7475833E2,2.9309482E2,1.6381544E2,6.571054E2,3.904865E1,1.05931835E1,1.1648874E1,2.5459698E1,1.4790287E0,2.1389236E1,1.146563E1,2.1794047E0,1.7168303E1,1.8266982E2,6.758051E1,7.189018E1,6.8234085E1,1.4725917E2,8.490062E1,6.2869057E1,1.4986919E2,2.1861519E3,1.1658351E3,1.3699188E1,1.9119121E2,6.5106807E0,9.828346E1,3.0418887E2,7.0569466E1,5.6299675E1,2.3679514E2,6.091598E1,1.0289946E2,5.1771656E1,6.0533374E2,3.503472E1,4.0139284E0,8.642829E0,1.9503553E0,2.216281E0,9.432593E0,1.5946151E1,9.513546E0,8.075657E0,1.3313579E1,8.259542E0,3.206087E0,1.5277944E1,1.8903596E0,1.09740265E2,7.292955E1,2.930976E1,3.8270756E1,8.472758E0,6.3417427E1,6.086057E1,7.3735137E0,3.668909E1,1.1057008E2,2.149979E1,6.3400833E1,5.2411503E1,1.0457551E1,1.0186611E2,4.8003082E1,9.0358435E2,1.2825676E3,5.183324E2,6.475027E2,4.4378767E0,9.261312E0,5.26787E0,1.8592334E2,5.346464E0,1.1642168E0,4.337587E1,5.490759E1,4.282547E1,2.613634E2,3.7376778E1,3.3192684E1,1.2163761E1,4.4135914E1,1.27707985E2,1.0908716E2,1.4756132E1,4.615985E1,7.6901536E0,9.5209305E1,8.626495E0,4.314516E1,5.9654364E2,8.790089E0,4.7577353E0,3.0276985E1,2.7771573E0,1.236771E0],"tree_param":{"num_deleted":"0","num_feature":"800","num_nodes":"123","size_leaf_vector":"1"}},{"base_weights":[3.4281714E-3,1.3024421E-2,-6.396563E-1,2.8943616E-1,-1.1297632E-2,-1.2870662E0,-2.8803295E-1,3.994293E-1,3.38166E-3,6.6417795E-1,-1.9623E-2,-2.1555285E-1,-1.3631742E0,-1.1923361E-2,-1.2795295E0,4.3809894E-1,-1.1340803E0,-6.415251E-1,2.2266592E-1,-4.714076E-1,8.4650695E-1,-4.4168293E-1,-5.970868E-3,-7.5868934E-2,4.5952328E-2,-1.4262253E0,-2.8791327E-2,6.8579084E-1,-5.031286E-1,-8.890664E-3,-1.5533478E0,3.6086303E-1,1.0874307E0,5.633956E-2,-1.5208975E0,-8.348376E-1,1.1824079E-1,-2.8482386E-1,5.744554E-1,1.1183194E-1,-1.3709006E0,1.1902555E0,3.3154586E-1,6.819807E-1,-7.275207E-1,1.0451895E0,-1.3302846E-2,-1.463265E-1,-2.4668714E-2,9.75614E-1,-8.8833666E-1,-1.0138792E0,7.378852E-1,8.333626E-2,-8.2617834E-2,-1.6967791E-1,-5.456062E-2,4.3377865E-2,-1.4637099E-1,-1.048341E-1,1.2293527E-1,-1.7812309E-1,-3.575374E-3,-2.561197E-2,-1.4843236E-1,5.6623872E-2,-8.844746E-2,-3.3606526E-2,8.128969E-2,7.384627E-2,-1.8823226E-1,1.3591294E-1,-3.263035E-2,-9.419208E-2,9.40137E-2,-6.628481E-3,1.18048064E-1,-9.1505855E-2,1.0704734E-1,1.1861308E-1,-1.4110358E-1,-1.3774899E-1,-8.2940666E-4,-3.0136783E-2,1.2349208E-1,-1.1757934E-1,-1.50108505E-2,-1.14677325E-1,6.412908E-2,1.2338109E-1,-3.80808E-2],"categories":[],"categories_nodes":[],"categories_segments":[],"categories_sizes":[],"default_left":[0,0,0,0,0,0,0,0,0,0,0,0,0,0,0,0,0,0,0,0,0,0,0,0,0,0,0,0,0,0,0,0,0,0,0,0,0,0,0,0,0,0,0,0,0,0,0,0,0,0,0,0,0,0,0,0,0,0,0,0,0,0,0,0,0,0,0,0,0,0,0,0,0,0,0,0,0,0,0,0,0,0,0,0,0,0,0,0,0,0,0],"id":11,"left_children":[1,3,5,7,9,11,13,15,17,19,21,23,25,27,29,31,33,35,37,39,41,43,45,-1,-1,47,-1,49,51,53,55,57,59,-1,61,63,-1,65,67,-1,69,71,73,75,77,79,81,-1,-1,83,85,87,89,-1,-1,-1,-1,-1,-1,-1,-1,-1,-1,-1,-1,-1,-1,-1,-1,-1,-1,-1,-1,-1,-1,-1,-1,-1,-1,-1,-1,-1,-1,-1,-1,-1,-1,-1,-1,-1,-1],"loss_changes":[3.7959393E1,4.0745846E1,2.0216995E1,1.5421249E1,3.134258E1,2.2784843E0,1.6381819E1,2.1490608E1,1.9537024E1,1.444898E1,3.1712917E1,1.5511539E0,1.573288E0,1.6747124E1,4.5220757E0,1.6962029E1,6.757406E0,1.3347655E1,1.8567234E1,1.5875741E1,1.0018845E1,5.5884705E1,4.11142E1,0E0,0E0,8.356514E-1,0E0,1.0080475E1,1.8915754E1,2.9718747E0,6.236992E-1,4.197713E1,1.2288166E1,0E0,2.8704262E0,1.1754087E1,0E0,2.2379803E1,1.3562902E1,0E0,8.785006E0,9.379627E0,2.0210827E1,1.3315622E1,4.749935E1,1.4465786E1,3.6181427E1,0E0,0E0,6.1776543E0,6.0096455E-1,5.29451E0,5.4272656E0,0E0,0E0,0E0,0E0,0E0,0E0,0E0,0E0,0E0,0E0,0E0,0E0,0E0,0E0,0E0,0E0,0E0,0E0,0E0,0E0,0E0,0E0,0E0,0E0,0E0,0E0,0E0,0E0,0E0,0E0,0E0,0E0,0E0,0E0,0E0,0E0,0E0,0E0],"parents":[2147483647,0,0,1,1,2,2,3,3,4,4,5,5,6,6,7,7,8,8,9,9,10,10,11,11,12,12,13,13,14,14,15,15,16,16,17,17,18,18,19,19,20,20,21,21,22,22,25,25,27,27,28,28,29,29,30,30,31,31,32,32,34,34,35,35,37,37,38,38,40,40,41,41,42,42,43,43,44,44,45,45,46,46,49,49,50,50,51,51,52,52],"right_children":[2,4,6,8,10,12,14,16,18,20,22,24,26,28,30,32,34,36,38,40,42,44,46,-1,-1,48,-1,50,52,54,56,58,60,-1,62,64,-1,66,68,-1,70,72,74,76,78,80,82,-1,-1,84,86,88,90,-1,-1,-1,-1,-1,-1,-1,-1,-1,-1,-1,-1,-1,-1,-1,-1,-1,-1,-1,-1,-1,-1,-1,-1,-1,-1,-1,-1,-1,-1,-1,-1,-1,-1,-1,-1,-1,-1],"split_conditions":[3.90434E3,-4.407763E0,1.665331E0,3.5120908E3,1.196407E3,7.651878E-1,4.120508E0,3.6656697E0,1.7131839E0,-6.7625766E0,1.2479025E3,1E0,1.2102648E1,3.853035E3,-5.7370963E0,3.4200212E3,-6.7645626E0,7.532142E0,3.563425E3,-1.2526417E1,2.948893E-1,4.2599014E1,1.2739806E3,-7.5868934E-2,4.5952328E-2,7.052748E1,-2.8791327E-2,2.2289133E1,3.9632354E3,1.1460674E1,6.3295914E1,3.3027852E3,1.1778501E0,5.633956E-2,4.723663E0,4.3971268E1,1.1824079E-1,-8.735987E0,4.394038E1,1.1183194E-1,2.6768107E0,2.064177E0,-5.5358815E-1,2.1625187E0,6.0693946E0,1.2039797E0,4.064065E-1,-1.463265E-1,-2.4668714E-2,3.8832E3,3.752319E3,2.716329E1,3.0212047E0,8.333626E-2,-8.2617834E-2,-1.6967791E-1,-5.456062E-2,4.3377865E-2,-1.4637099E-1,-1.048341E-1,1.2293527E-1,-1.7812309E-1,-3.575374E-3,-2.561197E-2,-1.4843236E-1,5.6623872E-2,-8.844746E-2,-3.3606526E-2,8.128969E-2,7.384627E-2,-1.8823226E-1,1.3591294E-1,-3.263035E-2,-9.419208E-2,9.40137E-2,-6.628481E-3,1.18048064E-1,-9.1505855E-2,1.0704734E-1,1.1861308E-1,-1.4110358E-1,-1.3774899E-1,-8.2940666E-4,-3.0136783E-2,1.2349208E-1,-1.1757934E-1,-1.50108505E-2,-1.14677325E-1,6.412908E-2,1.2338109E-1,-3.80808E-2],"split_indices":[768,260,777,198,520,313,169,196,41,706,7,539,436,631,420,166,420,722,24,611,563,65,566,0,0,113,0,115,439,2,273,533,105,0,660,641,0,738,81,0,617,100,68,9,441,20,729,0,0,736,6,3,73,0,0,0,0,0,0,0,0,0,0,0,0,0,0,0,0,0,0,0,0,0,0,0,0,0,0,0,0,0,0,0,0,0,0,0,0,0,0],"split_type":[0,0,0,0,0,0,0,0,0,0,0,0,0,0,0,0,0,0,0,0,0,0,0,0,0,0,0,0,0,0,0,0,0,0,0,0,0,0,0,0,0,0,0,0,0,0,0,0,0,0,0,0,0,0,0,0,0,0,0,0,0,0,0,0,0,0,0,0,0,0,0,0,0,0,0,0,0,0,0,0,0,0,0,0,0,0,0,0,0,0,0],"sum_hessian":[6.148706E3,6.059268E3,8.9438E1,4.8916595E2,5.570102E3,3.0542574E1,5.8895428E1,3.5302505E2,1.361409E2,6.6857605E1,5.503244E3,2.2796688E0,2.8262905E1,4.685843E1,1.2036998E1,3.4503873E2,7.986328E0,3.405649E1,1.02084404E2,9.030177E0,5.7827427E1,1.7145035E2,5.331794E3,1.1946492E0,1.0850197E0,2.6389103E1,1.8738024E0,1.9196018E1,2.766241E1,2.3170993E0,9.719899E0,3.0975064E2,3.5288086E1,1.3974385E0,6.5888896E0,3.128318E1,2.7733126E0,4.1871353E1,6.021305E1,3.1751935E0,5.8549833E0,3.3892223E1,2.3935202E1,3.448797E1,1.3696237E2,3.595183E1,5.2958423E3,2.5352451E1,1.0366527E0,1.6532354E1,2.6636639E0,1.972672E1,7.935691E0,1.1314344E0,1.1856649E0,7.910288E0,1.8096108E0,2.985807E2,1.1169955E1,1.8008275E0,3.348726E1,5.4365435E0,1.1523461E0,1.7280186E1,1.4002995E1,1.7330507E1,2.4540844E1,1.24109125E1,4.780214E1,1.0559148E0,4.7990685E0,3.0589762E1,3.3024635E0,7.562691E0,1.637251E1,1.4136149E1,2.0351818E1,1.24470665E2,1.2491715E1,3.4489853E1,1.4619787E0,1.8370802E1,5.277471E3,2.763081E0,1.3769274E1,1.4905419E0,1.1731219E0,1.8544903E1,1.1818181E0,5.426968E0,2.5087228E0],"tree_param":{"num_deleted":"0","num_feature":"800","num_nodes":"91","size_leaf_vector":"1"}},{"base_weights":[-3.773982E-3,1.7921202E-1,-3.5954174E-2,-1.1509602E-1,2.5621238E-1,1.1946304E-2,-1.7263788E-1,1.061089E0,-1.7928308E-1,6.344884E-1,2.039402E-1,7.4243516E-1,1.76581E-3,-1.2737273E-1,-6.0113776E-1,1.2780765E0,-3.488714E-2,-2.9873399E-2,-7.90366E-1,8.7198627E-1,2.5703374E-1,1.4134936E-1,5.904807E-1,1.4482498E0,3.8268843E-1,-8.267139E-1,1.3795308E-2,-3.389466E-1,-1.7328026E-2,1.1788728E-1,-6.6912526E-1,1.3743119E-1,3.0588118E-2,-1.2236489E0,4.4003837E-2,-1.2187821E0,1.5278944E-1,2.3637962E-1,1.0361472E0,4.0739116E-1,-1.15937606E-1,1.1201391E-1,1.0711272E0,7.0278573E-1,-6.4280397E-1,2.8155947E-2,1.5357764E-1,1.0246737E0,-2.6541996E-1,-1.5236849E-1,-1.5182531E0,8.5240626E-1,2.617866E-3,-5.41128E-1,6.0944583E-2,-4.087256E-2,9.5702446E-1,-4.9669898E-1,-1.1950045E0,-1.5460725E-1,4.4262595E-2,5.221067E-2,-2.1138296E-2,-1.4133228E-1,2.710639E-2,1.0705506E-1,-2.896283E-2,1.0559503E-1,-9.671599E-2,1.1399169E-1,1.557495E-2,7.330104E-2,-2.7783481E-2,4.8898965E-2,6.0373144E-3,1.3206705E-1,-9.39706E-2,-2.800191E-2,8.1824996E-2,7.6898694E-2,-1.2095063E-1,-1.04836956E-1,1.488619E-1,-1.266509E-1,7.018941E-2,6.549605E-2,-1.3877042E-1,-8.907485E-3,-1.891878E-1,1.2962726E-1,-6.84795E-2,-8.511343E-2,1.3816993E-3,-5.969858E-2,9.763983E-2,5.6263816E-2,-1.2167013E-2,7.0486697E-3,-2.6124243E-2,-7.927776E-2,1.2768896E-1,-8.07096E-2,1.2737422E-1,-9.622743E-3,-1.5191351E-1],"categories":[],"categories_nodes":[],"categories_segments":[],"categories_sizes":[],"default_left":[0,0,0,0,0,0,0,0,0,0,0,0,0,0,0,0,0,0,0,0,0,0,0,0,0,0,0,0,0,0,0,0,0,0,0,0,0,0,0,0,0,0,0,0,0,0,0,0,0,0,0,0,0,0,0,0,0,0,0,0,0,0,0,0,0,0,0,0,0,0,0,0,0,0,0,0,0,0,0,0,0,0,0,0,0,0,0,0,0,0,0,0,0,0,0,0,0,0,0,0,0,0,0,0,0],"id":12,"left_children":[1,3,5,7,9,11,13,15,17,19,21,23,25,27,29,31,-1,33,35,37,39,41,43,45,47,49,51,53,55,-1,57,-1,-1,59,61,63,65,67,69,71,-1,73,75,77,79,-1,-1,81,83,85,87,89,91,93,95,97,99,101,103,-1,-1,-1,-1,-1,-1,-1,-1,-1,-1,-1,-1,-1,-1,-1,-1,-1,-1,-1,-1,-1,-1,-1,-1,-1,-1,-1,-1,-1,-1,-1,-1,-1,-1,-1,-1,-1,-1,-1,-1,-1,-1,-1,-1,-1,-1],"loss_changes":[3.6101334E1,2.080865E1,3.413778E1,1.4597694E1,1.4247494E1,2.8717232E1,2.6167618E1,3.5114546E0,1.6576653E1,7.6467323E0,1.540752E1,1.2922745E1,3.7978977E1,2.8516624E1,1.640112E1,4.1212654E-1,0E0,1.303021E1,1.460375E1,5.334606E0,7.995839E0,1.4946149E1,1.276688E1,1.360775E0,1.5465635E1,2.520288E1,3.520562E1,3.3918293E1,1.8551016E1,0E0,1.0731743E1,0E0,0E0,5.309823E0,1.7146727E1,7.5268517E0,5.196207E0,1.3125804E1,3.6779785E0,7.494593E0,0E0,1.0416476E1,9.660067E0,9.531204E0,7.285248E0,0E0,0E0,1.940227E1,1.9254902E1,2.955705E1,1.4150276E1,3.459498E1,3.5462055E1,2.418766E1,1.3045019E1,1.9377373E1,1.1691477E1,5.3657665E1,1.0584175E1,0E0,0E0,0E0,0E0,0E0,0E0,0E0,0E0,0E0,0E0,0E0,0E0,0E0,0E0,0E0,0E0,0E0,0E0,0E0,0E0,0E0,0E0,0E0,0E0,0E0,0E0,0E0,0E0,0E0,0E0,0E0,0E0,0E0,0E0,0E0,0E0,0E0,0E0,0E0,0E0,0E0,0E0,0E0,0E0,0E0,0E0],"parents":[2147483647,0,0,1,1,2,2,3,3,4,4,5,5,6,6,7,7,8,8,9,9,10,10,11,11,12,12,13,13,14,14,15,15,17,17,18,18,19,19,20,20,21,21,22,22,23,23,24,24,25,25,26,26,27,27,28,28,30,30,33,33,34,34,35,35,36,36,37,37,38,38,39,39,41,41,42,42,43,43,44,44,47,47,48,48,49,49,50,50,51,51,52,52,53,53,54,54,55,55,56,56,57,57,58,58],"right_children":[2,4,6,8,10,12,14,16,18,20,22,24,26,28,30,32,-1,34,36,38,40,42,44,46,48,50,52,54,56,-1,58,-1,-1,60,62,64,66,68,70,72,-1,74,76,78,80,-1,-1,82,84,86,88,90,92,94,96,98,100,102,104,-1,-1,-1,-1,-1,-1,-1,-1,-1,-1,-1,-1,-1,-1,-1,-1,-1,-1,-1,-1,-1,-1,-1,-1,-1,-1,-1,-1,-1,-1,-1,-1,-1,-1,-1,-1,-1,-1,-1,-1,-1,-1,-1,-1,-1,-1],"split_conditions":[1E0,1.6190882E0,5.7902332E1,-6.4900913E0,-2.0747093E1,1.20746E3,5.443691E0,4.998687E1,2.9397087E0,1E0,1.774875E1,1.1791378E0,1.22337E3,9.968696E-1,3.4827669E0,1.7899462E0,-3.488714E-2,-1.6242313E1,1.9392208E0,1.2521034E3,3.628311E3,1.1896535E1,7.298227E1,3.8876167E-1,-3.9442614E-1,1.223267E3,1.2740378E3,2.3265755E0,1.0185944E1,1.1788728E-1,2.9304143E3,1.3743119E-1,3.0588118E-2,3.7569597E0,4.7184395E1,1.6591333E1,-1.517011E0,1.339825E3,1E0,5.661618E1,-1.15937606E-1,1.33201E3,8.700459E0,5.4929424E1,-5.291578E0,2.8155947E-2,1.5357764E-1,3.2917892E1,1.6181298E0,1.11868456E-1,1E0,4.5649663E-1,1.2721512E3,1.0609264E1,-2.0502515E0,6.290023E1,-1.5918531E0,2.5288684E3,4.2538033E0,-1.5460725E-1,4.4262595E-2,5.221067E-2,-2.1138296E-2,-1.4133228E-1,2.710639E-2,1.0705506E-1,-2.896283E-2,1.0559503E-1,-9.671599E-2,1.1399169E-1,1.557495E-2,7.330104E-2,-2.7783481E-2,4.8898965E-2,6.0373144E-3,1.3206705E-1,-9.39706E-2,-2.800191E-2,8.1824996E-2,7.6898694E-2,-1.2095063E-1,-1.04836956E-1,1.488619E-1,-1.266509E-1,7.018941E-2,6.549605E-2,-1.3877042E-1,-8.907485E-3,-1.891878E-1,1.2962726E-1,-6.84795E-2,-8.511343E-2,1.3816993E-3,-5.969858E-2,9.763983E-2,5.6263816E-2,-1.2167013E-2,7.0486697E-3,-2.6124243E-2,-7.927776E-2,1.2768896E-1,-8.07096E-2,1.2737422E-1,-9.622743E-3,-1.5191351E-1],"split_indices":[730,553,385,212,291,240,201,369,345,794,178,57,784,738,499,601,0,2,324,759,647,777,353,665,739,630,550,41,553,0,135,0,0,356,337,770,626,582,317,769,0,784,265,193,772,0,0,337,761,787,778,20,7,18,260,673,4,6,754,0,0,0,0,0,0,0,0,0,0,0,0,0,0,0,0,0,0,0,0,0,0,0,0,0,0,0,0,0,0,0,0,0,0,0,0,0,0,0,0,0,0,0,0,0,0],"split_type":[0,0,0,0,0,0,0,0,0,0,0,0,0,0,0,0,0,0,0,0,0,0,0,0,0,0,0,0,0,0,0,0,0,0,0,0,0,0,0,0,0,0,0,0,0,0,0,0,0,0,0,0,0,0,0,0,0,0,0,0,0,0,0,0,0,0,0,0,0,0,0,0,0,0,0,0,0,0,0,0,0,0,0,0,0,0,0,0,0,0,0,0,0,0,0,0,0,0,0,0,0,0,0,0,0],"sum_hessian":[6.1287E3,9.159232E2,5.212777E3,1.8983772E2,7.260855E2,3.8607122E3,1.3520647E3,9.020053E0,1.8081767E2,8.680065E1,6.3928485E2,5.2076817E1,3.8086355E3,1.2240571E3,1.2800764E2,7.898103E0,1.1219499E0,1.4613626E2,3.4681408E1,5.247361E1,3.4327038E1,5.513696E2,8.7915245E1,1.656025E1,3.5516567E1,5.3540504E1,3.755095E3,4.1811044E2,8.059466E2,4.108247E0,1.2389939E2,6.810346E0,1.0877573E0,7.6096315E0,1.3852663E2,2.364757E1,1.103384E1,1.1271599E1,4.120201E1,3.16768E1,2.6502385E0,5.355916E2,1.5777991E1,8.097195E1,6.9432936E0,1.4499471E0,1.5110302E1,1.755068E1,1.7965887E1,2.7725082E1,2.581542E1,4.8401608E1,3.7066934E3,2.774706E2,1.4063983E2,7.8786646E2,1.8080177E1,9.47704E1,2.912899E1,6.436341E0,1.1732907E0,4.7868637E1,9.065799E1,2.0961788E1,2.685781E0,3.1271138E0,7.906726E0,6.7783766E0,4.4932218E0,3.6594017E1,4.607992E0,2.1425617E1,1.0251183E1,6.3509026E1,4.720826E2,1.4341449E1,1.4365429E0,8.362986E0,7.260896E1,1.8865346E0,5.056759E0,2.9791746E0,1.4571506E1,8.676811E0,9.289077E0,1.7051334E1,1.0673748E1,5.606813E0,2.0208609E1,3.7678646E1,1.0722961E1,4.7022064E1,3.6596714E3,2.6820502E2,9.26561E0,3.6975845E1,1.0366398E2,5.2383673E2,2.640297E2,2.5657778E0,1.55144005E1,8.1096535E1,1.367387E1,6.930847E0,2.2198143E1],"tree_param":{"num_deleted":"0","num_feature":"800","num_nodes":"105","size_leaf_vector":"1"}},{"base_weights":[-4.3464676E-3,-4.795856E-2,1.3912635E-1,-1.542231E-3,-1.8832846E-1,-1.0318191E-1,2.63301E-1,1.4323982E-2,-5.010956E-1,1.4956231E-1,-2.8102884E-1,-4.973287E-2,-8.5370433E-1,6.1628765E-1,1.831997E-1,2.151109E-2,-9.4009954E-1,-6.75833E-1,5.895519E-1,2.685138E-1,-8.4534764E-1,1.2548597E-1,-3.814972E-1,-3.327703E-1,1.6145925E-1,7.3937654E-1,-1.1091483E0,7.007045E-1,-9.4034815E-1,-3.76096E-1,2.6999006E-1,6.8803946E-3,4.6240026E-1,-1.3604733E0,4.0989384E-1,-3.456033E-1,-1.1535801E0,-3.249324E-1,1.3660709E0,-4.6209556E-1,3.9968506E-1,-1.0994393E0,6.69066E-1,-6.505718E-2,1.1851783E0,-9.3209445E-1,-2.0495503E-1,-1.1642437E0,-1.7755976E-1,2.624202E-1,-8.001729E-1,1.1380678E-1,-3.0682066E-2,9.3441926E-2,-1.2508379E0,1.6078313E-1,1.0217707E0,-1.4629577E0,7.769849E-2,1.1796223E-1,-9.412729E-1,-6.349559E-1,3.1802145E-1,2.5533438E-3,-3.7236445E-2,9.673298E-2,3.797497E-3,-1.636442E-1,1.5803305E-2,9.96698E-2,-1.2604505E-1,-6.284761E-2,8.841946E-2,-1.3082884E-1,9.413181E-2,8.104297E-2,-1.3013352E-1,6.2872134E-3,1.5700123E-1,-1.1417607E-1,3.1166205E-2,-1.2410368E-2,5.3257037E-2,1.2843161E-2,-1.4803977E-1,-3.4010228E-2,1.1367895E-1,-2.7786076E-2,1.0853412E-1,-5.73026E-2,1.3592128E-1,7.873088E-2,-1.07810035E-1,1.3821177E-2,-3.760857E-2,-1.391983E-1,8.551874E-2,2.3510497E-2,-4.103933E-2,8.703764E-2,1.2849569E-2,-1.1136218E-1,6.6615865E-2,-1.5663631E-1,-3.769243E-2,4.42869E-2,-1.3576452E-1,1.0900911E-1,-8.143141E-2,-3.1541597E-2,-1.629134E-1,5.798034E-2,-7.182728E-2,-1.687858E-1,-1.6805293E-2,-1.1375042E-1,5.9572604E-2,3.580212E-2,-8.372038E-2],"categories":[],"categories_nodes":[],"categories_segments":[],"categories_sizes":[],"default_left":[0,0,0,0,0,0,0,0,0,0,0,0,0,0,0,0,0,0,0,0,0,0,0,0,0,0,0,0,0,0,0,0,0,0,0,0,0,0,0,0,0,0,0,0,0,0,0,0,0,0,0,0,0,0,0,0,0,0,0,0,0,0,0,0,0,0,0,0,0,0,0,0,0,0,0,0,0,0,0,0,0,0,0,0,0,0,0,0,0,0,0,0,0,0,0,0,0,0,0,0,0,0,0,0,0,0,0,0,0,0,0,0,0,0,0,0,0,0,0],"id":13,"left_children":[1,3,5,7,9,11,13,15,17,19,21,23,25,27,29,31,33,35,37,39,41,43,45,47,49,51,53,55,57,59,61,63,65,67,69,71,73,75,77,79,81,83,85,87,89,91,93,95,97,99,101,-1,-1,-1,103,105,107,109,-1,111,113,115,117,-1,-1,-1,-1,-1,-1,-1,-1,-1,-1,-1,-1,-1,-1,-1,-1,-1,-1,-1,-1,-1,-1,-1,-1,-1,-1,-1,-1,-1,-1,-1,-1,-1,-1,-1,-1,-1,-1,-1,-1,-1,-1,-1,-1,-1,-1,-1,-1,-1,-1,-1,-1,-1,-1,-1,-1],"loss_changes":[3.8461823E1,3.0712702E1,4.3141846E1,2.809288E1,3.6732903E1,1.9462675E1,2.66828E1,2.358532E1,2.1191734E1,3.0149124E1,3.7604034E1,2.7249706E1,1.3949511E1,2.3636139E1,3.7664665E1,2.1997433E1,1.5141571E1,1.4511238E1,1.1522182E1,2.1900331E1,1.1218288E1,3.7023674E1,7.1503586E1,2.4925491E1,2.5571869E1,2.4591143E0,9.335678E0,2.8687256E1,9.592638E0,2.9254068E1,2.9344303E1,2.3369104E1,2.343635E1,8.567692E0,7.9905796E0,2.0491879E1,1.3611477E1,9.891939E0,2.1946564E0,1.87378E1,1.3474623E1,1.127915E1,2.5275214E0,3.8501514E1,9.327892E0,4.573355E1,3.292573E1,1.5196362E1,1.5977779E1,1.9197819E1,1.2263224E1,0E0,0E0,0E0,6.800564E0,2.7693378E1,1.3956688E1,9.297714E-1,0E0,2.2266922E1,2.788284E1,2.17839E1,2.975042E1,0E0,0E0,0E0,0E0,0E0,0E0,0E0,0E0,0E0,0E0,0E0,0E0,0E0,0E0,0E0,0E0,0E0,0E0,0E0,0E0,0E0,0E0,0E0,0E0,0E0,0E0,0E0,0E0,0E0,0E0,0E0,0E0,0E0,0E0,0E0,0E0,0E0,0E0,0E0,0E0,0E0,0E0,0E0,0E0,0E0,0E0,0E0,0E0,0E0,0E0,0E0,0E0,0E0,0E0,0E0,0E0],"parents":[2147483647,0,0,1,1,2,2,3,3,4,4,5,5,6,6,7,7,8,8,9,9,10,10,11,11,12,12,13,13,14,14,15,15,16,16,17,17,18,18,19,19,20,20,21,21,22,22,23,23,24,24,25,25,26,26,27,27,28,28,29,29,30,30,31,31,32,32,33,33,34,34,35,35,36,36,37,37,38,38,39,39,40,40,41,41,42,42,43,43,44,44,45,45,46,46,47,47,48,48,49,49,50,50,54,54,55,55,56,56,57,57,59,59,60,60,61,61,62,62],"right_children":[2,4,6,8,10,12,14,16,18,20,22,24,26,28,30,32,34,36,38,40,42,44,46,48,50,52,54,56,58,60,62,64,66,68,70,72,74,76,78,80,82,84,86,88,90,92,94,96,98,100,102,-1,-1,-1,104,106,108,110,-1,112,114,116,118,-1,-1,-1,-1,-1,-1,-1,-1,-1,-1,-1,-1,-1,-1,-1,-1,-1,-1,-1,-1,-1,-1,-1,-1,-1,-1,-1,-1,-1,-1,-1,-1,-1,-1,-1,-1,-1,-1,-1,-1,-1,-1,-1,-1,-1,-1,-1,-1,-1,-1,-1,-1,-1,-1,-1,-1],"split_conditions":[3.470684E0,5.5341616E0,1.9204348E0,4.781935E0,1.8388239E0,5.216225E0,1.5714412E3,6.69121E1,6.0307283E0,6.639197E1,1.6358207E3,-9.4046134E-1,-1.3433608E1,1.5888396E3,1.6060948E3,1.7976364E1,1.087891E-1,1.474625E0,1.671752E-1,1.0660073E0,1.6004032E0,7.3020597E0,2.1695842E3,9.7356886E-1,8.400003E0,5.883443E0,3.2334217E1,1.3453503E3,1.52315E3,1.6071012E3,9.435547E-1,3.6822197E3,3.2866714E3,5.935356E0,2.9235682E-1,2.5459045E-1,6.1802206E0,-6.4394855E0,6.0484016E-1,-1.0930988E0,-1.0620105E0,4.925525E0,2.6481882E3,1.5633143E3,-4.2137637E0,-5.1275477E0,1.5864116E0,7.823817E1,1E0,-4.3792653E-1,2.0316223E1,1.1380678E-1,-3.0682066E-2,9.3441926E-2,1.750275E1,1.3453171E3,8.3041374E1,1E0,7.769849E-2,2.701505E0,3.6315556E0,5.536236E0,1.183705E1,2.5533438E-3,-3.7236445E-2,9.673298E-2,3.797497E-3,-1.636442E-1,1.5803305E-2,9.96698E-2,-1.2604505E-1,-6.284761E-2,8.841946E-2,-1.3082884E-1,9.413181E-2,8.104297E-2,-1.3013352E-1,6.2872134E-3,1.5700123E-1,-1.1417607E-1,3.1166205E-2,-1.2410368E-2,5.3257037E-2,1.2843161E-2,-1.4803977E-1,-3.4010228E-2,1.1367895E-1,-2.7786076E-2,1.0853412E-1,-5.73026E-2,1.3592128E-1,7.873088E-2,-1.07810035E-1,1.3821177E-2,-3.760857E-2,-1.391983E-1,8.551874E-2,2.3510497E-2,-4.103933E-2,8.703764E-2,1.2849569E-2,-1.1136218E-1,6.6615865E-2,-1.5663631E-1,-3.769243E-2,4.42869E-2,-1.3576452E-1,1.0900911E-1,-8.143141E-2,-3.1541597E-2,-1.629134E-1,5.798034E-2,-7.182728E-2,-1.687858E-1,-1.6805293E-2,-1.1375042E-1,5.9572604E-2,3.580212E-2,-8.372038E-2],"split_indices":[793,450,489,196,377,265,262,401,52,721,133,67,770,70,5,83,788,580,627,153,377,441,502,473,793,793,1,454,32,230,89,246,246,498,692,484,531,372,292,660,84,451,678,39,4,18,713,737,762,259,723,0,0,0,738,694,657,186,0,211,25,777,20,0,0,0,0,0,0,0,0,0,0,0,0,0,0,0,0,0,0,0,0,0,0,0,0,0,0,0,0,0,0,0,0,0,0,0,0,0,0,0,0,0,0,0,0,0,0,0,0,0,0,0,0,0,0,0,0],"split_type":[0,0,0,0,0,0,0,0,0,0,0,0,0,0,0,0,0,0,0,0,0,0,0,0,0,0,0,0,0,0,0,0,0,0,0,0,0,0,0,0,0,0,0,0,0,0,0,0,0,0,0,0,0,0,0,0,0,0,0,0,0,0,0,0,0,0,0,0,0,0,0,0,0,0,0,0,0,0,0,0,0,0,0,0,0,0,0,0,0,0,0,0,0,0,0,0,0,0,0,0,0,0,0,0,0,0,0,0,0,0,0,0,0,0,0,0,0,0,0],"sum_hessian":[6.1447935E3,4.712867E3,1.4319261E3,3.5424807E3,1.1703865E3,4.8523395E2,9.466922E2,3.4343735E3,1.0810712E2,2.5183609E2,9.1855035E2,4.5397037E2,3.126359E1,1.7385638E2,7.728358E2,3.409675E3,2.469846E1,9.3506386E1,1.4600729E1,2.2559416E2,2.6241932E1,1.819789E2,7.365715E2,1.9374274E2,2.6022763E2,4.0584583E0,2.7205132E1,1.6543468E2,8.421717E0,1.0336916E2,6.694667E2,3.3011438E3,1.0853127E2,1.882789E1,5.870569E0,5.6308243E1,3.7198147E1,6.9717956E0,7.6289334E0,3.395359E1,1.9164056E2,2.2706245E1,3.5356865E0,1.5503981E2,2.6939085E1,1.777931E2,5.587784E2,2.9454092E1,1.6428865E2,2.3616045E2,2.4067179E1,2.8750157E0,1.1834424E0,1.4011887E0,2.5803942E1,6.2250996E1,1.0318368E2,6.570377E0,1.8513399E0,5.557697E1,4.7792194E1,3.3126175E1,6.363405E2,3.1472786E3,1.5386526E2,4.8980766E1,5.955051E1,1.5866665E1,2.9612248E0,4.642813E0,1.2277563E0,4.6176E1,1.0132244E1,3.4989647E1,2.2085006E0,3.3020978E0,3.6696978E0,1.2093554E0,6.4195776E0,1.7822649E1,1.6130941E1,3.8793987E1,1.5284657E2,5.533628E0,1.7172617E1,1.2061442E0,2.3295422E0,1.3147728E2,2.3562532E1,2.2198808E0,2.4719206E1,1.3572103E1,1.64221E2,1.8599554E2,3.727828E2,2.6748285E1,2.7058065E0,5.925598E1,1.0503267E2,4.1639072E1,1.9452138E2,2.0026726E1,4.040454E0,1.8376705E1,7.427237E0,5.309552E1,9.155477E0,9.9873695E1,3.309984E0,1.1976938E0,5.372683E0,3.6000843E1,1.9576124E1,2.3713068E1,2.4079124E1,2.3575035E1,9.551142E0,6.1571155E2,2.062896E1],"tree_param":{"num_deleted":"0","num_feature":"800","num_nodes":"119","size_leaf_vector":"1"}},{"base_weights":[1.6243192E-3,1.6832733E-1,-2.8519057E-2,-1.4830864E-2,2.8175285E-1,-2.0751288E-2,-7.387762E-1,1.0739207E-1,-5.59434E-1,4.758755E-1,1.2596077E-1,7.851765E-2,-8.088905E-2,-8.894302E-1,3.4772912E-1,-5.1541305E-1,1.6327329E-1,-9.51314E-1,-4.7472373E-2,1.9944456E-1,6.104654E-1,2.5454655E-1,-2.2740532E-1,2.9873155E-2,3.3646914E-1,7.90112E-1,-9.033068E-2,-3.6680308E-1,-1.1940721E0,1.1513901E-1,-6.7177725E-1,-1.2122614E0,4.8129854E-1,1.2977958E0,1.2399597E-1,-1.1261591E0,6.000526E-1,8.329445E-1,-6.0519487E-1,-1.6118932E-1,7.199534E-1,7.094866E-1,-4.18824E-2,-5.2329652E-2,4.726E-1,-1.3032857E0,-5.7796117E-2,-6.2447196E-1,5.3227104E-2,-1.7642783E0,3.8397518E-1,1.279532E0,3.2606357E-1,-1.4409806E-1,6.627429E-2,3.4217128E-1,-9.635279E-1,6.04159E-2,-1.28301E0,-1.0129762E-1,1.6225126E-2,-1.4015543E-1,5.1558103E-2,-4.907733E-2,9.27097E-2,3.376143E-2,1.3882658E-1,1.0704287E-1,8.602775E-3,6.670062E-2,-1.2586626E-1,-6.9590144E-2,1.3032135E-1,1.17356956E-1,-4.590343E-2,-8.425917E-2,9.752406E-2,1.1365088E-1,-3.7743155E-2,8.178804E-2,-9.9904306E-2,-2.7870754E-2,7.792631E-2,6.410815E-2,-6.268806E-2,-1.2693785E-1,4.2900215E-3,-3.108912E-3,6.390252E-2,-1.6734771E-1,6.1917074E-2,-2.0868253E-2,7.7575676E-2,2.3022953E-2,-9.2791155E-2,1.1104851E-2,-1.7793251E-2,-1.9735725E-1,-4.6927672E-2,4.7479466E-2,-3.0060515E-2,-1.2225757E-2,1.3879508E-1,1.20897345E-1,-2.4710516E-2,-1.1656555E-2,-1.2564115E-1,7.266983E-2,-4.431406E-3,9.116294E-2,-6.9063775E-2,-1.14456676E-1,2.1466142E-2,