{"learner":{"attributes":{"scikit_learn":"{\"_estimator_type\": \"classifier\"}"},"feature_names":[],"feature_types":[],"gradient_booster":{"model":{"gbtree_model_param":{"num_parallel_tree":"1","num_trees":"100"},"iteration_indptr":[0,1,2,3,4,5,6,7,8,9,10,11,12,13,14,15,16,17,18,19,20,21,22,23,24,25,26,27,28,29,30,31,32,33,34,35,36,37,38,39,40,41,42,43,44,45,46,47,48,49,50,51,52,53,54,55,56,57,58,59,60,61,62,63,64,65,66,67,68,69,70,71,72,73,74,75,76,77,78,79,80,81,82,83,84,85,86,87,88,89,90,91,92,93,94,95,96,97,98,99,100],"tree_info":[0,0,0,0,0,0,0,0,0,0,0,0,0,0,0,0,0,0,0,0,0,0,0,0,0,0,0,0,0,0,0,0,0,0,0,0,0,0,0,0,0,0,0,0,0,0,0,0,0,0,0,0,0,0,0,0,0,0,0,0,0,0,0,0,0,0,0,0,0,0,0,0,0,0,0,0,0,0,0,0,0,0,0,0,0,0,0,0,0,0,0,0,0,0,0,0,0,0,0,0],"trees":[{"base_weights":[2.6790341E-3,-2.6734498E-1,2.463146E-1,4.1325694E-1,-3.0835256E-1,-2.4884986E-2,3.5492983E-1,7.8388494E-1,-1.5554406E-1,-3.60168E-1,6.767446E-2,-1.1880006E0,2.5095234E-3,3.867661E-1,-4.5904416E-1,3.3529162E-1,1.0954521E0,-9.636699E-1,3.3187637E-1,-3.9820787E-1,1.6967326E-1,3.952777E-1,-1.1639484E-1,8.4821445E-1,-1.4754009E0,2.810985E-1,-1.5478928E-1,6.361587E-1,3.2204312E-1,4.82183E-1,-8.3977693E-1,5.495152E-1,-5.7955587E-1,-7.0581377E-1,1.16283E0,-1.183834E0,5.024693E-1,-8.775511E-1,5.638996E-1,-3.593007E-1,-8.0133075E-1,6.443007E-1,-2.0477477E-2,-1.2258514E-1,7.995829E-1,-1.0514792E0,-3.5519857E-2,-2.5170272E-2,1.348653E-1,-1.7024646E0,9.6519075E-2,7.7513677E-1,2.8930007E-2,-3.0412006E-1,1.3613375E-1,9.67537E-1,4.6170935E-1,6.9024986E-1,2.7230546E-1,-4.094226E-1,1.3718562E0,-3.4844488E-1,-1.5070871E0,7.8529276E-2,-4.290757E-2,-1.5449743E-1,2.9941423E-2,1.9291446E-2,-1.2322503E-1,1.232566E-1,-5.3994983E-2,1.413665E-3,-1.5318017E-1,1.348653E-1,-4.983951E-2,-1.7117383E-1,2.4303706E-2,8.288864E-2,-7.5034186E-2,-4.3036524E-2,-8.348239E-3,-1.2692551E-1,-1.901297E-2,1.3501331E-1,2.309501E-2,-5.8213215E-2,1.5795028E-2,-2.9870505E-2,1.07490055E-1,9.850219E-2,-7.7439295E-3,-1.2873267E-1,6.282037E-2,4.0394414E-2,-3.805476E-2,3.6842126E-2,-1.8457597E-1,1.5260063E-2,1.0959067E-1,-1.8320976E-1,8.432669E-3,-8.327972E-2,-1.7637933E-2,5.385797E-2,-7.911909E-3,1.02291994E-1,-7.562025E-2,-5.506102E-2,5.0853785E-2,4.934761E-2,1.585525E-1,2.5462864E-2,1.3319878E-1,3.5203665E-2,-1.2912197E-1,-2.1557067E-2,1.5453981E-1,3.0710721E-2,-1.3536571E-1,-1.8209669E-1,-3.1763952E-2],"categories":[],"categories_nodes":[],"categories_segments":[],"categories_sizes":[],"default_left":[0,0,0,0,0,0,0,0,0,0,0,0,0,0,0,0,0,0,0,0,0,0,0,0,0,0,0,0,0,0,0,0,0,0,0,0,0,0,0,0,0,0,0,0,0,0,0,0,0,0,0,0,0,0,0,0,0,0,0,0,0,0,0,0,0,0,0,0,0,0,0,0,0,0,0,0,0,0,0,0,0,0,0,0,0,0,0,0,0,0,0,0,0,0,0,0,0,0,0,0,0,0,0,0,0,0,0,0,0,0,0,0,0,0,0,0,0,0,0,0,0],"id":0,"left_children":[1,3,5,7,9,11,13,15,17,19,21,23,25,27,29,31,33,35,37,39,41,43,45,47,49,51,53,55,57,59,61,63,65,67,69,71,73,75,77,79,81,83,85,87,89,91,93,-1,-1,95,-1,97,99,101,103,105,107,109,111,113,115,117,119,-1,-1,-1,-1,-1,-1,-1,-1,-1,-1,-1,-1,-1,-1,-1,-1,-1,-1,-1,-1,-1,-1,-1,-1,-1,-1,-1,-1,-1,-1,-1,-1,-1,-1,-1,-1,-1,-1,-1,-1,-1,-1,-1,-1,-1,-1,-1,-1,-1,-1,-1,-1,-1,-1,-1,-1,-1,-1],"loss_changes":[5.9346466E2,1.19546814E2,1.3969647E2,5.147195E1,7.866528E1,4.3242672E1,8.7925385E1,2.0268936E1,3.850139E1,7.1568146E1,2.9573221E1,1.9526855E1,5.8187134E1,5.2403625E1,4.6242676E1,1.2460991E1,1.1341904E1,1.2449356E1,1.7670712E1,5.163025E1,2.152301E1,3.7026943E1,2.3730112E1,2.815096E0,1.7011047E1,5.9672424E1,3.6910248E1,3.8315857E1,4.7238922E1,3.028783E1,2.94543E1,1.2038458E1,1.0850943E1,2.0110219E0,1.0633209E1,1.345612E1,5.3275294E0,9.9914665E0,1.8718876E1,5.9171295E1,8.2854004E1,1.958683E1,1.72418E1,1.6812693E1,1.620654E1,1.0705778E1,4.4170746E1,0E0,0E0,8.316147E0,0E0,3.216021E1,3.296728E1,3.774676E1,2.503891E1,2.2763062E1,2.1194878E1,5.3395096E1,4.2428482E1,1.3539194E1,5.563896E0,3.5975616E1,1.3785522E1,0E0,0E0,0E0,0E0,0E0,0E0,0E0,0E0,0E0,0E0,0E0,0E0,0E0,0E0,0E0,0E0,0E0,0E0,0E0,0E0,0E0,0E0,0E0,0E0,0E0,0E0,0E0,0E0,0E0,0E0,0E0,0E0,0E0,0E0,0E0,0E0,0E0,0E0,0E0,0E0,0E0,0E0,0E0,0E0,0E0,0E0,0E0,0E0,0E0,0E0,0E0,0E0,0E0,0E0,0E0,0E0,0E0,0E0],"parents":[2147483647,0,0,1,1,2,2,3,3,4,4,5,5,6,6,7,7,8,8,9,9,10,10,11,11,12,12,13,13,14,14,15,15,16,16,17,17,18,18,19,19,20,20,21,21,22,22,23,23,24,24,25,25,26,26,27,27,28,28,29,29,30,30,31,31,32,32,33,33,34,34,35,35,36,36,37,37,38,38,39,39,40,40,41,41,42,42,43,43,44,44,45,45,46,46,49,49,51,51,52,52,53,53,54,54,55,55,56,56,57,57,58,58,59,59,60,60,61,61,62,62],"right_children":[2,4,6,8,10,12,14,16,18,20,22,24,26,28,30,32,34,36,38,40,42,44,46,48,50,52,54,56,58,60,62,64,66,68,70,72,74,76,78,80,82,84,86,88,90,92,94,-1,-1,96,-1,98,100,102,104,106,108,110,112,114,116,118,120,-1,-1,-1,-1,-1,-1,-1,-1,-1,-1,-1,-1,-1,-1,-1,-1,-1,-1,-1,-1,-1,-1,-1,-1,-1,-1,-1,-1,-1,-1,-1,-1,-1,-1,-1,-1,-1,-1,-1,-1,-1,-1,-1,-1,-1,-1,-1,-1,-1,-1,-1,-1,-1,-1,-1,-1,-1,-1],"split_conditions":[5.490883E-1,-2.8029062E2,-1.4784969E1,1.1307562E1,1.2395753E3,-3.8607462E2,8.780864E4,1.2921556E2,2.8768288E1,7.102948E1,1.950648E4,-5.2550757E2,-7.184494E1,7.0947E1,5.3832E1,3.694175E1,6.605582E1,1.5813309E2,-4.3883588E2,6.908166E4,5.948817E4,1.269493E3,-1.3004338E2,4.359566E1,1.5224841E2,5.71511E4,3.440299E1,4.272159E4,1.951124E4,7.823183E1,1.753778E2,8.75894E2,6.270599E4,1.4655936E2,9.917648E4,1.7303686E1,6.060536E1,3.3405634E2,9.19063E4,3.1933302E1,7.479799E4,1.7852228E2,6.274009E4,5.8206486E1,1.5394894E1,3.6115128E1,-3.3724667E1,-2.5170272E-2,1.348653E-1,1.5636967E2,9.6519075E-2,-1.3911586E2,5.81E4,2.088737E4,9.867241E1,7.5393456E1,3.9219383E1,1.922239E4,8.051798E4,9.548E4,-2.677461E1,9.663156E4,9.459999E4,7.8529276E-2,-4.290757E-2,-1.5449743E-1,2.9941423E-2,1.9291446E-2,-1.2322503E-1,1.232566E-1,-5.3994983E-2,1.413665E-3,-1.5318017E-1,1.348653E-1,-4.983951E-2,-1.7117383E-1,2.4303706E-2,8.288864E-2,-7.5034186E-2,-4.3036524E-2,-8.348239E-3,-1.2692551E-1,-1.901297E-2,1.3501331E-1,2.309501E-2,-5.8213215E-2,1.5795028E-2,-2.9870505E-2,1.07490055E-1,9.850219E-2,-7.7439295E-3,-1.2873267E-1,6.282037E-2,4.0394414E-2,-3.805476E-2,3.6842126E-2,-1.8457597E-1,1.5260063E-2,1.0959067E-1,-1.8320976E-1,8.432669E-3,-8.327972E-2,-1.7637933E-2,5.385797E-2,-7.911909E-3,1.02291994E-1,-7.562025E-2,-5.506102E-2,5.0853785E-2,4.934761E-2,1.585525E-1,2.5462864E-2,1.3319878E-1,3.5203665E-2,-1.2912197E-1,-2.1557067E-2,1.5453981E-1,3.0710721E-2,-1.3536571E-1,-1.8209669E-1,-3.1763952E-2],"split_indices":[248,248,59,119,211,9,130,1,222,173,185,154,59,11,239,232,16,83,218,0,80,81,198,2,143,85,209,25,50,93,139,231,85,1,135,58,12,131,135,64,5,166,10,87,158,187,218,0,0,66,0,58,135,0,16,92,182,25,60,125,244,30,20,0,0,0,0,0,0,0,0,0,0,0,0,0,0,0,0,0,0,0,0,0,0,0,0,0,0,0,0,0,0,0,0,0,0,0,0,0,0,0,0,0,0,0,0,0,0,0,0,0,0,0,0,0,0,0,0,0,0],"split_type":[0,0,0,0,0,0,0,0,0,0,0,0,0,0,0,0,0,0,0,0,0,0,0,0,0,0,0,0,0,0,0,0,0,0,0,0,0,0,0,0,0,0,0,0,0,0,0,0,0,0,0,0,0,0,0,0,0,0,0,0,0,0,0,0,0,0,0,0,0,0,0,0,0,0,0,0,0,0,0,0,0,0,0,0,0,0,0,0,0,0,0,0,0,0,0,0,0,0,0,0,0,0,0,0,0,0,0,0,0,0,0,0,0,0,0,0,0,0,0,0,0],"sum_hessian":[9.018938E3,4.2777563E3,4.741182E3,2.4258025E2,4.0351763E3,1.356051E3,3.385131E3,1.4664738E2,9.593287E1,3.5465183E3,4.8865805E2,3.0228848E1,1.3258223E3,3.25822E3,1.26911194E2,6.0957344E1,8.569003E1,3.5725002E1,6.0207867E1,3.3091843E3,2.3733392E2,1.7537727E2,3.1328076E2,3.4975524E0,2.6731295E1,4.781654E2,8.4765686E2,6.695315E2,2.5886885E3,3.6474476E1,9.0436714E1,4.971521E1,1.1242133E1,2.748077E0,8.294196E1,3.1228148E1,4.4968534E0,9.243531E0,5.0964336E1,3.019637E3,2.895474E2,6.720297E1,1.7013095E2,7.7195984E1,9.81813E1,2.3983217E1,2.8929755E2,1.249126E0,2.2484267E0,2.4732693E1,1.9986014E0,1.6088742E2,3.1727798E2,5.6010803E2,2.8754877E2,2.2933951E2,4.4019196E2,3.065355E2,2.282153E3,1.8487062E1,1.7987413E1,5.2962936E1,3.7473778E1,4.0221855E1,9.493357E0,4.996504E0,6.2456293E0,1.249126E0,1.4989511E0,7.994406E1,2.9979022E0,7.2449303E0,2.3983217E1,2.2484267E0,2.2484267E0,4.996504E0,4.247028E0,4.2720104E1,8.244231E0,2.40057E3,6.190668E2,1.6338567E2,1.2616171E2,2.3983217E1,4.3219757E1,4.047168E1,1.2965927E2,6.7952446E1,9.243531E0,8.094336E1,1.7237938E1,2.123514E1,2.748077E0,1.2716102E2,1.6213654E2,1.4989511E0,2.3233742E1,5.5211365E1,1.0567605E2,8.244231E0,3.0903375E2,1.0792448E2,4.5218356E2,9.9680244E1,1.8786853E2,2.2259424E2,6.74528E0,1.8986713E1,4.2120526E2,2.5257326E2,5.396224E1,2.2459285E3,3.622465E1,1.0242832E1,8.244231E0,1.7487762E0,1.6238636E1,3.2477272E1,2.0485664E1,2.9229546E1,8.244231E0],"tree_param":{"num_deleted":"0","num_feature":"250","num_nodes":"121","size_leaf_vector":"1"}},{"base_weights":[-6.2364545E-3,-2.2813295E-1,2.454507E-1,2.5384247E-1,-2.6508716E-1,6.141677E-3,3.4828603E-1,-2.904384E-1,4.6754402E-1,-3.9747024E-1,-7.461022E-2,-1.0538639E0,3.125552E-2,3.632714E-1,-1.1156417E0,1.6219787E-1,-8.652397E-1,7.60012E-1,1.7796765E-1,-5.2309936E-1,-9.6444726E-2,1.3023959E0,-9.363142E-2,6.1643434E-1,-1.4847213E0,2.844682E-1,-1.1220914E-1,4.1661078E-1,-1.7575875E-2,-1.6319945E0,9.2794263E-1,9.8832285E-1,-3.9269668E-1,-1.3770856E0,-4.699018E-4,3.4531847E-1,1.3108793E0,-1.784606E-1,3.6405522E-1,-6.0057247E-1,-2.5579992E-1,-1.8664142E-1,5.1281714E-1,1.5741644E0,-3.941909E-1,1.27397E-1,-1.8376277E-1,1.381935E-1,-1.23748675E-1,6.632695E-2,-1.6336951E0,-1.6330183E0,3.2618207E-1,-3.5058984E-1,6.6471554E-2,1.9684343E-1,5.478412E-1,2.9582077E-1,-3.791609E-1,-1.8621473E-1,-1.8641521E-1,-7.7309094E-2,1.5631501E-1,1.237368E-1,-3.696208E-2,-1.2491156E-1,5.2568525E-2,-1.5678774E-1,6.71793E-2,5.2138902E-2,-1.563437E-1,7.528573E-2,-6.476273E-2,-2.8450284E-2,1.4314096E-1,1.5436552E-1,1.723194E-2,-6.946003E-2,-2.4544528E-2,-4.4821754E-2,2.071205E-2,1.2454548E-2,-4.249815E-2,9.413132E-2,-1.8117843E-3,1.689489E-1,2.904172E-2,-1.349235E-1,1.05588615E-1,4.001535E-2,-8.97213E-3,3.4523625E-2,-2.3504367E-2,-1.7883271E-1,-3.4024564E-3,-1.8068682E-1,-2.5059182E-2,1.0508484E-3,5.7931077E-2,3.2927126E-2,-4.53257E-2,8.704626E-2,-2.5485996E-3,2.8656527E-2,-1.9169902E-2,5.6449622E-2,-6.804097E-2,1.12562E-2,1.3345632E-1,5.617419E-2,-5.3399276E-2,1.2494152E-1,-1.3199985E-1],"categories":[],"categories_nodes":[],"categories_segments":[],"categories_sizes":[],"default_left":[0,0,0,0,0,0,0,0,0,0,0,0,0,0,0,0,0,0,0,0,0,0,0,0,0,0,0,0,0,0,0,0,0,0,0,0,0,0,0,0,0,0,0,0,0,0,0,0,0,0,0,0,0,0,0,0,0,0,0,0,0,0,0,0,0,0,0,0,0,0,0,0,0,0,0,0,0,0,0,0,0,0,0,0,0,0,0,0,0,0,0,0,0,0,0,0,0,0,0,0,0,0,0,0,0,0,0,0,0,0,0,0,0],"id":1,"left_children":[1,3,5,7,9,11,13,15,17,19,21,23,25,27,29,31,33,35,37,39,41,43,45,47,49,51,53,55,57,59,61,63,65,67,69,71,73,-1,75,77,79,81,83,85,87,89,91,-1,-1,-1,93,95,97,99,101,103,105,107,109,111,-1,-1,-1,-1,-1,-1,-1,-1,-1,-1,-1,-1,-1,-1,-1,-1,-1,-1,-1,-1,-1,-1,-1,-1,-1,-1,-1,-1,-1,-1,-1,-1,-1,-1,-1,-1,-1,-1,-1,-1,-1,-1,-1,-1,-1,-1,-1,-1,-1,-1,-1,-1,-1],"loss_changes":[5.0364514E2,8.542935E1,1.0398259E2,3.989263E1,1.12227844E2,3.3868267E1,6.523917E1,2.5373272E1,2.0683922E1,9.926663E1,4.796569E1,2.2105541E1,4.5170677E1,5.9450623E1,3.337297E1,2.5646633E1,1.8981087E1,2.7416046E1,4.6238144E1,3.821295E1,4.265818E1,1.2126911E1,3.5935623E1,1.1281784E1,8.667564E0,3.6500366E1,3.383823E1,7.391794E1,4.095709E1,7.864296E0,8.477403E0,8.04077E0,2.7143824E1,1.158392E1,1.4636541E1,2.9201607E1,1.0413574E1,0E0,2.5709255E1,4.7768066E1,3.733087E1,5.014445E1,2.2799885E1,2.7234726E0,7.303894E0,3.0993916E1,3.4829315E1,0E0,0E0,0E0,5.4928856E0,1.8882351E0,3.5227337E1,2.3900826E1,3.363255E1,3.3563667E1,3.3248444E1,3.6712383E1,2.474421E1,8.967075E0,0E0,0E0,0E0,0E0,0E0,0E0,0E0,0E0,0E0,0E0,0E0,0E0,0E0,0E0,0E0,0E0,0E0,0E0,0E0,0E0,0E0,0E0,0E0,0E0,0E0,0E0,0E0,0E0,0E0,0E0,0E0,0E0,0E0,0E0,0E0,0E0,0E0,0E0,0E0,0E0,0E0,0E0,0E0,0E0,0E0,0E0,0E0,0E0,0E0,0E0,0E0,0E0,0E0],"parents":[2147483647,0,0,1,1,2,2,3,3,4,4,5,5,6,6,7,7,8,8,9,9,10,10,11,11,12,12,13,13,14,14,15,15,16,16,17,17,18,18,19,19,20,20,21,21,22,22,23,23,24,24,25,25,26,26,27,27,28,28,29,29,30,30,31,31,32,32,33,33,34,34,35,35,36,36,38,38,39,39,40,40,41,41,42,42,43,43,44,44,45,45,46,46,50,50,51,51,52,52,53,53,54,54,55,55,56,56,57,57,58,58,59,59],"right_children":[2,4,6,8,10,12,14,16,18,20,22,24,26,28,30,32,34,36,38,40,42,44,46,48,50,52,54,56,58,60,62,64,66,68,70,72,74,-1,76,78,80,82,84,86,88,90,92,-1,-1,-1,94,96,98,100,102,104,106,108,110,112,-1,-1,-1,-1,-1,-1,-1,-1,-1,-1,-1,-1,-1,-1,-1,-1,-1,-1,-1,-1,-1,-1,-1,-1,-1,-1,-1,-1,-1,-1,-1,-1,-1,-1,-1,-1,-1,-1,-1,-1,-1,-1,-1,-1,-1,-1,-1,-1,-1,-1,-1,-1,-1],"split_conditions":[5.149924E1,-2.3089273E2,-1.3948944E1,1.0129555E2,-2.909181E0,-3.7944812E2,9.743671E4,2.6584333E1,6.3524E4,5.520112E2,1.650461E4,2.9326492E1,-7.0191414E1,1.2494797E2,1.3507733E2,6.087563E4,7.7814995E1,6.006702E4,6.552036E4,6.1571366E-1,3.5438545E1,6.3321365E1,9.410259E1,6.46276E4,1.836575E1,2.713534E1,-2.4842813E1,8.032772E0,6.340321E4,-3.4428543E1,9.665539E1,3.8509E1,6.645999E4,8.5024835E2,5.482343E1,5.476E4,9.001752E1,-1.784606E-1,-2.717078E2,3.2756737E1,4.5855335E1,-7.8839307E0,2.377116E4,6.416673E1,1.613126E4,5.948817E4,-4.1117767E1,1.381935E-1,-1.23748675E-1,6.632695E-2,4.8498227E2,6.704732E4,-1.3258438E2,-9.893635E1,4.373441E1,1.53307905E1,3.8582346E2,6.100401E4,5.107736E1,5.4168423E1,-1.8641521E-1,-7.7309094E-2,1.5631501E-1,1.237368E-1,-3.696208E-2,-1.2491156E-1,5.2568525E-2,-1.5678774E-1,6.71793E-2,5.2138902E-2,-1.563437E-1,7.528573E-2,-6.476273E-2,-2.8450284E-2,1.4314096E-1,1.5436552E-1,1.723194E-2,-6.946003E-2,-2.4544528E-2,-4.4821754E-2,2.071205E-2,1.2454548E-2,-4.249815E-2,9.413132E-2,-1.8117843E-3,1.689489E-1,2.904172E-2,-1.349235E-1,1.05588615E-1,4.001535E-2,-8.97213E-3,3.4523625E-2,-2.3504367E-2,-1.7883271E-1,-3.4024564E-3,-1.8068682E-1,-2.5059182E-2,1.0508484E-3,5.7931077E-2,3.2927126E-2,-4.53257E-2,8.704626E-2,-2.5485996E-3,2.8656527E-2,-1.9169902E-2,5.6449622E-2,-6.804097E-2,1.12562E-2,1.3345632E-1,5.617419E-2,-5.3399276E-2,1.2494152E-1,-1.3199985E-1],"split_indices":[247,243,64,66,218,69,230,49,245,116,5,92,69,118,73,240,29,20,160,178,74,117,211,0,47,246,109,214,125,99,161,242,0,246,87,5,86,0,93,49,247,9,230,152,0,80,143,0,0,0,161,135,59,93,6,133,249,225,204,2,0,0,0,0,0,0,0,0,0,0,0,0,0,0,0,0,0,0,0,0,0,0,0,0,0,0,0,0,0,0,0,0,0,0,0,0,0,0,0,0,0,0,0,0,0,0,0,0,0,0,0,0,0],"split_type":[0,0,0,0,0,0,0,0,0,0,0,0,0,0,0,0,0,0,0,0,0,0,0,0,0,0,0,0,0,0,0,0,0,0,0,0,0,0,0,0,0,0,0,0,0,0,0,0,0,0,0,0,0,0,0,0,0,0,0,0,0,0,0,0,0,0,0,0,0,0,0,0,0,0,0,0,0,0,0,0,0,0,0,0,0,0,0,0,0,0,0,0,0,0,0,0,0,0,0,0,0,0,0,0,0,0,0,0,0,0,0,0,0],"sum_hessian":[9.016058E3,4.7916553E3,4.2244023E3,3.4080707E2,4.450848E3,1.2700101E3,2.9543923E3,9.59841E1,2.4482295E2,2.6252146E3,1.8256334E3,2.8444878E1,1.2415653E3,2.9252007E3,2.9191679E1,5.4100014E1,4.1884087E1,1.209951E2,1.2382786E2,1.8516956E3,7.7351917E2,2.3955376E1,1.8016781E3,5.7445097E0,2.2700367E1,4.4867636E2,7.928889E2,2.5657605E3,3.5944028E2,2.3464346E1,5.7273335E0,2.1423574E1,3.267644E1,2.5938814E1,1.5945273E1,6.995772E1,5.1037376E1,9.980311E0,1.1384755E2,1.4346384E3,4.1705707E2,6.743764E2,9.914275E1,2.0710081E1,3.2452943E0,5.2175903E2,1.2799191E3,4.2459197E0,1.4985901E0,1.2483717E0,2.1451996E1,8.740668E0,4.399357E2,3.3928348E2,4.5360544E2,9.6021655E2,1.605544E3,1.9264818E2,1.667921E2,3.4958382E0,1.9968506E1,1.4982022E0,4.2291317E0,1.8178461E1,3.2451138E0,1.672228E1,1.595416E1,2.3943918E1,1.9948974E0,1.2453565E1,3.4917088E0,4.977156E1,2.018616E1,3.4894361E0,4.7547943E1,1.493196E1,9.891559E1,1.1335502E3,3.0108832E2,2.9462494E2,1.2243211E2,2.9269666E2,3.8167975E2,5.443641E1,4.4706345E1,1.8712955E1,1.9971257E0,1.9985558E0,1.2467386E0,2.3087611E2,2.908829E2,1.1260329E2,1.1673158E3,1.9453583E1,1.9984125E0,7.491529E0,1.2491397E0,1.9624393E2,2.4369177E2,4.4224167E1,2.950593E2,4.5687824E1,4.079176E2,7.802942E2,1.7992233E2,1.5845973E3,2.0946674E1,1.6469962E2,2.7948553E1,2.319706E1,1.4359505E2,1.4975764E0,1.9982619E0],"tree_param":{"num_deleted":"0","num_feature":"250","num_nodes":"113","size_leaf_vector":"1"}},{"base_weights":[8.6330296E-4,-2.242343E-1,2.0209889E-1,2.0684396E-1,-2.6214284E-1,-1.7307144E-2,2.9120243E-1,7.7814347E-1,4.866728E-2,-2.1873952E-1,-6.12847E-1,9.263614E-2,-2.3287989E-1,3.4368715E-1,-4.606905E-2,1.1528256E0,3.2217708E-1,-4.8319408E-1,1.9366416E-1,-2.8234658E-1,4.0139284E-2,-8.593096E-1,-1.8667705E-1,3.653208E-1,-5.083906E-2,-3.3605984E-1,3.9259082E-1,3.597525E-1,-1.0996104E0,2.6717177E-1,-3.7083307E-1,1.5407553E-1,1.4613636E0,1.0595499E0,-2.2140615E-2,1.6858432E-1,-1.0187913E0,4.9795157E-1,-6.448363E-2,-3.3254588E-1,3.3079635E-2,6.596756E-1,-7.773946E-2,-9.226908E-1,4.7300658E-1,1.5457705E0,-4.552025E-1,8.843627E-2,1.1263491E0,-5.333333E-1,6.01009E-2,-6.878509E-1,-1.5804407E-1,1.4943706E0,-5.620155E-2,1.3183287E-1,4.173643E-1,-1.3215758E0,5.911387E-1,1.2406885E-1,1.4744632E0,-5.0414824E-1,8.0570084E-1,1.306926E-1,-9.6853934E-2,1.5433328E-1,-2.7890412E-2,-5.4864477E-2,1.3622907E-1,5.5388607E-2,-7.178442E-2,6.853569E-2,-3.134342E-2,-1.4374736E-1,-1.5862841E-3,6.610219E-2,-1.1916832E-1,-9.053104E-2,1.6960075E-2,-3.4402058E-2,7.738345E-2,3.1619977E-2,-2.1794554E-2,-4.2704817E-2,8.425552E-2,-3.212684E-2,3.5842743E-2,-1.075047E-1,-3.1171748E-2,1.2178506E-1,-9.626534E-2,-6.723466E-2,1.715968E-1,-8.332083E-2,2.1122342E-2,7.509427E-2,-2.317325E-3,-3.834573E-2,1.2638792E-1,-7.949867E-2,1.0825778E-2,-1.436569E-2,4.6010587E-2,-5.0268024E-2,-1.812836E-1,-5.8520686E-2,1.453757E-2,-6.739366E-2,1.683176E-1,6.10211E-2,-5.1333856E-2,-3.8044576E-2,2.1629293E-2,3.9628755E-2,1.1175033E-1,8.673598E-2,-1.4719659E-1,1.2635009E-1,-6.3989274E-2,-3.6718783E-3,1.16604164E-1,1.5855184E-1,-3.415751E-2,-6.276537E-2,7.0640616E-2,1.1551606E-1,-9.047887E-2],"categories":[],"categories_nodes":[],"categories_segments":[],"categories_sizes":[],"default_left":[0,0,0,0,0,0,0,0,0,0,0,0,0,0,0,0,0,0,0,0,0,0,0,0,0,0,0,0,0,0,0,0,0,0,0,0,0,0,0,0,0,0,0,0,0,0,0,0,0,0,0,0,0,0,0,0,0,0,0,0,0,0,0,0,0,0,0,0,0,0,0,0,0,0,0,0,0,0,0,0,0,0,0,0,0,0,0,0,0,0,0,0,0,0,0,0,0,0,0,0,0,0,0,0,0,0,0,0,0,0,0,0,0,0,0,0,0,0,0,0,0,0,0,0,0,0,0],"id":2,"left_children":[1,3,5,7,9,11,13,15,17,19,21,23,25,27,29,31,33,35,37,39,41,43,45,47,49,51,53,55,57,59,61,63,65,67,69,71,73,75,77,79,81,83,85,87,89,91,93,95,97,99,101,103,105,107,109,111,113,115,117,119,121,123,125,-1,-1,-1,-1,-1,-1,-1,-1,-1,-1,-1,-1,-1,-1,-1,-1,-1,-1,-1,-1,-1,-1,-1,-1,-1,-1,-1,-1,-1,-1,-1,-1,-1,-1,-1,-1,-1,-1,-1,-1,-1,-1,-1,-1,-1,-1,-1,-1,-1,-1,-1,-1,-1,-1,-1,-1,-1,-1,-1,-1,-1,-1,-1,-1],"loss_changes":[4.0700253E2,6.936012E1,9.2749176E1,3.0991104E1,5.921115E1,3.251764E1,5.9738983E1,1.2337223E1,2.0914034E1,5.716504E1,4.4879974E1,3.5571003E1,3.0036236E1,6.809436E1,4.6407326E1,1.2238308E1,8.894957E0,2.0461454E1,1.6752455E1,4.413179E1,5.011172E1,2.3355515E1,7.4392845E1,6.594193E1,3.1951267E1,2.4834381E1,3.2757027E1,3.7870636E1,1.2935932E1,3.9950348E1,3.5526917E1,1.5066758E1,4.821472E0,6.172599E0,1.0335705E1,6.959106E0,1.3433689E1,2.7738173E1,2.2994236E1,3.078537E1,2.7322802E1,2.2157879E1,6.1381855E1,2.381366E1,1.5059304E1,9.264507E0,3.491896E1,1.7089819E1,1.7827957E1,1.881731E1,3.9655197E1,2.6904896E1,3.453103E1,8.978756E0,1.4910322E1,2.536031E1,3.3572052E1,1.0803024E1,4.491307E0,3.501976E1,5.487774E0,3.0605305E1,1.4897695E1,0E0,0E0,0E0,0E0,0E0,0E0,0E0,0E0,0E0,0E0,0E0,0E0,0E0,0E0,0E0,0E0,0E0,0E0,0E0,0E0,0E0,0E0,0E0,0E0,0E0,0E0,0E0,0E0,0E0,0E0,0E0,0E0,0E0,0E0,0E0,0E0,0E0,0E0,0E0,0E0,0E0,0E0,0E0,0E0,0E0,0E0,0E0,0E0,0E0,0E0,0E0,0E0,0E0,0E0,0E0,0E0,0E0,0E0,0E0,0E0,0E0,0E0,0E0,0E0],"parents":[2147483647,0,0,1,1,2,2,3,3,4,4,5,5,6,6,7,7,8,8,9,9,10,10,11,11,12,12,13,13,14,14,15,15,16,16,17,17,18,18,19,19,20,20,21,21,22,22,23,23,24,24,25,25,26,26,27,27,28,28,29,29,30,30,31,31,32,32,33,33,34,34,35,35,36,36,37,37,38,38,39,39,40,40,41,41,42,42,43,43,44,44,45,45,46,46,47,47,48,48,49,49,50,50,51,51,52,52,53,53,54,54,55,55,56,56,57,57,58,58,59,59,60,60,61,61,62,62],"right_children":[2,4,6,8,10,12,14,16,18,20,22,24,26,28,30,32,34,36,38,40,42,44,46,48,50,52,54,56,58,60,62,64,66,68,70,72,74,76,78,80,82,84,86,88,90,92,94,96,98,100,102,104,106,108,110,112,114,116,118,120,122,124,126,-1,-1,-1,-1,-1,-1,-1,-1,-1,-1,-1,-1,-1,-1,-1,-1,-1,-1,-1,-1,-1,-1,-1,-1,-1,-1,-1,-1,-1,-1,-1,-1,-1,-1,-1,-1,-1,-1,-1,-1,-1,-1,-1,-1,-1,-1,-1,-1,-1,-1,-1,-1,-1,-1,-1,-1,-1,-1,-1,-1,-1,-1,-1,-1],"split_conditions":[5.490883E-1,-2.3278282E2,-1.4784969E1,-1.8667747E2,6.791062E4,4.1011334E2,1.2494797E2,-3.188723E2,8.341058E1,3.1959532E1,7.477109E4,5.6622E4,1.9123671E3,9.548E4,6.315348E4,5.529999E4,-1.42826E2,1.7907003E1,6.3524E4,1.3553036E3,2.339432E4,5.317849E2,8.769453E4,4.529322E4,2.5022703E1,2.069319E4,-6.0178017E1,5.149924E1,1.4706963E2,6.0608E4,4.1457608E2,5.476023E4,-3.014896E2,5.428757E4,3.488903E1,-3.233458E2,8.1559364E1,6.494567E1,6.789999E4,6.764799E4,-2.1859882E1,4.616613E0,6.132388E4,-1.239766E1,6.986888E4,-2.0575616E2,-6.233776E1,-7.089517E1,-1.7493333E2,-2.3366053E1,-2.269357E1,2.020174E4,-1.5810445E1,4.0261642E1,1.9011E4,-1.2937058E1,7.278601E4,4.726192E1,6.514907E1,7.841247E1,4.0957755E2,9.458001E4,7.693045E1,1.306926E-1,-9.6853934E-2,1.5433328E-1,-2.7890412E-2,-5.4864477E-2,1.3622907E-1,5.5388607E-2,-7.178442E-2,6.853569E-2,-3.134342E-2,-1.4374736E-1,-1.5862841E-3,6.610219E-2,-1.1916832E-1,-9.053104E-2,1.6960075E-2,-3.4402058E-2,7.738345E-2,3.1619977E-2,-2.1794554E-2,-4.2704817E-2,8.425552E-2,-3.212684E-2,3.5842743E-2,-1.075047E-1,-3.1171748E-2,1.2178506E-1,-9.626534E-2,-6.723466E-2,1.715968E-1,-8.332083E-2,2.1122342E-2,7.509427E-2,-2.317325E-3,-3.834573E-2,1.2638792E-1,-7.949867E-2,1.0825778E-2,-1.436569E-2,4.6010587E-2,-5.0268024E-2,-1.812836E-1,-5.8520686E-2,1.453757E-2,-6.739366E-2,1.683176E-1,6.10211E-2,-5.1333856E-2,-3.8044576E-2,2.1629293E-2,3.9628755E-2,1.1175033E-1,8.673598E-2,-1.4719659E-1,1.2635009E-1,-6.3989274E-2,-3.6718783E-3,1.16604164E-1,1.5855184E-1,-3.415751E-2,-6.276537E-2,7.0640616E-2,1.1551606E-1,-9.047887E-2],"split_indices":[248,248,59,129,15,11,118,223,86,74,0,245,181,125,110,150,9,59,245,226,0,116,45,10,248,225,9,247,94,0,208,10,239,135,72,243,23,112,120,60,209,9,245,249,115,3,234,84,123,88,9,220,143,157,135,8,225,206,52,47,196,75,27,0,0,0,0,0,0,0,0,0,0,0,0,0,0,0,0,0,0,0,0,0,0,0,0,0,0,0,0,0,0,0,0,0,0,0,0,0,0,0,0,0,0,0,0,0,0,0,0,0,0,0,0,0,0,0,0,0,0,0,0,0,0,0,0],"split_type":[0,0,0,0,0,0,0,0,0,0,0,0,0,0,0,0,0,0,0,0,0,0,0,0,0,0,0,0,0,0,0,0,0,0,0,0,0,0,0,0,0,0,0,0,0,0,0,0,0,0,0,0,0,0,0,0,0,0,0,0,0,0,0,0,0,0,0,0,0,0,0,0,0,0,0,0,0,0,0,0,0,0,0,0,0,0,0,0,0,0,0,0,0,0,0,0,0,0,0,0,0,0,0,0,0,0,0,0,0,0,0,0,0,0,0,0,0,0,0,0,0,0,0,0,0,0,0],"sum_hessian":[8.983068E3,4.2400874E3,4.742981E3,3.4236902E2,3.8977185E3,1.3700972E3,3.3728835E3,7.338805E1,2.68981E2,3.4699053E3,4.2781332E2,9.077236E2,4.623737E2,2.9186733E3,4.5421036E2,3.944583E1,3.3942215E1,5.712157E1,2.118594E2,2.7854292E3,6.844762E2,2.7041217E2,1.5740115E2,3.1241354E2,5.9531E2,3.9729684E2,6.5076836E1,2.8872856E3,3.1387682E1,2.3129726E2,2.2291309E2,9.663632E0,2.97822E1,1.0143079E1,2.3799135E1,2.6075293E1,3.1046278E1,9.681335E1,1.1504606E2,2.4029512E3,3.8247803E2,1.0868153E2,5.757947E2,2.5842575E2,1.19864235E1,2.0484516E1,1.3691663E2,2.2988925E2,8.2524284E1,1.1057886E2,4.8473117E2,1.3252994E2,2.647669E2,1.8161303E1,4.691553E1,5.832322E2,2.3040535E3,2.7938238E1,3.4494448E0,2.0777231E2,2.3524944E1,2.0073854E2,2.2174545E1,4.6866136E0,4.977019E0,2.8550589E1,1.2316102E0,1.4782386E0,8.664841E0,1.3130898E1,1.0668237E1,1.2380403E1,1.3694891E1,2.1597088E1,9.449189E0,8.884728E1,7.966066E0,2.4429235E1,9.061682E1,2.3789668E3,2.398417E1,1.7962611E2,2.0285193E2,1.5462677E1,9.321886E1,3.6966162E2,2.0613303E2,2.062375E2,5.2188263E1,7.9918394E0,3.994584E0,1.249526E0,1.9234991E1,8.7203415E1,4.9713215E1,3.2318798E1,1.9757045E2,6.7403665E0,7.578391E1,7.837636E1,3.220249E1,3.2156873E2,1.6316243E2,1.1504119E2,1.7488754E1,1.0957519E2,1.5519171E2,1.2489092E0,1.6912394E1,1.8952213E1,2.7963318E1,8.205239E1,5.011798E2,2.2382402E3,6.581326E1,1.4896026E0,2.6448635E1,2.2138906E0,1.2355542E0,1.8083264E2,2.6939667E1,2.2288862E1,1.2360829E0,1.8259138E2,1.8147161E1,1.8682333E1,3.4922128E0],"tree_param":{"num_deleted":"0","num_feature":"250","num_nodes":"127","size_leaf_vector":"1"}},{"base_weights":[2.9836695E-3,-1.7677675E-1,2.0931828E-1,3.7679115E-1,-1.9749883E-1,1.13424035E-2,3.066365E-1,7.7403575E-1,-3.2623905E-1,-2.977605E-1,-5.2237928E-2,-1.3233469E0,2.3997262E-2,3.3488777E-1,-4.3652752E-1,2.4467194E-1,1.0632112E0,-8.039819E-1,3.3470002E-1,-3.9263535E-1,-4.24729E-2,-9.7297103E-4,-3.6882403E-1,2.5817027E-2,-1.5909453E-1,2.4168304E-1,-7.935048E-2,1.3616025E0,3.2188004E-1,-1.6802308E-1,-1.3030202E0,5.814014E-1,-7.6401114E-1,1.1364183E0,-8.340559E-2,9.270611E-1,-1.0392381E0,-7.5774896E-1,6.272196E-1,-1.2701056E0,-3.6625051E-1,4.3560684E-1,-1.7533168E-1,1.0812923E0,-1.6592056E-2,2.147518E-1,-5.55345E-1,-2.185541E-2,4.909789E-1,-1.2338618E-1,5.560931E-1,1.4367772E0,-3.306839E-2,1.71232E-1,3.9756498E-1,-6.746203E-1,5.043632E-1,-1.5344516E0,-2.0528445E-2,7.832595E-2,-8.859604E-2,-1.5244655E-1,1.7140856E-2,6.921789E-2,1.3223529E-1,1.4210501E-1,-3.127506E-2,-1.6043231E-1,-2.5708253E-2,-1.3440375E-1,4.7831755E-2,9.537462E-2,-7.732766E-2,-2.3846126E-3,-1.4618821E-1,-4.2916156E-2,-5.475941E-3,-2.8997008E-2,8.207374E-2,7.36753E-3,-4.323165E-2,-1.2008426E-1,1.2645416E-1,-1.2389471E-2,1.3521661E-2,-1.6441458E-1,3.644439E-2,-1.3223378E-1,-3.976233E-2,-5.2414443E-2,2.6783124E-2,1.1829807E-2,7.846234E-2,3.2520413E-2,-1.9598491E-2,7.164798E-2,-1.3759491E-1,1.1666091E-2,1.5082732E-1,6.0831167E-2,9.792882E-3,4.7836624E-2,1.1003478E-2,-9.731051E-2,3.819818E-2,8.4398024E-2,-4.224134E-2,1.9513575E-2,-1.6556731E-1,1.2679474E-1,-1.20467976E-1],"categories":[],"categories_nodes":[],"categories_segments":[],"categories_sizes":[],"default_left":[0,0,0,0,0,0,0,0,0,0,0,0,0,0,0,0,0,0,0,0,0,0,0,0,0,0,0,0,0,0,0,0,0,0,0,0,0,0,0,0,0,0,0,0,0,0,0,0,0,0,0,0,0,0,0,0,0,0,0,0,0,0,0,0,0,0,0,0,0,0,0,0,0,0,0,0,0,0,0,0,0,0,0,0,0,0,0,0,0,0,0,0,0,0,0,0,0,0,0,0,0,0,0,0,0,0,0,0,0,0,0],"id":3,"left_children":[1,3,5,7,9,11,13,15,17,19,21,23,25,27,29,31,33,35,37,39,41,43,45,-1,-1,47,49,51,53,55,57,59,61,63,-1,65,67,69,71,73,75,77,79,81,83,85,87,89,91,93,95,97,-1,99,101,103,105,107,109,-1,-1,-1,-1,-1,-1,-1,-1,-1,-1,-1,-1,-1,-1,-1,-1,-1,-1,-1,-1,-1,-1,-1,-1,-1,-1,-1,-1,-1,-1,-1,-1,-1,-1,-1,-1,-1,-1,-1,-1,-1,-1,-1,-1,-1,-1,-1,-1,-1,-1,-1,-1],"loss_changes":[3.3341678E2,5.518109E1,8.063214E1,4.8758453E1,6.743489E1,2.334615E1,5.9056915E1,1.6773613E1,2.029169E1,6.6343216E1,3.0713573E1,5.9051247E0,3.0803614E1,3.567035E1,2.378977E1,1.4237564E1,1.09015045E1,1.6072138E1,9.202743E0,4.577771E1,4.729926E1,2.756653E1,2.8826553E1,0E0,0E0,2.8967726E1,2.6053097E1,4.7389183E0,3.0388245E1,2.7566463E1,7.170353E0,9.880277E0,7.798727E0,4.819153E0,0E0,3.4867153E0,1.4231823E1,5.151304E0,1.0839016E1,1.3803635E1,3.800235E1,4.549816E1,3.730668E1,1.1220846E1,2.6202227E1,1.857463E1,2.3684914E1,3.1455267E1,2.4698627E1,2.8372501E1,1.9690685E1,2.8704834E0,0E0,2.8615398E1,4.1236633E1,1.4883034E1,1.1346597E1,4.6298637E0,8.733294E0,0E0,0E0,0E0,0E0,0E0,0E0,0E0,0E0,0E0,0E0,0E0,0E0,0E0,0E0,0E0,0E0,0E0,0E0,0E0,0E0,0E0,0E0,0E0,0E0,0E0,0E0,0E0,0E0,0E0,0E0,0E0,0E0,0E0,0E0,0E0,0E0,0E0,0E0,0E0,0E0,0E0,0E0,0E0,0E0,0E0,0E0,0E0,0E0,0E0,0E0,0E0,0E0],"parents":[2147483647,0,0,1,1,2,2,3,3,4,4,5,5,6,6,7,7,8,8,9,9,10,10,11,11,12,12,13,13,14,14,15,15,16,16,17,17,18,18,19,19,20,20,21,21,22,22,25,25,26,26,27,27,28,28,29,29,30,30,31,31,32,32,33,33,35,35,36,36,37,37,38,38,39,39,40,40,41,41,42,42,43,43,44,44,45,45,46,46,47,47,48,48,49,49,50,50,51,51,53,53,54,54,55,55,56,56,57,57,58,58],"right_children":[2,4,6,8,10,12,14,16,18,20,22,24,26,28,30,32,34,36,38,40,42,44,46,-1,-1,48,50,52,54,56,58,60,62,64,-1,66,68,70,72,74,76,78,80,82,84,86,88,90,92,94,96,98,-1,100,102,104,106,108,110,-1,-1,-1,-1,-1,-1,-1,-1,-1,-1,-1,-1,-1,-1,-1,-1,-1,-1,-1,-1,-1,-1,-1,-1,-1,-1,-1,-1,-1,-1,-1,-1,-1,-1,-1,-1,-1,-1,-1,-1,-1,-1,-1,-1,-1,-1,-1,-1,-1,-1,-1,-1],"split_conditions":[5.149924E1,-3.2442706E2,-1.1358987E1,1.9477152E1,-4.2591143E0,-5.1829407E2,8.780864E4,1.2149997E2,2.2588358E2,6.046732E2,6.749353E4,4.741007E1,-6.943311E1,1.655819E4,2.2693979E2,3.4497047E1,9.739759E4,3.9554274E0,2.6343704E1,1.962855E4,1.90275E4,1.65027E4,6.983693E1,2.5817027E-2,-1.5909453E-1,-1.3258438E2,7.823389E1,6.715738E1,8.356908E0,5.8384377E1,7.440268E1,-1.3348708E2,4.5335876E1,5.871602E4,-8.340559E-2,1.7348477E2,5.9391163E1,2.906048E2,4.0540016E1,1.65058E4,3.911502E2,9.634062E2,-4.2235176E1,-4.3493233E0,3.691999E4,6.779999E4,6.829001E4,-5.264768E1,1.3474353E2,5.426584E1,9.275392E2,3.5065152E2,-3.306839E-2,-6.5634303E0,1.0319714E2,5.8889023E1,9.743671E4,-6.332713E1,3.1402118E2,7.832595E-2,-8.859604E-2,-1.5244655E-1,1.7140856E-2,6.921789E-2,1.3223529E-1,1.4210501E-1,-3.127506E-2,-1.6043231E-1,-2.5708253E-2,-1.3440375E-1,4.7831755E-2,9.537462E-2,-7.732766E-2,-2.3846126E-3,-1.4618821E-1,-4.2916156E-2,-5.475941E-3,-2.8997008E-2,8.207374E-2,7.36753E-3,-4.323165E-2,-1.2008426E-1,1.2645416E-1,-1.2389471E-2,1.3521661E-2,-1.6441458E-1,3.644439E-2,-1.3223378E-1,-3.976233E-2,-5.2414443E-2,2.6783124E-2,1.1829807E-2,7.846234E-2,3.2520413E-2,-1.9598491E-2,7.164798E-2,-1.3759491E-1,1.1666091E-2,1.5082732E-1,6.0831167E-2,9.792882E-3,4.7836624E-2,1.1003478E-2,-9.731051E-2,3.819818E-2,8.4398024E-2,-4.224134E-2,1.9513575E-2,-1.6556731E-1,1.2679474E-1,-1.20467976E-1],"split_indices":[247,248,63,119,218,34,130,11,136,116,50,217,54,165,144,232,245,53,227,195,0,10,196,0,0,59,9,152,204,37,17,213,32,90,0,126,37,76,247,0,241,56,248,203,95,195,75,199,191,41,156,96,0,94,113,82,230,23,3,0,0,0,0,0,0,0,0,0,0,0,0,0,0,0,0,0,0,0,0,0,0,0,0,0,0,0,0,0,0,0,0,0,0,0,0,0,0,0,0,0,0,0,0,0,0,0,0,0,0,0,0],"split_type":[0,0,0,0,0,0,0,0,0,0,0,0,0,0,0,0,0,0,0,0,0,0,0,0,0,0,0,0,0,0,0,0,0,0,0,0,0,0,0,0,0,0,0,0,0,0,0,0,0,0,0,0,0,0,0,0,0,0,0,0,0,0,0,0,0,0,0,0,0,0,0,0,0,0,0,0,0,0,0,0,0,0,0,0,0,0,0,0,0,0,0,0,0,0,0,0,0,0,0,0,0,0,0,0,0,0,0,0,0,0,0],"sum_hessian":[8.987207E3,4.8029663E3,4.1842407E3,1.7268524E2,4.6302812E3,1.379342E3,2.8048987E3,1.1027421E2,6.2411026E1,2.7388372E3,1.891444E3,1.1982601E1,1.3673595E3,2.702705E3,1.021935E2,3.961013E1,7.066408E1,3.6100372E1,2.6310652E1,1.99637E3,7.424673E2,1.6287094E3,2.627347E2,1.7391847E0,1.0243416E1,4.3975214E2,9.2760736E2,3.251589E1,2.6701892E3,7.892922E1,2.3264278E1,3.0014101E1,9.596027E0,6.842489E1,2.2391891E0,3.9673674E0,3.2133007E1,5.221167E0,2.1089485E1,5.6900883E1,1.9394691E3,1.6096635E2,5.815009E2,2.2200222E1,1.606509E3,6.359889E1,1.9913582E2,2.142131E2,2.2553903E2,8.6824457E2,5.9362785E1,3.1277466E1,1.2384218E0,8.9399274E2,1.7761965E3,4.501224E1,3.3916977E1,1.9541471E1,3.7228065E0,2.6794342E1,3.2197587E0,4.94569E0,4.6503377E0,2.15824E1,4.684249E1,2.7324653E0,1.2349023E0,1.8044918E1,1.4088089E1,3.4821637E0,1.7390034E0,1.7360798E1,3.7286875E0,7.7382436E0,4.916264E1,1.6132646E3,3.2620447E2,5.5899708E1,1.0506665E2,2.9569693E2,2.85804E2,1.2373666E0,2.0962854E1,9.413325E2,6.651766E2,3.9957368E0,5.960315E1,3.2705685E1,1.6643013E2,7.8058235E1,1.3615488E2,1.0001155E2,1.2552747E2,1.2045697E2,7.477876E2,5.5393505E1,3.9692807E0,1.7421279E0,2.9535337E1,1.2735048E2,7.666423E2,1.3860323E3,3.9016415E2,3.515902E1,9.853225E0,2.488662E1,9.030358E0,1.2399603E0,1.8301512E1,1.7489778E0,1.9738288E0],"tree_param":{"num_deleted":"0","num_feature":"250","num_nodes":"111","size_leaf_vector":"1"}},{"base_weights":[1.8656952E-4,-2.0426697E-1,1.623591E-1,2.0617256E-1,-2.4337023E-1,-2.8969212E-2,2.341251E-1,-1.10840246E-1,4.9464273E-1,-3.045423E-1,-5.7304613E-2,1.7149532E-1,-1.5455823E-1,2.5544494E-1,-4.0216336E-1,7.874156E-1,-2.3265801E-1,7.2001475E-1,-6.343079E-2,-4.934816E-1,-2.1771255E-1,3.579371E-1,-1.8807583E-1,-8.953793E-1,2.4052532E-1,-2.2157833E-1,3.5085058E-1,1.0626067E0,2.432034E-1,2.3588933E-1,-7.833701E-1,-4.8206484E-1,1.3520182E0,-4.3750456E-1,2.4303415E-1,2.8608963E-1,9.2175084E-1,2.9950914E-1,-1.0848857E0,-6.5430117E-1,-5.3399593E-2,-1.3523263E-1,-5.5825454E-1,-8.349548E-1,5.062736E-1,-1.2968225E0,-1.427498E-1,9.7410053E-1,-1.1727381E0,-1.3238821E0,2.8373194E-1,-1.6796489E-1,-8.2771534E-1,6.9397575E-1,-2.3530695E-1,1.1413708E0,-1.20351724E-1,4.1657493E-1,1.797993E-1,-3.328501E-1,1.0627795E0,-1.5707487E0,-3.4583086E-1,1.0542945E-1,-1.0894513E-1,1.5264647E-1,-2.5943449E-2,-7.1183555E-3,-8.112348E-2,1.0260723E-1,-6.1581828E-2,7.537728E-2,-3.0448778E-2,6.345427E-2,1.3241331E-1,1.0590398E-1,-4.8136357E-3,-1.545323E-1,2.6718808E-2,-6.1948644E-3,-7.913698E-2,1.4845068E-2,-8.2984574E-2,-3.920208E-2,-1.662666E-3,-8.430888E-2,-1.1249493E-2,-1.3458043E-1,6.162249E-2,-1.2933743E-1,5.562348E-2,-1.5462314E-1,1.8517092E-2,8.46399E-2,-2.2113338E-2,1.394364E-1,-1.3181634E-2,-1.4307307E-1,1.2844211E-1,-1.5680204E-1,3.755825E-2,-5.4489054E-2,3.540021E-2,-3.822541E-2,-3.2099392E-3,6.1105557E-2,-1.1083024E-1,1.6828688E-2,1.23483695E-1,9.2361145E-2,-6.2262435E-2,1.24387756E-1,-2.1654977E-2,1.01128176E-1,3.3251297E-2,1.5247421E-3,2.5402704E-2,1.1594261E-1,-5.9471477E-2,1.2389652E-1,-7.808078E-2,-1.7441152E-1,-4.7229785E-2,5.765957E-3,-1.527472E-1],"categories":[],"categories_nodes":[],"categories_segments":[],"categories_sizes":[],"default_left":[0,0,0,0,0,0,0,0,0,0,0,0,0,0,0,0,0,0,0,0,0,0,0,0,0,0,0,0,0,0,0,0,0,0,0,0,0,0,0,0,0,0,0,0,0,0,0,0,0,0,0,0,0,0,0,0,0,0,0,0,0,0,0,0,0,0,0,0,0,0,0,0,0,0,0,0,0,0,0,0,0,0,0,0,0,0,0,0,0,0,0,0,0,0,0,0,0,0,0,0,0,0,0,0,0,0,0,0,0,0,0,0,0,0,0,0,0,0,0,0,0,0,0,0,0],"id":4,"left_children":[1,3,5,7,9,11,13,15,17,19,21,23,25,27,29,31,33,35,37,39,41,43,45,47,49,51,53,55,57,59,61,63,65,67,69,71,73,75,77,79,81,83,85,87,89,91,93,95,97,99,101,103,105,107,109,111,-1,113,115,117,119,121,123,-1,-1,-1,-1,-1,-1,-1,-1,-1,-1,-1,-1,-1,-1,-1,-1,-1,-1,-1,-1,-1,-1,-1,-1,-1,-1,-1,-1,-1,-1,-1,-1,-1,-1,-1,-1,-1,-1,-1,-1,-1,-1,-1,-1,-1,-1,-1,-1,-1,-1,-1,-1,-1,-1,-1,-1,-1,-1,-1,-1,-1,-1],"loss_changes":[2.970055E2,6.3643112E1,6.859694E1,3.1622896E1,4.1163773E1,3.4354137E1,4.9384125E1,1.8268755E1,2.2800632E1,4.4559372E1,4.8744843E1,3.8928688E1,2.8491161E1,3.4479477E1,2.8926249E1,1.4962395E1,1.4363771E1,1.1024857E1,1.9959982E1,6.0581375E1,5.236979E1,3.847406E1,3.410829E1,1.7816261E1,3.3800793E1,2.3948963E1,1.9993828E1,1.0695374E1,3.8007782E1,2.1499168E1,2.5020317E1,7.5720015E0,4.3547726E0,1.3992826E1,3.0682798E1,1.1933881E1,9.281136E0,1.0576463E1,9.1917515E0,5.0872833E1,3.6218548E1,4.581379E1,4.6088387E1,1.8740292E1,1.7971859E1,1.0146709E1,5.1103886E1,2.3685951E0,1.987685E1,6.176447E0,2.8260925E1,1.9851246E1,2.4891415E1,1.7546894E1,1.725178E1,7.366234E0,0E0,4.600418E1,3.1001953E1,1.1397304E1,6.9964447E0,4.169983E0,2.344078E1,0E0,0E0,0E0,0E0,0E0,0E0,0E0,0E0,0E0,0E0,0E0,0E0,0E0,0E0,0E0,0E0,0E0,0E0,0E0,0E0,0E0,0E0,0E0,0E0,0E0,0E0,0E0,0E0,0E0,0E0,0E0,0E0,0E0,0E0,0E0,0E0,0E0,0E0,0E0,0E0,0E0,0E0,0E0,0E0,0E0,0E0,0E0,0E0,0E0,0E0,0E0,0E0,0E0,0E0,0E0,0E0,0E0,0E0,0E0,0E0,0E0,0E0],"parents":[2147483647,0,0,1,1,2,2,3,3,4,4,5,5,6,6,7,7,8,8,9,9,10,10,11,11,12,12,13,13,14,14,15,15,16,16,17,17,18,18,19,19,20,20,21,21,22,22,23,23,24,24,25,25,26,26,27,27,28,28,29,29,30,30,31,31,32,32,33,33,34,34,35,35,36,36,37,37,38,38,39,39,40,40,41,41,42,42,43,43,44,44,45,45,46,46,47,47,48,48,49,49,50,50,51,51,52,52,53,53,54,54,55,55,57,57,58,58,59,59,60,60,61,61,62,62],"right_children":[2,4,6,8,10,12,14,16,18,20,22,24,26,28,30,32,34,36,38,40,42,44,46,48,50,52,54,56,58,60,62,64,66,68,70,72,74,76,78,80,82,84,86,88,90,92,94,96,98,100,102,104,106,108,110,112,-1,114,116,118,120,122,124,-1,-1,-1,-1,-1,-1,-1,-1,-1,-1,-1,-1,-1,-1,-1,-1,-1,-1,-1,-1,-1,-1,-1,-1,-1,-1,-1,-1,-1,-1,-1,-1,-1,-1,-1,-1,-1,-1,-1,-1,-1,-1,-1,-1,-1,-1,-1,-1,-1,-1,-1,-1,-1,-1,-1,-1,-1,-1,-1,-1,-1,-1],"split_conditions":[-3.2213016E0,-2.3278282E2,-1.7515474E1,1.7852618E2,6.4237024E2,-7.1417046E1,8.8532E4,-2.275765E2,5.371651E1,3.125487E4,1.893277E4,-3.8614374E2,6.404056E1,1.655646E4,6.237414E1,2.1265879E1,-3.4231255E1,2.0807582E2,5.31695E2,8.608462E0,6.806E4,6.068618E2,-1.2806177E2,-5.5017615E2,2.878589E1,6.936802E4,6.61255E2,7.065341E1,8.807477E1,6.0543552E1,9.1832E4,1.1020621E2,-2.6021722E2,-3.2442706E2,4.149988E1,3.7490208E1,-1.0230468E2,6.274009E4,2.3418861E2,-4.8610554E1,2.859614E4,-3.2164394E1,7.473676E4,4.5956608E1,-1.4997145E2,3.8340435E1,-5.772279E1,4.3887016E1,6.3024666E1,-1.0297956E1,-3.046053E2,1.797865E1,-2.079781E1,1.7380408E2,1.844067E4,6.9951065E1,-1.20351724E-1,2.739662E4,5.380048E1,9.079639E4,2.5830515E2,7.172438E1,2.721181E2,1.0542945E-1,-1.0894513E-1,1.5264647E-1,-2.5943449E-2,-7.1183555E-3,-8.112348E-2,1.0260723E-1,-6.1581828E-2,7.537728E-2,-3.0448778E-2,6.345427E-2,1.3241331E-1,1.0590398E-1,-4.8136357E-3,-1.545323E-1,2.6718808E-2,-6.1948644E-3,-7.913698E-2,1.4845068E-2,-8.2984574E-2,-3.920208E-2,-1.662666E-3,-8.430888E-2,-1.1249493E-2,-1.3458043E-1,6.162249E-2,-1.2933743E-1,5.562348E-2,-1.5462314E-1,1.8517092E-2,8.46399E-2,-2.2113338E-2,1.394364E-1,-1.3181634E-2,-1.4307307E-1,1.2844211E-1,-1.5680204E-1,3.755825E-2,-5.4489054E-2,3.540021E-2,-3.822541E-2,-3.2099392E-3,6.1105557E-2,-1.1083024E-1,1.6828688E-2,1.23483695E-1,9.2361145E-2,-6.2262435E-2,1.24387756E-1,-2.1654977E-2,1.01128176E-1,3.3251297E-2,1.5247421E-3,2.5402704E-2,1.1594261E-1,-5.9471477E-2,1.2389652E-1,-7.808078E-2,-1.7441152E-1,-4.7229785E-2,5.765957E-3,-1.527472E-1],"split_indices":[248,248,49,81,106,49,105,154,87,245,245,4,142,130,224,152,173,56,31,123,180,56,13,108,236,5,126,127,11,57,5,101,243,248,38,202,148,10,93,238,25,8,120,152,4,17,64,122,144,98,114,248,208,131,45,172,0,10,232,10,33,162,178,0,0,0,0,0,0,0,0,0,0,0,0,0,0,0,0,0,0,0,0,0,0,0,0,0,0,0,0,0,0,0,0,0,0,0,0,0,0,0,0,0,0,0,0,0,0,0,0,0,0,0,0,0,0,0,0,0,0,0,0,0,0],"split_type":[0,0,0,0,0,0,0,0,0,0,0,0,0,0,0,0,0,0,0,0,0,0,0,0,0,0,0,0,0,0,0,0,0,0,0,0,0,0,0,0,0,0,0,0,0,0,0,0,0,0,0,0,0,0,0,0,0,0,0,0,0,0,0,0,0,0,0,0,0,0,0,0,0,0,0,0,0,0,0,0,0,0,0,0,0,0,0,0,0,0,0,0,0,0,0,0,0,0,0,0,0,0,0,0,0,0,0,0,0,0,0,0,0,0,0,0,0,0,0,0,0,0,0,0,0],"sum_hessian":[8.955618E3,3.9612927E3,4.9943257E3,3.4419955E2,3.6170933E3,1.3624984E3,3.6318274E3,1.6428032E2,1.7991924E2,2.7216653E3,8.9542786E2,5.246651E2,8.3783325E2,3.5146616E3,1.17165764E2,1.8965948E1,1.4531438E2,1.27955574E2,5.1963665E1,8.5547974E2,1.8661857E3,2.1404077E2,6.813871E2,3.1156918E1,4.935082E2,7.402354E2,9.759786E1,5.12257E1,3.463436E3,4.3962994E1,7.320277E1,5.8834643E0,1.3082484E1,1.0162993E2,4.3684452E1,4.1375946E1,8.657963E1,3.88621E1,1.3101567E1,6.2617084E2,2.2930888E2,1.5034453E3,3.6274026E2,2.3160446E1,1.9088033E2,2.5676954E1,6.5571014E2,3.7007456E0,2.7456173E1,1.2467011E1,4.810412E2,6.812548E2,5.8980568E1,6.144514E1,3.6152725E1,4.9984707E1,1.2409936E0,9.25952E2,2.537484E3,2.6401424E1,1.756157E1,2.5222813E1,4.7979954E1,1.4584885E0,4.424976E0,1.1852179E1,1.2303061E0,5.1924904E1,4.970502E1,2.2748945E1,2.0935507E1,2.2936226E1,1.8439718E1,5.2023685E1,3.4555946E1,1.1559893E1,2.7302204E1,9.66672E0,3.4348469E0,1.1793931E2,5.0823157E2,1.826379E2,4.6670994E1,4.74286E2,1.0291593E3,2.2077606E2,1.4196419E2,1.7183914E1,5.9765306E0,4.4837527E0,1.8639658E2,2.1941084E1,3.7358716E0,4.74261E1,6.0828406E2,2.492674E0,1.2080715E0,2.5225336E1,2.2308369E0,1.0968643E1,1.498368E0,3.7076992E1,4.439642E2,2.6363388E2,4.1762094E2,9.433005E0,4.954756E1,3.1824518E1,2.9620623E1,8.709077E0,2.744365E1,4.655439E1,3.430316E0,1.1330832E2,8.126437E2,7.891844E2,1.7482996E3,3.429621E0,2.2971802E1,1.6329018E1,1.2325513E0,2.127692E1,3.9458928E0,3.647588E1,1.1504074E1],"tree_param":{"num_deleted":"0","num_feature":"250","num_nodes":"125","size_leaf_vector":"1"}},{"base_weights":[-8.011447E-3,-1.9478337E-1,1.4762278E-1,2.4394368E-1,-2.2239588E-1,-3.035769E-2,2.2044766E-1,8.075995E-1,5.1245023E-2,-3.2302767E-1,-1.1284978E-1,-1.2820781E0,-1.751112E-2,2.469785E-1,-4.4093016E-1,1.0541985E0,1.4174019E-1,-3.3603844E-1,2.7275813E-1,9.5149875E-1,-3.445124E-1,5.167773E-2,-2.2851476E-1,6.8089436E-3,-1.4976116E-1,1.9836204E-1,-9.830434E-2,4.911916E-1,1.9115904E-1,2.2967157E-1,-7.485049E-1,-3.0730712E-1,1.1570845E0,1.1222087E0,-4.93344E-1,1.7997442E-1,-9.468207E-1,4.166156E-1,-5.727333E-1,-1.6724458E-1,1.5631057E0,-5.388848E-1,-2.0066985E-1,1.5903771E-1,-4.301393E-1,-2.7501172E-1,4.62483E-1,-9.1255605E-1,2.6484123E-1,1.8684289E-1,-1.8017207E-1,1.2766092E0,4.0577224E-1,1.7589085E-1,1.3359085E0,-7.5631016E-1,9.0936035E-1,5.3039247E-1,-8.6914104E-1,-8.895611E-2,5.436656E-2,1.2910268E-1,-1.52406385E-2,1.3381347E-1,-5.325956E-4,-1.06548324E-1,1.1860056E-1,-6.649402E-2,7.565688E-2,-1.21273115E-1,9.959789E-2,3.0178467E-2,1.3876884E-1,4.6748113E-2,-1.340013E-1,1.2711978E-1,-6.911655E-2,-7.320047E-2,2.0060329E-1,-1.0191583E-1,-4.317314E-2,-3.2593243E-2,3.2462957E-4,9.982113E-3,1.0942689E-1,-8.500286E-2,1.1128262E-2,1.3474767E-1,-2.9123494E-2,-4.257831E-3,8.461203E-2,-1.3388927E-1,1.0467868E-1,1.4092843E-2,6.707224E-2,5.903231E-2,-5.995709E-3,8.158221E-2,-2.0293081E-2,1.3760905E-1,-6.2425382E-2,7.436634E-2,3.2188427E-2,2.019149E-2,-5.12286E-2,-1.061378E-2,1.5560311E-1,-1.1859492E-1,6.493545E-2,1.14351E-1,-9.280326E-2,1.378306E-1,-1.1710314E-1,-1.0807281E-1,-6.1310665E-3],"categories":[],"categories_nodes":[],"categories_segments":[],"categories_sizes":[],"default_left":[0,0,0,0,0,0,0,0,0,0,0,0,0,0,0,0,0,0,0,0,0,0,0,0,0,0,0,0,0,0,0,0,0,0,0,0,0,0,0,0,0,0,0,0,0,0,0,0,0,0,0,0,0,0,0,0,0,0,0,0,0,0,0,0,0,0,0,0,0,0,0,0,0,0,0,0,0,0,0,0,0,0,0,0,0,0,0,0,0,0,0,0,0,0,0,0,0,0,0,0,0,0,0,0,0,0,0,0,0,0,0,0,0,0,0],"id":5,"left_children":[1,3,5,7,9,11,13,15,17,19,21,23,25,27,29,31,33,35,37,39,41,43,45,-1,-1,47,49,51,53,55,57,59,61,63,65,67,69,71,73,75,77,79,81,83,85,87,89,91,93,95,97,99,101,103,105,107,109,111,113,-1,-1,-1,-1,-1,-1,-1,-1,-1,-1,-1,-1,-1,-1,-1,-1,-1,-1,-1,-1,-1,-1,-1,-1,-1,-1,-1,-1,-1,-1,-1,-1,-1,-1,-1,-1,-1,-1,-1,-1,-1,-1,-1,-1,-1,-1,-1,-1,-1,-1,-1,-1,-1,-1,-1,-1],"loss_changes":[2.6021576E2,4.9346497E1,6.3297646E1,2.6178661E1,4.2168365E1,2.2791271E1,6.0914124E1,9.93821E0,1.5616522E1,5.495407E1,3.4924427E1,4.292141E0,2.4530106E1,4.533133E1,2.781209E1,6.6138306E0,1.161157E1,2.1064259E1,1.4307994E1,2.3071335E1,5.4763443E1,3.9285873E1,3.4745E1,0E0,0E0,2.8531542E1,2.3921494E1,4.103192E1,4.7200546E1,2.943883E1,1.4671017E1,2.4303916E0,7.5190697E0,1.7811031E0,1.2286425E1,1.8418814E1,1.6974146E1,1.0668873E1,1.4386866E1,1.0439486E1,2.3477215E1,4.2484543E1,2.8851551E1,3.42675E1,3.1562653E1,2.6981598E1,1.3270489E1,1.9656551E1,1.812208E1,2.2813839E1,1.8198345E1,1.2258408E1,1.5634827E1,4.8089264E1,1.1455975E1,1.1672406E1,1.2182291E1,1.39635105E1,1.4384621E1,0E0,0E0,0E0,0E0,0E0,0E0,0E0,0E0,0E0,0E0,0E0,0E0,0E0,0E0,0E0,0E0,0E0,0E0,0E0,0E0,0E0,0E0,0E0,0E0,0E0,0E0,0E0,0E0,0E0,0E0,0E0,0E0,0E0,0E0,0E0,0E0,0E0,0E0,0E0,0E0,0E0,0E0,0E0,0E0,0E0,0E0,0E0,0E0,0E0,0E0,0E0,0E0,0E0,0E0,0E0,0E0],"parents":[2147483647,0,0,1,1,2,2,3,3,4,4,5,5,6,6,7,7,8,8,9,9,10,10,11,11,12,12,13,13,14,14,15,15,16,16,17,17,18,18,19,19,20,20,21,21,22,22,25,25,26,26,27,27,28,28,29,29,30,30,31,31,32,32,33,33,34,34,35,35,36,36,37,37,38,38,39,39,40,40,41,41,42,42,43,43,44,44,45,45,46,46,47,47,48,48,49,49,50,50,51,51,52,52,53,53,54,54,55,55,56,56,57,57,58,58],"right_children":[2,4,6,8,10,12,14,16,18,20,22,24,26,28,30,32,34,36,38,40,42,44,46,-1,-1,48,50,52,54,56,58,60,62,64,66,68,70,72,74,76,78,80,82,84,86,88,90,92,94,96,98,100,102,104,106,108,110,112,114,-1,-1,-1,-1,-1,-1,-1,-1,-1,-1,-1,-1,-1,-1,-1,-1,-1,-1,-1,-1,-1,-1,-1,-1,-1,-1,-1,-1,-1,-1,-1,-1,-1,-1,-1,-1,-1,-1,-1,-1,-1,-1,-1,-1,-1,-1,-1,-1,-1,-1,-1,-1,-1,-1,-1,-1],"split_conditions":[-1.673142E0,-2.8029062E2,-1.4362212E1,-2.2689653E2,2.130656E2,-5.142861E2,8.784553E4,7.337662E2,1.2414867E2,2.581575E4,-4.352744E1,3.963315E2,-8.813074E1,6.738548E1,6.316644E1,1.7942863E1,-6.1877983E1,1.8833128E1,9.188799E4,2.448373E4,4.4401413E1,6.46276E4,4.740425E1,6.8089436E-3,-1.4976116E-1,4.126224E1,7.968773E1,2.690168E4,8.054978E4,6.50156E1,5.443349E1,5.930934E4,8.509076E2,7.157659E2,7.188E4,-4.8086834E1,1.7392204E2,2.4543736E2,-8.380442E1,4.0409164E1,-2.1453766E1,3.429194E4,4.416686E1,6.295831E4,-1.18576675E2,-3.0002798E2,5.815511E1,-1.0151841E2,-8.008668E0,5.849401E4,1.646498E4,6.743086E1,2.0684006E0,6.949515E4,1.1175612E2,6.013768E1,2.4555336E2,9.657388E4,6.6998535E1,-8.895611E-2,5.436656E-2,1.2910268E-1,-1.52406385E-2,1.3381347E-1,-5.325956E-4,-1.06548324E-1,1.1860056E-1,-6.649402E-2,7.565688E-2,-1.21273115E-1,9.959789E-2,3.0178467E-2,1.3876884E-1,4.6748113E-2,-1.340013E-1,1.2711978E-1,-6.911655E-2,-7.320047E-2,2.0060329E-1,-1.0191583E-1,-4.317314E-2,-3.2593243E-2,3.2462957E-4,9.982113E-3,1.0942689E-1,-8.500286E-2,1.1128262E-2,1.3474767E-1,-2.9123494E-2,-4.257831E-3,8.461203E-2,-1.3388927E-1,1.0467868E-1,1.4092843E-2,6.707224E-2,5.903231E-2,-5.995709E-3,8.158221E-2,-2.0293081E-2,1.3760905E-1,-6.2425382E-2,7.436634E-2,3.2188427E-2,2.019149E-2,-5.12286E-2,-1.061378E-2,1.5560311E-1,-1.1859492E-1,6.493545E-2,1.14351E-1,-9.280326E-2,1.378306E-1,-1.1710314E-1,-1.0807281E-1,-6.1310665E-3],"split_indices":[248,248,73,169,66,24,145,151,91,0,248,6,88,36,239,162,9,53,110,110,167,0,173,0,0,236,236,20,75,93,126,215,6,106,5,129,63,54,154,122,109,50,247,15,188,89,62,83,29,220,80,97,89,80,241,12,59,0,17,0,0,0,0,0,0,0,0,0,0,0,0,0,0,0,0,0,0,0,0,0,0,0,0,0,0,0,0,0,0,0,0,0,0,0,0,0,0,0,0,0,0,0,0,0,0,0,0,0,0,0,0,0,0,0,0],"split_type":[0,0,0,0,0,0,0,0,0,0,0,0,0,0,0,0,0,0,0,0,0,0,0,0,0,0,0,0,0,0,0,0,0,0,0,0,0,0,0,0,0,0,0,0,0,0,0,0,0,0,0,0,0,0,0,0,0,0,0,0,0,0,0,0,0,0,0,0,0,0,0,0,0,0,0,0,0,0,0,0,0,0,0,0,0,0,0,0,0,0,0,0,0,0,0,0,0,0,0,0,0,0,0,0,0,0,0,0,0,0,0,0,0,0,0],"sum_hessian":[8.949943E3,4.0679128E3,4.882031E3,2.4040195E2,3.827511E3,1.417736E3,3.4642947E3,6.0434933E1,1.7996701E2,1.9939082E3,1.8336028E3,1.3398904E1,1.404337E3,3.3312883E3,1.3300642E2,4.367632E1,1.6758615E1,6.529361E1,1.1467339E2,3.2336555E1,1.9615717E3,7.571496E2,1.0764532E3,1.9386553E0,1.1460249E1,3.8205655E2,1.02228046E3,6.1831744E2,2.712971E3,4.1901756E1,9.110466E1,2.9290366E0,4.074728E1,6.286398E0,1.0472217E1,3.5774906E1,2.9518707E1,9.843266E1,1.624073E1,1.1686434E1,2.0650122E1,8.330868E2,1.1284849E3,6.1972943E2,1.3742014E2,1.00914996E3,6.730327E1,2.0853403E1,3.6120316E2,2.277477E2,7.945328E2,5.928215E1,5.590353E2,2.6784011E3,3.456978E1,1.7052313E1,2.4849445E1,7.560208E0,8.354446E1,1.71218E0,1.2168567E0,3.6978962E1,3.7683215E0,5.119265E0,1.1671325E0,8.083709E0,2.3885086E0,1.4448916E1,2.1325989E1,2.6295439E1,3.223267E0,8.919588E1,9.236786E0,7.06004E0,9.180691E0,2.739294E0,8.94714E0,3.2349527E0,1.7415169E1,1.5041208E2,6.8267474E2,6.986912E2,4.2979364E2,5.838671E2,3.586232E1,7.707563E1,6.0344513E1,9.178195E0,9.9997174E2,2.943754E1,3.786573E1,1.7386835E1,3.4665675E0,2.7775394E2,8.34492E1,8.5908516E1,1.4183919E2,1.697123E1,7.775615E2,5.6596264E1,2.685885E0,1.0962269E2,4.494126E2,2.5814863E3,9.691478E1,4.646684E0,2.9923092E1,1.3180133E1,3.8721788E0,2.2375633E1,2.4738119E0,5.172417E0,2.387791E0,6.593654E1,1.760792E1],"tree_param":{"num_deleted":"0","num_feature":"250","num_nodes":"115","size_leaf_vector":"1"}},{"base_weights":[8.031202E-3,-1.3230717E-1,1.6826673E-1,-1.8845621E-1,1.2380112E-2,2.5642047E-2,2.392261E-1,1.8874112E-1,-2.2802073E-1,1.2569215E0,-1.4695999E-3,6.3755774E-1,-2.2222577E-3,2.6090205E-1,-2.760428E-1,-7.951667E-2,4.8914748E-1,-2.8089657E-1,5.458749E-3,1.5613644E-1,-4.759228E-2,-1.4125277E-1,1.19906545E-1,3.928521E-1,1.4730184E0,9.811812E-3,-1.4904832E0,2.7736205E-1,-5.071771E-1,-1.9803832E-1,-1.019839E-1,9.675165E-1,-1.5922996E-1,6.376018E-1,4.912681E-2,-3.3785608E-1,-9.249663E-2,5.6697303E-1,-1.6668925E-1,-5.274045E-1,-3.1628035E-2,1.8943368E-1,-3.975723E-1,7.196576E-1,-1.559992E0,1.6023009E-1,2.5902027E-2,-5.2802735E-3,1.0643492E0,2.8322442E-2,-1.7529015E-1,2.8657693E-1,-8.706519E-1,-1.5567801E0,2.0851399E-1,-2.4288984E-1,1.4104675E0,-6.524822E-2,1.325076E-1,1.0719796E-1,-2.3815926E-2,2.8464569E-2,9.705061E-2,4.1024003E-2,-9.002602E-2,-4.1780174E-2,-1.417917E-2,2.0681378E-3,-5.030117E-2,3.1758357E-2,1.4491574E-1,-2.2778282E-2,7.5726956E-2,2.7613832E-2,-6.6406414E-2,-1.0838299E-2,6.986841E-2,8.880537E-2,1.4820921E-2,1.8970218E-2,-7.629805E-2,9.457457E-2,-6.691376E-2,-1.7831421E-1,-2.6952414E-2,-5.9673353E-3,2.6194042E-2,-1.0014432E-1,1.3369478E-1,2.8600737E-3,3.304848E-2,7.244047E-2,-1.1208755E-1,-3.5427057E-3,-2.082595E-1,9.8236896E-2,-8.1193954E-2,2.8339108E-2,-1.0769235E-1,4.6823844E-2,1.4959149E-1],"categories":[],"categories_nodes":[],"categories_segments":[],"categories_sizes":[],"default_left":[0,0,0,0,0,0,0,0,0,0,0,0,0,0,0,0,0,0,0,0,0,0,0,0,0,0,0,0,0,0,0,0,0,0,0,0,0,0,0,0,0,0,0,0,0,0,0,0,0,0,0,0,0,0,0,0,0,0,0,0,0,0,0,0,0,0,0,0,0,0,0,0,0,0,0,0,0,0,0,0,0,0,0,0,0,0,0,0,0,0,0,0,0,0,0,0,0,0,0,0,0],"id":6,"left_children":[1,3,5,7,9,11,13,15,17,19,21,23,25,27,29,31,33,35,37,-1,-1,39,41,43,45,47,49,51,53,-1,55,57,59,61,63,65,67,69,71,73,75,77,79,81,83,-1,-1,85,87,-1,-1,89,91,93,95,97,99,-1,-1,-1,-1,-1,-1,-1,-1,-1,-1,-1,-1,-1,-1,-1,-1,-1,-1,-1,-1,-1,-1,-1,-1,-1,-1,-1,-1,-1,-1,-1,-1,-1,-1,-1,-1,-1,-1,-1,-1,-1,-1,-1,-1],"loss_changes":[2.0101808E2,3.8717667E1,4.2234177E1,5.1279686E1,2.2982712E1,2.366356E1,3.1199371E1,2.6348476E1,3.836841E1,8.484877E0,2.2405544E1,1.1778717E1,2.3804535E1,3.3959076E1,3.3317924E1,1.462036E1,1.00382E1,2.716092E1,5.566022E1,0E0,0E0,2.596446E1,2.5506557E1,3.182956E1,1.6770382E0,2.0992224E1,5.458729E0,2.7960571E1,4.2748474E1,0E0,2.241616E1,8.04932E0,1.5990785E1,1.3257362E1,1.4072759E1,3.0432632E1,2.7405125E1,2.9264526E1,2.5050694E1,1.5079018E1,2.6931889E1,1.7833853E1,1.8180012E1,1.3789494E1,1.5966053E0,0E0,0E0,1.8926243E1,1.1819143E1,0E0,0E0,2.9434189E1,9.235934E0,1.8336716E1,2.8010784E1,4.2268574E1,2.2068024E-2,0E0,0E0,0E0,0E0,0E0,0E0,0E0,0E0,0E0,0E0,0E0,0E0,0E0,0E0,0E0,0E0,0E0,0E0,0E0,0E0,0E0,0E0,0E0,0E0,0E0,0E0,0E0,0E0,0E0,0E0,0E0,0E0,0E0,0E0,0E0,0E0,0E0,0E0,0E0,0E0,0E0,0E0,0E0,0E0],"parents":[2147483647,0,0,1,1,2,2,3,3,4,4,5,5,6,6,7,7,8,8,9,9,10,10,11,11,12,12,13,13,14,14,15,15,16,16,17,17,18,18,21,21,22,22,23,23,24,24,25,25,26,26,27,27,28,28,30,30,31,31,32,32,33,33,34,34,35,35,36,36,37,37,38,38,39,39,40,40,41,41,42,42,43,43,44,44,47,47,48,48,51,51,52,52,53,53,54,54,55,55,56,56],"right_children":[2,4,6,8,10,12,14,16,18,20,22,24,26,28,30,32,34,36,38,-1,-1,40,42,44,46,48,50,52,54,-1,56,58,60,62,64,66,68,70,72,74,76,78,80,82,84,-1,-1,86,88,-1,-1,90,92,94,96,98,100,-1,-1,-1,-1,-1,-1,-1,-1,-1,-1,-1,-1,-1,-1,-1,-1,-1,-1,-1,-1,-1,-1,-1,-1,-1,-1,-1,-1,-1,-1,-1,-1,-1,-1,-1,-1,-1,-1,-1,-1,-1,-1,-1,-1],"split_conditions":[5.151823E1,5.332689E1,-1.0939285E1,-2.3089273E2,1.650228E4,3.465445E1,2.2641772E2,2.0508772E2,9.104717E2,6.355417E1,1.5805998E0,2.7873144E1,9.936212E4,3.38693E2,4.595001E4,-2.8629477E2,5.460617E1,3.332533E1,1.90275E4,1.5613644E-1,-4.759228E-2,2.281356E4,6.9364E4,1.4124189E1,1.8479144E2,3.8520258E2,4.942919E1,9.742001E4,6.143186E4,-1.9803832E-1,3.8502158E2,5.962768E1,4.24981E4,-1.5553375E1,5.125811E2,-4.020989E0,6.73446E4,1.871977E4,2.831821E4,4.6587927E2,6.370794E1,-5.1135166E1,1.0511154E2,1.1925704E2,4.7123783E1,1.6023009E-1,2.5902027E-2,1.2893586E1,-3.303951E2,2.8322442E-2,-1.7529015E-1,4.7845512E1,-3.0263367E0,5.183557E4,1.8326752E2,6.719598E4,5.4855747E1,-6.524822E-2,1.325076E-1,1.0719796E-1,-2.3815926E-2,2.8464569E-2,9.705061E-2,4.1024003E-2,-9.002602E-2,-4.1780174E-2,-1.417917E-2,2.0681378E-3,-5.030117E-2,3.1758357E-2,1.4491574E-1,-2.2778282E-2,7.5726956E-2,2.7613832E-2,-6.6406414E-2,-1.0838299E-2,6.986841E-2,8.880537E-2,1.4820921E-2,1.8970218E-2,-7.629805E-2,9.457457E-2,-6.691376E-2,-1.7831421E-1,-2.6952414E-2,-5.9673353E-3,2.6194042E-2,-1.0014432E-1,1.3369478E-1,2.8600737E-3,3.304848E-2,7.244047E-2,-1.1208755E-1,-3.5427057E-3,-2.082595E-1,9.8236896E-2,-8.1193954E-2,2.8339108E-2,-1.0769235E-1,4.6823844E-2,1.4959149E-1],"split_indices":[242,187,48,243,20,46,4,81,56,122,34,154,245,249,65,149,82,48,0,0,0,0,55,139,241,214,11,235,80,0,229,21,245,19,26,183,235,10,210,201,107,123,86,156,103,0,0,9,64,0,0,217,84,0,76,60,52,0,0,0,0,0,0,0,0,0,0,0,0,0,0,0,0,0,0,0,0,0,0,0,0,0,0,0,0,0,0,0,0,0,0,0,0,0,0,0,0,0,0,0,0],"split_type":[0,0,0,0,0,0,0,0,0,0,0,0,0,0,0,0,0,0,0,0,0,0,0,0,0,0,0,0,0,0,0,0,0,0,0,0,0,0,0,0,0,0,0,0,0,0,0,0,0,0,0,0,0,0,0,0,0,0,0,0,0,0,0,0,0,0,0,0,0,0,0,0,0,0,0,0,0,0,0,0,0,0,0,0,0,0,0,0,0,0,0,0,0,0,0,0,0,0,0,0,0],"sum_hessian":[8.937235E3,4.7645205E3,4.1727144E3,3.4322563E3,1.3322643E3,1.3867599E3,2.7859546E3,3.2547693E2,3.1067793E3,1.3674925E1,1.3185894E3,5.9444508E1,1.3273153E3,2.673962E3,1.1199264E2,1.7232707E2,1.5314984E2,2.532943E3,5.738362E2,1.1715577E1,1.9593475E0,6.127502E2,7.0583923E2,4.711484E1,1.2329667E1,1.3176542E3,9.661139E0,2.6184866E3,5.5475433E1,9.41599E0,1.02576645E2,1.140359E1,1.609235E2,1.14179054E2,3.8970795E1,1.9443185E3,5.886247E2,1.3410793E2,4.3972827E2,1.3464697E2,4.781032E2,6.227959E2,8.3043335E1,4.0901516E1,6.2133245E0,1.0853945E1,1.4757229E0,1.3000436E3,1.7610672E1,1.2349207E0,8.426217E0,2.5983801E3,2.010631E1,2.2014566E1,3.346087E1,9.460251E1,7.974136E0,1.9127324E0,9.490857E0,8.93686E0,1.5198663E2,5.632085E1,5.78582E1,2.8643652E1,1.0327142E1,1.3803479E3,5.6397064E2,4.621584E2,1.2646632E2,1.05611916E2,2.849601E1,4.1316278E2,2.6565481E1,1.9422764E1,1.1522421E2,4.3340448E2,4.4698715E1,3.3557858E1,5.8923804E2,3.2036293E1,5.1007042E1,3.5449547E1,5.45197E0,4.9718103E0,1.2415144E0,1.0808184E3,2.1922513E2,1.7412829E0,1.586939E1,3.7816476E2,2.2202156E3,2.4694858E0,1.7636824E1,5.928592E0,1.6085974E1,1.9050985E1,1.4409882E1,5.8407314E1,3.6195198E1,1.2017927E0,6.772343E0],"tree_param":{"num_deleted":"0","num_feature":"250","num_nodes":"101","size_leaf_vector":"1"}},{"base_weights":[-7.308941E-4,-1.2465014E-1,1.4084178E-1,3.9970335E-1,-1.4003035E-1,-5.2774465E-3,2.128762E-1,8.478633E-1,-1.1788262E-1,-2.0425363E-1,-4.066542E-2,1.2114332E-1,-1.3978194E-1,3.2503703E-1,7.5140536E-2,-4.2177713E-1,1.0360247E0,8.6858726E-1,-4.7701225E-1,-2.9882112E-1,-2.5213737E-2,8.6915624E-1,-5.461439E-2,-2.6580127E-2,3.8176405E-1,-6.622828E-1,-5.5796284E-2,3.4102464E-1,-9.2345315E-1,-2.1155411E-1,1.5077603E-1,3.026208E-1,-1.4104821E-1,8.908539E-2,1.200952E0,-7.8798205E-2,1.1466376E0,-8.664384E-1,7.230269E-1,-5.7814837E-1,-2.035582E-1,1.6415608E-1,-2.3987478E-1,1.0661963E0,-1.1237093E-1,5.46893E-2,-1.9653536E-1,-4.690381E-1,6.157976E-2,-3.4676307E-1,5.2083516E-1,-1.4813583E0,-4.5156154E-1,4.4802105E-1,-1.4173439E-1,7.6570436E-3,4.0148506E-1,-4.354576E-3,-1.8380174E-1,2.4009877E-1,-4.4585502E-1,2.8580686E-1,-5.8898672E-2,9.385712E-2,-7.001428E-2,-7.819934E-2,1.454239E-1,1.349666E-1,-1.5805543E-3,1.315415E-1,-4.7565345E-2,9.3008906E-2,-1.099085E-1,-3.8377076E-2,1.3559367E-1,-7.6968156E-2,-4.327127E-3,6.0794752E-2,-2.3545535E-2,3.3098847E-2,-1.3539053E-2,-3.3675514E-2,3.650149E-2,6.1223074E-3,1.388387E-1,2.6644899E-2,-1.5518151E-2,3.1740304E-2,-2.5814563E-2,-8.373356E-2,2.0366242E-2,1.2647597E-3,8.7990664E-2,9.8390244E-2,-8.201764E-2,1.4738358E-2,9.2984036E-2,-1.6656105E-1,3.6681097E-2,4.6344744E-3,-1.0183769E-1,-2.0406432E-2,8.466097E-2,-1.9925343E-2,6.6420995E-2,9.56659E-2,-8.255976E-3,8.236065E-2,3.4502577E-2,9.509478E-2,-1.329657E-1,-1.998257E-2,1.0585854E-1,-5.911666E-2,5.3699385E-2,-2.3087366E-2,3.5529993E-2,1.4772444E-2,-4.6600606E-2],"categories":[],"categories_nodes":[],"categories_segments":[],"categories_sizes":[],"default_left":[0,0,0,0,0,0,0,0,0,0,0,0,0,0,0,0,0,0,0,0,0,0,0,0,0,0,0,0,0,0,0,0,0,0,0,0,0,0,0,0,0,0,0,0,0,0,0,0,0,0,0,0,0,0,0,0,0,0,0,0,0,0,0,0,0,0,0,0,0,0,0,0,0,0,0,0,0,0,0,0,0,0,0,0,0,0,0,0,0,0,0,0,0,0,0,0,0,0,0,0,0,0,0,0,0,0,0,0,0,0,0,0,0,0,0,0,0,0,0],"id":7,"left_children":[1,3,5,7,9,11,13,15,17,19,21,23,25,27,29,31,33,35,37,39,41,43,45,47,49,51,53,55,57,59,61,63,-1,65,67,-1,69,71,73,75,77,79,81,83,-1,85,87,89,91,93,95,97,99,101,103,105,107,109,-1,111,113,115,117,-1,-1,-1,-1,-1,-1,-1,-1,-1,-1,-1,-1,-1,-1,-1,-1,-1,-1,-1,-1,-1,-1,-1,-1,-1,-1,-1,-1,-1,-1,-1,-1,-1,-1,-1,-1,-1,-1,-1,-1,-1,-1,-1,-1,-1,-1,-1,-1,-1,-1,-1,-1,-1,-1,-1,-1],"loss_changes":[1.5643088E2,3.8401855E1,4.380771E1,3.1589119E1,2.94747E1,2.3401705E1,4.3040947E1,1.7847202E1,2.304313E1,4.7502007E1,2.3082241E1,2.7324131E1,2.9223082E1,3.097763E1,2.719117E1,7.6728787E0,9.850876E0,8.919083E0,2.2811533E1,4.8739273E1,3.9508358E1,1.1983389E1,2.775594E1,1.7727856E1,2.6190731E1,1.5251915E1,2.4982592E1,3.0582687E1,1.6545086E1,2.7818773E1,2.809203E1,4.905779E0,0E0,1.3668465E1,9.832802E0,0E0,4.8171787E0,1.6192488E1,9.049725E0,4.774701E1,3.562275E1,2.5854034E1,2.6815317E1,8.17433E0,0E0,4.498021E1,2.4728952E1,1.8876612E1,1.51744E1,2.7108278E1,3.285084E1,6.889187E0,2.1159124E1,2.2033218E1,2.2960014E1,2.011172E1,3.0328949E1,1.496872E1,0E0,3.265282E1,2.499276E1,2.1745502E1,3.2813644E1,0E0,0E0,0E0,0E0,0E0,0E0,0E0,0E0,0E0,0E0,0E0,0E0,0E0,0E0,0E0,0E0,0E0,0E0,0E0,0E0,0E0,0E0,0E0,0E0,0E0,0E0,0E0,0E0,0E0,0E0,0E0,0E0,0E0,0E0,0E0,0E0,0E0,0E0,0E0,0E0,0E0,0E0,0E0,0E0,0E0,0E0,0E0,0E0,0E0,0E0,0E0,0E0,0E0,0E0,0E0,0E0],"parents":[2147483647,0,0,1,1,2,2,3,3,4,4,5,5,6,6,7,7,8,8,9,9,10,10,11,11,12,12,13,13,14,14,15,15,16,16,17,17,18,18,19,19,20,20,21,21,22,22,23,23,24,24,25,25,26,26,27,27,28,28,29,29,30,30,31,31,33,33,34,34,36,36,37,37,38,38,39,39,40,40,41,41,42,42,43,43,45,45,46,46,47,47,48,48,49,49,50,50,51,51,52,52,53,53,54,54,55,55,56,56,57,57,59,59,60,60,61,61,62,62],"right_children":[2,4,6,8,10,12,14,16,18,20,22,24,26,28,30,32,34,36,38,40,42,44,46,48,50,52,54,56,58,60,62,64,-1,66,68,-1,70,72,74,76,78,80,82,84,-1,86,88,90,92,94,96,98,100,102,104,106,108,110,-1,112,114,116,118,-1,-1,-1,-1,-1,-1,-1,-1,-1,-1,-1,-1,-1,-1,-1,-1,-1,-1,-1,-1,-1,-1,-1,-1,-1,-1,-1,-1,-1,-1,-1,-1,-1,-1,-1,-1,-1,-1,-1,-1,-1,-1,-1,-1,-1,-1,-1,-1,-1,-1,-1,-1,-1,-1,-1,-1],"split_conditions":[5.149924E1,-2.8039374E2,-1.1571398E1,6.339661E4,-2.909181E0,2.1206888E2,3.1027388E1,7.923309E1,-2.8029062E2,4.7823315E2,1.655706E4,1.4354E2,-1.5125002E2,3.5907538E2,5.454431E-1,-3.4773218E2,-5.5541925E2,6.603625E4,-8.8070595E1,3.124048E4,-3.9429832E1,1.8205732E1,2.3451859E2,4.469702E1,3.388333E4,2.0012057E2,-8.220847E1,4.6934677E1,3.458336E0,-5.616983E1,1.0319714E2,4.003298E1,-1.4104821E-1,-3.4529186E1,6.3410633E1,-7.8798205E-2,9.920399E4,-5.5541925E2,6.841186E4,8.89871E0,3.649192E4,1.151421E3,2.6634596E1,-7.863636E0,-1.1237093E-1,5.968595E4,-2.1286114E1,4.6302734E1,8.967999E4,3.65327E1,-3.219023E1,5.817312E2,6.1613586E2,-1.2822227E2,7.642829E1,3.6024696E1,4.482253E1,1.256367E2,-1.8380174E-1,9.7085915E1,8.997413E2,1.6339937E1,6.5944E4,9.385712E-2,-7.001428E-2,-7.819934E-2,1.454239E-1,1.349666E-1,-1.5805543E-3,1.315415E-1,-4.7565345E-2,9.3008906E-2,-1.099085E-1,-3.8377076E-2,1.3559367E-1,-7.6968156E-2,-4.327127E-3,6.0794752E-2,-2.3545535E-2,3.3098847E-2,-1.3539053E-2,-3.3675514E-2,3.650149E-2,6.1223074E-3,1.388387E-1,2.6644899E-2,-1.5518151E-2,3.1740304E-2,-2.5814563E-2,-8.373356E-2,2.0366242E-2,1.2647597E-3,8.7990664E-2,9.8390244E-2,-8.201764E-2,1.4738358E-2,9.2984036E-2,-1.6656105E-1,3.6681097E-2,4.6344744E-3,-1.0183769E-1,-2.0406432E-2,8.466097E-2,-1.9925343E-2,6.6420995E-2,9.56659E-2,-8.255976E-3,8.236065E-2,3.4502577E-2,9.509478E-2,-1.329657E-1,-1.998257E-2,1.0585854E-1,-5.911666E-2,5.3699385E-2,-2.3087366E-2,3.5529993E-2,1.4772444E-2,-4.6600606E-2],"split_indices":[247,143,53,225,218,246,79,51,248,246,120,111,33,238,188,164,133,195,249,240,249,123,216,197,150,66,89,217,14,173,113,247,0,9,7,0,170,128,45,108,160,126,78,154,0,175,138,67,10,22,9,6,21,84,247,122,21,36,0,84,246,248,95,0,0,0,0,0,0,0,0,0,0,0,0,0,0,0,0,0,0,0,0,0,0,0,0,0,0,0,0,0,0,0,0,0,0,0,0,0,0,0,0,0,0,0,0,0,0,0,0,0,0,0,0,0,0,0,0],"split_type":[0,0,0,0,0,0,0,0,0,0,0,0,0,0,0,0,0,0,0,0,0,0,0,0,0,0,0,0,0,0,0,0,0,0,0,0,0,0,0,0,0,0,0,0,0,0,0,0,0,0,0,0,0,0,0,0,0,0,0,0,0,0,0,0,0,0,0,0,0,0,0,0,0,0,0,0,0,0,0,0,0,0,0,0,0,0,0,0,0,0,0,0,0,0,0,0,0,0,0,0,0,0,0,0,0,0,0,0,0,0,0,0,0,0,0,0,0,0,0],"sum_hessian":[8.914702E3,4.7537983E3,4.1609033E3,1.3475183E2,4.6190464E3,1.374238E3,2.7866653E3,7.187748E1,6.2874355E1,2.805009E3,1.8140375E3,7.084579E2,6.6578015E2,1.5351792E3,1.2514861E3,9.117115E0,6.2760365E1,1.6402048E1,4.647231E1,1.8350701E3,9.699389E2,2.6466251E1,1.7875713E3,4.5273782E2,2.5572006E2,9.1243065E1,5.745371E2,1.5164866E3,1.8692587E1,2.6086942E2,9.906167E2,5.6623693E0,3.454746E0,9.537941E0,5.3222424E1,2.0937777E0,1.43082695E1,3.5296265E1,1.11760435E1,4.653919E2,1.3696781E3,5.154522E2,4.544867E2,2.4508064E1,1.9581861E0,1.01017584E3,7.773954E2,7.4502655E1,3.7823517E2,4.07511E1,2.1496896E2,1.7436663E1,7.3806404E1,8.310656E1,4.9143054E2,2.3298376E2,1.2835028E3,9.82432E0,8.868267E0,8.9096596E1,1.7177283E2,6.023435E2,3.8827322E2,3.5040953E0,2.1582737E0,6.083408E0,3.4545326E0,4.732862E1,5.8938017E0,1.3131297E1,1.1769723E0,3.7030404E0,3.1593225E1,4.2090793E0,6.9669642E0,3.423584E2,1.230335E2,5.1117634E1,1.3185605E3,3.3099802E2,1.8445421E2,3.9212625E2,6.2360455E1,6.238628E0,1.8269436E1,5.0269098E2,5.074849E2,8.277273E1,6.946227E2,4.7986008E1,2.6516647E1,3.578527E2,2.038248E1,1.0410645E1,3.0340454E1,1.1307949E2,1.0188948E2,1.594574E1,1.4909227E0,3.978042E1,3.4025986E1,3.1712835E1,5.1393726E1,4.5939685E2,3.203369E1,1.9392075E1,2.1359169E2,1.4981488E2,1.133688E3,5.873245E0,3.951075E0,5.844118E1,3.065541E1,1.4999498E2,2.1777845E1,7.113476E1,5.3120874E2,2.5797687E2,1.3029634E2],"tree_param":{"num_deleted":"0","num_feature":"250","num_nodes":"119","size_leaf_vector":"1"}},{"base_weights":[5.3797703E-4,-1.22418106E-1,1.2255596E-1,-1.5605994E-1,6.864153E-2,1.319301E-1,-6.485087E-1,2.88807E-1,-1.7493445E-1,1.6971923E-1,-2.2440094E-1,5.2102547E-2,2.2013639E-1,-5.385327E-2,-1.1155946E0,6.0459775E-1,-3.454512E-1,-2.4276692E-1,-7.421001E-2,-1.0401727E0,1.9552484E-1,-1.31992E0,-1.20555505E-1,8.601832E-2,-4.3437168E-1,2.0202562E-1,9.283074E-1,-4.1635856E-1,1.4976206E-1,4.570691E-2,-1.2573565E0,3.7914985E-1,9.6862537E-1,-5.9625036E-1,8.401516E-1,-3.2030606E-1,-4.6607915E-2,1.5029937E-1,-1.9646788E-1,8.285239E-2,-1.5066723E0,-1.3464512E-1,2.970349E-1,-1.5586767E0,6.925939E-2,1.0369408E0,-2.115252E-1,-3.2034866E-3,2.2482763E-1,-7.2882295E-2,-9.1592824E-1,2.6613453E-1,3.805088E-3,1.1496826E0,-1.2979667E-1,1.12937704E-1,-7.072074E-1,-5.832386E-1,-1.4555285E0,1.05527215E-1,1.35353645E-2,1.1151309E-1,-2.2221616E-2,2.6031166E-2,-1.18374184E-1,1.223817E-1,-5.4918464E-2,-4.6609208E-2,-2.1328766E-2,-9.453016E-2,2.0869673E-4,1.2633513E-1,9.440357E-3,-8.927625E-3,-4.110453E-2,-2.3454523E-2,-1.6879545E-1,-3.1048087E-2,5.369253E-2,3.3323534E-2,-4.2275827E-2,-1.7516549E-1,-1.3593415E-3,-6.96451E-2,1.468047E-1,-2.6961906E-2,1.2736581E-1,6.5593543E-3,-2.5805214E-2,9.04088E-3,4.033259E-2,3.3394124E-2,-5.8336403E-2,-3.4200057E-2,-1.3855729E-1,4.1582943E-3,3.7768405E-2,-8.114151E-3,6.6237606E-2,1.23356596E-1,-5.442947E-2,1.2101844E-2,-1.2031064E-1,-1.05991066E-1,1.1072474E-1,-5.345256E-2,-1.591882E-1],"categories":[],"categories_nodes":[],"categories_segments":[],"categories_sizes":[],"default_left":[0,0,0,0,0,0,0,0,0,0,0,0,0,0,0,0,0,0,0,0,0,0,0,0,0,0,0,0,0,0,0,0,0,0,0,0,0,0,0,0,0,0,0,0,0,0,0,0,0,0,0,0,0,0,0,0,0,0,0,0,0,0,0,0,0,0,0,0,0,0,0,0,0,0,0,0,0,0,0,0,0,0,0,0,0,0,0,0,0,0,0,0,0,0,0,0,0,0,0,0,0,0,0,0,0,0,0],"id":8,"left_children":[1,3,5,7,9,11,13,15,17,19,21,23,25,27,29,31,33,35,37,39,41,43,45,47,49,51,53,55,-1,-1,57,59,61,63,65,67,69,71,73,-1,75,77,79,81,-1,83,85,87,89,91,93,95,97,99,-1,-1,101,103,105,-1,-1,-1,-1,-1,-1,-1,-1,-1,-1,-1,-1,-1,-1,-1,-1,-1,-1,-1,-1,-1,-1,-1,-1,-1,-1,-1,-1,-1,-1,-1,-1,-1,-1,-1,-1,-1,-1,-1,-1,-1,-1,-1,-1,-1,-1,-1,-1],"loss_changes":[1.3315195E2,2.8424309E1,3.2283264E1,3.161377E1,1.966232E1,3.0983383E1,1.4848198E1,3.0928106E1,2.4624084E1,1.560162E1,1.9220264E1,3.818326E1,2.6629074E1,1.4494614E1,7.2654343E0,8.065807E0,1.5848934E1,3.27594E1,3.9907978E1,1.0364723E1,1.625241E1,8.118248E0,1.6719141E1,2.6778496E1,2.6192236E1,2.5922928E1,2.7051308E1,1.01384325E1,0E0,0E0,2.864376E0,1.0587871E1,6.9919434E0,2.2041742E1,5.6972923E0,2.399231E1,2.6767803E1,3.1784397E1,2.160884E1,0E0,1.6158218E0,1.3680154E1,9.789478E0,3.9724617E0,0E0,9.681277E0,1.2949809E1,2.3110262E1,2.0262001E1,1.8314852E1,1.6937191E1,3.8595665E1,2.800085E1,7.449486E0,0E0,0E0,7.579379E0,7.6067233E0,1.7627678E0,0E0,0E0,0E0,0E0,0E0,0E0,0E0,0E0,0E0,0E0,0E0,0E0,0E0,0E0,0E0,0E0,0E0,0E0,0E0,0E0,0E0,0E0,0E0,0E0,0E0,0E0,0E0,0E0,0E0,0E0,0E0,0E0,0E0,0E0,0E0,0E0,0E0,0E0,0E0,0E0,0E0,0E0,0E0,0E0,0E0,0E0,0E0,0E0],"parents":[2147483647,0,0,1,1,2,2,3,3,4,4,5,5,6,6,7,7,8,8,9,9,10,10,11,11,12,12,13,13,14,14,15,15,16,16,17,17,18,18,19,19,20,20,21,21,22,22,23,23,24,24,25,25,26,26,27,27,30,30,31,31,32,32,33,33,34,34,35,35,36,36,37,37,38,38,40,40,41,41,42,42,43,43,45,45,46,46,47,47,48,48,49,49,50,50,51,51,52,52,53,53,56,56,57,57,58,58],"right_children":[2,4,6,8,10,12,14,16,18,20,22,24,26,28,30,32,34,36,38,40,42,44,46,48,50,52,54,56,-1,-1,58,60,62,64,66,68,70,72,74,-1,76,78,80,82,-1,84,86,88,90,92,94,96,98,100,-1,-1,102,104,106,-1,-1,-1,-1,-1,-1,-1,-1,-1,-1,-1,-1,-1,-1,-1,-1,-1,-1,-1,-1,-1,-1,-1,-1,-1,-1,-1,-1,-1,-1,-1,-1,-1,-1,-1,-1,-1,-1,-1,-1,-1,-1,-1,-1,-1,-1,-1,-1],"split_conditions":[5.0476513E1,4.275175E1,9.748399E4,-3.2442706E2,6.749353E4,5.617447E1,5.6963825E1,1.9533495E1,3.552454E2,3.215875E1,6.801365E4,7.431442E1,7.697267E1,1.2065158E2,3.8029667E1,-3.450598E1,2.2717624E2,4.9262882E1,-3.9429832E1,-2.717078E2,5.5768623E1,6.893624E1,4.92257E1,1.3260541E1,1.2947815E2,3.958269E1,4.8378558E2,3.95336E1,1.4976206E-1,4.570691E-2,5.5433205E1,3.030381E1,6.0140614E1,2.6925718E1,9.19063E4,4.654599E4,3.2120667E1,1.675631E4,2.300563E4,8.285239E-2,7.324862E1,1.3352151E2,7.817906E1,6.1840076E1,6.925939E-2,5.3614048E1,6.598402E2,6.181602E4,5.7947784E1,1.8793927E2,8.237754E1,-1.2261816E1,7.189934E4,7.8782425E1,-1.2979667E-1,1.12937704E-1,-5.91977E1,6.0970314E1,4.4171104E1,1.05527215E-1,1.35353645E-2,1.1151309E-1,-2.2221616E-2,2.6031166E-2,-1.18374184E-1,1.223817E-1,-5.4918464E-2,-4.6609208E-2,-2.1328766E-2,-9.453016E-2,2.0869673E-4,1.2633513E-1,9.440357E-3,-8.927625E-3,-4.110453E-2,-2.3454523E-2,-1.6879545E-1,-3.1048087E-2,5.369253E-2,3.3323534E-2,-4.2275827E-2,-1.7516549E-1,-1.3593415E-3,-6.96451E-2,1.468047E-1,-2.6961906E-2,1.2736581E-1,6.5593543E-3,-2.5805214E-2,9.04088E-3,4.033259E-2,3.3394124E-2,-5.8336403E-2,-3.4200057E-2,-1.3855729E-1,4.1582943E-3,3.7768405E-2,-8.114151E-3,6.6237606E-2,1.23356596E-1,-5.442947E-2,1.2101844E-2,-1.2031064E-1,-1.05991066E-1,1.1072474E-1,-5.345256E-2,-1.591882E-1],"split_indices":[242,204,215,248,50,202,212,124,111,67,115,219,52,74,97,84,44,212,249,93,152,172,221,4,109,24,98,151,0,0,247,172,37,9,140,10,57,145,115,0,56,13,107,107,0,102,116,235,247,236,24,73,95,162,0,0,88,117,57,0,0,0,0,0,0,0,0,0,0,0,0,0,0,0,0,0,0,0,0,0,0,0,0,0,0,0,0,0,0,0,0,0,0,0,0,0,0,0,0,0,0,0,0,0,0,0,0],"split_type":[0,0,0,0,0,0,0,0,0,0,0,0,0,0,0,0,0,0,0,0,0,0,0,0,0,0,0,0,0,0,0,0,0,0,0,0,0,0,0,0,0,0,0,0,0,0,0,0,0,0,0,0,0,0,0,0,0,0,0,0,0,0,0,0,0,0,0,0,0,0,0,0,0,0,0,0,0,0,0,0,0,0,0,0,0,0,0,0,0,0,0,0,0,0,0,0,0,0,0,0,0,0,0,0,0,0,0],"sum_hessian":[8.873108E3,4.4195635E3,4.453545E3,3.7580315E3,6.615319E2,4.400871E3,5.267415E1,1.5237164E2,3.6056597E3,4.9218558E2,1.6934633E2,2.310992E3,2.0898792E3,2.3663288E1,2.9010859E1,1.0175542E2,5.061623E1,2.1537888E3,1.4518708E3,9.457643E0,4.8272794E2,1.3648701E1,1.5569763E2,2.1611453E3,1.4984648E2,2.0390184E3,5.0860577E1,1.9774557E1,3.8887322E0,2.214927E0,2.6795933E1,6.409928E1,3.7656136E1,4.2188816E1,8.427415E0,1.5431632E3,6.106257E2,5.117975E2,9.400734E2,1.7343135E0,7.723329E0,1.13437256E2,3.6929068E2,1.240279E1,1.2459114E0,1.0587227E1,1.451104E2,1.3161481E3,8.449973E2,8.625152E1,6.359496E1,1.5404578E3,4.985607E2,4.670039E1,4.1601863E0,2.6750083E0,1.7099548E1,6.9834714E0,1.981246E1,1.6105433E1,4.7993847E1,3.358754E1,4.068595E0,1.7390457E1,2.4798359E1,6.6971354E0,1.7302794E0,6.518391E2,8.913241E2,3.0439192E1,5.8018646E2,2.3439775E1,4.883577E2,6.27849E2,3.1222443E2,1.2494273E0,6.4739017E0,9.032528E1,2.3111982E1,3.5211868E2,1.7172005E1,1.0906849E1,1.4959412E0,1.9860833E0,8.601144E0,1.4043564E2,4.674764E0,1.0369606E3,2.7918744E2,4.8287375E2,3.6212354E2,4.8191555E1,3.8059967E1,2.9397747E1,3.4197212E1,5.1172232E2,1.0287355E3,4.4237695E2,5.6183754E1,4.475593E1,1.9444555E0,6.6870804E0,1.0412468E1,5.7384076E0,1.245064E0,3.1894414E0,1.662302E1],"tree_param":{"num_deleted":"0","num_feature":"250","num_nodes":"107","size_leaf_vector":"1"}},{"base_weights":[9.076882E-3,-8.9236535E-2,1.3662612E-1,-8.428221E-2,-1.3008633E0,1.9725113E-1,-1.1512256E-2,4.2492735E-1,-9.906527E-2,6.815327E-2,-1.4643587E0,3.033278E-1,7.873044E-2,-1.6521245E0,6.0840845E-3,1.296586E0,2.7120453E-1,-1.2892571E-1,1.0264906E-1,-1.609702E0,3.615063E-2,2.7683243E-1,1.0552628E0,1.9755128E-1,-9.498542E-2,-1.8612508E-1,9.119242E-3,-4.467803E-1,7.057764E-2,-3.584378E-2,1.4619035E0,-1.459441E0,4.5518234E-1,-1.5447244E-1,1.6093558E-1,-2.6186067E-1,1.9571152E-1,-1.6969505E-1,-2.2288743E-2,3.0707604E-1,-2.6972288E-1,-9.225732E-1,1.2507781E0,-1.2882195E-1,3.667098E-1,-5.260872E-1,3.3662062E-2,-8.293896E-1,1.374265E-1,7.7868456E-1,2.7386222E-2,-3.9549712E-2,1.6393122E-1,-1.5990542E-1,-1.4728151E-2,9.194395E-2,6.764316E-3,-3.3464856E-2,-1.1272195E-2,3.5992943E-2,-2.8377164E-2,-1.06177524E-1,-1.28670875E-2,1.078937E-2,7.39242E-2,3.2142293E-2,-9.1678284E-2,-9.6445106E-2,1.1956401E-2,5.8697343E-2,-1.5808594E-1,1.40545E-1,-8.465176E-2,3.756317E-2,-3.2498684E-2,-5.9364673E-2,4.368722E-2,-2.6714936E-2,-1.4538498E-1,2.0423627E-2,-2.5466848E-2,-1.0998309E-1,4.688177E-3,-1.407066E-2,1.3872646E-1,-5.1981796E-2,1.1462672E-1,-2.0260874E-3,4.51741E-2],"categories":[],"categories_nodes":[],"categories_segments":[],"categories_sizes":[],"default_left":[0,0,0,0,0,0,0,0,0,0,0,0,0,0,0,0,0,0,0,0,0,0,0,0,0,0,0,0,0,0,0,0,0,0,0,0,0,0,0,0,0,0,0,0,0,0,0,0,0,0,0,0,0,0,0,0,0,0,0,0,0,0,0,0,0,0,0,0,0,0,0,0,0,0,0,0,0,0,0,0,0,0,0,0,0,0,0,0,0],"id":9,"left_children":[1,3,5,7,9,11,13,15,17,-1,19,21,23,25,27,29,31,33,35,37,-1,39,41,43,45,-1,-1,47,49,-1,51,53,55,57,59,61,63,-1,-1,65,67,69,71,73,75,77,79,81,83,85,87,-1,-1,-1,-1,-1,-1,-1,-1,-1,-1,-1,-1,-1,-1,-1,-1,-1,-1,-1,-1,-1,-1,-1,-1,-1,-1,-1,-1,-1,-1,-1,-1,-1,-1,-1,-1,-1,-1],"loss_changes":[1.1124784E2,2.9964432E1,3.46828E1,3.761034E1,7.588249E0,3.4427155E1,3.2411003E1,1.8539871E1,2.9230324E1,0E0,5.651043E0,2.8509842E1,2.676043E1,4.5131493E0,3.2493156E1,6.2346992E0,3.9227634E1,3.1315948E1,2.128756E1,1.78479E0,0E0,2.318869E1,2.0044422E1,4.2539223E1,2.9239494E1,0E0,0E0,3.1113886E1,2.9760025E1,0E0,6.966362E0,1.9400845E0,1.977194E1,2.9178802E1,3.043354E1,1.3474105E1,2.375164E1,0E0,0E0,2.3559822E1,2.0081327E1,5.8668227E0,1.5748718E1,2.6194721E1,3.44338E1,2.8717522E1,2.0056183E1,1.994495E1,1.9572443E1,2.7298111E1,1.8586777E1,0E0,0E0,0E0,0E0,0E0,0E0,0E0,0E0,0E0,0E0,0E0,0E0,0E0,0E0,0E0,0E0,0E0,0E0,0E0,0E0,0E0,0E0,0E0,0E0,0E0,0E0,0E0,0E0,0E0,0E0,0E0,0E0,0E0,0E0,0E0,0E0,0E0,0E0],"parents":[2147483647,0,0,1,1,2,2,3,3,4,4,5,5,6,6,7,7,8,8,10,10,11,11,12,12,13,13,14,14,15,15,16,16,17,17,18,18,19,19,21,21,22,22,23,23,24,24,27,27,28,28,30,30,31,31,32,32,33,33,34,34,35,35,36,36,39,39,40,40,41,41,42,42,43,43,44,44,45,45,46,46,47,47,48,48,49,49,50,50],"right_children":[2,4,6,8,10,12,14,16,18,-1,20,22,24,26,28,30,32,34,36,38,-1,40,42,44,46,-1,-1,48,50,-1,52,54,56,58,60,62,64,-1,-1,66,68,70,72,74,76,78,80,82,84,86,88,-1,-1,-1,-1,-1,-1,-1,-1,-1,-1,-1,-1,-1,-1,-1,-1,-1,-1,-1,-1,-1,-1,-1,-1,-1,-1,-1,-1,-1,-1,-1,-1,-1,-1,-1,-1,-1,-1],"split_conditions":[5.2387733E1,9.921739E4,6.1814E4,-2.7996887E2,8.406786E1,3.5927252E2,6.092078E4,5.179243E4,6.1457645E1,6.815327E-2,4.840937E2,1.6569359E2,2.286428E4,6.3407135E1,-5.7495808E1,2.6291151E1,5.472001E4,1.640794E3,3.7887375E1,6.798096E2,3.615063E-2,1.08826744E2,3.9773193E1,-8.6921835E0,2.352484E4,-1.8612508E-1,9.119242E-3,3.0825457E1,-1.8033571E2,-3.584378E-2,1.5309352E2,1.7370125E3,6.395699E4,3.9139812E1,6.294468E0,2.7976526E1,1.0310836E3,-1.6969505E-1,-2.2288743E-2,3.38693E2,1.7424667E2,6.184596E1,6.7646866E1,-3.666146E1,4.0834717E2,2.34471E4,2.6153593E1,4.7149662E1,2.917849E2,-3.0728345E2,6.893624E1,-3.9549712E-2,1.6393122E-1,-1.5990542E-1,-1.4728151E-2,9.194395E-2,6.764316E-3,-3.3464856E-2,-1.1272195E-2,3.5992943E-2,-2.8377164E-2,-1.06177524E-1,-1.28670875E-2,1.078937E-2,7.39242E-2,3.2142293E-2,-9.1678284E-2,-9.6445106E-2,1.1956401E-2,5.8697343E-2,-1.5808594E-1,1.40545E-1,-8.465176E-2,3.756317E-2,-3.2498684E-2,-5.9364673E-2,4.368722E-2,-2.6714936E-2,-1.4538498E-1,2.0423627E-2,-2.5466848E-2,-1.0998309E-1,4.688177E-3,-1.407066E-2,1.3872646E-1,-5.1981796E-2,1.1462672E-1,-2.0260874E-3,4.51741E-2],"split_indices":[247,100,240,138,36,6,55,205,112,0,108,73,135,17,219,172,165,246,242,221,0,134,187,69,140,0,0,4,93,0,46,86,225,142,174,222,31,0,0,249,136,27,212,9,166,205,4,192,6,124,172,0,0,0,0,0,0,0,0,0,0,0,0,0,0,0,0,0,0,0,0,0,0,0,0,0,0,0,0,0,0,0,0,0,0,0,0,0,0],"split_type":[0,0,0,0,0,0,0,0,0,0,0,0,0,0,0,0,0,0,0,0,0,0,0,0,0,0,0,0,0,0,0,0,0,0,0,0,0,0,0,0,0,0,0,0,0,0,0,0,0,0,0,0,0,0,0,0,0,0,0,0,0,0,0,0,0,0,0,0,0,0,0,0,0,0,0,0,0,0,0,0,0,0,0,0,0,0,0,0,0],"sum_hessian":[8.869607E3,5.0090176E3,3.8605903E3,4.9896846E3,1.9333174E1,2.7392373E3,1.121353E3,1.3998792E2,4.8496963E3,1.2315851E0,1.8101587E1,1.4446808E3,1.2945564E3,1.0913694E1,1.1104393E3,1.9872091E1,1.2011583E2,4.224666E3,6.2503033E2,1.6876562E1,1.2250265E0,1.39683E3,4.7850864E1,7.686596E2,5.2589685E2,9.684324E0,1.2293702E0,1.3768782E2,9.7275146E2,1.698628E0,1.8173462E1,1.0875865E1,1.0923996E2,3.882915E3,3.41751E2,1.2675172E2,4.9827863E2,1.5667258E1,1.2093031E0,1.3240044E3,7.2825554E1,3.9701443E0,4.3880722E1,2.6247693E2,5.0618268E2,1.2015711E2,4.0573972E2,8.2945435E1,5.474239E1,5.4943577E1,9.1780786E2,1.477309E0,1.6696154E1,9.632344E0,1.2435213E0,4.9076126E1,6.0163834E1,7.2916315E2,3.153752E3,2.3623376E2,1.0551725E2,1.709718E1,1.0965454E2,4.30002E2,6.827661E1,1.3093922E3,1.4612175E1,2.562222E1,4.720334E1,1.2384737E0,2.7316706E0,4.117408E1,2.7066398E0,7.323427E1,1.8924266E2,3.395525E1,4.7222745E2,9.494577E1,2.5211348E1,2.551101E2,1.506296E2,6.3188583E1,1.9756851E1,4.5503643E1,9.238748E0,1.2030638E1,4.291294E1,8.260142E2,9.179368E1],"tree_param":{"num_deleted":"0","num_feature":"250","num_nodes":"89","size_leaf_vector":"1"}},{"base_weights":[-5.026272E-3,-1.04821034E-1,1.1639745E-1,3.0177027E-1,-1.18779175E-1,4.354907E-1,8.749392E-2,-8.601006E-1,5.296459E-1,-7.627617E-1,-1.07618526E-1,6.258275E-1,-1.4258891E-1,1.3665718E-1,-8.425321E-2,-1.5123233E0,-1.2103991E-1,1.725069E-1,1.0255272E0,7.597586E-1,-9.398022E-1,5.559109E-1,-1.1765144E-1,1.0375482E-1,8.287834E-1,6.548461E-1,-5.1447433E-1,4.4024132E-2,2.437177E-1,-6.606589E-1,-3.7775986E-2,-2.8316695E-2,-1.6333692E-1,5.273374E-1,-1.1951722E0,1.0696787E0,-2.2882336E-1,-1.19878195E-1,1.1276952E0,1.1134545E0,-7.933406E-2,-1.2074025E0,1.9646831E-1,1.1002011E0,-2.4596097E-1,2.2855945E-1,-1.3644047E-1,-4.551209E-1,5.792614E-1,1.1192214E0,5.48834E-1,2.3563118E-1,1.5083571E-1,-7.1147734E-1,1.0365455E0,-1.01218514E-1,1.6946419E-1,2.5741762E-1,-1.2557355E0,-2.8055906E-1,-1.6534922E0,-1.471026E-1,-2.1034366E-2,-9.130672E-2,1.1656153E-1,-1.7686067E-2,-1.4483364E-1,-2.6123045E-2,1.652301E-1,1.09065525E-1,-4.4963565E-2,1.2869243E-1,-1.3841267E-2,-5.465248E-2,1.5154378E-1,-1.3527185E-1,3.14748E-2,-1.2338064E-1,7.131707E-2,1.3653052E-1,-1.8357929E-2,-9.768526E-2,1.14126384E-1,4.6224725E-2,-1.702617E-2,-3.0337522E-2,-8.907094E-3,-9.095676E-2,4.697975E-2,8.235489E-3,9.684801E-2,-1.1810191E-1,1.1922878E-1,9.01689E-2,1.12804E-2,6.586129E-2,-7.5963326E-2,-1.5675732E-1,-4.6386436E-2,1.3898657E-1,-1.5323043E-2,6.9582455E-2,-1.43616665E-2,6.843417E-2,8.095629E-3,6.427582E-3,3.4451447E-2,-1.6507779E-1,2.0679837E-2,3.0151531E-2,-1.6061826E-1,-1.81088E-1,1.646815E-2,8.501368E-2,-7.6087387E-3],"categories":[],"categories_nodes":[],"categories_segments":[],"categories_sizes":[],"default_left":[0,0,0,0,0,0,0,0,0,0,0,0,0,0,0,0,0,0,0,0,0,0,0,0,0,0,0,0,0,0,0,0,0,0,0,0,0,0,0,0,0,0,0,0,0,0,0,0,0,0,0,0,0,0,0,0,0,0,0,0,0,0,0,0,0,0,0,0,0,0,0,0,0,0,0,0,0,0,0,0,0,0,0,0,0,0,0,0,0,0,0,0,0,0,0,0,0,0,0,0,0,0,0,0,0,0,0,0,0,0,0,0,0,0,0],"id":10,"left_children":[1,3,5,7,9,11,13,15,17,19,21,23,25,27,29,31,33,35,37,39,41,43,45,47,49,51,53,55,57,59,61,-1,-1,63,65,67,69,-1,71,73,-1,75,77,79,81,83,85,87,89,91,93,95,-1,97,99,101,103,105,107,109,111,-1,113,-1,-1,-1,-1,-1,-1,-1,-1,-1,-1,-1,-1,-1,-1,-1,-1,-1,-1,-1,-1,-1,-1,-1,-1,-1,-1,-1,-1,-1,-1,-1,-1,-1,-1,-1,-1,-1,-1,-1,-1,-1,-1,-1,-1,-1,-1,-1,-1,-1,-1,-1,-1],"loss_changes":[1.0677676E2,2.7485107E1,3.6624428E1,4.3032528E1,3.3531624E1,3.638945E1,3.0799095E1,1.2710999E1,2.3742527E1,2.2145172E1,3.067715E1,2.6231644E1,2.4812666E1,2.8106487E1,2.1730555E1,1.6386871E0,1.0120609E1,2.894804E1,1.4156498E1,5.736725E0,2.2030453E1,3.024096E1,2.9503014E1,1.9044464E1,1.3916069E1,9.193905E0,1.8106827E1,2.7732567E1,2.7335274E1,2.238019E1,1.8026436E1,0E0,0E0,9.514648E0,1.1451182E0,1.9673344E1,1.67781E1,0E0,1.1142456E1,5.907838E0,0E0,1.3288277E1,1.1612059E1,1.4233837E1,3.009421E1,2.1849957E1,3.3960487E1,1.4318109E1,7.390254E0,1.5987953E1,1.4200529E1,8.533836E0,0E0,1.0090572E1,3.0771694E0,2.3944021E1,3.7158867E1,2.191153E1,7.318119E0,3.519092E1,5.0354652E0,0E0,3.5789356E1,0E0,0E0,0E0,0E0,0E0,0E0,0E0,0E0,0E0,0E0,0E0,0E0,0E0,0E0,0E0,0E0,0E0,0E0,0E0,0E0,0E0,0E0,0E0,0E0,0E0,0E0,0E0,0E0,0E0,0E0,0E0,0E0,0E0,0E0,0E0,0E0,0E0,0E0,0E0,0E0,0E0,0E0,0E0,0E0,0E0,0E0,0E0,0E0,0E0,0E0,0E0,0E0],"parents":[2147483647,0,0,1,1,2,2,3,3,4,4,5,5,6,6,7,7,8,8,9,9,10,10,11,11,12,12,13,13,14,14,15,15,16,16,17,17,18,18,19,19,20,20,21,21,22,22,23,23,24,24,25,25,26,26,27,27,28,28,29,29,30,30,33,33,34,34,35,35,36,36,38,38,39,39,41,41,42,42,43,43,44,44,45,45,46,46,47,47,48,48,49,49,50,50,51,51,53,53,54,54,55,55,56,56,57,57,58,58,59,59,60,60,62,62],"right_children":[2,4,6,8,10,12,14,16,18,20,22,24,26,28,30,32,34,36,38,40,42,44,46,48,50,52,54,56,58,60,62,-1,-1,64,66,68,70,-1,72,74,-1,76,78,80,82,84,86,88,90,92,94,96,-1,98,100,102,104,106,108,110,112,-1,114,-1,-1,-1,-1,-1,-1,-1,-1,-1,-1,-1,-1,-1,-1,-1,-1,-1,-1,-1,-1,-1,-1,-1,-1,-1,-1,-1,-1,-1,-1,-1,-1,-1,-1,-1,-1,-1,-1,-1,-1,-1,-1,-1,-1,-1,-1,-1,-1,-1,-1,-1,-1],"split_conditions":[5.205195E1,1.68455E4,4.375759E1,4.3618134E2,1.815321E4,2.672477E1,6.362167E4,4.5508554E2,-1.2653717E0,3.341604E1,1.894698E4,-1.9998596E1,4.057558E1,7.227999E0,6.460599E4,3.8978336E1,7.7370917E2,-3.2157787E1,3.3974945E2,3.5034407E3,5.871068E1,6.4812603E0,-2.8029062E2,5.4693913E1,1.4360515E1,7.017273E1,1.5995442E2,2.514807E4,3.8582346E2,6.416998E4,-3.8058942E2,-2.8316695E-2,-1.6333692E-1,3.1277774E2,3.874733E1,-8.7942924E1,-5.447275E1,-1.19878195E-1,2.023286E3,9.180521E2,-7.933406E-2,5.7077496E1,1.695746E4,5.461557E1,6.1445267E1,2.1137636E1,4.0449738E1,5.710695E0,5.806558E1,-2.7218458E1,5.1763035E1,5.9451412E1,1.5083571E-1,4.8301315E1,7.322839E1,1.648841E4,2.765409E4,7.2943835E0,8.7163245E2,7.698616E1,1.0105135E2,-1.471026E-1,-1.9064896E2,-9.130672E-2,1.1656153E-1,-1.7686067E-2,-1.4483364E-1,-2.6123045E-2,1.652301E-1,1.09065525E-1,-4.4963565E-2,1.2869243E-1,-1.3841267E-2,-5.465248E-2,1.5154378E-1,-1.3527185E-1,3.14748E-2,-1.2338064E-1,7.131707E-2,1.3653052E-1,-1.8357929E-2,-9.768526E-2,1.14126384E-1,4.6224725E-2,-1.702617E-2,-3.0337522E-2,-8.907094E-3,-9.095676E-2,4.697975E-2,8.235489E-3,9.684801E-2,-1.1810191E-1,1.1922878E-1,9.01689E-2,1.12804E-2,6.586129E-2,-7.5963326E-2,-1.5675732E-1,-4.6386436E-2,1.3898657E-1,-1.5323043E-2,6.9582455E-2,-1.43616665E-2,6.843417E-2,8.095629E-3,6.427582E-3,3.4451447E-2,-1.6507779E-1,2.0679837E-2,3.0151531E-2,-1.6061826E-1,-1.81088E-1,1.646815E-2,8.501368E-2,-7.6087387E-3],"split_indices":[232,240,21,41,5,38,115,61,158,142,5,88,248,64,225,12,81,4,6,131,122,114,248,217,154,38,131,190,249,60,84,0,0,106,17,39,128,0,201,131,0,217,195,137,32,124,157,29,247,249,32,77,0,177,31,45,225,153,226,138,23,0,88,0,0,0,0,0,0,0,0,0,0,0,0,0,0,0,0,0,0,0,0,0,0,0,0,0,0,0,0,0,0,0,0,0,0,0,0,0,0,0,0,0,0,0,0,0,0,0,0,0,0,0,0],"split_type":[0,0,0,0,0,0,0,0,0,0,0,0,0,0,0,0,0,0,0,0,0,0,0,0,0,0,0,0,0,0,0,0,0,0,0,0,0,0,0,0,0,0,0,0,0,0,0,0,0,0,0,0,0,0,0,0,0,0,0,0,0,0,0,0,0,0,0,0,0,0,0,0,0,0,0,0,0,0,0,0,0,0,0,0,0,0,0,0,0,0,0,0,0,0,0,0,0,0,0,0,0,0,0,0,0,0,0,0,0,0,0,0,0,0,0],"sum_hessian":[8.809809E3,4.8356553E3,3.9741533E3,1.5981223E2,4.6758433E3,3.2891248E2,3.645241E3,2.5749363E1,1.3406285E2,7.850781E1,4.5973354E3,2.473787E2,8.153379E1,2.834157E3,8.110839E2,1.3122475E1,1.2626888E1,7.871754E1,5.534532E1,7.8351684E0,7.0672646E1,6.76683E1,4.529667E3,6.967128E1,1.7770741E2,2.5688654E1,5.584514E1,1.5202162E3,1.3139408E3,5.9534058E1,7.5154987E2,1.4758053E0,1.1646669E1,8.191388E0,4.435501E0,2.3814657E1,5.4902878E1,1.9591426E0,5.338618E1,6.612372E0,1.2227962E0,5.715064E1,1.3522007E1,4.0086533E1,2.7581762E1,2.3259802E2,4.2970693E3,3.204767E1,3.7623615E1,8.57484E1,9.1959015E1,1.808299E1,7.6056633E0,5.0031647E1,5.8134923E0,7.045896E2,8.156266E2,1.3028654E3,1.1075446E1,4.397941E1,1.5554648E1,7.674443E0,7.438754E2,2.3830442E0,5.8083434E0,1.2213641E0,3.2141368E0,7.418922E0,1.6395735E1,7.3060145E0,4.7596863E1,4.7407627E1,5.9785523E0,1.2189947E0,5.3933773E0,5.2271698E1,4.8789406E0,3.2202477E0,1.030176E1,3.3172768E1,6.9137664E0,1.8257956E1,9.323807E0,1.465617E2,8.603633E1,9.486239E2,3.3484453E3,2.1500347E1,1.0547321E1,1.7057846E1,2.056577E1,2.1730766E0,8.357532E1,5.0237022E1,4.1721992E1,1.292724E1,5.1557503E0,1.0028482E1,4.0003162E1,4.352719E0,1.4607733E0,3.480871E1,6.6978094E2,1.1865312E2,6.9697345E2,4.0546454E2,8.974008E2,8.618743E0,2.4567032E0,3.1097296E1,1.2882112E1,1.4319142E1,1.2355055E0,4.3356136E1,7.005193E2],"tree_param":{"num_deleted":"0","num_feature":"250","num_nodes":"115","size_leaf_vector":"1"}},{"base_weights":[-4.527514E-3,-8.419962E-2,1.4430974E-1,-1.4560674E-1,-4.619015E-3,-1.132368E0,1.5141232E-1,3.053129E-1,-1.7190194E-1,9.676556E-1,-1.593285E-2,3.5165895E-2,-1.3664486E0,1.6081055E-1,-7.200627E-1,5.7027817E-1,-1.06651604E-1,-2.034293E-1,1.20597936E-1,1.2904857E0,-2.3832715E-1,1.6327922E-1,-6.4228885E-2,-1.1783175E-2,-1.519262E-1,1.498324E-1,7.2544104E-1,-2.3011701E-2,-1.2467284E0,2.319524E-1,8.5647976E-1,-1.4331062E0,1.0354311E-1,8.6392593E-1,-2.0989509E-1,3.1668392E-1,-2.3433188E-1,1.4084387E0,-3.0644042E-2,-1.459401E-1,1.17542066E-1,-1.4347236E-1,3.0244085E-1,-1.1317858E0,-5.650157E-2,1.8611342E-1,-1.1782515E-1,-6.3279516E-1,8.914621E-1,-4.9262542E-1,1.2583414E-1,-2.3374249E-1,-1.4750312E-1,5.891039E-2,-4.483625E-2,1.19125746E-1,4.4882547E-2,-1.5085267E-1,-4.4606794E-2,2.7593732E-2,-9.035594E-2,-6.7732446E-2,1.3720857E-1,-2.5727028E-2,-5.6434195E-3,3.8171757E-2,-1.5490355E-1,-3.5014886E-2,9.516296E-2,3.4895923E-2,1.4795105E-1,3.204545E-2,-3.3364978E-2,-1.2860338E-2,4.4405054E-2,-1.5682445E-1,-1.3866523E-2,-1.378049E-2,3.5582562E-3,1.658543E-2,6.670626E-2,-3.368776E-4,-6.5547295E-2,7.1542054E-2,-1.6513048E-1,2.9988963E-2,1.4656012E-1,1.0066545E-1,-7.976445E-2,1.0364995E-1,-1.0034158E-1],"categories":[],"categories_nodes":[],"categories_segments":[],"categories_sizes":[],"default_left":[0,0,0,0,0,0,0,0,0,0,0,0,0,0,0,0,0,0,0,0,0,0,0,0,0,0,0,0,0,0,0,0,0,0,0,0,0,0,0,0,0,0,0,0,0,0,0,0,0,0,0,0,0,0,0,0,0,0,0,0,0,0,0,0,0,0,0,0,0,0,0,0,0,0,0,0,0,0,0,0,0,0,0,0,0,0,0,0,0,0,0],"id":11,"left_children":[1,3,5,7,9,11,13,15,17,19,21,-1,23,25,27,29,31,33,35,37,39,41,43,-1,-1,45,47,49,51,53,55,57,59,61,63,65,67,69,-1,-1,-1,71,73,75,77,79,81,83,85,87,-1,89,-1,-1,-1,-1,-1,-1,-1,-1,-1,-1,-1,-1,-1,-1,-1,-1,-1,-1,-1,-1,-1,-1,-1,-1,-1,-1,-1,-1,-1,-1,-1,-1,-1,-1,-1,-1,-1,-1,-1],"loss_changes":[1.0505749E2,2.8198734E1,2.8181297E1,3.8672394E1,2.7673922E1,6.45821E0,2.5282608E1,1.9690708E1,2.8411842E1,1.1573944E1,2.1531168E1,0E0,2.6960487E0,1.8739952E1,1.2073708E1,1.0413818E1,2.0009123E1,1.9361137E1,2.0963104E1,4.7607803E0,1.3721388E1,2.2587364E1,1.6099216E1,0E0,0E0,2.8999771E1,1.3582977E1,9.770542E0,3.9936771E0,1.2801085E1,7.5175743E0,5.74646E-2,1.1086915E1,1.4188634E1,2.0074821E1,2.4100792E1,1.5082884E1,1.1087532E0,0E0,0E0,0E0,1.470801E1,2.2252342E1,5.862955E0,1.4576344E1,2.5497902E1,2.1955372E1,1.0619509E1,1.7174858E1,6.220724E0,0E0,5.575086E0,0E0,0E0,0E0,0E0,0E0,0E0,0E0,0E0,0E0,0E0,0E0,0E0,0E0,0E0,0E0,0E0,0E0,0E0,0E0,0E0,0E0,0E0,0E0,0E0,0E0,0E0,0E0,0E0,0E0,0E0,0E0,0E0,0E0,0E0,0E0,0E0,0E0,0E0,0E0],"parents":[2147483647,0,0,1,1,2,2,3,3,4,4,5,5,6,6,7,7,8,8,9,9,10,10,12,12,13,13,14,14,15,15,16,16,17,17,18,18,19,19,20,20,21,21,22,22,25,25,26,26,27,27,28,28,29,29,30,30,31,31,32,32,33,33,34,34,35,35,36,36,37,37,41,41,42,42,43,43,44,44,45,45,46,46,47,47,48,48,49,49,51,51],"right_children":[2,4,6,8,10,12,14,16,18,20,22,-1,24,26,28,30,32,34,36,38,40,42,44,-1,-1,46,48,50,52,54,56,58,60,62,64,66,68,70,-1,-1,-1,72,74,76,78,80,82,84,86,88,-1,90,-1,-1,-1,-1,-1,-1,-1,-1,-1,-1,-1,-1,-1,-1,-1,-1,-1,-1,-1,-1,-1,-1,-1,-1,-1,-1,-1,-1,-1,-1,-1,-1,-1,-1,-1,-1,-1,-1,-1],"split_conditions":[5.5050827E1,5.046376E1,-3.789252E2,-3.0313333E2,1.650228E4,4.306316E1,9.75E4,1.21440115E1,1.5103428E3,5.927331E1,7.549585E1,3.5165895E-2,2.9290766E1,7.817906E1,5.6963825E1,1.806433E2,2.4919596E1,-5.5459796E2,4.3508387E0,7.105726E1,1.629439E4,4.232763E1,2.736602E1,-1.1783175E-2,-1.519262E-1,1.0331983E2,1.388683E2,8.790006E1,4.4171104E1,3.953255E1,3.522172E1,6.2957924E1,-1.1653012E2,-3.1353763E2,3.3750965E1,2.4582487E1,6.888636E1,4.7910625E1,-3.0644042E-2,-1.459401E-1,1.17542066E-1,4.271071E1,-1.5046559E1,4.881355E1,5.4121838E1,7.126841E4,6.85251E1,5.3446983E1,1.5239336E2,2.736602E1,1.2583414E-1,1.1792003E2,-1.4750312E-1,5.891039E-2,-4.483625E-2,1.19125746E-1,4.4882547E-2,-1.5085267E-1,-4.4606794E-2,2.7593732E-2,-9.035594E-2,-6.7732446E-2,1.3720857E-1,-2.5727028E-2,-5.6434195E-3,3.8171757E-2,-1.5490355E-1,-3.5014886E-2,9.516296E-2,3.4895923E-2,1.4795105E-1,3.204545E-2,-3.3364978E-2,-1.2860338E-2,4.4405054E-2,-1.5682445E-1,-1.3866523E-2,-1.378049E-2,3.5582562E-3,1.658543E-2,6.670626E-2,-3.368776E-4,-6.5547295E-2,7.1542054E-2,-1.6513048E-1,2.9988963E-2,1.4656012E-1,1.0066545E-1,-7.976445E-2,1.0364995E-1,-1.0034158E-1],"split_indices":[247,177,64,248,20,192,210,114,186,117,26,0,97,107,212,106,192,118,124,162,5,247,121,0,0,133,146,133,57,167,212,7,208,38,39,163,27,167,0,0,0,56,99,111,112,95,212,22,134,121,0,66,0,0,0,0,0,0,0,0,0,0,0,0,0,0,0,0,0,0,0,0,0,0,0,0,0,0,0,0,0,0,0,0,0,0,0,0,0,0,0],"split_type":[0,0,0,0,0,0,0,0,0,0,0,0,0,0,0,0,0,0,0,0,0,0,0,0,0,0,0,0,0,0,0,0,0,0,0,0,0,0,0,0,0,0,0,0,0,0,0,0,0,0,0,0,0,0,0,0,0,0,0,0,0,0,0,0,0,0,0,0,0,0,0,0,0,0,0,0,0,0,0,0,0,0,0,0,0,0,0,0,0,0,0],"sum_hessian":[8.857473E3,5.769508E3,3.0879646E3,3.2561335E3,2.513374E3,1.6207813E1,3.0717568E3,1.7883281E2,3.0773008E3,2.7938065E1,2.485436E3,2.1397712E0,1.4068041E1,3.0397905E3,3.1966421E1,1.0859982E2,7.023298E1,2.778159E3,2.9914175E2,2.198328E1,5.954784E0,5.271096E2,1.9583263E3,1.7271148E0,1.2340926E1,2.983056E3,5.673439E1,1.4206962E1,1.775946E1,5.0597614E1,5.800221E1,8.811177E0,6.1421803E1,1.5929602E1,2.7622295E3,1.9275775E2,1.06383995E2,2.0581137E1,1.4021441E0,3.17779E0,2.776994E0,1.6449194E2,3.626177E2,1.302776E1,1.9452985E3,2.627238E3,3.558179E2,5.87324E0,5.086115E1,1.0847071E1,3.3598902E0,3.6386209E0,1.4120839E1,3.3267124E1,1.7330492E1,3.0792381E1,2.720983E1,7.69487E0,1.1163075E0,5.3064342E1,8.357461E0,3.8672671E0,1.2062334E1,2.1101309E3,6.520986E2,1.870337E2,5.7240534E0,9.756125E1,8.822746E0,1.6653552E0,1.8915781E1,4.7626007E1,1.1686594E2,8.969323E1,2.7292447E2,8.648007E0,4.3797526E0,1.0328625E3,9.12436E2,2.5223342E3,1.04904E2,2.9419492E2,6.1622993E1,2.6555848E0,3.217655E0,2.5800041E1,2.506111E1,1.4448425E0,9.402228E0,1.2420728E0,2.396548E0],"tree_param":{"num_deleted":"0","num_feature":"250","num_nodes":"91","size_leaf_vector":"1"}},{"base_weights":[-5.0990984E-5,-7.987196E-2,1.0683159E-1,3.1022856E-1,-9.145349E-2,-1.4507346E-2,1.5970238E-1,4.0587813E-1,-1.4309284E-1,-2.6446268E-1,-5.8560308E-2,1.0072612E-1,-1.6716671E-1,2.5490046E-1,2.4118079E-2,1.1781662E0,2.5357518E-1,-3.4500057E-1,2.8205824E-1,9.021817E-2,-9.06305E-2,-3.2619376E-2,3.5455507E-1,-2.5677103E-1,2.7414116E-1,6.889973E-1,2.0441762E-1,-7.7652645E-1,5.574356E-2,-2.3167248E-1,1.5060295E0,-1.2996744E0,3.9792266E-1,-8.9424664E-1,-2.6539364E-1,-8.9610964E-1,4.5479247E-1,2.6307866E-1,-1.7881349E-1,3.459102E-1,-1.0508952E-1,6.687408E-1,-8.0109335E-2,1.2834935E-1,6.448045E-1,9.7761667E-1,-2.8707677E-1,-1.9056433E-1,6.6370624E-1,-6.799287E-1,7.572028E-1,6.1120343E-1,1.4267515E-1,9.980061E-1,-1.2034885E0,-2.2049017E-1,1.5600157E-1,-1.4040402E-1,7.612828E-2,3.5159037E-2,1.5576778E-1,1.7331412E-2,-1.51619E-1,1.2451476E-1,1.7934551E-2,3.9460264E-2,-1.0242889E-1,-3.358443E-2,2.5026137E-2,3.4033652E-2,-1.3956708E-1,6.845726E-2,-2.5347332E-2,5.262663E-2,1.2757813E-2,-4.124446E-2,4.8523244E-2,-1.0131738E-1,5.1948864E-2,-2.0827373E-2,-3.3457961E-3,-9.499112E-2,9.825462E-2,-5.121371E-2,1.4458153E-3,2.1407934E-2,-1.11798264E-1,9.469276E-2,1.4302454E-2,-7.414868E-2,1.698318E-1,-1.21305756E-1,-2.5065532E-2,-1.00364506E-1,4.5859456E-2,8.651674E-2,-1.1242682E-1,5.8842827E-2,-1.4213783E-1,8.060101E-2,-5.3243496E-2,2.4748791E-3,1.01667166E-1,-3.1847588E-4,3.3182636E-2,1.3100444E-1,-5.37409E-2,-1.5381472E-1,2.9670954E-2,-6.133007E-2,-5.32582E-3,3.5167094E-2,-7.832768E-3],"categories":[],"categories_nodes":[],"categories_segments":[],"categories_sizes":[],"default_left":[0,0,0,0,0,0,0,0,0,0,0,0,0,0,0,0,0,0,0,0,0,0,0,0,0,0,0,0,0,0,0,0,0,0,0,0,0,0,0,0,0,0,0,0,0,0,0,0,0,0,0,0,0,0,0,0,0,0,0,0,0,0,0,0,0,0,0,0,0,0,0,0,0,0,0,0,0,0,0,0,0,0,0,0,0,0,0,0,0,0,0,0,0,0,0,0,0,0,0,0,0,0,0,0,0,0,0,0,0,0,0,0,0],"id":12,"left_children":[1,3,5,7,9,11,13,15,-1,17,19,21,23,25,27,29,31,33,35,37,39,41,43,45,47,49,51,53,55,57,59,61,63,65,67,69,71,73,75,77,79,81,83,85,87,89,91,93,95,97,99,101,103,105,107,109,111,-1,-1,-1,-1,-1,-1,-1,-1,-1,-1,-1,-1,-1,-1,-1,-1,-1,-1,-1,-1,-1,-1,-1,-1,-1,-1,-1,-1,-1,-1,-1,-1,-1,-1,-1,-1,-1,-1,-1,-1,-1,-1,-1,-1,-1,-1,-1,-1,-1,-1,-1,-1,-1,-1,-1,-1],"loss_changes":[7.5208626E1,2.2828663E1,2.4180527E1,2.4851433E1,2.7880104E1,2.0154152E1,3.387729E1,1.604172E1,0E0,3.4552486E1,1.9666454E1,2.2111786E1,1.955623E1,3.365455E1,2.7490288E1,1.0799997E1,2.681987E1,2.9613045E1,2.0980425E1,3.4047676E1,2.1433514E1,1.4341937E1,1.4687437E1,1.5622971E1,1.5270134E1,1.5475929E1,3.4646E1,3.2459713E1,2.8939716E1,7.043823E0,5.54039E-1,3.5188942E0,1.9795883E1,1.4818527E1,2.17975E1,8.667081E0,1.46298065E1,1.5821106E1,4.4663162E1,2.6220078E1,2.4251316E1,1.4806152E1,1.6458832E1,1.38815365E1,1.476445E1,1.3716704E1,1.322221E1,2.1004904E1,1.7444124E1,8.48358E0,1.0066177E1,4.3237007E1,3.3163147E1,4.7994986E0,1.7380028E1,1.8252338E1,3.516615E1,0E0,0E0,0E0,0E0,0E0,0E0,0E0,0E0,0E0,0E0,0E0,0E0,0E0,0E0,0E0,0E0,0E0,0E0,0E0,0E0,0E0,0E0,0E0,0E0,0E0,0E0,0E0,0E0,0E0,0E0,0E0,0E0,0E0,0E0,0E0,0E0,0E0,0E0,0E0,0E0,0E0,0E0,0E0,0E0,0E0,0E0,0E0,0E0,0E0,0E0,0E0,0E0,0E0,0E0,0E0,0E0],"parents":[2147483647,0,0,1,1,2,2,3,3,4,4,5,5,6,6,7,7,9,9,10,10,11,11,12,12,13,13,14,14,15,15,16,16,17,17,18,18,19,19,20,20,21,21,22,22,23,23,24,24,25,25,26,26,27,27,28,28,29,29,30,30,31,31,32,32,33,33,34,34,35,35,36,36,37,37,38,38,39,39,40,40,41,41,42,42,43,43,44,44,45,45,46,46,47,47,48,48,49,49,50,50,51,51,52,52,53,53,54,54,55,55,56,56],"right_children":[2,4,6,8,10,12,14,16,-1,18,20,22,24,26,28,30,32,34,36,38,40,42,44,46,48,50,52,54,56,58,60,62,64,66,68,70,72,74,76,78,80,82,84,86,88,90,92,94,96,98,100,102,104,106,108,110,112,-1,-1,-1,-1,-1,-1,-1,-1,-1,-1,-1,-1,-1,-1,-1,-1,-1,-1,-1,-1,-1,-1,-1,-1,-1,-1,-1,-1,-1,-1,-1,-1,-1,-1,-1,-1,-1,-1,-1,-1,-1,-1,-1,-1,-1,-1,-1,-1,-1,-1,-1,-1,-1,-1,-1,-1],"split_conditions":[5.2668003E1,-2.807154E2,-1.4362212E1,9.920932E4,3.9115463E1,2.576063E2,3.2718487E1,5.1788E4,-1.4309284E-1,4.342887E1,-3.039396E1,1.5491853E2,1.5357416E3,4.478233E1,1.91022E4,2.978402E1,5.472001E4,-1.4171217E2,2.8963556E1,6.266163E4,1.684908E4,2.939032E1,-1.6610134E1,3.0886223E1,4.3191853E1,4.1567394E1,1.942887E4,5.2308266E1,1.4031078E1,3.724364E1,1.9945721E2,2.3790895E1,-1.4997145E2,-2.6531976E2,1.6016624E3,3.9291283E1,-2.6989264E1,-7.1845634E1,2.1597416E1,3.6689368E2,8.391495E0,4.271468E4,-4.813517E1,6.775208E1,-2.242922E1,-5.4667156E1,-3.3038962E2,4.2030872E1,3.1776735E1,7.009985E1,5.5586414E1,2.920218E0,3.9732387E0,1.7862877E3,5.454176E1,4.366188E4,9.89183E1,-1.4040402E-1,7.612828E-2,3.5159037E-2,1.5576778E-1,1.7331412E-2,-1.51619E-1,1.2451476E-1,1.7934551E-2,3.9460264E-2,-1.0242889E-1,-3.358443E-2,2.5026137E-2,3.4033652E-2,-1.3956708E-1,6.845726E-2,-2.5347332E-2,5.262663E-2,1.2757813E-2,-4.124446E-2,4.8523244E-2,-1.0131738E-1,5.1948864E-2,-2.0827373E-2,-3.3457961E-3,-9.499112E-2,9.825462E-2,-5.121371E-2,1.4458153E-3,2.1407934E-2,-1.11798264E-1,9.469276E-2,1.4302454E-2,-7.414868E-2,1.698318E-1,-1.21305756E-1,-2.5065532E-2,-1.00364506E-1,4.5859456E-2,8.651674E-2,-1.1242682E-1,5.8842827E-2,-1.4213783E-1,8.060101E-2,-5.3243496E-2,2.4748791E-3,1.01667166E-1,-3.1847588E-4,3.3182636E-2,1.3100444E-1,-5.37409E-2,-1.5381472E-1,2.9670954E-2,-6.133007E-2,-5.32582E-3,3.5167094E-2,-7.832768E-3],"split_indices":[247,148,73,95,137,241,69,210,0,34,149,126,176,6,0,162,165,119,182,220,0,22,4,177,2,222,50,117,209,202,61,17,4,194,231,112,243,243,49,6,138,55,194,247,69,3,49,87,9,221,18,134,8,226,4,85,239,0,0,0,0,0,0,0,0,0,0,0,0,0,0,0,0,0,0,0,0,0,0,0,0,0,0,0,0,0,0,0,0,0,0,0,0,0,0,0,0,0,0,0,0,0,0,0,0,0,0,0,0,0,0,0,0],"split_type":[0,0,0,0,0,0,0,0,0,0,0,0,0,0,0,0,0,0,0,0,0,0,0,0,0,0,0,0,0,0,0,0,0,0,0,0,0,0,0,0,0,0,0,0,0,0,0,0,0,0,0,0,0,0,0,0,0,0,0,0,0,0,0,0,0,0,0,0,0,0,0,0,0,0,0,0,0,0,0,0,0,0,0,0,0,0,0,0,0,0,0,0,0,0,0,0,0,0,0,0,0,0,0,0,0,0,0,0,0,0,0,0,0],"sum_hessian":[8.813434E3,5.04559E3,3.767844E3,1.4473384E2,4.900856E3,1.1437206E3,2.6241233E3,1.3792395E2,6.809891E0,7.817937E2,4.1190625E3,6.5194574E2,4.917748E2,1.5411514E3,1.0829719E3,2.1609943E1,1.1631401E2,6.8170337E2,1.00090294E2,7.301186E2,3.3889438E3,4.2798254E2,2.2396317E2,4.0912347E2,8.2651344E1,1.592374E2,1.3819141E3,4.0256897E1,1.0427151E3,4.132641E0,1.7477303E1,9.209669E0,1.0710434E2,8.500187E1,5.9670154E2,1.2262654E1,8.7827644E1,4.4452243E2,2.8559616E2,1.079144E2,3.2810293E3,2.6311836E1,4.0167072E2,1.26678535E2,9.728464E1,9.054743E0,4.0006873E2,3.792367E1,4.4727673E1,7.131663E0,1.5210573E2,1.8093532E2,1.2009788E3,7.5481095E0,3.2708786E1,2.7735086E2,7.653642E2,1.705262E0,2.427379E0,1.082768E0,1.6394535E1,1.2058201E0,8.003849E0,2.1002016E1,8.6102325E1,7.6040206E0,7.739785E1,5.25284E2,7.141752E1,3.6204746E0,8.6421795E0,6.633898E1,2.1488663E1,1.5009792E2,2.9442453E2,2.1154666E2,7.40495E1,1.1673814E1,9.624058E1,1.3436353E3,1.937394E3,3.943523E0,2.2368313E1,7.134022E1,3.303305E2,1.19300575E2,7.3779583E0,6.0169365E1,3.7115273E1,2.6661882E0,6.3885546E0,1.3917722E1,3.86151E2,1.6593725E1,2.1329947E1,4.066216E1,4.0655155E0,2.707121E0,4.424542E0,1.4692044E2,5.185297E0,7.439464E1,1.0654068E2,6.786418E2,5.223369E2,6.3952103E0,1.1528991E0,2.6722363E1,5.986424E0,8.20221E1,1.9532875E2,4.1681503E2,3.4854916E2],"tree_param":{"num_deleted":"0","num_feature":"250","num_nodes":"113","size_leaf_vector":"1"}},{"base_weights":[5.6122765E-3,-9.038809E-2,7.162201E-2,-2.4631456E-1,-4.3515954E-2,7.931334E-2,-5.818185E-1,1.5241079E0,-2.6980734E-1,2.1064673E-1,-8.188609E-2,-4.049267E-3,1.3541238E-1,-1.7582768E-1,-1.0579262E0,1.7498032E0,-1.707208E-2,-3.8207E-1,-6.691009E-3,4.373555E-1,-8.3085485E-3,-2.9833937E-1,-3.705899E-2,1.3655537E0,-1.45558E-2,1.5505083E-1,-2.5789478E-1,-4.0407613E-1,1.2374151E0,3.5207514E-2,-1.1494817E0,1.8519905E-1,5.558523E-2,-9.2750436E-1,-3.1303114E-1,3.0213717E-1,-2.1811825E-1,1.6897995E-2,8.044101E-1,-1.000549E0,2.4274917E-1,-6.671115E-1,-1.5128076E-1,1.4330393E-1,-9.141759E-2,1.5536126E0,-1.3818835E-2,-1.7917551E-1,6.234831E-2,1.2942788E-1,4.63916E-1,-1.562793E0,-7.542081E-2,1.9510576E-1,-9.729055E-1,3.622066E-2,1.3866478E-1,3.4457285E-2,-1.2306173E0,-1.13554E-1,1.5307779E-2,8.324106E-2,-3.576145E-2,-3.910371E-3,8.701013E-2,-1.4231573E-2,-1.490504E-1,-8.851688E-2,2.7181406E-2,-4.2235777E-2,9.774577E-2,-1.34487E-1,-6.756153E-3,3.1617865E-2,-1.0663289E-1,-1.2365122E-1,-3.861722E-2,5.185582E-2,-2.7647156E-2,1.4608998E-3,5.1946875E-2,-2.2236452E-2,3.5388668E-3,1.6629823E-1,2.1834742E-2,4.373636E-4,-3.0430896E-2,1.2507656E-1,4.366853E-3,1.7934775E-2,-2.7507013E-3,8.0116E-2,-1.94514E-2,9.113965E-2,-1.7927356E-1,3.6291108E-2,-5.2387267E-2,7.295413E-2,-8.829778E-2,-1.16315775E-1,5.519259E-2,-1.4014617E-1,-4.453792E-2],"categories":[],"categories_nodes":[],"categories_segments":[],"categories_sizes":[],"default_left":[0,0,0,0,0,0,0,0,0,0,0,0,0,0,0,0,0,0,0,0,0,0,0,0,0,0,0,0,0,0,0,0,0,0,0,0,0,0,0,0,0,0,0,0,0,0,0,0,0,0,0,0,0,0,0,0,0,0,0,0,0,0,0,0,0,0,0,0,0,0,0,0,0,0,0,0,0,0,0,0,0,0,0,0,0,0,0,0,0,0,0,0,0,0,0,0,0,0,0,0,0,0,0],"id":13,"left_children":[1,3,5,7,9,11,13,15,17,19,21,23,25,27,29,31,-1,33,35,37,39,41,43,45,47,49,51,53,55,-1,57,-1,-1,59,61,63,65,67,69,71,73,75,77,79,81,83,-1,85,87,89,91,93,95,97,99,-1,-1,-1,101,-1,-1,-1,-1,-1,-1,-1,-1,-1,-1,-1,-1,-1,-1,-1,-1,-1,-1,-1,-1,-1,-1,-1,-1,-1,-1,-1,-1,-1,-1,-1,-1,-1,-1,-1,-1,-1,-1,-1,-1,-1,-1,-1,-1],"loss_changes":[5.609751E1,2.635055E1,2.640928E1,3.5075405E1,2.7074387E1,2.4250343E1,1.1632891E1,4.5312004E0,2.431815E1,1.8081747E1,2.338531E1,3.0048695E1,2.3980904E1,1.1532436E1,4.011919E0,1.7275238E-1,0E0,2.144136E1,1.6210518E1,2.760334E1,4.6638298E1,2.232639E1,1.960898E1,4.710264E0,2.624152E1,2.3308456E1,3.5070442E1,1.0482861E1,1.5104103E-1,0E0,3.633171E0,0E0,0E0,1.4635487E1,2.653506E1,1.9590221E1,1.4000286E1,1.9654749E1,2.0690483E1,1.2053398E1,1.4702207E1,1.8335598E1,2.504443E1,2.241932E1,2.5520317E1,1.7123337E0,0E0,1.5159895E1,3.1311693E1,2.1376423E1,5.029667E1,1.1919697E1,2.588237E1,9.59804E0,5.184781E0,0E0,0E0,0E0,2.7737236E0,0E0,0E0,0E0,0E0,0E0,0E0,0E0,0E0,0E0,0E0,0E0,0E0,0E0,0E0,0E0,0E0,0E0,0E0,0E0,0E0,0E0,0E0,0E0,0E0,0E0,0E0,0E0,0E0,0E0,0E0,0E0,0E0,0E0,0E0,0E0,0E0,0E0,0E0,0E0,0E0,0E0,0E0,0E0,0E0],"parents":[2147483647,0,0,1,1,2,2,3,3,4,4,5,5,6,6,7,7,8,8,9,9,10,10,11,11,12,12,13,13,14,14,15,15,17,17,18,18,19,19,20,20,21,21,22,22,23,23,24,24,25,25,26,26,27,27,28,28,30,30,33,33,34,34,35,35,36,36,37,37,38,38,39,39,40,40,41,41,42,42,43,43,44,44,45,45,47,47,48,48,49,49,50,50,51,51,52,52,53,53,54,54,58,58],"right_children":[2,4,6,8,10,12,14,16,18,20,22,24,26,28,30,32,-1,34,36,38,40,42,44,46,48,50,52,54,56,-1,58,-1,-1,60,62,64,66,68,70,72,74,76,78,80,82,84,-1,86,88,90,92,94,96,98,100,-1,-1,-1,102,-1,-1,-1,-1,-1,-1,-1,-1,-1,-1,-1,-1,-1,-1,-1,-1,-1,-1,-1,-1,-1,-1,-1,-1,-1,-1,-1,-1,-1,-1,-1,-1,-1,-1,-1,-1,-1,-1,-1,-1,-1,-1,-1,-1],"split_conditions":[4.7805374E1,7.985167E1,9.745198E4,2.597964E4,-1.8939282E2,-4.369568E0,5.6963825E1,1.558031E2,-1.0491995E1,6.313338E4,3.8724754E1,1.8624712E1,2.2641772E2,1.207418E2,-1.2781668E2,4.7353317E1,-1.707208E-2,3.026983E4,5.135649E1,3.1393747E1,6.627881E4,4.1282326E1,-2.867875E1,5.9561977E1,4.511422E1,1.3403613E2,4.733995E4,4.6739292E1,-5.649969E1,3.5207514E-2,5.330354E1,1.8519905E-1,5.558523E-2,-1.0057002E0,3.694515E4,5.4629475E1,6.3380703E1,2.287524E4,6.056531E1,4.440308E2,9.811271E4,3.2532425E1,-2.3985502E1,-4.696234E0,5.2939857E1,-2.193548E1,-1.3818835E-2,-8.329727E1,1.649244E4,5.1695103E1,1.3979933E2,-9.107928E1,6.659751E4,1.4547311E2,2.4283577E2,3.622066E-2,1.3866478E-1,3.4457285E-2,6.0897694E1,-1.13554E-1,1.5307779E-2,8.324106E-2,-3.576145E-2,-3.910371E-3,8.701013E-2,-1.4231573E-2,-1.490504E-1,-8.851688E-2,2.7181406E-2,-4.2235777E-2,9.774577E-2,-1.34487E-1,-6.756153E-3,3.1617865E-2,-1.0663289E-1,-1.2365122E-1,-3.861722E-2,5.185582E-2,-2.7647156E-2,1.4608998E-3,5.1946875E-2,-2.2236452E-2,3.5388668E-3,1.6629823E-1,2.1834742E-2,4.373636E-4,-3.0430896E-2,1.2507656E-1,4.366853E-3,1.7934775E-2,-2.7507013E-3,8.0116E-2,-1.94514E-2,9.113965E-2,-1.7927356E-1,3.6291108E-2,-5.2387267E-2,7.295413E-2,-8.829778E-2,-1.16315775E-1,5.519259E-2,-1.4014617E-1,-4.453792E-2],"split_indices":[247,106,225,50,243,4,212,21,238,245,167,32,4,79,124,242,0,155,91,232,125,37,138,202,87,59,0,47,178,0,211,0,0,203,215,32,227,0,1,246,245,92,74,218,92,3,0,103,40,23,128,133,50,61,198,0,0,0,92,0,0,0,0,0,0,0,0,0,0,0,0,0,0,0,0,0,0,0,0,0,0,0,0,0,0,0,0,0,0,0,0,0,0,0,0,0,0,0,0,0,0,0,0],"split_type":[0,0,0,0,0,0,0,0,0,0,0,0,0,0,0,0,0,0,0,0,0,0,0,0,0,0,0,0,0,0,0,0,0,0,0,0,0,0,0,0,0,0,0,0,0,0,0,0,0,0,0,0,0,0,0,0,0,0,0,0,0,0,0,0,0,0,0,0,0,0,0,0,0,0,0,0,0,0,0,0,0,0,0,0,0,0,0,0,0,0,0,0,0,0,0,0,0,0,0,0,0,0,0],"sum_hessian":[8.850413E3,3.6058801E3,5.2445327E3,8.324311E2,2.7734492E3,5.1843887E3,6.0144276E1,1.006486E1,8.223662E2,3.631912E2,2.410258E3,2.0858157E3,3.0985728E3,3.3201607E1,2.6942673E1,8.853438E0,1.2114222E0,5.761085E2,2.4625775E2,1.7794621E2,1.8524496E2,4.1255054E2,1.9977074E3,1.489711E1,2.0709187E3,2.951791E3,1.4678177E2,2.9199728E1,4.0018783E0,1.4692943E0,2.5473377E1,7.6477427E0,1.2056954E0,6.3331352E1,5.1277716E2,9.990263E1,1.4635512E2,8.34272E1,9.4519005E1,3.680347E1,1.484415E2,1.1660618E2,2.9594434E2,4.6226535E2,1.535442E3,1.3211685E1,1.6854246E0,6.589822E2,1.4119365E3,2.726984E3,2.2480711E2,1.7079475E1,1.297023E2,1.4540431E1,1.4659297E1,1.0822006E0,2.9196777E0,1.1448535E0,2.4328524E1,5.306443E1,1.0266922E1,1.8548761E1,4.942284E2,6.298906E1,3.691357E1,1.3917557E2,7.17955E0,1.7836634E1,6.559057E1,1.1506495E1,8.301251E1,2.6559986E1,1.02434845E1,1.4127547E2,7.1660256E0,3.7401146E1,7.920504E1,4.610663E1,2.498377E2,3.4520227E2,1.1706308E2,7.550173E2,7.804248E2,1.1984611E1,1.227075E0,2.6752875E2,3.914534E2,2.0828966E1,1.3911075E3,2.0687776E3,6.582063E2,1.4851952E2,7.62876E1,1.2003274E0,1.5879148E1,6.56877E1,6.40146E1,9.937458E0,4.6029725E0,1.3244036E1,1.4152603E0,1.9336681E1,4.991843E0],"tree_param":{"num_deleted":"0","num_feature":"250","num_nodes":"103","size_leaf_vector":"1"}},{"base_weights":[-4.9876017E-3,-6.931939E-2,7.387018E-2,-9.5157966E-2,1.1658733E-1,1.2920533E-1,-3.885814E-2,-1.8761939E-1,-3.5984516E-2,2.6851365E-1,-1.1333836E-1,2.8822488E-1,1.9929357E-2,-1.0883768E-1,2.8603116E-1,-9.047558E-2,-4.1394857E-1,-1.1962948E-1,2.1327311E-1,1.0361421E-1,6.3477796E-1,-2.599041E-1,6.5360814E-1,3.143961E-1,-7.6091284E-1,-1.6031235E-2,4.211712E-1,