{"learner":{"attributes":{"scikit_learn":"{\"_estimator_type\": \"classifier\"}"},"feature_names":[],"feature_types":[],"gradient_booster":{"model":{"gbtree_model_param":{"num_parallel_tree":"1","num_trees":"100"},"iteration_indptr":[0,1,2,3,4,5,6,7,8,9,10,11,12,13,14,15,16,17,18,19,20,21,22,23,24,25,26,27,28,29,30,31,32,33,34,35,36,37,38,39,40,41,42,43,44,45,46,47,48,49,50,51,52,53,54,55,56,57,58,59,60,61,62,63,64,65,66,67,68,69,70,71,72,73,74,75,76,77,78,79,80,81,82,83,84,85,86,87,88,89,90,91,92,93,94,95,96,97,98,99,100],"tree_info":[0,0,0,0,0,0,0,0,0,0,0,0,0,0,0,0,0,0,0,0,0,0,0,0,0,0,0,0,0,0,0,0,0,0,0,0,0,0,0,0,0,0,0,0,0,0,0,0,0,0,0,0,0,0,0,0,0,0,0,0,0,0,0,0,0,0,0,0,0,0,0,0,0,0,0,0,0,0,0,0,0,0,0,0,0,0,0,0,0,0,0,0,0,0,0,0,0,0,0,0],"trees":[{"base_weights":[-5.9258146E-3,-2.7919757E-1,1.0611661E-1,5.750865E-1,-7.0536464E-1,7.096533E-1,-2.3388033E-1,-2.169708E0,6.047423E-1,-1.7788889E-1,8.7203956E-1,2.5367898E-1,-3.3406734E0,1.0265008E-1,-6.235726E-1,1.0182598E0,-5.366621E-1,8.2338266E-2,-8.77991E-2,-4.716689E0,-3.1949177E-1,-1.8753113E-1,7.130197E-2,1.1019003E-1,-3.4581784E-2,-2.3388033E-1,7.8237586E-2,-8.77991E-2,-5.4589355E-1,-1.3649283E-1,6.770102E-2],"categories":[],"categories_nodes":[],"categories_segments":[],"categories_sizes":[],"default_left":[0,0,0,0,0,0,0,0,0,0,0,0,0,0,0,0,0,0,0,0,0,0,0,0,0,0,0,0,0,0,0],"id":0,"left_children":[1,-1,3,5,7,9,-1,11,13,-1,15,17,19,-1,21,23,25,-1,-1,27,29,-1,-1,-1,-1,-1,-1,-1,-1,-1,-1],"loss_changes":[2.0836E1,0E0,2.4844893E1,1.7834204E1,4.729654E1,1.7794611E1,0E0,3.358467E1,7.5991435E0,0E0,8.457075E0,3.7452135E0,3.1121788E1,0E0,8.122398E0,4.3900604E0,1.1971264E1,0E0,0E0,1.0365089E1,4.600266E0,0E0,0E0,0E0,0E0,0E0,0E0,0E0,0E0,0E0,0E0],"parents":[2147483647,0,0,2,2,3,3,4,4,5,5,7,7,8,8,10,10,11,11,12,12,14,14,15,15,16,16,19,19,20,20],"right_children":[2,-1,4,6,8,10,-1,12,14,-1,16,18,20,-1,22,24,26,-1,-1,28,30,-1,-1,-1,-1,-1,-1,-1,-1,-1,-1],"split_conditions":[-1.4730621E3,-2.7919757E-1,8.518175E2,4.0642494E5,1.2585864E3,1.2137909E4,-2.3388033E-1,5.269261E1,2.3865417E3,-1.7788889E-1,6.956103E1,3.9207327E2,6.38048E1,1.0265008E-1,6.850767E4,3.7566916E5,2.3497327E2,8.2338266E-2,-8.77991E-2,4.7519447E1,5.9649487E1,-1.8753113E-1,7.130197E-2,1.1019003E-1,-3.4581784E-2,-2.3388033E-1,7.8237586E-2,-8.77991E-2,-5.4589355E-1,-1.3649283E-1,6.770102E-2],"split_indices":[163,0,168,56,204,236,0,192,123,0,7,3,87,0,215,1,4,0,0,112,207,0,0,0,0,0,0,0,0,0,0],"split_type":[0,0,0,0,0,0,0,0,0,0,0,0,0,0,0,0,0,0,0,0,0,0,0,0,0,0,0,0,0,0,0],"sum_hessian":[6.479961E1,1.5804782E0,6.3219124E1,4.024951E1,2.2969616E1,3.9195858E1,1.053652E0,1.0536521E1,1.2433095E1,1.7912085E0,3.7404648E1,3.6877823E0,6.8487387E0,9.377503E0,3.055591E0,3.413833E1,3.2663214E0,2.6341302E0,1.053652E0,4.3199735E0,2.528765E0,1.3697478E0,1.6858433E0,3.234712E1,1.7912085E0,1.053652E0,2.2126694E0,1.053652E0,3.2663214E0,1.053652E0,1.4751129E0],"tree_param":{"num_deleted":"0","num_feature":"250","num_nodes":"31","size_leaf_vector":"1"}},{"base_weights":[-4.9775515E-2,7.154882E-2,-2.144209E0,9.217553E-1,-3.0736613E-1,-3.0281982E-1,-2.404715E-2,1.0149302E0,-4.040992E-2,-3.0137613E-1,-8.625516E-2,6.4968704E-3,1.0644525E-1,-4.3105412E-1,8.605607E-1,-2.5441566E-2,-2.976808E0,1.0191601E-1,-3.3910364E-2,-6.4120404E-2,8.079786E-2,-3.9531717E-1,8.789526E-3],"categories":[],"categories_nodes":[],"categories_segments":[],"categories_sizes":[],"default_left":[0,0,0,0,0,0,0,0,0,0,0,0,0,0,0,0,0,0,0,0,0,0,0],"id":1,"left_children":[1,3,5,7,9,-1,-1,11,-1,-1,13,-1,-1,15,17,19,21,-1,-1,-1,-1,-1,-1],"loss_changes":[1.7056955E1,2.0852001E1,5.4558983E0,2.8725681E0,2.6617252E1,0E0,0E0,8.2039833E-1,0E0,0E0,1.4262276E1,0E0,0E0,3.28209E1,2.5703554E0,1.5138128E1,1.3422894E1,0E0,0E0,0E0,0E0,0E0,0E0],"parents":[2147483647,0,0,1,1,2,2,3,3,4,4,7,7,10,10,13,13,14,14,15,15,16,16],"right_children":[2,4,6,8,10,-1,-1,12,-1,-1,14,-1,-1,16,18,20,22,-1,-1,-1,-1,-1,-1],"split_conditions":[3.869776E5,2.742646E4,2.090558E4,3.805124E5,2.655967E4,-3.0281982E-1,-2.404715E-2,1.659895E4,-4.040992E-2,-3.0137613E-1,1.4553131E3,6.4968704E-3,1.0644525E-1,6.812419E4,8.036631E1,5.821399E4,4.144532E4,1.0191601E-1,-3.3910364E-2,-6.4120404E-2,8.079786E-2,-3.9531717E-1,8.789526E-3],"split_indices":[66,145,70,56,70,0,0,240,0,0,218,0,0,195,112,160,226,0,0,0,0,0,0],"split_type":[0,0,0,0,0,0,0,0,0,0,0,0,0,0,0,0,0,0,0,0,0,0,0],"sum_hessian":[6.5521675E1,6.2846977E1,2.674701E0,1.8932888E1,4.391409E1,1.4231911E0,1.2515099E0,1.7908846E1,1.0240421E0,2.3628428E0,4.1551247E1,1.0018954E0,1.690695E1,3.085838E1,1.0692865E1,2.7488636E1,3.3697443E0,9.577194E0,1.1156718E0,1.5941262E1,1.1547374E1,2.3357193E0,1.0340251E0],"tree_param":{"num_deleted":"0","num_feature":"250","num_nodes":"23","size_leaf_vector":"1"}},{"base_weights":[2.992601E-3,7.954623E-1,-3.0820894E-1,-9.348302E-2,9.4717497E-1,-9.68355E-1,6.6450083E-1,1.05165266E-1,1.147651E-1,3.045298E-1,-1.5530158E0,-4.205227E-1,9.301551E-1,-4.3268584E-2,5.8600705E-2,8.67429E-1,-1.7160404E-1,-3.7345877E0,-8.2153165E-1,-1.6197334E-1,7.483476E-2,1.0482923E-1,-4.063665E-2,9.6737735E-2,6.746994E-3,-1.1660969E-1,-4.2588526E-1,1.489737E-1,-2.1030636E0,-1.0971347E-1,8.425331E-2,-2.7406105E-1,6.0085583E-2],"categories":[],"categories_nodes":[],"categories_segments":[],"categories_sizes":[],"default_left":[0,0,0,0,0,0,0,0,0,0,0,0,0,0,0,0,0,0,0,0,0,0,0,0,0,0,0,0,0,0,0,0,0],"id":2,"left_children":[1,3,5,-1,7,9,11,-1,13,15,17,19,21,-1,-1,23,-1,25,27,-1,-1,-1,-1,-1,-1,-1,-1,29,31,-1,-1,-1,-1],"loss_changes":[1.6245386E1,5.7610044E0,3.1019814E1,0E0,1.4075613E0,2.1747835E1,6.0747404E0,0E0,1.0486856E0,1.2673414E1,2.845422E1,7.613607E0,2.9761667E0,0E0,0E0,6.0279083E-1,0E0,1.3332748E0,2.0306675E1,0E0,0E0,0E0,0E0,0E0,0E0,0E0,0E0,9.637365E0,1.3703032E1,0E0,0E0,0E0,0E0],"parents":[2147483647,0,0,1,1,2,2,4,4,5,5,6,6,8,8,9,9,10,10,11,11,12,12,15,15,17,17,18,18,27,27,28,28],"right_children":[2,4,6,-1,8,10,12,-1,14,16,18,20,22,-1,-1,24,-1,26,28,-1,-1,-1,-1,-1,-1,-1,-1,30,32,-1,-1,-1,-1],"split_conditions":[-1.3730244E2,-1.4461467E3,6.15036E1,-9.348302E-2,4.912392E1,2.883816E4,-1.4253813E2,1.05165266E-1,4.4982018E1,3.2637066E5,3.037384E4,6.6056433E2,2.453682E3,-4.3268584E-2,5.8600705E-2,2.7952972E2,-1.7160404E-1,2.830079E4,6.079791E4,-1.6197334E-1,7.483476E-2,1.0482923E-1,-4.063665E-2,9.6737735E-2,6.746994E-3,-1.1660969E-1,-4.2588526E-1,4.27087E4,7.4046524E1,-1.0971347E-1,8.425331E-2,-2.7406105E-1,6.0085583E-2],"split_indices":[219,49,217,0,177,245,93,0,107,66,125,203,133,0,0,233,0,200,85,0,0,0,0,0,0,0,0,185,17,0,0,0,0],"split_type":[0,0,0,0,0,0,0,0,0,0,0,0,0,0,0,0,0,0,0,0,0,0,0,0,0,0,0,0,0,0,0,0,0],"sum_hessian":[6.38786E1,1.757304E1,4.630556E1,1.0004939E0,1.6572546E1,2.7587387E1,1.8718172E1,1.4490435E1,2.082111E0,8.833913E0,1.8753475E1,3.5668712E0,1.5151301E1,1.0010221E0,1.0810888E0,7.3554893E0,1.4784235E0,3.6781871E0,1.5075288E1,1.570194E0,1.9966773E0,1.411896E1,1.0323408E0,6.3525114E0,1.0029776E0,1.1700587E0,2.5081284E0,9.081564E0,5.993724E0,3.039195E0,6.042369E0,4.839149E0,1.1545749E0],"tree_param":{"num_deleted":"0","num_feature":"250","num_nodes":"33","size_leaf_vector":"1"}},{"base_weights":[-1.066107E-1,5.8289456E-1,-4.4775015E-1,7.3533446E-1,-1.0879693E-1,-1.8171263E0,-6.425253E-2,8.6284E-1,-8.312058E-2,7.400387E-2,-2.4938145E0,5.7985264E-1,-1.0090688E0,-4.3410253E-2,9.542912E-1,-4.5513026E-2,-2.91692E0,9.4820344E-1,-7.544331E-1,-2.5600011E0,9.750258E-2,1.05542086E-1,-4.3377783E-2,-3.2025686E-1,-7.712563E-2,-3.9801173E-2,1.0527209E-1,-2.4085365E-1,5.697006E-1,-6.1135437E-2,-2.968114E-1,-2.3684962E-1,6.549423E-1,7.2780186E-3,7.2520785E-2,9.7771935E-2,-8.853726E-2],"categories":[],"categories_nodes":[],"categories_segments":[],"categories_sizes":[],"default_left":[0,0,0,0,0,0,0,0,0,0,0,0,0,0,0,0,0,0,0,0,0,0,0,0,0,0,0,0,0,0,0,0,0,0,0,0,0],"id":3,"left_children":[1,3,5,7,-1,9,11,13,-1,-1,15,17,19,-1,21,-1,23,25,27,29,31,-1,-1,-1,-1,-1,-1,-1,33,-1,-1,-1,35,-1,-1,-1,-1],"loss_changes":[1.5879447E1,6.508654E0,2.3508526E1,4.9388533E0,0E0,1.8813515E1,2.2603867E1,2.7905912E0,0E0,0E0,5.5581856E0,1.1601593E1,2.604777E1,0E0,3.128912E0,0E0,1.4684753E0,2.9236355E0,1.3087365E1,3.1923866E0,1.4934853E1,0E0,0E0,0E0,0E0,0E0,0E0,0E0,2.3927248E-1,0E0,0E0,0E0,5.2032123E0,0E0,0E0,0E0,0E0],"parents":[2147483647,0,0,1,1,2,2,3,3,5,5,6,6,7,7,10,10,11,11,12,12,14,14,16,16,17,17,18,18,19,19,20,20,28,28,32,32],"right_children":[2,4,6,8,-1,10,12,14,-1,-1,16,18,20,-1,22,-1,24,26,28,30,32,-1,-1,-1,-1,-1,-1,-1,34,-1,-1,-1,36,-1,-1,-1,-1],"split_conditions":[2.841529E4,4.4365828E5,3.038001E4,4.545683E5,-1.0879693E-1,-2.6167044E2,6.494059E4,-8.79627E2,-8.312058E-2,7.400387E-2,2.92E4,1.5430088E3,1.2030306E3,-4.3410253E-2,3.038001E4,-4.5513026E-2,6.839302E1,3.06221E4,1.773833E3,8.7142914E2,-9.498879E2,1.05542086E-1,-4.3377783E-2,-3.2025686E-1,-7.712563E-2,-3.9801173E-2,1.0527209E-1,-2.4085365E-1,5.72169E1,-6.1135437E-2,-2.968114E-1,-2.3684962E-1,7.885755E1,7.2780186E-3,7.2520785E-2,9.7771935E-2,-8.853726E-2],"split_indices":[245,56,240,246,0,39,240,138,0,0,245,118,248,0,0,0,247,245,108,204,93,0,0,0,0,0,0,0,187,0,0,0,117,0,0,0,0],"split_type":[0,0,0,0,0,0,0,0,0,0,0,0,0,0,0,0,0,0,0,0,0,0,0,0,0,0,0,0,0,0,0,0,0,0,0,0,0],"sum_hessian":[6.540008E1,2.1412611E1,4.3987473E1,2.0135475E1,1.2771358E0,8.805804E0,3.5181667E1,1.9035336E1,1.1001387E0,1.823037E0,6.982767E0,2.1149677E1,1.403199E1,1.0070297E0,1.8028305E1,1.5568681E0,5.425899E0,1.6800882E1,4.348795E0,5.295936E0,8.736053E0,1.7027401E1,1.0009054E0,4.3537183E0,1.0721803E0,1.0081055E0,1.5792776E1,1.5693793E0,2.7794156E0,1.3496528E0,3.9462833E0,1.0116849E0,7.724369E0,1.012383E0,1.7670327E0,6.688106E0,1.036263E0],"tree_param":{"num_deleted":"0","num_feature":"250","num_nodes":"37","size_leaf_vector":"1"}},{"base_weights":[-5.343415E-2,3.5406515E-1,-5.88963E-1,-1.6562696E-1,4.8897985E-1,-1.4687529E0,3.5693437E-1,5.855119E-1,-1.3116218E-1,5.414567E-1,-1.9315159E0,-1.7242642E-1,6.614742E-1,8.0865544E-1,-2.4228998E-1,6.8314396E-2,9.556658E-3,-2.2478027E0,-1.339842E-3,1.0185843E-1,-1.0487288E-1,-8.049121E-2,9.111566E-1,-1.4603509E0,8.8487476E-2,-6.579269E-1,-2.716789E0,1.832401E-2,1.0126382E-1,1.3826052E-2,-2.0784421E-1,-1.2853758E-1,2.4231652E-2,-7.750474E-2,-2.8961164E-1],"categories":[],"categories_nodes":[],"categories_segments":[],"categories_sizes":[],"default_left":[0,0,0,0,0,0,0,0,0,0,0,0,0,0,0,0,0,0,0,0,0,0,0,0,0,0,0,0,0,0,0,0,0,0,0],"id":4,"left_children":[1,3,5,-1,7,9,11,13,-1,15,17,-1,19,21,23,-1,-1,25,-1,-1,-1,-1,27,29,-1,31,33,-1,-1,-1,-1,-1,-1,-1,-1],"loss_changes":[1.3908251E1,1.0648413E1,2.3411667E1,0E0,6.8107386E0,1.4483065E1,1.0050545E1,6.418683E0,0E0,1.54827E-1,7.226116E0,0E0,8.999239E0,5.1602154E0,1.216913E1,0E0,0E0,5.863922E0,0E0,0E0,0E0,0E0,1.7081661E0,4.422427E0,0E0,2.3771715E0,4.0333557E-1,0E0,0E0,0E0,0E0,0E0,0E0,0E0,0E0],"parents":[2147483647,0,0,1,1,2,2,4,4,5,5,6,6,7,7,9,9,10,10,12,12,13,13,14,14,17,17,22,22,23,23,25,25,26,26],"right_children":[2,4,6,-1,8,10,12,14,-1,16,18,-1,20,22,24,-1,-1,26,-1,-1,-1,-1,28,30,-1,32,34,-1,-1,-1,-1,-1,-1,-1,-1],"split_conditions":[8.518175E2,-1.6111416E3,1.1836407E3,-1.6562696E-1,4.3094494E5,2.0716763E2,-7.6933716E2,6.194469E1,-1.3116218E-1,6.113098E4,7.693497E1,-1.7242642E-1,4.135675E3,2.8242048E1,4.9565643E1,6.8314396E-2,9.556658E-3,4.5025627E1,-1.339842E-3,1.0185843E-1,-1.0487288E-1,-8.049121E-2,1.7066895E4,4.3780365E1,8.8487476E-2,-1.3750066E2,2.1565748E4,1.832401E-2,1.0126382E-1,1.3826052E-2,-2.0784421E-1,-1.2853758E-1,2.4231652E-2,-7.750474E-2,-2.8961164E-1],"split_indices":[168,148,214,0,46,218,8,57,0,20,92,0,134,242,182,0,0,27,0,0,0,0,66,202,0,8,86,0,0,0,0,0,0,0,0],"split_type":[0,0,0,0,0,0,0,0,0,0,0,0,0,0,0,0,0,0,0,0,0,0,0,0,0,0,0,0,0,0,0,0,0,0,0],"sum_hessian":[6.1777206E1,3.5274597E1,2.6502607E1,1.5092453E0,3.3765354E1,1.344474E1,1.3057867E1,3.268775E1,1.0775992E0,2.4840698E0,1.096067E1,1.0717506E0,1.1986116E1,2.5765497E1,6.922256E0,1.4812832E0,1.0027866E0,9.261605E0,1.6990654E0,1.0250171E1,1.735946E0,1.1296651E0,2.4635832E1,3.1849117E0,3.7373443E0,2.6570406E0,6.604564E0,3.3576233E0,2.127821E1,1.104522E0,2.0803897E0,1.3136487E0,1.3433919E0,1.0083376E0,5.5962267E0],"tree_param":{"num_deleted":"0","num_feature":"250","num_nodes":"35","size_leaf_vector":"1"}},{"base_weights":[2.9857873E-3,2.4051379E-1,-6.861024E-1,4.344771E-1,-9.2550886E-1,-1.5369581E0,2.8323996E-1,-6.561429E-1,5.681729E-1,-1.43239E0,6.460622E-2,-2.2020829E0,6.6723235E-2,-9.6361235E-2,7.873467E-1,-1.7076976E0,7.221254E-2,1.0362506E-1,2.1169296E-1,4.394937E-3,-2.119111E0,-2.5575755E-2,-2.582967E-1,-7.417615E-2,6.907427E-2,9.097467E-2,6.12918E-3,-3.6429513E-2,-2.1786991E-1,-2.6330972E-1,9.794129E-2,-6.5653235E-2,-2.494196E-1,8.388721E-2,-6.4320765E-2],"categories":[],"categories_nodes":[],"categories_segments":[],"categories_sizes":[],"default_left":[0,0,0,0,0,0,0,0,0,0,0,0,0,0,0,0,0,0,0,0,0,0,0,0,0,0,0,0,0,0,0,0,0,0,0],"id":5,"left_children":[1,3,5,7,9,11,13,15,17,19,-1,21,23,-1,25,27,-1,-1,29,-1,31,-1,-1,-1,-1,-1,-1,-1,-1,33,-1,-1,-1,-1,-1],"loss_changes":[1.0281074E1,1.0964539E1,1.3716218E1,6.310527E0,6.4858465E0,9.459808E0,6.02061E0,8.350704E0,5.9229355E0,5.759198E0,0E0,3.9361954E0,2.2933729E0,0E0,5.2292824E-1,1.1569481E0,0E0,0E0,8.3365135E0,0E0,4.6620178E-1,0E0,0E0,0E0,0E0,0E0,0E0,0E0,0E0,6.5999994E0,0E0,0E0,0E0,0E0,0E0],"parents":[2147483647,0,0,1,1,2,2,3,3,4,4,5,5,6,6,7,7,8,8,9,9,11,11,12,12,14,14,15,15,18,18,20,20,29,29],"right_children":[2,4,6,8,10,12,14,16,18,20,-1,22,24,-1,26,28,-1,-1,30,-1,32,-1,-1,-1,-1,-1,-1,-1,-1,34,-1,-1,-1,-1,-1],"split_conditions":[6.399001E4,3.2637066E5,1.3216924E3,1.4242199E4,2.7993244E5,3.7175324E4,5.935901E4,3.145423E4,4.8638977E1,1.861373E5,6.460622E-2,2.013429E4,2.4598963E4,-9.6361235E-2,4.341405E4,5.5120224E1,7.221254E-2,1.0362506E-1,9.761494E2,4.394937E-3,4.289276E1,-2.5575755E-2,-2.582967E-1,-7.417615E-2,6.907427E-2,9.097467E-2,6.12918E-3,-3.6429513E-2,-2.1786991E-1,-3.8206555E2,9.794129E-2,-6.5653235E-2,-2.494196E-1,8.388721E-2,-6.4320765E-2],"split_indices":[245,1,248,236,161,101,165,75,242,56,0,96,16,0,81,7,0,0,213,0,62,0,0,0,0,0,0,0,0,73,0,0,0,0,0],"split_type":[0,0,0,0,0,0,0,0,0,0,0,0,0,0,0,0,0,0,0,0,0,0,0,0,0,0,0,0,0,0,0,0,0,0,0],"sum_hessian":[6.0804714E1,4.5702187E1,1.510253E1,3.9721977E1,5.9802094E0,7.730975E0,7.3715544E0,3.9109306E0,3.5811047E1,4.5887537E0,1.3914557E0,5.200805E0,2.5301695E0,1.8598636E0,5.511691E0,2.0828192E0,1.8281113E0,1.4657737E1,2.1153309E1,1.7539805E0,2.8347733E0,1.1247574E0,4.076048E0,1.0199853E0,1.5101842E0,4.5000606E0,1.0116303E0,1.001049E0,1.0817702E0,1.3473825E1,7.679484E0,1.139979E0,1.6947944E0,3.1440306E0,1.0329795E1],"tree_param":{"num_deleted":"0","num_feature":"250","num_nodes":"35","size_leaf_vector":"1"}},{"base_weights":[-8.488902E-2,5.363377E-1,-5.242502E-1,7.7873474E-1,-6.650428E-1,-1.5466201E0,1.3693073E-1,-7.681484E-2,9.4800025E-1,6.0354013E-2,-1.2318586E0,-1.8664037E0,3.89795E-2,-5.865108E-1,6.7422885E-1,-4.0779028E-2,1.04236916E-1,-2.041884E-2,-1.6563997E-1,-1.2323314E-1,-2.215637E0,7.1838014E-2,-9.6174425E-1,-8.171518E-2,8.6885345E-1,5.682629E-2,-7.775071E-2,-4.4669475E-2,-2.4324834E0,-1.3534567E0,6.3202634E-2,1.9948408E-1,9.946456E-2,-5.9295114E-2,-2.6209766E-1,-1.8802781E-1,5.903773E-3,6.0446855E-2,-3.2980315E-2],"categories":[],"categories_nodes":[],"categories_segments":[],"categories_sizes":[],"default_left":[0,0,0,0,0,0,0,0,0,0,0,0,0,0,0,0,0,0,0,0,0,0,0,0,0,0,0,0,0,0,0,0,0,0,0,0,0,0,0],"id":6,"left_children":[1,3,5,7,9,11,13,-1,15,-1,17,19,-1,21,23,-1,-1,-1,-1,25,27,-1,29,-1,31,-1,-1,-1,33,35,-1,37,-1,-1,-1,-1,-1,-1,-1],"loss_changes":[1.6501158E1,7.8308883E0,2.4082998E1,6.3201504E0,4.162937E0,9.365932E0,9.088322E0,0E0,2.9453163E0,0E0,1.2392807E0,7.120941E0,0E0,5.619458E0,4.5698686E0,0E0,0E0,0E0,0E0,1.8380563E0,2.7721863E0,0E0,6.0029216E0,0E0,8.328543E-1,0E0,0E0,0E0,1.4750633E0,5.2729597E0,0E0,8.8280195E-1,0E0,0E0,0E0,0E0,0E0,0E0,0E0],"parents":[2147483647,0,0,1,1,2,2,3,3,4,4,5,5,6,6,8,8,10,10,11,11,13,13,14,14,19,19,20,20,22,22,24,24,28,28,29,29,31,31],"right_children":[2,4,6,8,10,12,14,-1,16,-1,18,20,-1,22,24,-1,-1,-1,-1,26,28,-1,30,-1,32,-1,-1,-1,34,36,-1,38,-1,-1,-1,-1,-1,-1,-1],"split_conditions":[2.0716763E2,6.529311E1,-1.8482771E2,-1.1388013E3,4.31092E1,1.3954473E3,6.101373E1,-7.681484E-2,1.0868694E4,6.0354013E-2,4.4095013E1,4.0788986E1,3.89795E-2,6.009623E1,3.979059E1,-4.0779028E-2,1.04236916E-1,-2.041884E-2,-1.6563997E-1,4.1706676E1,-7.7081323E2,7.1838014E-2,7.5870155E1,-8.171518E-2,2.6710654E4,5.682629E-2,-7.775071E-2,-4.4669475E-2,1.3374569E4,7.27181E1,6.3202634E-2,1.2028464E3,9.946456E-2,-5.9295114E-2,-2.6209766E-1,-1.8802781E-1,5.903773E-3,6.0446855E-2,-3.2980315E-2],"split_indices":[218,52,89,219,207,223,202,0,161,0,232,27,0,72,7,0,0,0,0,17,14,0,7,0,236,0,0,0,241,127,0,199,0,0,0,0,0,0,0],"split_type":[0,0,0,0,0,0,0,0,0,0,0,0,0,0,0,0,0,0,0,0,0,0,0,0,0,0,0,0,0,0,0,0,0,0,0,0,0,0,0],"sum_hessian":[5.842629E1,2.4112352E1,3.431394E1,2.0356844E1,3.7555082E0,1.2950176E1,2.136376E1,1.6588469E0,1.8697996E1,1.1397833E0,2.6157248E0,1.1145707E1,1.8044691E0,9.065706E0,1.2298054E1,1.0006399E0,1.7697357E1,1.19763E0,1.4180948E0,2.0860784E0,9.059629E0,1.8204662E0,7.24524E0,1.050398E0,1.1247656E1,1.0781025E0,1.007976E0,1.3234491E0,7.73618E0,5.9368753E0,1.3083653E0,2.1884139E0,9.059242E0,1.1043549E0,6.631825E0,4.0828934E0,1.853982E0,1.1593182E0,1.0290956E0],"tree_param":{"num_deleted":"0","num_feature":"250","num_nodes":"39","size_leaf_vector":"1"}},{"base_weights":[-4.7289904E-2,1.888825E-1,-7.198092E-1,-8.4016114E-2,9.3240887E-1,-1.3438573E0,2.659752E-1,3.9396572E-1,-7.226711E-1,7.1792887E-3,1.0027277E-1,-1.6562383E0,5.9340727E-2,-7.0454097E-1,8.652417E-2,6.232709E-1,-1.295708E-1,-1.3787974E0,8.774515E-2,-1.9636968E0,1.741606E-2,5.8078077E-2,-1.5843354E-1,8.561549E-1,-7.6233286E-1,2.1621692E-1,-1.8435977E0,-2.19637E0,-2.1514235E-2,9.4843015E-2,2.3455413E-3,-1.7678063E-1,5.836847E-2,-4.037078E-2,6.487827E-2,-2.1205203E-1,-1.7542131E-2,-2.3928757E-1,-6.776774E-2],"categories":[],"categories_nodes":[],"categories_segments":[],"categories_sizes":[],"default_left":[0,0,0,0,0,0,0,0,0,0,0,0,0,0,0,0,0,0,0,0,0,0,0,0,0,0,0,0,0,0,0,0,0,0,0,0,0,0,0],"id":7,"left_children":[1,3,5,7,9,11,13,15,17,-1,-1,19,-1,21,-1,23,-1,25,-1,27,-1,-1,-1,29,31,33,35,37,-1,-1,-1,-1,-1,-1,-1,-1,-1,-1,-1],"loss_changes":[9.703019E0,9.284524E0,1.011599E1,1.0696405E1,6.702194E-1,6.9612274E0,4.6715026E0,8.61647E0,1.6908192E1,0E0,0E0,5.278057E0,0E0,4.5583954E0,0E0,6.5969853E0,0E0,8.548531E0,0E0,2.6158123E0,0E0,0E0,0E0,1.2257309E0,5.3351154E0,1.1671269E0,3.6089153E0,3.4535408E-1,0E0,0E0,0E0,0E0,0E0,0E0,0E0,0E0,0E0,0E0,0E0],"parents":[2147483647,0,0,1,1,2,2,3,3,4,4,5,5,6,6,7,7,8,8,11,11,13,13,15,15,17,17,19,19,23,23,24,24,25,25,26,26,27,27],"right_children":[2,4,6,8,10,12,14,16,18,-1,-1,20,-1,22,-1,24,-1,26,-1,28,-1,-1,-1,30,32,34,36,38,-1,-1,-1,-1,-1,-1,-1,-1,-1,-1,-1],"split_conditions":[6.403724E4,3.772396E4,1.3918914E3,2.911399E4,-1.4730621E3,6.482306E1,6.73775E4,4.3094494E5,9.761494E2,7.1792887E-3,1.0027277E-1,6.8378E4,5.9340727E-2,6.566184E4,8.652417E-2,3.7371628E5,-1.295708E-1,4.4563553E1,8.774515E-2,5.91408E1,1.741606E-2,5.8078077E-2,-1.5843354E-1,3.7123897E5,5.315674E1,5.3872E1,1.0293091E3,5.238953E4,-2.1514235E-2,9.4843015E-2,2.3455413E-3,-1.7678063E-1,5.836847E-2,-4.037078E-2,6.487827E-2,-2.1205203E-1,-1.7542131E-2,-2.3928757E-1,-6.776774E-2],"split_indices":[240,25,233,165,3,242,215,76,213,0,0,25,0,215,0,236,0,247,0,167,0,0,0,131,32,32,43,91,0,0,0,0,0,0,0,0,0,0,0],"split_type":[0,0,0,0,0,0,0,0,0,0,0,0,0,0,0,0,0,0,0,0,0,0,0,0,0,0,0,0,0,0,0,0,0,0,0,0,0,0,0],"sum_hessian":[5.9234406E1,4.437139E1,1.4863012E1,3.310703E1,1.1264364E1,8.878969E0,5.984043E0,1.9154533E1,1.3952495E1,1.0035155E0,1.0260849E1,7.7709737E0,1.107995E0,2.2173529E0,3.7666903E0,1.7421408E1,1.7331258E0,9.993147E0,3.959348E0,6.5910306E0,1.179943E0,1.0391259E0,1.178227E0,1.524177E1,2.1796381E0,2.375651E0,7.617496E0,5.590959E0,1.0000718E0,1.3596138E1,1.6456324E0,1.0682765E0,1.1113616E0,1.0037935E0,1.3718573E0,6.3004413E0,1.3170546E0,4.440748E0,1.1502109E0],"tree_param":{"num_deleted":"0","num_feature":"250","num_nodes":"39","size_leaf_vector":"1"}},{"base_weights":[-3.7089806E-2,7.2830987E-1,-2.5549397E-1,9.152191E-1,-5.5593032E-2,-6.228742E-1,5.431396E-1,5.733617E-3,9.883302E-2,-9.0113235E-1,2.4333292E-1,-4.261212E-1,9.0682554E-1,1.3008481E-1,-1.2421052E0,7.7302E-1,-6.869155E-1,4.6388668E-1,-1.3038525E-1,9.829422E-2,6.900714E-3,6.0555094E-1,-1.3497743E-1,-1.4410913E0,3.7368618E-2,8.932953E-2,8.990898E-3,-1.21525384E-1,2.25464E-2,1.0502334E-2,5.832658E-2,-3.4737125E-2,8.6959146E-2,-1.5585619E-2,-1.6347119E-1],"categories":[],"categories_nodes":[],"categories_segments":[],"categories_sizes":[],"default_left":[0,0,0,0,0,0,0,0,0,0,0,0,0,0,0,0,0,0,0,0,0,0,0,0,0,0,0,0,0,0,0,0,0,0,0],"id":8,"left_children":[1,3,5,7,-1,9,11,-1,-1,13,15,17,19,21,23,25,27,29,-1,-1,-1,31,-1,33,-1,-1,-1,-1,-1,-1,-1,-1,-1,-1,-1],"loss_changes":[1.0005545E1,3.7013063E0,1.3964061E1,6.952429E-1,0E0,7.998287E0,5.732665E0,0E0,0E0,8.825365E0,4.7854786E0,4.3688884E0,6.5585613E-1,5.7623506E0,6.5226307E0,4.1036582E-1,2.039319E0,7.283652E-2,0E0,0E0,0E0,1.8140647E0,0E0,3.9201584E0,0E0,0E0,0E0,0E0,0E0,0E0,0E0,0E0,0E0,0E0,0E0],"parents":[2147483647,0,0,1,1,2,2,3,3,5,5,6,6,9,9,10,10,11,11,12,12,13,13,14,14,15,15,16,16,17,17,21,21,23,23],"right_children":[2,4,6,8,-1,10,12,-1,-1,14,16,18,20,22,24,26,28,30,-1,-1,-1,32,-1,34,-1,-1,-1,-1,-1,-1,-1,-1,-1,-1,-1],"split_conditions":[-1.8081476E2,1.5373181E3,6.1628716E1,2.8242048E1,-5.5593032E-2,7.5866345E2,-2.1537292E2,5.733617E-3,9.883302E-2,-7.387889E1,6.372401E4,4.5700535E4,8.240847E1,3.869776E5,1.273276E3,7.179983E4,6.650433E4,4.164883E1,-1.3038525E-1,9.829422E-2,6.900714E-3,3.6736923E1,-1.3497743E-1,4.2170494E1,3.7368618E-2,8.932953E-2,8.990898E-3,-1.21525384E-1,2.25464E-2,1.0502334E-2,5.832658E-2,-3.4737125E-2,8.6959146E-2,-1.5585619E-2,-1.6347119E-1],"split_indices":[238,113,212,197,0,14,73,0,0,179,80,136,182,56,199,61,70,47,0,0,0,112,0,42,0,0,0,0,0,0,0,0,0,0,0],"split_type":[0,0,0,0,0,0,0,0,0,0,0,0,0,0,0,0,0,0,0,0,0,0,0,0,0,0,0,0,0,0,0,0,0,0,0],"sum_hessian":[5.774064E1,1.2300104E1,4.5440533E1,1.0988217E1,1.3118873E0,3.1274153E1,1.4166381E1,1.0030214E0,9.985196E0,2.3639835E1,7.634319E0,3.8183663E0,1.0348015E1,6.027904E0,1.761193E1,4.972166E0,2.662153E0,2.1300337E0,1.6883326E0,9.327395E0,1.0206192E0,5.0092726E0,1.0186317E0,1.5777088E1,1.834842E0,3.9661582E0,1.0060077E0,1.4756666E0,1.1864862E0,1.0009232E0,1.1291106E0,1.0183716E0,3.990901E0,2.301945E0,1.3475143E1],"tree_param":{"num_deleted":"0","num_feature":"250","num_nodes":"35","size_leaf_vector":"1"}},{"base_weights":[-5.134889E-2,-2.1781202E-1,7.78785E-1,-9.279465E-3,-1.2020125E0,-3.4935813E-2,9.573301E-2,-2.857647E-1,7.530724E-1,-1.521181E0,2.552761E-2,9.328595E-2,-6.1268866E-1,9.836818E-2,-7.1569405E-2,-1.829109E-1,1.2448582E-2,-8.4481335E-1,6.600901E-1,1.0732901E-2,-1.2899463E-1,1.4084674E-2,7.749702E-2],"categories":[],"categories_nodes":[],"categories_segments":[],"categories_sizes":[],"default_left":[0,0,0,0,0,0,0,0,0,0,0,0,0,0,0,0,0,0,0,0,0,0,0],"id":9,"left_children":[1,3,5,7,9,-1,-1,11,13,15,-1,-1,17,-1,-1,-1,-1,19,21,-1,-1,-1,-1],"loss_changes":[7.8857336E0,9.695151E0,2.2571077E0,8.653155E0,4.2305536E0,0E0,0E0,1.256436E1,4.4059987E0,3.73452E0,0E0,0E0,7.7483606E0,0E0,0E0,0E0,0E0,9.048708E0,1.4827132E-1,0E0,0E0,0E0,0E0],"parents":[2147483647,0,0,1,1,2,2,3,3,4,4,7,7,8,8,9,9,12,12,17,17,18,18],"right_children":[2,4,6,8,10,-1,-1,12,14,16,-1,-1,18,-1,-1,-1,-1,20,22,-1,-1,-1,-1],"split_conditions":[1.40898E3,6.504399E4,1.23054795E4,7.619794E2,3.58955E4,-3.4935813E-2,9.573301E-2,-3.899477E2,2.0506414E3,6.15036E1,2.552761E-2,9.328595E-2,9.673369E2,9.836818E-2,-7.1569405E-2,-1.829109E-1,1.2448582E-2,4.8574604E1,2.824365E4,1.0732901E-2,-1.2899463E-1,1.4084674E-2,7.749702E-2],"split_indices":[228,225,51,9,196,0,0,94,93,232,0,0,218,0,0,0,0,247,205,0,0,0,0],"split_type":[0,0,0,0,0,0,0,0,0,0,0,0,0,0,0,0,0,0,0,0,0,0,0],"sum_hessian":[5.483826E1,4.6292957E1,8.545306E0,3.903223E1,7.2607265E0,1.0369029E0,7.5084033E0,2.910262E1,9.929611E0,5.9202566E0,1.3404697E0,5.763915E0,2.3338703E1,8.867587E0,1.0620234E0,4.893198E0,1.0270585E0,2.0023193E1,3.3155107E0,6.62059E0,1.3402603E1,1.0039262E0,2.3115845E0],"tree_param":{"num_deleted":"0","num_feature":"250","num_nodes":"23","size_leaf_vector":"1"}},{"base_weights":[-5.724158E-3,-1.575744E-1,8.543915E-1,1.766376E-2,-1.2892712E0,1.1333819E-2,9.367351E-2,6.560493E-1,-3.085256E-1,-1.4873031E0,-1.4204233E-2,-8.248446E-2,8.757774E-1,4.156792E-1,-5.961024E-1,-1.6400437E-1,-4.906142E-2,9.9047534E-2,2.4988836E-1,6.210076E-1,-5.529332E-2,-1.0561368E0,1.5700849E-2,-3.52623E-2,6.460822E-2,-4.6893675E-2,9.32709E-2,6.1308242E-2,-1.3064559E-1,5.8243882E-2,-8.8340476E-2],"categories":[],"categories_nodes":[],"categories_segments":[],"categories_sizes":[],"default_left":[0,0,0,0,0,0,0,0,0,0,0,0,0,0,0,0,0,0,0,0,0,0,0,0,0,0,0,0,0,0,0],"id":10,"left_children":[1,3,5,7,9,-1,-1,11,13,15,-1,-1,17,19,21,-1,-1,-1,23,25,-1,27,29,-1,-1,-1,-1,-1,-1,-1,-1],"loss_changes":[7.5098777E0,9.708391E0,4.203844E-1,9.21421E0,1.2795553E0,0E0,0E0,5.5886E0,6.354584E0,3.1212807E-2,0E0,0E0,7.221813E-1,2.1180916E0,6.0393214E0,0E0,0E0,0E0,1.0464615E0,3.098762E0,0E0,5.9107475E0,5.696627E0,0E0,0E0,0E0,0E0,0E0,0E0,0E0,0E0],"parents":[2147483647,0,0,1,1,2,2,3,3,4,4,7,7,8,8,9,9,12,12,13,13,14,14,18,18,19,19,21,21,22,22],"right_children":[2,4,6,8,10,-1,-1,12,14,16,-1,-1,18,20,22,-1,-1,-1,24,26,-1,28,30,-1,-1,-1,-1,-1,-1,-1,-1],"split_conditions":[1.40898E3,6.713996E4,1.8025305E4,4.8638977E1,4.8075254E4,1.1333819E-2,9.367351E-2,1.1842907E4,3.1917256E4,4.9842106E1,-1.4204233E-2,-8.248446E-2,5.937622E1,5.4887023E4,5.9397488E1,-1.6400437E-1,-4.906142E-2,9.9047534E-2,6.3369167E1,4.3297386E1,-5.529332E-2,1.940163E4,1.280669E3,-3.52623E-2,6.460822E-2,-4.6893675E-2,9.32709E-2,6.1308242E-2,-1.3064559E-1,5.8243882E-2,-8.8340476E-2],"split_indices":[228,215,231,247,46,0,0,236,6,47,0,0,182,206,247,0,0,0,182,207,0,0,153,0,0,0,0,0,0,0,0],"split_type":[0,0,0,0,0,0,0,0,0,0,0,0,0,0,0,0,0,0,0,0,0,0,0,0,0,0,0,0,0,0,0],"sum_hessian":[5.546824E1,4.7839203E1,7.6290355E0,4.2277164E1,5.562037E0,1.0005913E0,6.628444E0,1.3954854E1,2.8322311E1,4.490472E0,1.0715654E0,1.4472101E0,1.2507644E1,7.923387E0,2.0398924E1,3.3340445E0,1.156427E0,1.0078238E1,2.4294064E0,6.833646E0,1.0897416E0,1.122912E1,9.169805E0,1.007391E0,1.4220153E0,1.4075034E0,5.426142E0,1.2753583E0,9.953762E0,5.84052E0,3.329284E0],"tree_param":{"num_deleted":"0","num_feature":"250","num_nodes":"31","size_leaf_vector":"1"}},{"base_weights":[-3.1709693E-2,7.455042E-1,-1.7414702E-1,-4.1483436E-2,9.490631E-2,-1.3430948E0,-2.786711E-2,-1.7805166E0,1.2244078E-2,6.344472E-1,-2.5574094E-1,-5.207775E-2,-2.1354476E-1,-1.9798817E-2,8.186823E-1,3.9027086E-1,-5.886287E-1,9.640968E-2,-1.585361E-2,7.002189E-1,-8.376614E-2,-9.010569E-1,1.9820367E-1,9.6006334E-2,-6.2819116E-2,2.4022702E-2,-1.1576178E-1,8.6370334E-2,-8.948046E-2],"categories":[],"categories_nodes":[],"categories_segments":[],"categories_sizes":[],"default_left":[0,0,0,0,0,0,0,0,0,0,0,0,0,0,0,0,0,0,0,0,0,0,0,0,0,0,0,0,0],"id":11,"left_children":[1,3,5,-1,-1,7,9,11,-1,13,15,-1,-1,-1,17,19,21,-1,-1,23,-1,25,27,-1,-1,-1,-1,-1,-1],"loss_changes":[6.2782407E0,2.4701977E0,8.127125E0,0E0,0E0,3.6087656E0,6.7211733E0,7.3801994E-1,0E0,1.9122672E0,7.3363466E0,0E0,0E0,0E0,1.508306E0,5.092491E0,5.637772E0,0E0,0E0,4.0541387E0,0E0,4.9852495E0,5.9601774E0,0E0,0E0,0E0,0E0,0E0,0E0],"parents":[2147483647,0,0,1,1,2,2,5,5,6,6,7,7,9,9,10,10,14,14,15,15,16,16,19,19,21,21,22,22],"right_children":[2,4,6,-1,-1,8,10,12,-1,14,16,-1,-1,-1,18,20,22,-1,-1,24,-1,26,28,-1,-1,-1,-1,-1,-1],"split_conditions":[4.307576E1,3.552119E1,4.029999E1,-4.1483436E-2,9.490631E-2,-6.3737384E2,2.9079557E4,2.4368693E4,1.2244078E-2,-9.498879E2,2.883816E4,-5.207775E-2,-2.1354476E-1,-1.9798817E-2,4.23501E4,3.869776E5,6.810408E2,9.640968E-2,-1.585361E-2,3.997567E5,-8.376614E-2,2.9079557E4,2.0709185E3,9.6006334E-2,-6.2819116E-2,2.4022702E-2,-1.1576178E-1,8.6370334E-2,-8.948046E-2],"split_indices":[187,232,157,0,0,184,6,56,0,78,245,0,0,0,76,66,19,0,0,41,0,1,98,0,0,0,0,0,0],"split_type":[0,0,0,0,0,0,0,0,0,0,0,0,0,0,0,0,0,0,0,0,0,0,0,0,0,0,0,0,0],"sum_hessian":[5.4539078E1,7.79136E0,4.674772E1,1.0079385E0,6.7834215E0,4.2893233E0,4.2458393E1,3.1378396E0,1.1514837E0,1.0411937E1,3.2046455E1,1.2320936E0,1.9057461E0,1.8732628E0,8.538674E0,1.0839203E1,2.1207254E1,7.4443493E0,1.0943251E0,8.9977865E0,1.8414155E0,1.5075888E1,6.1313663E0,7.7576346E0,1.2401524E0,2.778718E0,1.2297171E1,3.9413748E0,2.1899912E0],"tree_param":{"num_deleted":"0","num_feature":"250","num_nodes":"29","size_leaf_vector":"1"}},{"base_weights":[-3.687801E-2,4.3077907E-1,-2.3894374E-1,-9.296578E-2,6.629715E-1,-5.9347624E-1,4.6172622E-1,8.1872773E-1,-6.2183466E-2,-9.191222E-1,2.352775E-1,-5.6780255E-1,7.3432034E-1,9.4279766E-1,-3.7646186E-2,-1.0641464E0,3.3139866E-2,6.4916813E-1,-7.979642E-2,-9.738099E-2,1.6896872E-2,9.697773E-2,-5.1586617E-2,1.8975832E-2,9.9094905E-2,-3.6214387E-1,-1.421804E0,-3.338316E-2,8.968573E-2,2.3965E-2,-1.7138387E-1,-4.6582725E-2,-1.7270938E-1],"categories":[],"categories_nodes":[],"categories_segments":[],"categories_sizes":[],"default_left":[0,0,0,0,0,0,0,0,0,0,0,0,0,0,0,0,0,0,0,0,0,0,0,0,0,0,0,0,0,0,0,0,0],"id":12,"left_children":[1,3,5,-1,7,9,11,13,-1,15,17,19,21,23,-1,25,-1,27,-1,-1,-1,-1,-1,-1,-1,29,31,-1,-1,-1,-1,-1,-1],"loss_changes":[5.2517767E0,5.921981E0,9.885105E0,0E0,3.4970932E0,7.267827E0,4.2229857E0,2.393649E0,0E0,3.7914734E0,4.010546E0,1.1825141E0,3.785027E0,2.7394104E-1,0E0,3.8108253E0,0E0,1.8533905E0,0E0,0E0,0E0,0E0,0E0,0E0,0E0,6.232363E0,2.4268017E0,0E0,0E0,0E0,0E0,0E0,0E0],"parents":[2147483647,0,0,1,1,2,2,4,4,5,5,6,6,7,7,9,9,10,10,11,11,12,12,13,13,15,15,17,17,25,25,26,26],"right_children":[2,4,6,-1,8,10,12,14,-1,16,18,20,22,24,-1,26,-1,28,-1,-1,-1,-1,-1,-1,-1,30,32,-1,-1,-1,-1,-1,-1],"split_conditions":[4.8638977E1,1.4242199E4,6.1626087E1,-9.296578E-2,6.937474E4,7.107981E2,4.196883E1,2.9315878E5,-6.2183466E-2,1.273276E3,2.1377986E3,2.8478219E4,8.106502E1,1.4441258E4,-3.7646186E-2,2.796805E4,3.3139866E-2,1.8292787E4,-7.979642E-2,-9.738099E-2,1.6896872E-2,9.697773E-2,-5.1586617E-2,1.8975832E-2,9.9094905E-2,3.9840047E5,2.5993564E4,-3.338316E-2,8.968573E-2,2.3965E-2,-1.7138387E-1,-4.6582725E-2,-1.7270938E-1],"split_indices":[242,131,222,0,195,4,62,241,0,214,93,211,112,196,0,135,0,241,0,0,0,0,0,0,0,56,206,0,0,0,0,0,0],"split_type":[0,0,0,0,0,0,0,0,0,0,0,0,0,0,0,0,0,0,0,0,0,0,0,0,0,0,0,0,0,0,0,0,0],"sum_hessian":[5.3486584E1,1.57962265E1,3.7690357E1,1.8650284E0,1.3931198E1,2.512854E1,1.2561819E1,1.274847E1,1.1827276E0,1.7961718E1,7.1668215E0,2.4030523E0,1.0158767E1,1.1740852E1,1.0076178E0,1.6228697E1,1.7330209E0,5.38246E0,1.7843614E0,1.3418708E0,1.0611815E0,8.737468E0,1.4212991E0,1.0025681E0,1.0738284E1,6.156802E0,1.0071895E1,1.0132816E0,4.3691783E0,4.829392E0,1.3274102E0,3.049286E0,7.0226083E0],"tree_param":{"num_deleted":"0","num_feature":"250","num_nodes":"33","size_leaf_vector":"1"}},{"base_weights":[-3.0260378E-2,-6.4341116E-1,1.6274361E-1,5.5720605E-2,-9.60847E-1,-3.584036E-1,4.0407586E-1,3.3842232E-2,-1.2089772E0,2.4545343E-1,-9.112752E-1,-6.731112E-2,7.987392E-1,-4.5482787E-1,-1.6481209E-1,-1.06182314E-1,7.480671E-1,-1.2744002E0,1.4650836E-2,6.310819E-1,-6.733916E-1,9.610437E-1,-4.1657805E-2,5.5841308E-2,-9.15495E-1,1.0419649E-2,8.6518526E-2,-1.4475927E-1,-3.043343E-2,-4.067467E-2,8.818478E-2,4.7021306E-1,-1.168844E0,1.008737E-1,1.8313764E-2,-1.0649289E-1,-2.8700361E-2,5.832845E-2,1.2066016E-2,-4.7803223E-3,-1.4032E-1],"categories":[],"categories_nodes":[],"categories_segments":[],"categories_sizes":[],"default_left":[0,0,0,0,0,0,0,0,0,0,0,0,0,0,0,0,0,0,0,0,0,0,0,0,0,0,0,0,0,0,0,0,0,0,0,0,0,0,0,0,0],"id":13,"left_children":[1,3,5,-1,7,9,11,-1,13,15,17,19,21,23,-1,-1,25,27,-1,29,31,33,-1,-1,35,-1,-1,-1,-1,-1,-1,37,39,-1,-1,-1,-1,-1,-1,-1,-1],"loss_changes":[6.1491423E0,5.2728047E0,5.1311235E0,0E0,3.6968794E0,4.5899687E0,5.182475E0,0E0,2.158638E0,5.4191756E0,2.8906832E0,6.1329746E0,3.375455E0,2.664338E0,0E0,0E0,3.374765E-1,4.5723248E-1,0E0,2.123621E0,4.9144125E0,3.2013988E-1,0E0,0E0,2.7766705E-2,0E0,0E0,0E0,0E0,0E0,0E0,4.9843073E-2,1.4203954E0,0E0,0E0,0E0,0E0,0E0,0E0,0E0,0E0],"parents":[2147483647,0,0,1,1,2,2,4,4,5,5,6,6,8,8,9,9,10,10,11,11,12,12,13,13,16,16,17,17,19,19,20,20,21,21,24,24,31,31,32,32],"right_children":[2,4,6,-1,8,10,12,-1,14,16,18,20,22,24,-1,-1,26,28,-1,30,32,34,-1,-1,36,-1,-1,-1,-1,-1,-1,38,40,-1,-1,-1,-1,-1,-1,-1,-1],"split_conditions":[-5.1155176E2,3.7451508E1,-1.4419019E2,5.5720605E-2,-5.7135803E2,-3.702319E2,5.1635975E1,3.3842232E-2,3.0966877E4,-2.072297E3,2.652273E4,-1.7026886E2,8.387044E1,6.063602E4,-1.6481209E-1,-1.06182314E-1,-9.953046E1,6.101373E1,1.4650836E-2,4.596918E1,2.92E4,6.850767E4,-4.1657805E-2,5.5841308E-2,6.593601E4,1.0419649E-2,8.6518526E-2,-1.4475927E-1,-3.043343E-2,-4.067467E-2,8.818478E-2,4.734215E1,2.78E4,1.008737E-1,1.8313764E-2,-1.0649289E-1,-2.8700361E-2,5.832845E-2,1.2066016E-2,-4.7803223E-3,-1.4032E-1],"split_indices":[23,27,83,0,159,99,202,0,141,148,60,229,77,45,0,0,233,202,0,77,245,95,0,0,95,0,0,0,0,0,0,207,40,0,0,0,0,0,0,0,0],"split_type":[0,0,0,0,0,0,0,0,0,0,0,0,0,0,0,0,0,0,0,0,0,0,0,0,0,0,0,0,0,0,0,0,0,0,0,0,0,0,0,0,0],"sum_hessian":[5.0076584E1,1.1430278E1,3.864631E1,2.2322078E0,9.198071E0,1.2078396E1,2.6567911E1,1.4165876E0,7.7814827E0,6.038772E0,6.0396237E0,1.2485109E1,1.4082803E1,3.612826E0,4.168657E0,1.3680165E0,4.6707554E0,4.3436985E0,1.6959254E0,5.781627E0,6.703482E0,1.26082115E1,1.4745913E0,1.0628642E0,2.549962E0,1.0096669E0,3.6610887E0,3.2679815E0,1.075717E0,1.0040817E0,4.7775455E0,2.0417202E0,4.661762E0,1.1600267E1,1.0079436E0,1.4991046E0,1.0508573E0,1.0374675E0,1.0042528E0,1.0142206E0,3.6475415E0],"tree_param":{"num_deleted":"0","num_feature":"250","num_nodes":"41","size_leaf_vector":"1"}},{"base_weights":[-8.153201E-2,6.784573E-1,-2.0972525E-1,-4.0814217E-2,9.087945E-2,-4.2833915E-1,3.67341E-1,7.878376E-2,-5.713795E-1,-8.2564753E-1,6.812778E-1,-6.8210393E-1,7.057972E-2,-2.52012E-2,-9.9637516E-2,-7.0272066E-2,9.4199695E-2,4.2625588E-1,-8.4076345E-1,6.004219E-2,-6.553668E-2,-2.940526E-2,7.521392E-2,-9.595733E-2,6.440108E-2],"categories":[],"categories_nodes":[],"categories_segments":[],"categories_sizes":[],"default_left":[0,0,0,0,0,0,0,0,0,0,0,0,0,0,0,0,0,0,0,0,0,0,0,0,0],"id":14,"left_children":[1,3,5,-1,-1,7,9,-1,11,13,15,17,-1,-1,-1,19,-1,21,23,-1,-1,-1,-1,-1,-1],"loss_changes":[5.039772E0,2.2459362E0,5.6800776E0,0E0,0E0,6.053692E0,5.2688365E0,0E0,4.639163E0,4.956436E-2,2.122861E0,5.2055597E0,0E0,0E0,0E0,1.8195394E0,0E0,1.1871591E0,4.9308815E0,0E0,0E0,0E0,0E0,0E0,0E0],"parents":[2147483647,0,0,1,1,2,2,5,5,6,6,8,8,9,9,10,10,11,11,15,15,17,17,18,18],"right_children":[2,4,6,-1,-1,8,10,-1,12,14,16,18,-1,-1,-1,20,-1,22,24,-1,-1,-1,-1,-1,-1],"split_conditions":[4.307576E1,3.552119E1,6.2156094E1,-4.0814217E-2,9.087945E-2,4.2422226E1,4.029999E1,7.878376E-2,7.0419365E1,5.9649487E1,9.48412E2,3.9258537E1,7.057972E-2,-2.52012E-2,-9.9637516E-2,5.2515236E1,9.4199695E-2,3.3287655E1,7.5870155E1,6.004219E-2,-6.553668E-2,-2.940526E-2,7.521392E-2,-9.595733E-2,6.440108E-2],"split_indices":[187,227,182,0,0,232,2,0,222,87,213,47,0,0,0,237,0,62,7,0,0,0,0,0,0],"split_type":[0,0,0,0,0,0,0,0,0,0,0,0,0,0,0,0,0,0,0,0,0,0,0,0,0],"sum_hessian":[4.9269005E1,6.491559E0,4.2777447E1,1.0003839E0,5.491175E0,3.1211218E1,1.1566227E1,2.8101952E0,2.8401024E1,2.070012E0,9.496215E0,2.6563993E1,1.8370292E0,1.0427005E0,1.0273116E0,2.6339755E0,6.862239E0,3.115213E0,2.3448782E1,1.2150117E0,1.4189638E0,1.0007977E0,2.1144152E0,2.2038975E1,1.4098072E0],"tree_param":{"num_deleted":"0","num_feature":"250","num_nodes":"25","size_leaf_vector":"1"}},{"base_weights":[-1.038058E-1,-2.327707E-1,6.865091E-1,3.833379E-1,-4.7514424E-1,-1.0942431E-2,8.85724E-2,6.219941E-1,-8.4472895E-2,7.362698E-2,-7.724295E-1,-5.5327423E-2,8.0729157E-1,4.547437E-1,-1.3078861E-1,-9.9146044E-1,2.6990086E-2,9.652712E-2,-3.2485995E-2,7.7173555E-1,-6.1853677E-2,-1.1433688E0,5.8162715E-2,7.92385E-2,-9.7493134E-2,-2.1797163E-2,9.3888484E-2,-4.3869305E-2,-1.5084395E-1],"categories":[],"categories_nodes":[],"categories_segments":[],"categories_sizes":[],"default_left":[0,0,0,0,0,0,0,0,0,0,0,0,0,0,0,0,0,0,0,0,0,0,0,0,0,0,0,0,0],"id":15,"left_children":[1,3,5,7,9,-1,-1,11,-1,13,15,-1,17,19,-1,21,23,-1,-1,25,-1,27,-1,-1,-1,-1,-1,-1,-1],"loss_changes":[5.3568425E0,6.839711E0,1.2713141E0,4.3767443E0,5.3496404E0,0E0,0E0,2.9681277E0,0E0,7.0775805E0,3.7265978E0,0E0,2.175149E0,4.0130644E0,0E0,4.6347847E0,5.003938E0,0E0,0E0,1.605463E0,0E0,3.322281E0,0E0,0E0,0E0,0E0,0E0,0E0,0E0],"parents":[2147483647,0,0,1,1,2,2,3,3,4,4,7,7,9,9,10,10,12,12,13,13,15,15,16,16,19,19,21,21],"right_children":[2,4,6,8,10,-1,-1,12,-1,14,16,-1,18,20,-1,22,24,-1,-1,26,-1,28,-1,-1,-1,-1,-1,-1,-1],"split_conditions":[1.3918914E3,4.660166E1,1.9056912E4,6.472414E4,2.796805E4,-1.0942431E-2,8.85724E-2,1.1842907E4,-8.4472895E-2,4.0642494E5,1.1577776E3,-5.5327423E-2,2.614934E5,3.869776E5,-1.3078861E-1,1.5325531E3,6.666865E4,9.652712E-2,-3.2485995E-2,2.4757844E4,-6.1853677E-2,1.6738298E2,5.8162715E-2,7.92385E-2,-9.7493134E-2,-2.1797163E-2,9.3888484E-2,-4.3869305E-2,-1.5084395E-1],"split_indices":[233,247,166,245,135,0,0,236,0,56,13,0,111,76,0,158,110,0,0,246,0,144,0,0,0,0,0,0,0],"split_type":[0,0,0,0,0,0,0,0,0,0,0,0,0,0,0,0,0,0,0,0,0,0,0,0,0,0,0,0,0],"sum_hessian":[4.9989956E1,4.3583412E1,6.406543E0,1.2140615E1,3.1442797E1,1.3727292E0,5.0338135E0,1.0578384E1,1.5622314E0,1.1312649E1,2.0130148E1,1.1702272E0,9.408157E0,9.392409E0,1.9202387E0,1.5612339E1,4.517809E0,8.385457E0,1.0226998E0,7.4677706E0,1.9246389E0,1.4486582E1,1.1257575E0,2.679784E0,1.8380251E0,1.0350549E0,6.432716E0,5.695171E0,8.79141E0],"tree_param":{"num_deleted":"0","num_feature":"250","num_nodes":"29","size_leaf_vector":"1"}},{"base_weights":[-4.131922E-2,4.7129127E-1,-2.571218E-1,6.7582995E-1,-5.7490684E-2,-3.9236367E-1,8.1726134E-2,8.399421E-1,-2.823604E-2,-5.680766E-1,4.374183E-1,9.5849246E-2,-4.6257186E-3,1.8502163E-2,-7.719152E-1,8.164211E-2,-3.7476268E-2,4.221708E-1,-9.727449E-2,-9.086329E-1,1.2521714E-1,-8.832284E-2,8.7510645E-2,-1.0815277E-1,1.8434523E-2,6.7774855E-2,-6.1264146E-2],"categories":[],"categories_nodes":[],"categories_segments":[],"categories_sizes":[],"default_left":[0,0,0,0,0,0,0,0,0,0,0,0,0,0,0,0,0,0,0,0,0,0,0,0,0,0,0],"id":16,"left_children":[1,3,5,7,-1,9,-1,11,-1,13,15,-1,-1,17,19,-1,-1,21,-1,23,25,-1,-1,-1,-1,-1,-1],"loss_changes":[5.4407473E0,3.512675E0,5.331814E0,2.2298007E0,0E0,4.8132463E0,0E0,1.2073789E0,0E0,3.155507E0,2.1639788E0,0E0,0E0,3.512392E0,2.5079632E0,0E0,0E0,4.4421816E0,0E0,3.4231424E0,1.8259131E0,0E0,0E0,0E0,0E0,0E0,0E0],"parents":[2147483647,0,0,1,1,2,2,3,3,5,5,7,7,9,9,10,10,13,13,14,14,17,17,19,19,20,20],"right_children":[2,4,6,8,-1,10,-1,12,-1,14,16,-1,-1,18,20,-1,-1,22,-1,24,26,-1,-1,-1,-1,-1,-1],"split_conditions":[2.830799E4,4.0642494E5,6.73775E4,3.869776E5,-5.7490684E-2,1.40898E3,8.1726134E-2,3.016071E4,-2.823604E-2,4.8638977E1,5.335748E4,9.5849246E-2,-4.6257186E-3,6.494059E4,1.4983682E3,8.164211E-2,-3.7476268E-2,1.3374569E4,-9.727449E-2,1.1219042E3,1.8087238E3,-8.832284E-2,8.7510645E-2,-1.0815277E-1,1.8434523E-2,6.7774855E-2,-6.1264146E-2],"split_indices":[160,71,65,231,0,228,0,240,0,242,116,0,0,240,168,0,0,236,0,8,168,0,0,0,0,0,0],"split_type":[0,0,0,0,0,0,0,0,0,0,0,0,0,0,0,0,0,0,0,0,0,0,0,0,0,0,0],"sum_hessian":[4.7087505E1,1.35995865E1,3.348792E1,1.1671704E1,1.9278822E0,3.0307636E1,3.1802826E0,1.0070335E1,1.6013693E0,2.5271572E1,5.0360646E0,8.810185E0,1.2601494E0,6.751696E0,1.8519875E1,3.4301636E0,1.6059008E0,5.2058167E0,1.5458796E0,1.6059658E1,2.4602172E0,1.0962688E0,4.109548E0,1.3875251E1,2.184407E0,1.453361E0,1.0068563E0],"tree_param":{"num_deleted":"0","num_feature":"250","num_nodes":"27","size_leaf_vector":"1"}},{"base_weights":[-1.1494342E-3,-4.0180725E-1,2.069658E-1,7.282117E-1,-8.936024E-1,3.032116E-1,-1.1620014E-1,8.522923E-3,8.530801E-2,-1.0388793E0,2.4300048E-2,6.122006E-1,-1.2221979E-1,1.6842967E-2,-1.2181712E0,-5.109319E-2,7.771172E-1,-4.9049303E-1,8.163261E-2,-1.353676E0,-2.1095587E-2,9.349739E-1,-1.8569137E-1,-8.0315155E-1,4.951847E-1,-3.8962565E-2,-1.466988E-1,8.552862E-3,9.95878E-2,2.5313517E-2,-5.4172166E-2,1.2844138E-2,-1.1260178E-1,1.4859539E-2,5.9051365E-2],"categories":[],"categories_nodes":[],"categories_segments":[],"categories_sizes":[],"default_left":[0,0,0,0,0,0,0,0,0,0,0,0,0,0,0,0,0,0,0,0,0,0,0,0,0,0,0,0,0,0,0,0,0,0,0],"id":17,"left_children":[1,3,5,7,9,11,-1,-1,-1,13,-1,15,17,-1,19,-1,21,23,-1,25,-1,27,29,31,33,-1,-1,-1,-1,-1,-1,-1,-1,-1,-1],"loss_changes":[3.971448E0,9.698965E0,4.4829483E0,3.6792588E-1,2.199788E0,4.0294657E0,0E0,0E0,0E0,2.5096931E0,0E0,3.655737E0,5.063327E0,0E0,9.9617004E-1,0E0,2.5654764E0,3.5761368E0,0E0,3.1248856E-1,0E0,6.2288094E-1,6.1381406E-1,2.6144161E0,1.47506595E-2,0E0,0E0,0E0,0E0,0E0,0E0,0E0,0E0,0E0,0E0],"parents":[2147483647,0,0,1,1,2,2,3,3,4,4,5,5,9,9,11,11,12,12,14,14,16,16,17,17,19,19,21,21,22,22,23,23,24,24],"right_children":[2,4,6,8,10,12,-1,-1,-1,14,-1,16,18,-1,20,-1,22,24,-1,26,-1,28,30,32,34,-1,-1,-1,-1,-1,-1,-1,-1,-1,-1],"split_conditions":[-2.2251074E2,5.301962E1,5.9326075E5,-3.4974332E2,1.3696187E3,6.1349346E1,-1.1620014E-1,8.522923E-3,8.530801E-2,3.7451508E1,2.4300048E-2,3.8115543E1,7.4046524E1,1.6842967E-2,5.3027386E1,-5.109319E-2,2.9358838E5,4.9198652E4,8.163261E-2,2.25999E4,-2.1095587E-2,3.5335033E1,2.6099765E2,2.8928965E4,2.4829353E2,-3.8962565E-2,-1.466988E-1,8.552862E-3,9.95878E-2,2.5313517E-2,-5.4172166E-2,1.2844138E-2,-1.1260178E-1,1.4859539E-2,5.9051365E-2],"split_indices":[84,197,76,244,218,17,0,0,0,7,0,2,17,0,17,0,121,176,0,41,0,242,129,1,193,0,0,0,0,0,0,0,0,0,0],"split_type":[0,0,0,0,0,0,0,0,0,0,0,0,0,0,0,0,0,0,0,0,0,0,0,0,0,0,0,0,0,0,0,0,0,0,0],"sum_hessian":[4.563166E1,1.5281478E1,3.0350182E1,4.488147E0,1.0793331E1,2.9083935E1,1.2662472E0,1.003483E0,3.4846637E0,9.646345E0,1.1469859E0,1.6593288E1,1.2490647E1,1.2551377E0,8.391208E0,1.8559016E0,1.4737387E1,9.313529E0,3.1771178E0,7.092982E0,1.2982258E0,1.2686318E1,2.0510678E0,7.2112784E0,2.1022503E0,1.2128301E0,5.8801517E0,1.0095927E0,1.1676726E1,1.0481603E0,1.0029075E0,2.0109892E0,5.2002892E0,1.0054568E0,1.0967935E0],"tree_param":{"num_deleted":"0","num_feature":"250","num_nodes":"35","size_leaf_vector":"1"}},{"base_weights":[-7.943472E-2,1.2277444E-1,-5.679285E-1,6.5939295E-1,-1.267223E-1,-9.6908706E-1,2.5927825E-2,-3.6059346E-2,8.506312E-1,-3.3299005E-1,8.127653E-2,-1.2531021E0,-5.069656E-3,-6.735159E-1,6.6889785E-2,9.308538E-2,1.0187905E-2,7.667857E-2,-5.29818E-1,-3.186391E-2,-1.4025076E-1,1.6839664E-2,-1.085737E-1,3.9963234E-2,-9.346094E-1,-8.756776E-2,7.887719E-2,-1.18179575E-1,5.652488E-2],"categories":[],"categories_nodes":[],"categories_segments":[],"categories_sizes":[],"default_left":[0,0,0,0,0,0,0,0,0,0,0,0,0,0,0,0,0,0,0,0,0,0,0,0,0,0,0,0,0],"id":18,"left_children":[1,3,5,7,9,11,13,-1,15,17,-1,19,-1,21,-1,-1,-1,-1,23,-1,-1,-1,-1,25,27,-1,-1,-1,-1],"loss_changes":[4.4888E0,4.429779E0,3.187643E0,2.347865E0,4.727397E0,2.0098672E0,3.2954566E0,0E0,4.5235348E-1,4.6419373E0,0E0,3.948717E-1,0E0,1.4073187E0,0E0,0E0,0E0,0E0,4.0017185E0,0E0,0E0,0E0,0E0,6.2431765E0,4.4088697E0,0E0,0E0,0E0,0E0],"parents":[2147483647,0,0,1,1,2,2,3,3,4,4,5,5,6,6,8,8,9,9,11,11,13,13,18,18,23,23,24,24],"right_children":[2,4,6,8,10,12,14,-1,16,18,-1,20,-1,22,-1,-1,-1,-1,24,-1,-1,-1,-1,26,28,-1,-1,-1,-1],"split_conditions":[6.403724E4,4.8574604E1,1.2285093E3,1.5857156E4,1.01925793E3,3.7175324E4,6.198728E4,-3.6059346E-2,2.5488178E5,-4.383179E2,8.127653E-2,2.328641E4,-5.069656E-3,6.731424E4,6.6889785E-2,9.308538E-2,1.0187905E-2,7.667857E-2,2.796805E4,-3.186391E-2,-1.4025076E-1,1.6839664E-2,-1.085737E-1,2.090558E4,1.2855173E3,-8.756776E-2,7.887719E-2,-1.18179575E-1,5.652488E-2],"split_indices":[240,247,248,241,223,101,95,0,111,84,0,226,0,225,0,0,0,0,135,0,0,0,0,70,24,0,0,0,0],"split_type":[0,0,0,0,0,0,0,0,0,0,0,0,0,0,0,0,0,0,0,0,0,0,0,0,0,0,0,0,0],"sum_hessian":[4.373746E1,3.1462435E1,1.2275025E1,9.464107E0,2.199833E1,6.9490123E0,5.3260136E0,1.3544505E0,8.109656E0,1.8567362E1,3.4309664E0,5.0292473E0,1.9197646E0,2.5282228E0,2.7977905E0,7.1051874E0,1.0044688E0,2.3789988E0,1.6188364E1,1.1250825E0,3.904165E0,1.0254179E0,1.5028048E0,7.0982275E0,9.090136E0,3.1171541E0,3.9810736E0,7.9860454E0,1.1040902E0],"tree_param":{"num_deleted":"0","num_feature":"250","num_nodes":"29","size_leaf_vector":"1"}},{"base_weights":[-6.606976E-3,1.5837783E-1,-4.957516E-1,6.6485834E-1,-1.8711376E-1,-6.7400557E-1,5.687501E-2,8.891587E-1,-2.0093505E-1,-4.0367267E-1,6.6957897E-1,-1.3028042E-1,-9.6515864E-1,9.736033E-2,5.28482E-3,-7.532468E-2,5.556658E-2,-6.113984E-1,5.506917E-1,1.8161014E-2,7.620141E-2,-7.41544E-2,6.530684E-2,-1.2000663E0,-5.259845E-3,6.367683E-2,-8.111867E-1,1.4973787E-2,6.5345846E-2,-1.8489271E-2,-1.4207262E-1,-9.458819E-2,2.1227641E-2],"categories":[],"categories_nodes":[],"categories_segments":[],"categories_sizes":[],"default_left":[0,0,0,0,0,0,0,0,0,0,0,0,0,0,0,0,0,0,0,0,0,0,0,0,0,0,0,0,0,0,0,0,0],"id":19,"left_children":[1,3,5,7,9,11,-1,13,15,17,19,21,23,-1,-1,-1,-1,25,27,-1,-1,-1,-1,29,-1,-1,31,-1,-1,-1,-1,-1,-1],"loss_changes":[3.4522238E0,5.727181E0,2.4300296E0,2.7428164E0,3.9464266E0,1.4093156E0,0E0,7.021742E-1,1.8947225E0,3.5959578E0,5.891633E-2,2.657051E0,1.2571769E0,0E0,0E0,0E0,0E0,4.0016246E0,4.492247E-2,0E0,0E0,0E0,0E0,8.242817E-1,0E0,0E0,1.9221964E0,0E0,0E0,0E0,0E0,0E0,0E0],"parents":[2147483647,0,0,1,1,2,2,3,3,4,4,5,5,7,7,8,8,9,9,10,10,11,11,12,12,17,17,18,18,23,23,26,26],"right_children":[2,4,6,8,10,12,-1,14,16,18,20,22,24,-1,-1,-1,-1,26,28,-1,-1,-1,-1,30,-1,-1,32,-1,-1,-1,-1,-1,-1],"split_conditions":[6.5376E4,4.046352E4,7.1108E4,4.3907516E4,1.0511482E3,2.8408188E4,5.687501E-2,5.4568773E4,2.3967926E4,6.422847E1,4.646729E1,4.3017284E1,4.367148E4,9.736033E-2,5.28482E-3,-7.532468E-2,5.556658E-2,-3.899477E2,1.481157E5,1.8161014E-2,7.620141E-2,-7.41544E-2,6.530684E-2,2.262544E4,-5.259845E-3,6.367683E-2,2.7540775E5,1.4973787E-2,6.5345846E-2,-1.8489271E-2,-1.4207262E-1,-9.458819E-2,2.1227641E-2],"split_indices":[225,16,220,21,43,216,0,116,191,217,187,62,6,0,0,0,0,94,26,0,0,0,0,66,0,0,151,0,0,0,0,0,0],"split_type":[0,0,0,0,0,0,0,0,0,0,0,0,0,0,0,0,0,0,0,0,0,0,0,0,0,0,0,0,0,0,0,0,0],"sum_hessian":[4.0804802E1,3.1018658E1,9.786145E0,1.2203826E1,1.8814833E1,8.696693E0,1.0894525E0,9.671303E0,2.5325234E0,1.5440508E1,3.3743243E0,3.5376444E0,5.1590486E0,8.635217E0,1.0360858E0,1.4664567E0,1.0660669E0,1.2975617E1,2.4648907E0,1.0095576E0,2.3647666E0,2.0170584E0,1.5205861E0,3.85234E0,1.3067086E0,1.4885795E0,1.1487038E1,1.0041547E0,1.460736E0,1.0160022E0,2.8363378E0,1.0218068E1,1.2689698E0],"tree_param":{"num_deleted":"0","num_feature":"250","num_nodes":"33","size_leaf_vector":"1"}},{"base_weights":[-3.121096E-2,4.622917E-1,-2.1834636E-1,-5.4042835E-2,6.1960137E-1,-5.471092E-1,1.6115418E-1,7.8813654E-1,-3.41653E-2,2.85809E-1,-7.951529E-1,-2.3755237E-1,7.0586085E-1,9.3865894E-2,-2.2935534E-2,-6.293853E-2,7.5858705E-2,-1.0629234E0,5.4655902E-2,-9.130948E-1,2.5410515E-1,8.800892E-2,-9.772403E-3,-2.9905894E-1,-1.3126863E0,6.69218E-2,-6.6790506E-2,1.291984E-2,-1.3008685E-1,-5.4633316E-2,6.7970544E-1,2.8354747E-2,-7.4227475E-2,-2.5669498E-2,-1.4642659E-1,7.862035E-2,1.5376861E-2],"categories":[],"categories_nodes":[],"categories_segments":[],"categories_sizes":[],"default_left":[0,0,0,0,0,0,0,0,0,0,0,0,0,0,0,0,0,0,0,0,0,0,0,0,0,0,0,0,0,0,0,0,0,0,0,0,0],"id":20,"left_children":[1,3,5,-1,7,9,11,13,-1,15,17,19,21,-1,-1,-1,-1,23,25,27,29,-1,-1,31,33,-1,-1,-1,-1,-1,35,-1,-1,-1,-1,-1,-1],"loss_changes":[3.9206824E0,2.179209E0,3.9145083E0,0E0,1.9821234E0,3.6692448E0,3.4271054E0,1.6393328E0,0E0,2.4498432E0,3.0394125E0,3.3585947E0,1.009289E0,0E0,0E0,0E0,0E0,1.5174503E0,2.2632713E0,1.8587112E0,2.4939003E0,0E0,0E0,1.1818669E0,7.8453064E-1,0E0,0E0,0E0,0E0,0E0,1.3190484E-1,0E0,0E0,0E0,0E0,0E0,0E0],"parents":[2147483647,0,0,1,1,2,2,4,4,5,5,6,6,7,7,9,9,10,10,11,11,12,12,17,17,18,18,19,19,20,20,23,23,24,24,30,30],"right_children":[2,4,6,-1,8,10,12,14,-1,16,18,20,22,-1,-1,-1,-1,24,26,28,30,-1,-1,32,34,-1,-1,-1,-1,-1,36,-1,-1,-1,-1,-1,-1],"split_conditions":[2.9938256E4,-1.5470447E3,4.5723875E4,-5.4042835E-2,6.0749484E4,4.7312466E1,-7.1887085E1,6.943643E4,-3.41653E-2,-9.498879E2,7.5923846E2,-1.7705936E2,2.0104438E3,9.3865894E-2,-2.2935534E-2,-6.293853E-2,7.5858705E-2,2.8703182E4,5.0824523E4,-4.0099103E2,1.1040391E5,8.800892E-2,-9.772403E-3,3.407054E4,4.50428E1,6.69218E-2,-6.6790506E-2,1.291984E-2,-1.3008685E-1,-5.4633316E-2,3.152874E5,2.8354747E-2,-7.4227475E-2,-2.5669498E-2,-1.4642659E-1,7.862035E-2,1.5376861E-2],"split_indices":[6,173,216,0,206,107,4,125,0,88,4,104,88,0,0,0,0,21,76,9,41,0,0,211,247,0,0,0,0,0,161,0,0,0,0,0,0],"split_type":[0,0,0,0,0,0,0,0,0,0,0,0,0,0,0,0,0,0,0,0,0,0,0,0,0,0,0,0,0,0,0,0,0,0,0,0,0],"sum_hessian":[4.0360775E1,1.0692575E1,2.9668201E1,1.1197361E0,9.57284E0,1.5660121E1,1.40080805E1,8.298052E0,1.2747881E0,3.5585241E0,1.2101597E1,8.413545E0,5.594536E0,7.296172E0,1.0018795E0,1.0992905E0,2.4592335E0,9.011376E0,3.09022E0,3.1829553E0,5.2305894E0,4.519452E0,1.0750836E0,2.7618914E0,6.249485E0,1.7098017E0,1.3804183E0,1.0438962E0,2.139059E0,1.717244E0,3.5133452E0,1.3489493E0,1.4129422E0,1.1225576E0,5.1269274E0,2.510189E0,1.0031563E0],"tree_param":{"num_deleted":"0","num_feature":"250","num_nodes":"37","size_leaf_vector":"1"}},{"base_weights":[-1.1948611E-1,-2.0004714E-1,7.663625E-2,8.5124515E-2,-5.035342E-1,6.8733054E-1,-1.9511777E-1,-7.953985E-1,7.253798E-2,-2.2527838E-2,8.8023834E-2,-9.437592E-1,6.5541804E-2,1.794531E-2,-9.3124175E-1,6.1736745E-1,-8.415468E-2,-1.208545E-1,-1.9425731E-2,4.6736693E-1,-6.192555E-1,1.2801913E-2,-1.0512382E0,-1.1888414E-2,8.325104E-2,7.217701E-2,-3.410067E-2,3.8878307E-2,-1.1380321E-1,-2.0445228E-2,-1.1836753E-1],"categories":[],"categories_nodes":[],"categories_segments":[],"categories_sizes":[],"default_left":[0,0,0,0,0,0,0,0,0,0,0,0,0,0,0,0,0,0,0,0,0,0,0,0,0,0,0,0,0,0,0],"id":21,"left_children":[1,3,-1,5,7,9,11,13,15,-1,-1,17,19,-1,21,23,-1,-1,-1,25,27,-1,29,-1,-1,-1,-1,-1,-1,-1,-1],"loss_changes":[3.1425614E0,3.4344373E0,0E0,3.688122E0,3.2739549E0,1.4146111E0,3.018271E0,1.8595343E0,4.1795034E0,0E0,0E0,5.546131E-1,3.638938E0,0E0,1.5808754E0,9.196975E-1,0E0,0E0,0E0,1.9409435E0,3.021333E0,0E0,9.16378E-1,0E0,0E0,0E0,0E0,0E0,0E0,0E0,0E0],"parents":[2147483647,0,0,1,1,3,3,4,4,5,5,6,6,7,7,8,8,11,11,12,12,14,14,15,15,19,19,20,20,22,22],"right_children":[2,4,-1,6,8,10,12,14,16,-1,-1,18,20,-1,22,24,-1,-1,-1,26,28,-1,30,-1,-1,-1,-1,-1,-1,-1,-1],"split_conditions":[7.1864624E1,5.5120224E1,7.663625E-2,2.921106E4,7.285918E1,3.6450527E1,2.950561E4,1.768719E4,1.7488392E3,-2.2527838E-2,8.8023834E-2,2.6696922E4,6.62065E4,1.794531E-2,3.8908978E1,5.0395554E1,-8.415468E-2,-1.208545E-1,-1.9425731E-2,6.3380676E1,4.7341805E1,1.2801913E-2,-4.682696E2,-1.1888414E-2,8.325104E-2,7.217701E-2,-3.410067E-2,3.8878307E-2,-1.1380321E-1,-2.0445228E-2,-1.1836753E-1],"split_indices":[157,202,0,160,48,137,175,26,114,0,0,201,110,0,37,17,0,0,0,157,242,0,4,0,0,0,0,0,0,0,0],"split_type":[0,0,0,0,0,0,0,0,0,0,0,0,0,0,0,0,0,0,0,0,0,0,0,0,0,0,0,0,0,0,0],"sum_hessian":[4.088689E1,3.818815E1,2.6987402E0,2.0059113E1,1.8129036E1,5.908928E0,1.4150185E1,1.1780018E1,6.349018E0,1.0018009E0,4.907127E0,2.977587E0,1.1172598E1,1.4014891E0,1.0378529E1,4.1813684E0,2.1676495E0,1.7476935E0,1.2298936E0,7.241149E0,3.9314485E0,1.0492737E0,9.329255E0,1.0467274E0,3.134641E0,5.5892806E0,1.6518685E0,1.4209559E0,2.5104926E0,1.605792E0,7.723463E0],"tree_param":{"num_deleted":"0","num_feature":"250","num_nodes":"31","size_leaf_vector":"1"}},{"base_weights":[-2.887793E-2,4.553959E-1,-2.1969599E-1,6.797255E-1,-7.1667515E-2,3.7619698E-1,-3.7762523E-1,8.610826E-1,-3.070139E-2,7.2851765E-1,-6.6986606E-2,-5.715974E-1,3.8035297E-1,1.7370604E-2,9.275856E-2,1.7223861E-2,8.1859075E-2,4.2704944E-2,-6.66877E-1,6.571498E-1,-4.0088627E-2,5.0687985E-3,-8.151328E-1,1.8638251E-2,7.430618E-2,5.171731E-2,-7.899224E-2,-1.0663551E-1,-1.9857597E-2],"categories":[],"categories_nodes":[],"categories_segments":[],"categories_sizes":[],"default_left":[0,0,0,0,0,0,0,0,0,0,0,0,0,0,0,0,0,0,0,0,0,0,0,0,0,0,0,0,0],"id":22,"left_children":[1,3,5,7,-1,9,11,13,-1,15,-1,17,19,-1,-1,-1,-1,-1,21,23,-1,25,27,-1,-1,-1,-1,-1,-1],"loss_changes":[3.7192688E0,3.4834354E0,2.8495562E0,2.0678964E0,0E0,2.8940315E0,3.6345215E0,2.4006367E-1,0E0,1.2770295E-1,0E0,2.0836372E0,1.4173651E0,0E0,0E0,0E0,0E0,0E0,1.7623239E0,3.618896E-2,0E0,2.1118994E0,2.028779E0,0E0,0E0,0E0,0E0,0E0,0E0],"parents":[2147483647,0,0,1,1,2,2,3,3,5,5,6,6,7,7,9,9,11,11,12,12,18,18,19,19,21,21,22,22],"right_children":[2,4,6,8,-1,10,12,14,-1,16,-1,18,20,-1,-1,-1,-1,-1,22,24,-1,26,28,-1,-1,-1,-1,-1,-1],"split_conditions":[2.830799E4,4.4365828E5,4.660166E1,3.6861588E5,-7.1667515E-2,6.472414E4,1.3918914E3,1.683211E4,-3.070139E-2,4.5094494E1,-6.6986606E-2,-1.2561127E3,5.3431145E4,1.7370604E-2,9.275856E-2,1.7223861E-2,8.1859075E-2,4.2704944E-2,2.234647E4,6.472414E4,-4.0088627E-2,6.627401E4,1.1662957E3,1.8638251E-2,7.430618E-2,5.171731E-2,-7.899224E-2,-1.0663551E-1,-1.9857597E-2],"split_indices":[160,241,247,121,0,245,233,90,0,152,0,58,221,0,0,0,0,0,196,245,0,165,9,0,0,0,0,0,0],"split_type":[0,0,0,0,0,0,0,0,0,0,0,0,0,0,0,0,0,0,0,0,0,0,0,0,0,0,0,0,0],"sum_hessian":[3.8165573E1,1.0395774E1,2.77698E1,9.078291E0,1.3174832E0,5.528353E0,2.2241446E1,7.7763815E0,1.3019092E0,4.362573E0,1.1657802E0,1.7905252E1,4.3361926E0,1.0046192E0,6.7717624E0,1.0137848E0,3.3487885E0,1.2562414E0,1.6649012E1,3.3190677E0,1.017125E0,3.1839738E0,1.3465038E1,1.0013709E0,2.3176968E0,2.1490772E0,1.0348965E0,9.048573E0,4.4164653E0],"tree_param":{"num_deleted":"0","num_feature":"250","num_nodes":"29","size_leaf_vector":"1"}},{"base_weights":[-9.403243E-2,-1.9767371E-1,5.5318004E-1,1.9042164E-1,-4.6686998E-1,8.3337754E-2,-3.9119817E-2,6.1237067E-1,-2.8794637E-1,3.8913023E-1,-6.01684E-1,-3.917611E-2,8.969581E-2,-8.1353176E-1,3.2849854E-1,6.6117E-2,-1.4665784E-2,-9.537022E-1,-2.5144035E-1,-7.8066885E-3,-1.0072658E-1,7.391285E-2,-3.3938106E-2,7.9389365E-4,-1.0757643E0,6.857384E-2,-5.2307075E-1,-1.2170923E-1,-2.2292024E-2,-8.475667E-2,1.3311218E-2],"categories":[],"categories_nodes":[],"categories_segments":[],"categories_sizes":[],"default_left":[0,0,0,0,0,0,0,0,0,0,0,0,0,0,0,0,0,0,0,0,0,0,0,0,0,0,0,0,0,0,0],"id":23,"left_children":[1,3,5,7,9,-1,-1,11,13,15,17,-1,-1,19,21,-1,-1,23,25,-1,-1,-1,-1,-1,27,-1,29,-1,-1,-1,-1],"loss_changes":[2.8343925E0,3.8242846E0,1.8794997E0,3.2754033E0,2.7037878E0,0E0,0E0,2.7740057E0,2.8189893E0,6.0989726E-1,2.0881472E0,0E0,0E0,5.680883E-1,1.4402741E0,0E0,0E0,1.0718699E0,3.113777E0,0E0,0E0,0E0,0E0,0E0,6.984596E-1,0E0,2.0202382E0,0E0,0E0,0E0,0E0],"parents":[2147483647,0,0,1,1,2,2,3,3,4,4,7,7,8,8,9,9,10,10,13,13,14,14,17,17,18,18,24,24,26,26],"right_children":[2,4,6,8,10,-1,-1,12,14,16,18,-1,-1,20,22,-1,-1,24,26,-1,-1,-1,-1,-1,28,-1,30,-1,-1,-1,-1],"split_conditions":[1.3654961E3,1.8996674E2,5.08167E4,5.798876E1,2.4265291E4,8.3337754E-2,-3.9119817E-2,1.8495352E4,8.358143E2,6.02933E4,-1.8482771E2,-3.917611E-2,8.969581E-2,4.356279E1,7.062952E1,6.6117E-2,-1.4665784E-2,-1.0514021E3,9.2521155E2,-7.8066885E-3,-1.0072658E-1,7.391285E-2,-3.3938106E-2,7.9389365E-4,6.400124E1,6.857384E-2,6.03383E1,-1.2170923E-1,-2.2292024E-2,-8.475667E-2,1.3311218E-2],"split_indices":[228,218,81,57,71,0,0,131,94,70,89,0,0,222,22,0,0,43,164,0,0,0,0,0,182,0,192,0,0,0,0],"split_type":[0,0,0,0,0,0,0,0,0,0,0,0,0,0,0,0,0,0,0,0,0,0,0,0,0,0,0,0,0,0,0],"sum_hessian":[3.962504E1,3.4754246E1,4.87079E0,1.435358E1,2.0400667E1,3.8469396E0,1.0238503E0,7.4776893E0,6.8758907E0,2.5191193E0,1.7881548E1,1.5681328E0,5.9095564E0,3.5388913E0,3.3369997E0,1.5155854E0,1.0035337E0,8.058873E0,9.822675E0,1.030355E0,2.5085363E0,2.0004137E0,1.336586E0,1.0130131E0,7.04586E0,1.864669E0,7.958006E0,5.6778617E0,1.3679981E0,5.129634E0,2.828372E0],"tree_param":{"num_deleted":"0","num_feature":"250","num_nodes":"31","size_leaf_vector":"1"}},{"base_weights":[-7.7565156E-2,8.033824E-2,-1.8313396E-1,3.0092022E-1,-3.3190405E-1,-8.414906E-2,6.0910004E-1,6.7069344E-2,-4.2647865E-1,7.88989E-1,-1.5624992E-2,5.035857E-1,-5.371547E-1,2.0335464E-2,8.631447E-2,5.990688E-2,1.4401129E-2,-1.20052435E-1,-3.6425024E-1,6.492182E-2,-5.599131E-2],"categories":[],"categories_nodes":[],"categories_segments":[],"categories_sizes":[],"default_left":[0,0,0,0,0,0,0,0,0,0,0,0,0,0,0,0,0,0,0,0,0],"id":24,"left_children":[1,-1,3,5,7,-1,9,-1,11,13,-1,15,17,-1,-1,-1,-1,-1,19,-1,-1],"loss_changes":[3.774204E0,0E0,2.6665154E0,3.647152E0,2.9161649E0,0E0,1.1685247E0,0E0,2.9425478E0,9.861255E-2,0E0,2.6224911E-2,2.2789917E0,0E0,0E0,0E0,0E0,0E0,4.373283E0,0E0,0E0],"parents":[2147483647,0,0,2,2,3,3,4,4,6,6,8,8,9,9,11,11,12,12,18,18],"right_children":[2,-1,4,6,8,-1,10,-1,12,14,-1,16,18,-1,-1,-1,-1,-1,20,-1,-1],"split_conditions":[4.2422226E1,8.033824E-2,2.9079557E4,-1.5470447E3,1.884662E4,-8.414906E-2,6.835217E4,6.7069344E-2,4.404411E1,2.712491E4,-1.5624992E-2,4.5452798E2,2.090558E4,2.0335464E-2,8.631447E-2,5.990688E-2,1.4401129E-2,-1.20052435E-1,2.883816E4,6.492182E-2,-5.599131E-2],"split_indices":[232,0,6,168,65,0,155,0,187,75,0,109,70,0,0,0,0,0,245,0,0],"split_type":[0,0,0,0,0,0,0,0,0,0,0,0,0,0,0,0,0,0,0,0,0],"sum_hessian":[3.800059E1,3.3591568E0,3.4641434E1,7.9033933E0,2.673804E1,1.3114353E0,6.591958E0,1.7796851E0,2.4958355E1,5.3124304E0,1.2795277E0,2.276631E0,2.2681725E1,1.0176834E0,4.294747E0,1.2726387E0,1.0039924E0,3.460768E0,1.9220957E1,2.7352462E0,1.648571E1],"tree_param":{"num_deleted":"0","num_feature":"250","num_nodes":"21","size_leaf_vector":"1"}},{"base_weights":[-8.727408E-3,-1.4979884E-1,6.426424E-1,-2.943795E-1,5.635581E-1,8.6720996E-2,-2.7400617E-2,1.8285863E-1,-6.1097103E-1,8.406455E-2,-3.5284664E-2,8.435394E-2,-2.9048836E-1,-7.868379E-1,4.9553916E-2,-6.929311E-1,5.020788E-1,-9.7328025E-1,5.4951992E-2,5.8535527E-2,-3.2408932E-1,-1.9884713E-3,-1.04385965E-1,1.5700473E-2,5.9417214E-2,-2.967889E-2,-1.1862712E-1,-3.672804E-2,4.406779E-2,1.4860265E-2,-6.287616E-2],"categories":[],"categories_nodes":[],"categories_segments":[],"categories_sizes":[],"default_left":[0,0,0,0,0,0,0,0,0,0,0,0,0,0,0,0,0,0,0,0,0,0,0,0,0,0,0,0,0,0,0],"id":25,"left_children":[1,3,5,7,9,-1,-1,11,13,-1,-1,-1,15,17,19,21,23,25,27,-1,29,-1,-1,-1,-1,-1,-1,-1,-1,-1,-1],"loss_changes":[3.4866543E0,3.3774946E0,1.6286206E0,4.122881E0,1.7162309E0,0E0,0E0,3.7968817E0,1.9197788E0,0E0,0E0,0E0,2.6956904E0,2.0695367E0,1.0596008E0,1.2315228E0,3.9148927E-3,1.1708965E0,6.953621E-1,0E0,5.548054E-1,0E0,0E0,0E0,0E0,0E0,0E0,0E0,0E0,0E0,0E0],"parents":[2147483647,0,0,1,1,2,2,3,3,4,4,7,7,8,8,12,12,13,13,14,14,15,15,16,16,17,17,18,18,20,20],"right_children":[2,4,6,8,10,-1,-1,12,14,-1,-1,-1,16,18,20,22,24,26,28,-1,30,-1,-1,-1,-1,-1,-1,-1,-1,-1,-1],"split_conditions":[1.1577776E3,1.1526798E3,7.869766E1,1.8691618E2,4.1432305E3,8.6720996E-2,-2.7400617E-2,5.1551376E1,6.288349E1,8.406455E-2,-3.5284664E-2,8.435394E-2,-1.1731265E2,6.555478E1,2.597121E4,-1.1519091E2,3.4812098E4,2.4118857E4,6.266433E1,5.8535527E-2,4.144532E4,-1.9884713E-3,-1.04385965E-1,1.5700473E-2,5.9417214E-2,-2.967889E-2,-1.1862712E-1,-3.672804E-2,4.406779E-2,1.4860265E-2,-6.287616E-2],"split_indices":[13,244,57,218,238,0,0,68,182,0,0,0,203,227,115,248,1,236,247,0,141,0,0,0,0,0,0,0,0,0,0],"split_type":[0,0,0,0,0,0,0,0,0,0,0,0,0,0,0,0,0,0,0,0,0,0,0,0,0,0,0,0,0,0,0],"sum_hessian":[3.5896282E1,3.0138924E1,5.7573595E0,2.5548231E1,4.590693E0,4.667752E0,1.0896076E0,1.0357494E1,1.5190736E1,3.5883708E0,1.0023222E0,3.996813E0,6.3606815E0,1.1845582E1,3.3451538E0,4.3019753E0,2.0587063E0,9.569822E0,2.2757595E0,1.1415561E0,2.2035975E0,1.8364697E0,2.4655058E0,1.0034857E0,1.0552206E0,2.8646615E0,6.705161E0,1.1092958E0,1.1664635E0,1.0644236E0,1.1391741E0],"tree_param":{"num_deleted":"0","num_feature":"250","num_nodes":"31","size_leaf_vector":"1"}},{"base_weights":[-5.8800492E-2,3.7266427E-1,-2.1444839E-1,-8.235371E-2,6.5619296E-1,7.264953E-2,-3.1584135E-1,1.3560535E-1,8.346731E-2,-5.8687997E-1,3.1086018E-2,5.539599E-2,-3.3112533E-2,-7.433714E-1,9.3307175E-2,6.877909E-2,-2.849744E-1,9.6739E-3,-8.69509E-1,-3.4831468E-2,5.6607332E-2,-5.515235E-1,6.163274E-2,-4.5843665E-3,-1.01048365E-1,-1.1576823E-2,-9.8521166E-2],"categories":[],"categories_nodes":[],"categories_segments":[],"categories_sizes":[],"default_left":[0,0,0,0,0,0,0,0,0,0,0,0,0,0,0,0,0,0,0,0,0,0,0,0,0,0,0],"id":26,"left_children":[1,3,5,-1,7,-1,9,11,-1,13,15,-1,-1,17,19,-1,21,-1,23,-1,-1,25,-1,-1,-1,-1,-1],"loss_changes":[2.4923677E0,3.8942084E0,2.808649E0,0E0,6.8127465E-1,0E0,2.3785434E0,8.4282136E-1,0E0,1.5747142E0,2.6782155E0,0E0,0E0,1.3142753E0,9.349372E-1,0E0,2.449364E0,0E0,1.1372824E0,0E0,0E0,1.2663085E0,0E0,0E0,0E0,0E0,0E0],"parents":[2147483647,0,0,1,1,2,2,4,4,6,6,7,7,9,9,10,10,13,13,14,14,16,16,18,18,21,21],"right_children":[2,4,6,-1,8,-1,10,12,-1,14,16,-1,-1,18,20,-1,22,-1,24,-1,-1,26,-1,-1,-1,-1,-1],"split_conditions":[4.9265625E1,1.1509559E4,1.8292787E4,-8.235371E-2,2.8478762E4,7.264953E-2,5.8762356E1,-9.960342E1,8.346731E-2,6.2199356E1,5.6299034E1,5.539599E-2,-3.3112533E-2,2.3185047E4,2.741039E4,6.877909E-2,7.121616E1,9.6739E-3,-3.524857E2,-3.4831468E-2,5.6607332E-2,6.4744125E1,6.163274E-2,-4.5843665E-3,-1.01048365E-1,-1.1576823E-2,-9.8521166E-2],"split_indices":[247,236,136,0,81,0,232,249,0,187,187,0,0,51,35,0,152,0,99,0,0,137,0,0,0,0,0],"split_type":[0,0,0,0,0,0,0,0,0,0,0,0,0,0,0,0,0,0,0,0,0,0,0,0,0,0,0],"sum_hessian":[3.492277E1,8.888651E0,2.603412E1,1.3382028E0,7.550448E0,1.9327477E0,2.4101372E1,2.3770092E0,5.173439E0,1.3142265E1,1.0959106E1,1.1549101E0,1.2220991E0,1.0608632E1,2.5336332E0,3.178577E0,7.7805295E0,1.4153154E0,9.193317E0,1.4460683E0,1.087565E0,6.304215E0,1.4763144E0,1.5371988E0,7.6561184E0,3.7765768E0,2.5276382E0],"tree_param":{"num_deleted":"0","num_feature":"250","num_nodes":"27","size_leaf_vector":"1"}},{"base_weights":[-3.0592293E-2,-1.0042476E-1,7.199759E-2,-1.7474043E-1,7.1487606E-2,-2.0659104E-2,-7.447622E-1,-1.3945529E-1,7.6475136E-2,2.157408E-2,-9.4821584E-1,6.098447E-1,-2.7427664E-1,-1.2313417E-2,-1.1362333E0,6.9400415E-2,1.830848E-2,-3.5670172E-2,5.781998E-2,-1.3061982E-1,-2.724429E-2],"categories":[],"categories_nodes":[],"categories_segments":[],"categories_sizes":[],"default_left":[0,0,0,0,0,0,0,0,0,0,0,0,0,0,0,0,0,0,0,0,0],"id":27,"left_children":[1,3,-1,5,-1,7,9,11,-1,-1,13,15,17,-1,19,-1,-1,-1,-1,-1,-1],"loss_changes":[1.9887958E0,2.2049422E0,0E0,2.8184834E0,0E0,2.5725064E0,1.5406833E0,2.571769E0,0E0,0E0,7.641034E-1,1.4440298E-2,1.6721252E0,0E0,3.2306528E-1,0E0,0E0,0E0,0E0,0E0,0E0],"parents":[2147483647,0,0,1,1,3,3,5,5,6,6,7,7,10,10,11,11,12,12,14,14],"right_children":[2,4,-1,6,-1,8,10,12,-1,-1,14,16,18,-1,20,-1,-1,-1,-1,-1,-1],"split_conditions":[7.062952E1,7.471455E1,7.199759E-2,1.4553131E3,7.1487606E-2,1.1100013E3,3.504609E4,-6.281095E2,7.6475136E-2,2.157408E-2,3.3931633E4,5.3804916E1,2.7993244E5,-1.2313417E-2,6.579995E4,6.9400415E-2,1.830848E-2,-3.5670172E-2,5.781998E-2,-1.3061982E-1,-2.724429E-2],"split_indices":[212,17,0,113,0,19,80,9,0,0,146,117,161,0,210,0,0,0,0,0,0],"split_type":[0,0,0,0,0,0,0,0,0,0,0,0,0,0,0,0,0,0,0,0,0],"sum_hessian":[3.5564487E1,3.3329712E1,2.234777E0,3.1265497E1,2.0642147E0,2.5428278E1,5.8372188E0,2.2801857E1,2.6264207E0,1.0097595E0,4.8274593E0,2.9398162E0,1.9862041E1,1.2030398E0,3.6244197E0,1.9324998E0,1.0073164E0,1.864121E1,1.2208297E0,2.600549E0,1.0238707E0],"tree_param":{"num_deleted":"0","num_feature":"250","num_nodes":"21","size_leaf_vector":"1"}},{"base_weights":[-8.3637856E-2,7.0859365E-2,-5.145842E-1,4.9022326E-1,-1.3849598E-1,-8.659809E-1,2.0068787E-1,-4.0849235E-2,6.466306E-1,2.3512882E-1,-4.2208302E-1,-1.01362996E-1,-4.269606E-3,-6.532153E-2,7.1310185E-2,7.894745E-2,8.563351E-2,7.467949E-2,-3.3346644E-1,-7.6629794E-1,5.8588203E-2,5.5477608E-2,-4.078263E-2,-8.227021E-1,4.4610135E-2,-8.9539534E-1,3.2649268E-3,-9.886616E-2,-2.4574092E-2,-1.0739016E-1,3.1696185E-3],"categories":[],"categories_nodes":[],"categories_segments":[],"categories_sizes":[],"default_left":[0,0,0,0,0,0,0,0,0,0,0,0,0,0,0,0,0,0,0,0,0,0,0,0,0,0,0,0,0,0,0],"id":28,"left_children":[1,3,5,7,9,11,13,-1,15,17,19,-1,-1,-1,-1,21,-1,-1,23,25,-1,-1,-1,27,-1,29,-1,-1,-1,-1,-1],"loss_changes":[2.447738E0,2.4856036E0,2.606403E0,1.5840566E0,2.1280499E0,7.685003E-1,2.2161257E0,0E0,9.30619E-1,2.8396263E0,4.3498883E0,0E0,0E0,0E0,0E0,1.0053121E0,0E0,0E0,2.2392366E0,9.3837357E-1,0E0,0E0,0E0,7.95095E-2,0E0,1.2956591E0,0E0,0E0,0E0,0E0,0E0],"parents":[2147483647,0,0,1,1,2,2,3,3,4,4,5,5,6,6,8,8,9,9,10,10,15,15,18,18,19,19,23,23,25,25],"right_children":[2,4,6,8,10,12,14,-1,16,18,20,-1,-1,-1,-1,22,-1,-1,24,26,-1,-1,-1,28,-1,30,-1,-1,-1,-1,-1],"split_conditions":[6.504399E4,3.543903E4,5.1809647E1,-1.4254718E3,1.8996674E2,3.1443115E4,5.345564E1,-4.0849235E-2,1.8025305E4,6.086426E1,9.673369E2,-1.01362996E-1,-4.269606E-3,-6.532153E-2,7.1310185E-2,4.1436016E4,8.563351E-2,7.467949E-2,1.044408E3,7.2332855E1,5.8588203E-2,5.5477608E-2,-4.078263E-2,3.4332527E4,4.4610135E-2,6.609853E1,3.2649268E-3,-9.886616E-2,-2.4574092E-2,-1.0739016E-1,3.1696185E-3],"split_indices":[225,16,62,38,218,231,212,0,226,17,218,0,0,0,0,111,0,0,38,47,0,0,0,61,0,232,0,0,0,0,0],"split_type":[0,0,0,0,0,0,0,0,0,0,0,0,0,0,0,0,0,0,0,0,0,0,0,0,0,0,0,0,0,0,0],"sum_hessian":[3.5216194E1,2.6537788E1,8.678407E0,8.390009E0,1.814778E1,5.6781573E0,3.0002494E0,1.0047867E0,7.385222E0,7.904504E0,1.0243276E1,4.618642E0,1.0595152E0,1.0221407E0,1.9781085E0,2.3635132E0,5.0217085E0,3.995574E0,3.9089298E0,7.8144417E0,2.4288342E0,1.1245494E0,1.2389638E0,2.3676965E0,1.5412333E0,6.6234727E0,1.190969E0,1.2846173E0,1.0830792E0,5.4212804E0,1.2021921E0],"tree_param":{"num_deleted":"0","num_feature":"250","num_nodes":"31","size_leaf_vector":"1"}},{"base_weights":[-5.3918824E-2,9.904407E-2,-4.5149803E-1,-2.062108E-1,4.363376E-1,-9.955052E-1,6.271254E-2,1.5502794E-1,-5.5270326E-1,8.970256E-2,-8.626036E-2,-1.1449041E-1,-2.5335332E-2,5.229634E-1,-7.451951E-2,-7.654834E-2,4.9426734E-1,2.5624288E-2,-7.487605E-1,-5.336194E-1,6.238786E-2,-1.1811288E-2,7.583275E-2,6.94677E-1,-1.1824546E-2,1.8543499E-2,-9.9094145E-2,-9.8896E-2,5.3489894E-2,1.9059325E-2,7.772971E-2],"categories":[],"categories_nodes":[],"categories_segments":[],"categories_sizes":[],"default_left":[0,0,0,0,0,0,0,0,0,0,0,0,0,0,0,0,0,0,0,0,0,0,0,0,0,0,0,0,0,0,0],"id":29,"left_children":[1,3,5,7,9,11,13,15,17,-1,19,-1,-1,21,-1,-1,23,-1,25,27,-1,-1,-1,29,-1,-1,-1,-1,-1,-1,-1],"loss_changes":[2.107785E0,2.6967762E0,2.7493584E0,1.8341982E0,3.0504403E0,2.3401308E-1,2.5756137E0,2.757932E0,1.3574677E0,0E0,2.4607756E0,0E0,0E0,7.433158E-1,0E0,0E0,8.402401E-1,0E0,1.5798151E0,2.790567E0,0E0,0E0,0E0,5.170679E-2,0E0,0E0,0E0,0E0,0E0,0E0,0E0],"parents":[2147483647,0,0,1,1,2,2,3,3,4,4,5,5,6,6,7,7,8,8,10,10,13,13,16,16,18,18,19,19,23,23],"right_children":[2,4,6,8,10,12,14,16,18,-1,20,-1,-1,22,-1,-1,24,-1,26,28,-1,-1,-1,30,-1,-1,-1,-1,-1,-1,-1],"split_conditions":[1.435719E3,-7.915161E1,5.1843147E1,-1.8336304E2,6.215213E1,5.871259E4,7.522636E1,-1.4730621E3,1.942261E4,8.970256E-2,3.975254E4,-1.1449041E-1,-2.5335332E-2,6.039069E1,-7.451951E-2,-7.654834E-2,8.4890576E2,2.5624288E-2,2.702124E4,3.031201E4,6.238786E-2,-1.1811288E-2,7.583275E-2,2.590161E4,-1.1824546E-2,1.8543499E-2,-9.9094145E-2,-9.8896E-2,5.3489894E-2,1.9059325E-2,7.772971E-2],"split_indices":[118,88,212,139,42,0,247,163,90,0,151,0,0,122,0,0,199,0,141,130,0,0,0,190,0,0,0,0,0,0,0],"split_type":[0,0,0,0,0,0,0,0,0,0,0,0,0,0,0,0,0,0,0,0,0,0,0,0,0,0,0,0,0,0,0],"sum_hessian":[3.2923725E1,2.4318438E1,8.605288E0,1.2969504E1,1.1348933E1,3.7266765E0,4.8786116E0,6.6201687E0,6.3493357E0,5.650952E0,5.697981E0,2.6504467E0,1.0762298E0,3.3327155E0,1.5458958E0,1.4443953E0,5.175773E0,1.1787503E0,5.1705856E0,3.6482809E0,2.0496998E0,1.0287669E0,2.3039486E0,3.7987182E0,1.3770552E0,1.1127075E0,4.057878E0,2.6103554E0,1.0379255E0,1.0006135E0,2.7981048E0],"tree_param":{"num_deleted":"0","num_feature":"250","num_nodes":"31","size_leaf_vector":"1"}},{"base_weights":[-9.467645E-2,5.9760798E-2,-5.011841E-1,8.1491895E-2,-9.736977E-2,-7.86614E-1,1.3651395E-1,-3.2386082E-1,5.7791317E-1,-7.7125616E-3,-9.0535635E-1,-6.190824E-2,6.5697365E-2,-5.3333974E-1,5.966821E-2,8.313036E-2,-3.188983E-2,-1.04095355E-1,-2.6201015E-2,-1.6876589E-1,-8.733996E-1,-8.249367E-2,2.2100832E-2,-1.0601709E-1,6.6916454E-3],"categories":[],"categories_nodes":[],"categories_segments":[],"categories_sizes":[],"default_left":[0,0,0,0,0,0,0,0,0,0,0,0,0,0,0,0,0,0,0,0,0,0,0,0,0],"id":30,"left_children":[1,3,5,-1,7,9,11,13,15,-1,17,-1,-1,19,-1,-1,-1,-1,-1,21,23,-1,-1,-1,-1],"loss_changes":[2.1322916E0,3.0649471E0,1.8049171E0,0E0,3.509268E0,4.853921E-1,1.875836E0,3.5783396E0,1.5864261E0,0E0,2.1163177E-1,0E0,0E0,1.6255031E0,0E0,0E0,0E0,0E0,0E0,2.2644198E0,1.3283014E0,0E0,0E0,0E0,0E0],"parents":[2147483647,0,0,1,1,2,2,4,4,5,5,6,6,7,7,8,8,10,10,13,13,19,19,20,20],"right_children":[2,4,6,-1,8,10,12,14,16,-1,18,-1,-1,20,-1,-1,-1,-1,-1,22,24,-1,-1,-1,-1],"split_conditions":[6.504399E4,-3.6870312E2,1.40898E3,8.1491895E-2,8.358143E2,6.604399E4,6.731424E4,9.673369E2,2.0506414E3,-7.7125616E-3,1.2755677E3,-6.190824E-2,6.5697365E-2,2.702139E4,5.966821E-2,8.313036E-2,-3.188983E-2,-1.04095355E-1,-2.6201015E-2,-1.7705936E2,5.772585E4,-8.249367E-2,2.2100832E-2,-1.0601709E-1,6.6916454E-3],"split_indices":[225,89,228,0,19,245,210,218,93,0,248,0,0,5,0,0,0,0,0,104,20,0,0,0,0],"split_type":[0,0,0,0,0,0,0,0,0,0,0,0,0,0,0,0,0,0,0,0,0,0,0,0,0],"sum_hessian":[3.2487465E1,2.4161287E1,8.3261795E0,3.440455E0,2.0720833E1,5.5904193E0,2.7357597E0,1.5906254E1,4.814578E0,1.0379808E0,4.5524387E0,1.0385358E0,1.6972239E0,1.3300268E1,2.605986E0,3.810876E0,1.0037022E0,3.2495131E0,1.3029256E0,7.140892E0,6.1593757E0,2.2450254E0,4.895867E0,5.0323563E0,1.1270194E0],"tree_param":{"num_deleted":"0","num_feature":"250","num_nodes":"25","size_leaf_vector":"1"}},{"base_weights":[-4.9361654E-2,2.7486542E-1,-2.833017E-1,5.586603E-1,-3.2455248E-1,-7.148991E-1,6.728993E-2,7.4226266E-1,-4.0090688E-2,-7.867762E-2,2.7604565E-2,9.4038695E-3,-8.376194E-1,2.8591397E-1,-5.75839E-1,-6.50706E-3,8.965017E-2,-5.1312298E-2,4.8292264E-2,-9.7503763E-1,1.8257698E-3,5.590077E-1,-2.839337E-1,-8.5086025E-2,2.104393E-3,-1.2217223E-1,-1.6541949E-2,7.639216E-1,-2.7643567E-2,-5.9738625E-2,2.6836185E-2,8.2994185E-2,2.341837E-2],"categories":[],"categories_nodes":[],"categories_segments":[],"categories_sizes":[],"default_left":[0,0,0,0,0,0,0,0,0,0,0,0,0,0,0,0,0,0,0,0,0,0,0,0,0,0,0,0,0,0,0,0,0],"id":31,"left_children":[1,3,5,7,9,11,13,15,17,-1,-1,-1,19,21,23,-1,-1,-1,-1,25,-1,27,29,-1,-1,-1,-1,31,-1,-1,-1,-1,-1],"loss_changes":[2.521188E0,2.5643377E0,2.9539557E0,1.1153145E0,1.642379E0,9.4181347E-1,1.7830439E0,1.0057788E0,1.0558559E0,0E0,0E0,0E0,9.1747475E-1,1.599542E0,5.517287E-1,0E0,0E0,0E0,0E0,1.1179647E0,0E0,1.3403323E0,7.9439604E-1,0E0,0E0,0E0,0E0,1.7595291E-4,0E0,0E0,0E0,0E0,0E0],"parents":[2147483647,0,0,1,1,2,2,3,3,4,4,5,5,6,6,7,7,8,8,12,12,13,13,14,14,19,19,21,21,22,22,27,27],"right_children":[2,4,6,8,10,12,14,16,18,-1,-1,-1,20,22,24,-1,-1,-1,-1,26,-1,28,30,-1,-1,-1,-1,32,-1,-1,-1,-1,-1],"split_conditions":[3.9871137E4,6.566184E4,4.5700535E4,6.214542E1,6.44074E1,4.361981E1,4.0642494E5,2.652273E4,3.365796E4,-7.867762E-2,2.7604565E-2,9.4038695E-3,4.5503684E4,3.7123897E5,-1.1845233E2,-6.50706E-3,8.965017E-2,-5.1312298E-2,4.8292264E-2,3.365796E4,1.8257698E-3,3.7566916E5,2.95951E2,-8.5086025E-2,2.104393E-3,-1.2217223E-1,-1.6541949E-2,6.2716274E1,-2.7643567E-2,-5.9738625E-2,2.6836185E-2,8.2994185E-2,2.341837E-2],"split_indices":[16,215,31,22,63,167,56,60,101,0,0,0,36,1,4,0,0,0,0,131,0,66,193,0,0,0,0,237,0,0,0,0,0],"split_type":[0,0,0,0,0,0,0,0,0,0,0,0,0,0,0,0,0,0,0,0,0,0,0,0,0,0,0,0,0,0,0,0,0],"sum_hessian":[3.1212626E1,1.30085745E1,1.8204052E1,8.874792E0,4.1337824E0,7.6936407E0,1.0510411E1,6.6086235E0,2.2661684E0,2.1608174E0,1.9729651E0,1.0442111E0,6.6494293E0,8.258474E0,2.2519372E0,1.1527741E0,5.455849E0,1.1998713E0,1.066297E0,5.6095443E0,1.039885E0,5.595777E0,2.662697E0,1.2503273E0,1.0016098E0,3.909376E0,1.7001686E0,4.5623527E0,1.0334244E0,1.6465586E0,1.0161384E0,3.5528631E0,1.0094894E0],"tree_param":{"num_deleted":"0","num_feature":"250","num_nodes":"33","size_leaf_vector":"1"}},{"base_weights":[-2.3460742E-2,-9.31762E-2,6.5123506E-2,1.586046E-1,-4.010239E-1,-2.9499078E-1,3.4782964E-1,2.8762078E-1,-5.4704964E-1,5.6568827E-2,-6.2713665E-1,5.439436E-1,-2.9004055E-1,5.631391E-2,-1.4175298E-2,-6.9152147E-1,1.1210355E-2,-8.350476E-2,-1.1996673E-3,6.9658756E-1,-2.16581E-2,-6.0215283E-2,1.3419471E-2,-6.6310026E-2,-9.746751E-1,-6.1311447E-3,8.089676E-2,-5.2982368E-2,5.7214607E-2,-2.2859892E-2,-1.08387224E-1],"categories":[],"categories_nodes":[],"categories_segments":[],"categories_sizes":[],"default_left":[0,0,0,0,0,0,0,0,0,0,0,0,0,0,0,0,0,0,0,0,0,0,0,0,0,0,0,0,0,0,0],"id":32,"left_children":[1,3,-1,5,7,9,11,13,15,-1,17,19,21,-1,-1,23,-1,-1,-1,25,-1,-1,-1,27,29,-1,-1,-1,-1,-1,-1],"loss_changes":[1.5782659E0,2.3979867E0,0E0,1.5861036E0,1.5484195E0,1.963897E0,1.740837E0,4.4366527E-1,1.1972032E0,0E0,5.7007813E-1,1.3148808E0,5.611948E-1,0E0,0E0,1.6673527E0,0E0,0E0,0E0,7.810583E-1,0E0,0E0,0E0,1.523178E0,2.9488087E-1,0E0,0E0,0E0,0E0,0E0,0E0],"parents":[2147483647,0,0,1,1,3,3,4,4,5,5,6,6,7,7,8,8,10,10,11,11,12,12,15,15,19,19,23,23,24,24],"right_children":[2,4,-1,6,8,10,12,14,16,-1,18,20,22,-1,-1,24,-1,-1,-1,26,-1,-1,-1,28,30,-1,-1,-1,-1,-1,-1],"split_conditions":[7.062952E1,5.621049E1,6.5123506E-2,2.1264537E4,2.4118857E4,4.8783867E1,5.5120224E1,1.0143537E3,2.930781E5,5.6568827E-2,6.6056433E2,3.2637066E5,-3.5913065E2,5.631391E-2,-1.4175298E-2,3.299419E4,1.1210355E-2,-8.350476E-2,-1.1996673E-3,1.5760128E4,-2.16581E-2,-6.0215283E-2,1.3419471E-2,-2.9994354E2,2.5144334E4,-6.1311447E-3,8.089676E-2,-5.2982368E-2,5.7214607E-2,-2.2859892E-2,-1.08387224E-1],"split_indices":[162,192,0,241,236,112,202,143,51,0,143,6,89,0,0,111,0,0,0,21,0,0,0,78,121,0,0,0,0,0,0],"split_type":[0,0,0,0,0,0,0,0,0,0,0,0,0,0,0,0,0,0,0,0,0,0,0,0,0,0,0,0,0,0,0],"sum_hessian":[3.126386E1,2.9117123E1,2.1467366E0,1.6283806E1,1.2833317E1,4.628879E0,1.1654927E1,2.0755496E0,1.0757767E1,1.0931365E0,3.5357428E0,9.026859E0,2.6280682E0,1.0745208E0,1.0010289E0,8.78351E0,1.9742572E0,2.3753924E0,1.1603501E0,7.587959E0,1.4389002E0,1.2724991E0,1.3555691E0,3.1226943E0,5.6608157E0,1.0385216E0,6.549437E0,1.9077979E0,1.2148962E0,1.117702E0,4.5431137E0],"tree_param":{"num_deleted":"0","num_feature":"250","num_nodes":"31","size_leaf_vector":"1"}},{"base_weights":[-4.2826027E-2,-7.5266E-1,5.2708194E-2,-2.025186E-2,-9.15129E-2,6.147203E-1,-9.672517E-2,8.257767E-2,-1.2645073E-2,-2.2744308E-1,5.9240854E-1,2.8497648E-1,-3.568176E-1,6.8158716E-2,1.6833961E-2,5.3588934E-2,-2.2608502E-2,-5.9403375E-2,-5.886646E-1,-5.6905385E-2,5.325343E-2,-9.162032E-2,-9.52909E-3],"categories":[],"categories_nodes":[],"categories_segments":[],"categories_sizes":[],"default_left":[0,0,0,0,0,0,0,0,0,0,0,0,0,0,0,0,0,0,0,0,0,0,0],"id":33,"left_children":[1,3,5,-1,-1,7,9,-1,-1,11,13,15,17,-1,-1,-1,-1,19,21,-1,-1,-1,-1],"loss_changes":[2.0932224E0,1.4158845E-1,2.37948E0,0E0,0E0,1.033344E0,2.178383E0,0E0,0E0,1.4137689E0,3.2546163E-2,7.0405626E-1,1.0852826E0,0E0,0E0,0E0,0E0,2.7855823E0,1.369863E0,0E0,0E0,0E0,0E0],"parents":[2147483647,0,0,1,1,2,2,5,5,6,6,9,9,10,10,11,11,12,12,17,17,18,18],"right_children":[2,4,6,-1,-1,8,10,-1,-1,12,14,16,18,-1,-1,-1,-1,20,22,-1,-1,-1,-1],"split_conditions":[-1.4730621E3,2.5429812E4,-1.582394E2,-2.025186E-2,-9.15129E-2,8.632794E4,6.559854E1,8.257767E-2,-1.2645073E-2,2.8408188E4,7.628932E1,6.009623E1,7.676422E2,6.8158716E-2,1.6833961E-2,5.3588934E-2,-2.2608502E-2,1.8703416E2,5.830167E1,-5.6905385E-2,5.325343E-2,-9.162032E-2,-9.52909E-3],"split_indices":[163,21,179,0,0,236,207,0,0,6,172,202,209,0,0,0,0,163,207,0,0,0,0],"split_type":[0,0,0,0,0,0,0,0,0,0,0,0,0,0,0,0,0,0,0,0,0,0,0],"sum_hessian":[2.9282364E1,2.6575947E0,2.662477E1,1.1180928E0,1.5395018E0,4.9383154E0,2.1686455E1,3.7549124E0,1.1834029E0,1.8791885E1,2.8945694E0,3.5456686E0,1.5246217E1,1.889885E0,1.0046843E0,2.3455212E0,1.2001475E0,7.22902E0,8.017197E0,3.9052827E0,3.3237374E0,4.3033156E0,3.7138805E0],"tree_param":{"num_deleted":"0","num_feature":"250","num_nodes":"23","size_leaf_vector":"1"}},{"base_weights":[-7.761763E-2,8.477904E-2,-4.72165E-1,-1.7729244E-1,4.1918278E-1,-7.679356E-1,2.7575627E-1,4.6412018E-1,-3.4904388E-1,7.4783844E-1,-1.6367596E-1,1.7288011E-4,-9.770979E-1,-2.0444209E-2,5.9225973E-2,1.1539441E-2,5.756211E-2,-5.1158476E-1,2.0885006E-1,7.290549E-3,8.6212754E-2,-5.670379E-1,5.3843748E-2,-1.1073067E-1,-2.3208618E-2,1.4367788E-2,-6.781044E-1,-2.3235688E-2,5.6200612E-2,-6.980984E-2,-1.4556705E-2,-1.9292877E-3,-7.909163E-2],"categories":[],"categories_nodes":[],"categories_segments":[],"categories_sizes":[],"default_left":[0,0,0,0,0,0,0,0,0,0,0,0,0,0,0,0,0,0,0,0,0,0,0,0,0,0,0,0,0,0,0,0,0],"id":34,"left_children":[1,3,5,7,9,11,13,15,17,19,21,-1,23,-1,-1,-1,-1,25,27,-1,-1,29,-1,-1,-1,-1,31,-1,-1,-1,-1,-1,-1],"loss_changes":[1.9259552E0,1.975986E0,2.1439977E0,1.5795894E0,2.0056562E0,1.0518916E0,6.0912156E-1,5.594814E-2,1.0790225E0,4.3591642E-1,1.5415516E0,0E0,2.4078894E-1,0E0,0E0,0E0,0E0,1.0349371E0,6.181158E-1,0E0,0E0,7.842755E-2,0E0,0E0,0E0,0E0,5.0691247E-1,0E0,0E0,0E0,0E0,0E0,0E0],"parents":[2147483647,0,0,1,1,2,2,3,3,4,4,5,5,6,6,7,7,8,8,9,9,10,10,12,12,17,17,18,18,21,21,26,26],"right_children":[2,4,6,8,10,12,14,16,18,20,22,-1,24,-1,-1,-1,-1,26,28,-1,-1,30,-1,-1,-1,-1,32,-1,-1,-1,-1,-1,-1],"split_conditions":[1.40898E3,-7.915161E1,6.681932E4,3.99531E1,6.4018875E1,3.3931633E4,5.7971992E1,5.056779E1,6.2199356E1,2.048362E4,8.426576E2,1.7288011E-4,7.66639E4,-2.0444209E-2,5.9225973E-2,1.1539441E-2,5.756211E-2,4.3780987E1,8.961135E2,7.290549E-3,8.6212754E-2,3.828361E4,5.3843748E-2,-1.1073067E-1,-2.3208618E-2,1.4367788E-2,-4.557561E2,-2.3235688E-2,5.6200612E-2,-6.980984E-2,-1.4556705E-2,-1.9292877E-3,-7.909163E-2],"split_indices":[123,88,210,42,12,146,137,247,182,5,24,0,136,0,0,0,0,177,218,0,0,101,0,0,0,0,9,0,0,0,0,0,0],"split_type":[0,0,0,0,0,0,0,0,0,0,0,0,0,0,0,0,0,0,0,0,0,0,0,0,0,0,0,0,0,0,0,0,0],"sum_hessian":[2.843393E1,2.0699207E1,7.7347217E0,1.186806E1,8.831148E0,5.5236115E0,2.2111099E0,2.1471531E0,9.720907E0,5.4659934E0,3.3651543E0,1.3922435E0,4.131368E0,1.019058E0,1.192052E0,1.0132068E0,1.1339462E0,7.5920043E0,2.1289032E0,1.0287321E0,4.4372616E0,2.2594764E0,1.1056778E0,3.1027868E0,1.0285815E0,1.5661805E0,6.0258236E0,1.0985334E0,1.0303699E0,1.2228736E0,1.036603E0,1.0521834E0,4.9736404E0],"tree_param":{"num_deleted":"0","num_feature":"250","num_nodes":"33","size_leaf_vector":"1"}},{"base_weights":[-4.0497717E-2,3.4362772E-1,-1.8755566E-1,-4.0634662E-2,4.9866167E-1,-3.5040632E-1,3.777914E-1,6.595374E-1,-2.4425467E-2,-5.879282E-1,5.958939E-2,-4.7252294E-2,6.8447016E-2,8.377621E-2,3.3363304E-4,-7.511844E-1,5.2349087E-2,7.199431E-2,-5.5037826E-1,-1.4280154E-3,-9.294446E-1,-3.9663013E-2,4.3988276E-2,-9.461402E-2,-1.2279305E-3,-3.9886527E-2,-1.0962349E-1],"categories":[],"categories_nodes":[],"categories_segments":[],"categories_sizes":[],"default_left":[0,0,0,0,0,0,0,0,0,0,0,0,0,0,0,0,0,0,0,0,0,0,0,0,0,0,0],"id":35,"left_children":[1,3,5,-1,7,9,11,13,-1,15,17,-1,-1,-1,-1,19,21,-1,23,-1,25,-1,-1,-1,-1,-1,-1],"loss_changes":[1.724939E0,1.1899029E0,2.1490166E0,0E0,1.0557439E0,1.7415993E0,1.7263091E0,7.484236E-1,0E0,1.2088034E0,3.351226E0,0E0,0E0,0E0,0E0,1.1663594E0,7.326386E-1,0E0,9.2121506E-1,0E0,2.0127201E-1,0E0,0E0,0E0,0E0,0E0,0E0],"parents":[2147483647,0,0,1,1,2,2,4,4,5,5,6,6,7,7,9,9,10,10,15,15,16,16,18,18,20,20],"right_children":[2,4,6,-1,8,10,12,14,-1,16,18,-1,-1,-1,-1,20,22,-1,24,-1,26,-1,-1,-1,-1,-1,-1],"split_conditions":[4.8971092E1,1.3374569E4,6.266433E1,-4.0634662E-2,6.399001E4,5.8762356E1,4.033222E1,4.9767918E1,-2.4425467E-2,1.2019865E3,5.8390156E1,-4.7252294E-2,6.8447016E-2,8.377621E-2,3.3363304E-4,2.4598963E4,2.6690322E4,7.199431E-2,-1.2822705E2,-1.4280154E-3,2.871371E4,-3.9663013E-2,4.3988276E-2,-9.461402E-2,-1.2279305E-3,-3.9886527E-2,-1.0962349E-1],"split_indices":[232,236,182,0,245,232,2,242,0,3,187,0,0,0,0,136,246,0,73,0,245,0,0,0,0,0,0],"split_type":[0,0,0,0,0,0,0,0,0,0,0,0,0,0,0,0,0,0,0,0,0,0,0,0,0,0,0],"sum_hessian":[2.8395077E1,7.4911075E0,2.0903969E1,1.0055856E0,6.4855223E0,1.6524273E1,4.379696E0,5.4233484E0,1.0621736E0,1.0188062E1,6.3362117E0,1.017565E0,3.362131E0,4.047389E0,1.3759594E0,7.9800997E0,2.207962E0,2.9558733E0,3.3803384E0,1.7647921E0,6.2153077E0,1.0120145E0,1.1959475E0,1.510841E0,1.8694974E0,2.297646E0,3.9176617E0],"tree_param":{"num_deleted":"0","num_feature":"250","num_nodes":"27","size_leaf_vector":"1"}},{"base_weights":[-1.1372697E-1,7.41231E-2,-4.5693183E-1,-1.2885341E-1,8.1145026E-2,-7.623289E-1,-7.6754126E-3,-2.7477685E-1,5.5923697E-2,-9.382468E-2,-2.9022994E-3,-4.9339408E-1,5.410556E-2,7.178366E-2,-6.882537E-1,-7.7211455E-2,6.459807E-3,-3.8695264E-1,5.7662064E-1,1.776725E-2,-9.198975E-2,5.2825034E-2,-7.472807E-2,7.7587314E-2,-6.3499934E-3],"categories":[],"categories_nodes":[],"categories_segments":[],"categories_sizes":[],"default_left":[0,0,0,0,0,0,0,0,0,0,0,0,0,0,0,0,0,0,0,0,0,0,0,0,0],"id":36,"left_children":[1,3,5,7,-1,9,11,13,-1,-1,-1,15,-1,17,19,-1,-1,21,23,-1,-1,-1,-1,-1,-1],"loss_changes":[1.9534935E0,3.1131887E0,1.4583478E0,1.8231124E0,0E0,7.9102063E-1,1.6872655E0,2.1111326E0,0E0,0E0,0E0,5.7085085E-1,0E0,2.2455626E0,1.4983578E0,0E0,0E0,2.1009326E0,6.3076746E-1,0E0,0E0,0E0,0E0,0E0,0E0],"parents":[2147483647,0,0,1,1,2,2,3,3,5,5,6,6,7,7,11,11,13,13,14,14,17,17,18,18],"right_children":[2,4,6,8,-1,10,12,14,-1,-1,-1,16,-1,18,20,-1,-1,22,24,-1,-1,-1,-1,-1,-1],"split_conditions":[6.399001E4,3.730163E4,5.6397285E1,9.556553E2,8.1145026E-2,5.882942E1,6.2058E4,2.803382E4,5.5923697E-2,-9.382468E-2,-2.9022994E-3,2.612119E4,5.410556E-2,-1.4190424E2,4.8638977E1,-7.7211455E-2,6.459807E-3,4.289276E1,7.010554E1,1.776725E-2,-9.198975E-2,5.2825034E-2,-7.472807E-2,7.7587314E-2,-6.3499934E-3],"split_indices":[245,10,217,218,0,247,85,200,0,0,0,126,0,128,242,0,0,62,62,0,0,0,0,0,0],"split_type":[0,0,0,0,0,0,0,0,0,0,0,0,0,0,0,0,0,0,0,0,0,0,0,0,0],"sum_hessian":[2.8774975E1,1.9103094E1,9.67188E0,1.5626552E1,3.476543E0,5.3429575E0,4.3289223E0,1.338802E1,2.2385318E0,4.083793E0,1.2591645E0,2.349801E0,1.9791213E0,7.732948E0,5.6550717E0,1.311141E0,1.0386599E0,4.1738005E0,3.5591476E0,1.2426847E0,4.412387E0,1.0474188E0,3.1263816E0,2.5525372E0,1.0066104E0],"tree_param":{"num_deleted":"0","num_feature":"250","num_nodes":"25","size_leaf_vector":"1"}},{"base_weights":[-4.962552E-2,-1.1834758E-1,6.488191E-2,3.5632852E-1,-2.3343286E-1,5.715844E-1,-2.281523E-2,-3.1983382E-1,6.1419334E-2,7.414146E-2,6.115924E-5,1.9817956E-1,-4.1025952E-1,-3.706939E-2,6.3788906E-2,-5.2136016E-1,8.937347E-2,1.6200757E-2,-5.9210926E-2,-3.1921457E-2,4.688088E-2],"categories":[],"categories_nodes":[],"categories_segments":[],"categories_sizes":[],"default_left":[0,0,0,0,0,0,0,0,0,0,0,0,0,0,0,0,0,0,0,0,0],"id":37,"left_children":[1,3,-1,5,7,9,-1,11,-1,-1,-1,13,15,-1,-1,17,19,-1,-1,-1,-1],"loss_changes":[1.4468268E0,1.5489752E0,0E0,8.3896315E-1,1.8223021E0,4.2632854E-1,0E0,1.0558169E0,0E0,0E0,0E0,1.1785374E0,1.0478854E0,0E0,0E0,8.164568E-1,7.907177E-1,0E0,0E0,0E0,0E0],"parents":[2147483647,0,0,1,1,3,3,4,4,5,5,7,7,11,11,12,12,15,15,16,16],"right_children":[2,4,-1,6,8,10,-1,12,-1,-1,-1,14,16,-1,-1,18,20,-1,-1,-1,-1],"split_conditions":[6.949903E1,2.5328229E4,6.488191E-2,6.677301E4,2.7540775E5,5.9137253E1,-2.281523E-2,4.416614E1,6.1419334E-2,7.414146E-2,6.115924E-5,4.4441547E1,6.266433E1,-3.706939E-2,6.3788906E-2,1.768719E4,-2.140279E2,1.6200757E-2,-5.9210926E-2,-3.1921457E-2,4.688088E-2],"split_indices":[212,146,0,220,151,87,0,187,0,0,0,222,182,0,0,26,19,0,0,0,0],"split_type":[0,0,0,0,0,0,0,0,0,0,0,0,0,0,0,0,0,0,0,0,0],"sum_hessian":[2.7543371E1,2.5832216E1,1.7111537E0,4.6318135E0,2.1200403E1,3.4012475E0,1.2305659E0,1.980436E1,1.3960438E0,2.3914294E0,1.009818E0,2.7662082E0,1.7038153E1,1.2744054E0,1.4918028E0,1.3903108E1,3.135044E0,1.1833365E0,1.2719771E1,1.5859519E0,1.5490923E0],"tree_param":{"num_deleted":"0","num_feature":"250","num_nodes":"21","size_leaf_vector":"1"}},{"base_weights":[-4.298442E-2,-6.54606E-1,4.4713482E-2,-8.3496414E-2,-1.5679857E-2,3.6944044E-1,-1.84002E-1,5.389848E-1,-1.7052503E-1,-4.3158302E-1,1.1257847E-1,6.6601396E-1,-1.9122636E-2,-5.7679605E-2,3.034806E-2,2.181573E-2,-5.922853E-1,4.033808E-1,-4.8200208E-1,8.826569E-2,-1.050078E-3,1.2176628E-2,-8.4708655E-1,-1.9705614E-2,6.223049E-1,-6.07886E-2,-1.1528937E-2,-1.0144725E-1,-1.8922405E-2,9.2809675E-3,7.4857995E-2],"categories":[],"categories_nodes":[],"categories_segments":[],"categories_sizes":[],"default_left":[0,0,0,0,0,0,0,0,0,0,0,0,0,0,0,0,0,0,0,0,0,0,0,0,0,0,0,0,0,0,0],"id":38,"left_children":[1,3,5,-1,-1,7,9,11,13,15,17,19,-1,-1,-1,-1,21,23,25,-1,-1,-1,27,-1,29,-1,-1,-1,-1,-1,-1],"loss_changes":[1.5110421E0,1.8586254E-1,1.9319459E0,0E0,0E0,1.0718516E0,1.1788629E0,9.052851E-1,8.139154E-1,1.0268073E0,1.5425047E0,1.0889792E0,0E0,0E0,0E0,0E0,1.4060357E0,8.8243973E-1,6.9163024E-2,0E0,0E0,0E0,4.030459E-1,0E0,2.298199E-1,0E0,0E0,0E0,0E0,0E0,0E0],"parents":[2147483647,0,0,1,1,2,2,5,5,6,6,7,7,8,8,9,9,10,10,11,11,16,16,17,17,18,18,22,22,24,24],"right_children":[2,4,6,-1,-1,8,10,12,14,16,18,20,-1,-1,-1,-1,22,24,26,-1,-1,-1,28,-1,30,-1,-1,-1,-1,-1,-1],"split_conditions":[-1.3213834E3,2.1246346E4,4.046352E4,-8.3496414E-2,-1.5679857E-2,6.760999E4,5.2161355E4,6.774582E1,-8.275522E2,2.5966186E4,3.869776E5,6.3369167E1,-1.9122636E-2,-5.7679605E-2,3.034806E-2,2.181573E-2,3.0223447E4,4.4332005E1,4.9835674E1,8.826569E-2,-1.050078E-3,1.2176628E-2,7.3557513E2,-1.9705614E-2,5.1596918E4,-6.07886E-2,-1.1528937E-2,-1.0144725E-1,-1.8922405E-2,9.2809675E-3,7.4857995E-2],"split_indices":[168,46,16,0,0,195,226,7,58,226,66,152,0,0,0,0,216,117,212,0,0,0,14,0,46,0,0,0,0,0,0],"split_type":[0,0,0,0,0,0,0,0,0,0,0,0,0,0,0,0,0,0,0,0,0,0,0,0,0,0,0,0,0,0,0],"sum_hessian":[2.662546E1,2.528299E0,2.409716E1,1.3587381E0,1.1695611E0,9.704114E0,1.4393046E1,7.386603E0,2.3175116E0,7.5964465E0,6.7966E0,6.3669157E0,1.019687E0,1.1311479E0,1.1863637E0,1.4354024E0,6.161044E0,4.780221E0,2.0163789E0,4.5917654E0,1.7751503E0,1.7576215E0,4.4034224E0,1.3039106E0,3.4763103E0,1.0114938E0,1.0048852E0,3.078148E0,1.3252746E0,1.0034853E0,2.4728248E0],"tree_param":{"num_deleted":"0","num_feature":"250","num_nodes":"31","size_leaf_vector":"1"}},{"base_weights":[-4.0994257E-2,6.601901E-2,-1.1854687E-1,-5.9218E-1,-8.999124E-3,-8.2405575E-2,-1.0012697E-2,5.488586E-1,-1.4396845E-1,-2.742204E-3,7.3342375E-2,-2.5020352E-1,2.9748863E-1,2.1349329E-1,-4.0527827E-1,-2.959615E-2,6.0355633E-2,-3.1204129E-2,6.7393444E-2,2.8381193E-2,-5.3076483E-2],"categories":[],"categories_nodes":[],"categories_segments":[],"categories_sizes":[],"default_left":[0,0,0,0,0,0,0,0,0,0,0,0,0,0,0,0,0,0,0,0,0],"id":39,"left_children":[1,-1,3,5,7,-1,-1,9,11,-1,-1,13,15,17,19,-1,-1,-1,-1,-1,-1],"loss_changes":[1.522463E0,0E0,1.2794112E0,4.464146E-1,1.6696178E0,0E0,0E0,4.799335E-1,9.0931815E-1,0E0,0E0,1.157387E0,8.888031E-1,1.2719026E0,1.1454914E0,0E0,0E0,0E0,0E0,0E0,0E0],"parents":[2147483647,0,0,2,2,3,3,4,4,7,7,8,8,11,11,12,12,13,13,14,14],"right_children":[2,-1,4,6,8,-1,-1,10,12,-1,-1,14,16,18,20,-1,-1,-1,-1,-1,-1],"split_conditions":[4.2422226E1,6.601901E-2,4.1578705E1,3.2783195E4,-1.76576E2,-8.2405575E-2,-1.0012697E-2,-6.160177E2,6.379761E1,-2.742204E-3,7.3342375E-2,4.988168E1,2.2485664E4,3.513594E4,2.3993617E4,-2.959615E-2,6.0355633E-2,-3.1204129E-2,6.7393444E-2,2.8381193E-2,-5.3076483E-2],"split_indices":[232,0,162,81,154,0,0,64,207,0,0,197,56,191,56,0,0,0,0,0,0],"split_type":[0,0,0,0,0,0,0,0,0,0,0,0,0,0,0,0,0,0,0,0,0],"sum_hessian":[2.5558193E1,1.7970986E0,2.3761093E1,3.635822E0,2.012527E1,2.0126493E0,1.6231729E0,3.323203E0,1.6802069E1,1.0126764E0,2.3105266E0,1.3892194E1,2.9098744E0,3.387211E0,1.0504983E1,1.0013419E0,1.9085326E0,1.7323054E0,1.6549057E0,1.4239408E0,9.081042E0],"tree_param":{"num_deleted":"0","num_feature":"250","num_nodes":"21","size_leaf_vector":"1"}},{"base_weights":[-2.3333656E-2,-3.4708926E-1,1.3229169E-1,-1.48486085E-2,-8.13919E-2,3.4455365E-1,-2.510827E-1,6.779143E-2,-4.5673376E-1,-3.0783522E-1,6.1836934E-1,-7.5748265E-2,2.3022091E-1,9.677675E-3,-7.27326E-2,4.1938968E-2,-6.923116E-1,1.0636124E-1,7.595381E-1,5.871578E-2,-4.6274092E-2,-2.0708876E-2,-8.424029E-2,4.7097903E-2,-3.0320883E-2,1.9717617E-2,8.259439E-2],"categories":[],"categories_nodes":[],"categories_segments":[],"categories_sizes":[],"default_left":[0,0,0,0,0,0,0,0,0,0,0,0,0,0,0,0,0,0,0,0,0,0,0,0,0,0,0],"id":40,"left_children":[1,3,5,7,-1,9,11,-1,13,15,17,-1,19,-1,-1,-1,21,23,25,-1,-1,-1,-1,-1,-1,-1,-1],"loss_changes":[1.386874E0,1.3707882E0,1.6081095E0,2.215989E0,0E0,2.4155235E0,1.9394624E0,0E0,7.293511E-1,1.5066657E0,5.7741785E-1,0E0,1.3797632E0,0E0,0E0,0E0,6.0267925E-2,6.103719E-1,9.7632885E-2,0E0,0E0,0E0,0E0,0E0,0E0,0E0,0E0],"parents":[2147483647,0,0,1,1,2,2,3,3,5,5,6,6,8,8,9,9,10,10,12,12,16,16,17,17,18,18],"right_children":[2,4,6,8,-1,10,12,-1,14,16,18,-1,20,-1,-1,-1,22,24,26,-1,-1,-1,-1,-1,-1,-1,-1],"split_conditions":[4.4441547E1,9.3058185E2,6.3380676E1,5.405805E1,-8.13919E-2,-8.275522E2,9.5261334E2,6.779143E-2,4.2597188E4,2.9534994E4,-3.628476E2,-7.5748265E-2,6.949985E4,9.677675E-3,-7.27326E-2,4.1938968E-2,-9.034763E2,5.4773415E1,2.129466E4,5.871578E-2,-4.6274092E-2,-2.0708876E-2,-8.424029E-2,4.7097903E-2,-3.0320883E-2,1.9717617E-2,8.259439E-2],"split_indices":[2,119,2,202,0,108,3,0,71,226,68,0,110,0,0,0,108,192,226,0,0,0,0,0,0,0,0],"split_type":[0,0,0,0,0,0,0,0,0,0,0,0,0,0,0,0,0,0,0,0,0,0,0,0,0,0,0],"sum_hessian":[2.5614435E1,7.9160247E0,1.769841E1,5.2274675E0,2.6885576E0,1.1456551E1,6.24186E0,1.8278011E0,3.3996663E0,3.350193E0,8.106358E0,2.7620134E0,3.4798465E0,1.3271874E0,2.0724788E0,1.1272424E0,2.2229507E0,2.1309614E0,5.9753966E0,2.3975692E0,1.0822772E0,1.0873764E0,1.1355742E0,1.048026E0,1.0829353E0,1.05028E0,4.9251165E0],"tree_param":{"num_deleted":"0","num_feature":"250","num_nodes":"27","size_leaf_vector":"1"}},{"base_weights":[-1.2583162E-1,-4.5885855E-1,9.087929E-3,3.6484465E-2,-6.596995E-1,-1.11814946E-1,5.2090496E-1,-1.6861347E-3,-8.030104E-1,3.2957703E-1,-2.677362E-1,1.3070403E-3,6.917174E-2,-2.000012E-2,-8.9874305E-2,-4.384358E-2,6.540701E-2,-4.388898E-1,1.6011526E-1,-4.985675E-2,-7.7885455E-1,6.6829346E-2,-3.0700495E-2,4.3693017E-2,-4.516658E-2,-2.320127E-2,-8.873203E-2],"categories":[],"categories_nodes":[],"categories_segments":[],"categories_sizes":[],"default_left":[0,0,0,0,0,0,0,0,0,0,0,0,0,0,0,0,0,0,0,0,0,0,0,0,0,0,0],"id":41,"left_children":[1,3,5,-1,7,9,11,-1,13,15,17,-1,-1,-1,-1,-1,-1,19,21,23,25,-1,-1,-1,-1,-1,-1],"loss_changes":[1.1845468E0,1.4969501E0,1.2758371E0,0E0,5.817094E-1,1.2403266E0,3.324386E-1,0E0,1.2401104E-1,1.4874859E0,1.0165293E0,0E0,0E0,0E0,0E0,0E0,0E0,1.2172318E0,1.2555532E0,1.2725967E0,9.068513E-2,0E0,0E0,0E0,0E0,0E0,0E0],"parents":[2147483647,0,0,1,1,2,2,4,4,5,5,6,6,8,8,9,9,10,10,17,17,18,18,19,19,20,20],"right_children":[2,4,6,-1,8,10,12,-1,14,16,18,-1,-1,-1,-1,-1,-1,20,22,24,26,-1,-1,-1,-1,-1,-1],"split_conditions":[-4.2039716E2,4.753909E1,6.2295254E1,3.6484465E-2,2.5144334E4,4.8574604E1,-1.7588068E2,-1.6861347E-3,2.943093E4,1.6224417E4,6.009623E1,1.3070403E-3,6.917174E-2,-2.000012E-2,-8.9874305E-2,-4.384358E-2,6.540701E-2,5.3431145E4,5.8350163E1,6.039069E1,4.9767918E1,6.6829346E-2,-3.0700495E-2,4.3693017E-2,-4.516658E-2,-2.320127E-2,-8.873203E-2],"split_indices":[13,177,192,0,116,247,89,0,190,136,232,0,0,0,0,0,0,136,202,17,227,0,0,0,0,0,0],"split_type":[0,0,0,0,0,0,0,0,0,0,0,0,0,0,0,0,0,0,0,0,0,0,0,0,0,0,0],"sum_hessian":[2.5270386E1,6.593767E0,1.8676619E1,1.1324986E0,5.4612684E0,1.5740004E1,2.9366155E0,1.1993036E0,4.261965E0,3.8180053E0,1.1921998E1,1.0100881E0,1.9265273E0,1.0071576E0,3.2548072E0,1.0297185E0,2.788287E0,8.4971E0,3.4248986E0,4.497319E0,3.9997807E0,1.4340904E0,1.9908081E0,1.9940922E0,2.503227E0,1.1816093E0,2.8181715E0],"tree_param":{"num_deleted":"0","num_feature":"250","num_nodes":"27","size_leaf_vector":"1"}},{"base_weights":[-1.4856743E-2,6.623208E-2,-9.305502E-2,-3.2908145E-1,2.3593453E-1,4.281469E-2,-4.2368972E-1,-3.587686E-2,4.0664104E-1,-5.0461704E-1,2.471235E-2,-9.3908034E-2,6.331219E-1,-1.8590574E-1,-7.5120765E-1,3.2188345E-2,-4.7085155E-2,1.5180151E-2,7.075099E-1,2.9453114E-2,-4.1656774E-2,2.9205967E-4,-8.96658E-2,7.996352E-2,1.790147E-2],"categories":[],"categories_nodes":[],"categories_segments":[],"categories_sizes":[],"default_left":[0,0,0,0,0,0,0,0,0,0,0,0,0,0,0,0,0,0,0,0,0,0,0,0,0],"id":42,"left_children":[1,-1,3,5,7,-1,9,-1,11,13,-1,15,17,19,21,-1,-1,-1,23,-1,-1,-1,-1,-1,-1],"loss_changes":[1.3706115E0,0E0,1.8664663E0,1.1722699E0,1.1819746E0,0E0,8.1945133E-1,0E0,1.0115297E0,7.8369045E-1,0E0,6.980826E-1,1.0424924E-1,8.3788884E-1,6.930983E-1,0E0,0E0,0E0,9.283471E-2,0E0,0E0,0E0,0E0,0E0,0E0],"parents":[2147483647,0,0,2,2,3,3,4,4,6,6,8,8,9,9,11,11,12,12,13,13,14,14,18,18],"right_children":[2,-1,4,6,8,-1,10,-1,12,14,-1,16,18,20,22,-1,-1,-1,24,-1,-1,-1,-1,-1,-1],"split_conditions":[3.979059E1,6.623208E-2,4.746685E2,2.129466E4,2.093306E4,4.281469E-2,2.2370197E5,-3.587686E-2,2.4115766E4,4.2575477E4,2.471235E-2,4.269964E4,4.660166E1,4.9483925E1,-3.8206555E2,3.2188345E-2,-4.7085155E-2,1.5180151E-2,7.693497E1,2.9453114E-2,-4.1656774E-2,2.9205967E-4,-8.96658E-2,7.996352E-2,1.790147E-2],"split_indices":[42,0,89,86,246,0,156,0,196,166,0,1,222,152,73,0,0,0,37,0,0,0,0,0,0],"split_type":[0,0,0,0,0,0,0,0,0,0,0,0,0,0,0,0,0,0,0,0,0,0,0,0,0],"sum_hessian":[2.3719124E1,1.6821721E0,2.2036953E1,1.2831203E1,9.205749E0,1.0335311E0,1.1797672E1,1.8074234E0,7.3983254E0,1.0748696E1,1.0489761E0,2.4870393E0,4.911286E0,5.453765E0,5.2949314E0,1.2520368E0,1.2350024E0,1.0644614E0,3.8468246E0,1.6792419E0,3.7745233E0,1.0145634E0,4.2803683E0,2.8389144E0,1.0079103E0],"tree_param":{"num_deleted":"0","num_feature":"250","num_nodes":"25","size_leaf_vector":"1"}},{"base_weights":[-5.7015583E-2,2.807174E-1,-2.0188977E-1,-2.0546608E-1,5.01577E-1,5.198555E-2,-3.02114E-1,2.8161738E-2,-6.0468193E-2,-4.106294E-3,6.3021165E-1,-4.8527363E-1,5.274755E-2,5.9193233E-3,7.741268E-2,1.4038163E-2,-5.795811E-1,6.2961675E-2,-2.570925E-1,4.5700995E-3,-6.601108E-1,-5.948968E-2,1.908467E-2,-7.815474E-2,-6.357533E-3],"categories":[],"categories_nodes":[],"categories_segments":[],"categories_sizes":[],"default_left":[0,0,0,0,0,0,0,0,0,0,0,0,0,0,0,0,0,0,0,0,0,0,0,0,0],"id":43,"left_children":[1,3,5,7,9,-1,11,-1,-1,-1,13,15,17,-1,-1,-1,19,-1,21,-1,23,-1,-1,-1,-1],"loss_changes":[1.24146E0,9.2850596E-1,1.4249092E0,7.7516663E-1,4.1513872E-1,0E0,1.0670019E0,0E0,0E0,0E0,3.2966113E-1,7.1069765E-1,1.2980199E0,0E0,0E0,0E0,5.067079E-1,0E0,8.467278E-1,0E0,5.62356E-1,0E0,0E0,0E0,0E0],"parents":[2147483647,0,0,1,1,2,2,3,3,4,4,6,6,10,10,11,11,12,12,16,16,18,18,20,20],"right_children":[2,4,6,8,10,-1,12,-1,-1,-1,14,16,18,-1,-1,-1,20,-1,22,-1,24,-1,-1,-1,-1],"split_conditions":[2.8928965E4,4.454338E1,4.395064E1,3.868874E4,4.1706676E1,5.198555E-2,5.8669716E1,2.8161738E-2,-6.0468193E-2,-4.106294E-3,4.169604E4,4.404411E1,5.5417713E1,5.9193233E-3,7.741268E-2,1.4038163E-2,-4.54791E2,6.2961675E-2,-1.1943538E2,4.5700995E-3,8.959911E2,-5.948968E-2,1.908467E-2,-7.815474E-2,-6.357533E-3],"split_indices":[61,77,232,191,2,0,232,0,0,0,205,197,187,0,0,0,94,0,59,0,224,0,0,0,0],"split_type":[0,0,0,0,0,0,0,0,0,0,0,0,0,0,0,0,0,0,0,0,0,0,0,0,0],"sum_hessian":[2.3214495E1,6.687298E0,1.6527197E1,2.1106882E0,4.5766096E0,1.5046717E0,1.5022526E1,1.0834022E0,1.027286E0,1.0074599E0,3.5691497E0,9.665985E0,5.3565407E0,1.0025587E0,2.566591E0,1.2021456E0,8.46384E0,1.5110862E0,3.8454545E0,1.0150288E0,7.44881E0,2.0051992E0,1.8402553E0,5.9312434E0,1.5175668E0],"tree_param":{"num_deleted":"0","num_feature":"250","num_nodes":"25","size_leaf_vector":"1"}},{"base_weights":[-1.14594914E-1,2.488733E-1,-2.5586239E-1,6.802729E-2,-5.4247633E-2,-7.1162146E-1,-1.1168527E-1,-3.5259724E-1,5.5980325E-2,-8.6652525E-2,-2.1632614E-2,1.18978605E-1,-5.613774E-1,1.5255212E-2,-6.0158104E-1,-4.510964E-1,3.0872515E-1,-7.2562873E-1,2.3657284E-3,-7.473286E-2,-1.5225748E-2,6.661068E-3,-7.3420756E-2,-1.587331E-1,5.908737E-1,-1.948335E-2,-9.164593E-2,-4.7249064E-2,2.775817E-2,8.0489725E-2,8.821866E-4],"categories":[],"categories_nodes":[],"categories_segments":[],"categories_sizes":[],"default_left":[0,0,0,0,0,0,0,0,0,0,0,0,0,0,0,0,0,0,0,0,0,0,0,0,0,0,0,0,0,0,0],"id":44,"left_children":[1,3,5,-1,7,9,11,13,-1,-1,-1,15,17,-1,19,21,23,25,-1,-1,-1,-1,-1,27,29,-1,-1,-1,-1,-1,-1],"loss_changes":[1.3693097E0,1.0338413E0,1.1561464E0,0E0,1.187367E0,1.4497948E-1,1.6715964E0,6.2635255E-1,0E0,0E0,0E0,1.3346636E0,5.380063E-1,0E0,8.590746E-2,5.1295114E-1,1.2656679E0,2.5331092E-1,0E0,0E0,0E0,0E0,0E0,6.9688827E-1,7.0950794E-1,0E0,0E0,0E0,0E0,0E0,0E0],"parents":[2147483647,0,0,1,1,2,2,4,4,5,5,6,6,7,7,11,11,12,12,14,14,15,15,16,16,17,17,23,23,24,24],"right_children":[2,4,6,-1,8,10,12,14,-1,-1,-1,16,18,-1,20,22,24,26,-1,-1,-1,-1,-1,28,30,-1,-1,-1,-1,-1,-1],"split_conditions":[2.796805E4,8.632794E4,4.3097973E1,6.802729E-2,2.64141E5,4.549165E1,5.1032805E4,5.3326073E1,5.5980325E-2,-8.6652525E-2,-2.1632614E-2,3.916613E1,7.3557513E2,1.5255212E-2,-1.7399742E2,2.9619785E4,4.27087E4,2.3505862E2,2.3657284E-3,-7.473286E-2,-1.5225748E-2,6.661068E-3,-7.3420756E-2,3.4332527E4,6.839839E4,-1.948335E-2,-9.164593E-2,-4.7249064E-2,2.775817E-2,8.0489725E-2,8.821866E-4],"split_indices":[135,236,67,0,116,137,21,247,0,0,0,7,14,0,138,141,185,8,0,0,0,0,0,166,230,0,0,0,0,0,0],"split_type":[0,0,0,0,0,0,0,0,0,0,0,0,0,0,0,0,0,0,0,0,0,0,0,0,0,0,0,0,0,0,0],"sum_hessian":[2.442801E1,6.623818E0,1.7804193E1,2.2200413E0,4.4037766E0,3.3328753E0,1.4471317E1,3.2503233E0,1.1534532E0,1.9679012E0,1.364974E0,1.0051136E1,4.4201813E0,1.2009941E0,2.0493293E0,2.1660595E0,7.885077E0,3.2635937E0,1.1565874E0,1.0466092E0,1.0027201E0,1.0361103E0,1.1299492E0,3.132547E0,4.75253E0,1.3974799E0,1.8661138E0,1.7739632E0,1.3585837E0,3.1948903E0,1.5576395E0],"tree_param":{"num_deleted":"0","num_feature":"250","num_nodes":"31","size_leaf_vector":"1"}},{"base_weights":[-2.7525721E-2,-1.0647957E-1,5.137806E-2,5.736838E-2,-1.7648065E-1,-1.6335515E-2,-5.530881E-1,5.044834E-1,-1.6830857E-1,-7.509544E-2,-8.849554E-4,1.3823575E-2,5.893553E-2,-5.3699523E-1,3.5937436E-2,-1.1356061E-2,-7.543271E-2,2.2480352E-2,-4.4038754E-2],"categories":[],"categories_nodes":[],"categories_segments":[],"categories_sizes":[],"default_left":[0,0,0,0,0,0,0,0,0,0,0,0,0,0,0,0,0,0,0],"id":45,"left_children":[1,3,-1,-1,5,7,9,11,13,-1,-1,-1,-1,15,17,-1,-1,-1,-1],"loss_changes":[1.0816705E0,1.1391314E0,0E0,0E0,1.2291306E0,1.3065716E0,6.496707E-1,3.4679413E-2,9.7549856E-1,0E0,0E0,0E0,0E0,3.366896E-1,9.184237E-1,0E0,0E0,0E0,0E0],"parents":[2147483647,0,0,1,1,4,4,5,5,6,6,7,7,8,8,13,13,14,14],"right_children":[2,4,-1,-1,6,8,10,12,14,-1,-1,-1,-1,16,18,-1,-1,-1,-1],"split_conditions":[1.40898E3,-7.2159106E2,5.137806E-2,5.736838E-2,6.086499E4,3.1917256E4,5.5368263E1,1.911894E4,3.6521098E4,-7.509544E-2,-8.849554E-4,1.3823575E-2,5.893553E-2,4.40237E4,3.869776E5,-1.1356061E-2,-7.543271E-2,2.2480352E-2,-4.4038754E-2],"split_indices":[228,248,0,0,95,6,37,6,181,0,0,0,0,121,66,0,0,0,0],"split_type":[0,0,0,0,0,0,0,0,0,0,0,0,0,0,0,0,0,0,0],"sum_hessian":[2.3029163E1,2.0798784E1,2.2303774E0,1.2693945E0,1.952939E1,1.443469E1,5.0947003E0,2.7366166E0,1.1698073E1,3.4577556E0,1.6369449E0,1.0094208E0,1.7271959E0,3.5894892E0,8.108584E0,1.7338654E0,1.8556238E0,6.184453E0,1.9241316E0],"tree_param":{"num_deleted":"0","num_feature":"250","num_nodes":"19","size_leaf_vector":"1"}},{"base_weights":[-2.7937604E-2,9.222498E-2,-3.5911125E-1,3.3533078E-1,-1.258063E-1,-6.499157E-1,-5.7309996E-3,4.4075E-1,-1.9075595E-2,-4.771729E-1,1.9292347E-1,-7.5577855E-2,-1.9581683E-2,-4.9290366E-2,5.8762956E-2,-1.605766E-2,5.565769E-1,-3.185448E-3,-6.00008E-1,4.75917E-1,-4.2119544E-2,7.325909E-1,-1.0639616E-2,-7.12687E-2,-1.637092E-2,6.657138E-2,5.332961E-4,1.5360727E-2,8.287943E-2],"categories":[],"categories_nodes":[],"categories_segments":[],"categories_sizes":[],"default_left":[0,0,0,0,0,0,0,0,0,0,0,0,0,0,0,0,0,0,0,0,0,0,0,0,0,0,0,0,0],"id":46,"left_children":[1,3,5,7,9,11,13,15,-1,17,19,-1,-1,-1,-1,-1,21,-1,23,25,-1,27,-1,-1,-1,-1,-1,-1,-1],"loss_changes":[9.941918E-1,1.0236531E0,6.7803395E-1,5.847486E-1,1.2667212E0,2.6527762E-2,1.4470096E0,6.342256E-1,0E0,2.69539E-1,1.2800444E0,0E0,0E0,0E0,0E0,0E0,8.694942E-1,0E0,8.39057E-2,4.181893E-1,0E0,1.7831516E-1,0E0,0E0,0E0,0E0,0E0,0E0,0E0],"parents":[2147483647,0,0,1,1,2,2,3,3,4,4,5,5,6,6,7,7,9,9,10,10,16,16,18,18,19,19,21,21],"right_children":[2,4,6,8,10,12,14,16,-1,18,20,-1,-1,-1,-1,-1,22,-1,24,26,-1,28,-1,-1,-1,-1,-1,-1,-1],"split_conditions":[6.579995E4,4.5077316E4,6.2058E4,6.073765E4,5.444777E4,2.8814543E4,1.1692344E3,-1.3213834E3,-1.9075595E-2,3.9293902E4,4.3094494E5,-7.5577855E-2,-1.9581683E-2,