{"learner":{"attributes":{"scikit_learn":"{\"_estimator_type\": \"classifier\"}"},"feature_names":[],"feature_types":[],"gradient_booster":{"model":{"gbtree_model_param":{"num_parallel_tree":"1","num_trees":"300"},"iteration_indptr":[0,3,6,9,12,15,18,21,24,27,30,33,36,39,42,45,48,51,54,57,60,63,66,69,72,75,78,81,84,87,90,93,96,99,102,105,108,111,114,117,120,123,126,129,132,135,138,141,144,147,150,153,156,159,162,165,168,171,174,177,180,183,186,189,192,195,198,201,204,207,210,213,216,219,222,225,228,231,234,237,240,243,246,249,252,255,258,261,264,267,270,273,276,279,282,285,288,291,294,297,300],"tree_info":[0,1,2,0,1,2,0,1,2,0,1,2,0,1,2,0,1,2,0,1,2,0,1,2,0,1,2,0,1,2,0,1,2,0,1,2,0,1,2,0,1,2,0,1,2,0,1,2,0,1,2,0,1,2,0,1,2,0,1,2,0,1,2,0,1,2,0,1,2,0,1,2,0,1,2,0,1,2,0,1,2,0,1,2,0,1,2,0,1,2,0,1,2,0,1,2,0,1,2,0,1,2,0,1,2,0,1,2,0,1,2,0,1,2,0,1,2,0,1,2,0,1,2,0,1,2,0,1,2,0,1,2,0,1,2,0,1,2,0,1,2,0,1,2,0,1,2,0,1,2,0,1,2,0,1,2,0,1,2,0,1,2,0,1,2,0,1,2,0,1,2,0,1,2,0,1,2,0,1,2,0,1,2,0,1,2,0,1,2,0,1,2,0,1,2,0,1,2,0,1,2,0,1,2,0,1,2,0,1,2,0,1,2,0,1,2,0,1,2,0,1,2,0,1,2,0,1,2,0,1,2,0,1,2,0,1,2,0,1,2,0,1,2,0,1,2,0,1,2,0,1,2,0,1,2,0,1,2,0,1,2,0,1,2,0,1,2,0,1,2,0,1,2,0,1,2,0,1,2,0,1,2,0,1,2,0,1,2,0,1,2,0,1,2,0,1,2,0,1,2],"trees":[{"base_weights":[-6.351144E-1,1.3483102E-2,-6.454271E-1,-8.633098E-2,1.1351352E-1,-6.718404E-1,-5.0731826E-1,7.35849E-1,-2.0107244E-1,-7.003577E-1,-6.194896E-1,-1.8302391E-1,-5.362142E-1,9.512195E-2,-2.5544848E-9,-6.240001E-1,1.1673109E-2,-7.014936E-1,-3.2511625E-8,-6.7061067E-1,-5.48052E-1,-2.9745048E-1,1.0909092E-1,-5.53668E-1,-1.6751274E-1,-6.902655E-2,-2.5544848E-9,-2.0095699E-1,7.8947365E-1,-3.9884397E-1,-7.0464027E-1,-4.2857148E-2,4.285714E-2,-1.1111116E-1,-6.790389E-1,-1.9844362E-1,-5.744483E-1,-6.162163E-1,5.0847415E-2,-4.87959E-1,-6.7229986E-1,8.5714287E-1,-4.7770706E-1,8.9189194E-2,-4.143647E-2,1.1707317E-1,-1.2000003E-2,1.0344827E-1,-6.470589E-2,-8.108112E-3,-7.0578575E-2,-6.393444E-2,1.0344827E-1,4.285714E-2,-6.8272755E-2,6.315789E-2,-4.16268E-2,-3.414044E-2,-6.0682554E-2,-7.1005926E-2,2.3999998E-2,4.6788987E-2,-5.4545462E-2,-5.0580706E-2,6E-2,2.3999998E-2,-6.847584E-2,1.1351352E-1,-2.5544848E-9,-6.902655E-2,5.6603737E-3],"categories":[],"categories_nodes":[],"categories_segments":[],"categories_sizes":[],"default_left":[0,0,0,0,0,0,0,0,0,0,0,0,0,0,0,0,0,0,0,0,0,0,0,0,0,0,0,0,0,0,0,0,0,0,0,0,0,0,0,0,0,0,0,0,0,0,0,0,0,0,0,0,0,0,0,0,0,0,0,0,0,0,0,0,0,0,0,0,0,0,0],"id":0,"left_children":[1,3,5,7,-1,9,11,13,15,17,19,21,23,-1,-1,25,27,29,31,33,35,37,-1,39,41,-1,-1,43,45,47,49,-1,-1,51,53,55,57,59,61,63,65,67,69,-1,-1,-1,-1,-1,-1,-1,-1,-1,-1,-1,-1,-1,-1,-1,-1,-1,-1,-1,-1,-1,-1,-1,-1,-1,-1,-1,-1],"loss_changes":[2.0721191E1,5.633632E0,1.077832E1,4.518959E0,0E0,3.3814697E0,4.5258255E0,9.3327165E-1,3.7362876E0,1.3101807E0,2.9553833E0,6.430708E0,2.8195648E0,0E0,0E0,5.7430077E-1,4.881276E0,1.284668E0,8.5714287E-1,2.404419E0,3.438919E0,4.3859987E0,0E0,3.0368652E0,7.3666787E0,0E0,0E0,5.78551E0,2.3365338E0,7.5081196E0,1.104065E0,0E0,0E0,6.1076565E0,2.4084778E0,5.4257255E0,2.4898682E0,1.8220496E0,5.145983E0,5.7685547E0,1.8831329E0,1.2972972E0,2.0202768E0,0E0,0E0,0E0,0E0,0E0,0E0,0E0,0E0,0E0,0E0,0E0,0E0,0E0,0E0,0E0,0E0,0E0,0E0,0E0,0E0,0E0,0E0,0E0,0E0,0E0,0E0,0E0,0E0],"parents":[2147483647,0,0,1,1,2,2,3,3,5,5,6,6,7,7,8,8,9,9,10,10,11,11,12,12,15,15,16,16,17,17,18,18,19,19,20,20,21,21,23,23,24,24,27,27,28,28,29,29,30,30,33,33,34,34,35,35,36,36,37,37,38,38,39,39,40,40,41,41,42,42],"right_children":[2,4,6,8,-1,10,12,14,16,18,20,22,24,-1,-1,26,28,30,32,34,36,38,-1,40,42,-1,-1,44,46,48,50,-1,-1,52,54,56,58,60,62,64,66,68,70,-1,-1,-1,-1,-1,-1,-1,-1,-1,-1,-1,-1,-1,-1,-1,-1,-1,-1,-1,-1,-1,-1,-1,-1,-1,-1,-1,-1],"split_conditions":[-1.0782213E3,4.815614E-1,1.2084191E3,-9.854754E-3,1.1351352E-1,7.374835E2,5.9897695E4,2.9920143E1,1.7730094E3,1.0209E3,6.5404956E2,5.879808E4,5.3471454E2,9.512195E-2,-2.5544848E-9,1.0424807E5,3.9524426E1,-6.2581414E4,4.9721966E1,5.5276758E4,2.7180012E1,-8.959345E1,1.0909092E-1,9.691053E4,4.5243736E-2,-6.902655E-2,-2.5544848E-9,4.5465558E2,6.62024E1,2.16865E2,-3.9404068E2,-4.2857148E-2,4.285714E-2,5.3935195E4,3.5097794E2,1.2959476E2,6.935158E2,1.7782992E3,3.8944196E2,9.879422E4,-4.3882985E-2,1.2322438E-2,1.4635514E3,8.9189194E-2,-4.143647E-2,1.1707317E-1,-1.2000003E-2,1.0344827E-1,-6.470589E-2,-8.108112E-3,-7.0578575E-2,-6.393444E-2,1.0344827E-1,4.285714E-2,-6.8272755E-2,6.315789E-2,-4.16268E-2,-3.414044E-2,-6.0682554E-2,-7.1005926E-2,2.3999998E-2,4.6788987E-2,-5.4545462E-2,-5.0580706E-2,6E-2,2.3999998E-2,-6.847584E-2,1.1351352E-1,-2.5544848E-9,-6.902655E-2,5.6603737E-3],"split_indices":[2,72,73,21,0,73,4,0,81,27,83,60,82,0,0,4,70,20,0,9,0,71,0,5,7,0,0,78,16,79,3,0,0,6,77,84,77,75,74,46,22,22,17,0,0,0,0,0,0,0,0,0,0,0,0,0,0,0,0,0,0,0,0,0,0,0,0,0,0,0,0],"split_type":[0,0,0,0,0,0,0,0,0,0,0,0,0,0,0,0,0,0,0,0,0,0,0,0,0,0,0,0,0,0,0,0,0,0,0,0,0,0,0,0,0,0,0,0,0,0,0,0,0,0,0,0,0,0,0,0,0,0,0,0,0,0,0,0,0,0,0,0,0,0,0],"sum_hessian":[3.0955554E3,4.8444443E1,3.0471108E3,4.5333332E1,3.111111E0,2.5546665E3,4.9244443E2,4.8888884E0,4.0444443E1,1.6457777E3,9.0888885E2,4.0888885E1,4.5155554E2,3.5555553E0,1.3333333E0,1.2888888E1,2.7555553E1,1.643111E3,2.6666665E0,5.2488885E2,3.8399997E2,3.822222E1,2.6666665E0,4.3066663E2,2.0888887E1,1.1555555E1,1.3333333E0,2.2222221E1,5.333333E0,1.8222221E1,1.6248888E3,1.3333333E0,1.3333333E0,7.9999995E0,5.1688885E2,2.7555553E1,3.5644443E2,1.9555553E1,1.8666666E1,2.8044443E2,1.5022221E2,4.444444E0,1.6444443E1,3.111111E0,1.911111E1,3.5555553E0,1.7777777E0,2.222222E0,1.5999999E1,3.111111E0,1.6217777E3,5.7777777E0,2.222222E0,1.3333333E0,5.1555554E2,5.333333E0,2.2222221E1,4.4888885E1,3.1155554E2,1.7777777E1,1.7777777E0,1.1111111E1,7.5555553E0,2.7644443E2,3.9999998E0,1.7777777E0,1.4844444E2,3.111111E0,1.3333333E0,1.1555555E1,4.8888884E0],"tree_param":{"num_deleted":"0","num_feature":"86","num_nodes":"71","size_leaf_vector":"1"}},{"base_weights":[1.0015429E0,1.1079538E0,5.6308365E-1,1.2415842E0,9.872261E-1,7.562659E-1,3.654766E-1,1.2546709E0,4.0677962E-1,1.0809057E0,8.662824E-1,-1.7355376E-1,7.9628927E-1,-2.2096322E-1,4.513274E-1,9.1532844E-1,1.2773281E0,-4.7368425E-1,7.674418E-1,5.038168E-1,1.1156865E0,9.1396695E-1,4.5027122E-1,6.486486E-1,-4.83871E-1,6.7012984E-1,1.1213793E0,5.9999996E-1,-4.6570402E-1,2.9055648E-2,5.3783643E-1,3.8297868E-1,1.0361663E0,5.5045867E-1,1.2843391E0,-2.5544848E-9,-6.0000002E-2,-2.0000003E-1,1.1612903E0,1.2680413E0,2.459016E-1,4.576271E-1,1.1332126E0,7.453944E-1,1.0505288E0,1.6147305E-1,9.186603E-1,-2.5544848E-9,9.6E-2,-6.666668E-2,4.285714E-2,6.937799E-1,-2.8301892E-1,-3.576279E-8,1.179971E0,-4.2857148E-2,8.219178E-1,-5.2075475E-1,4.285714E-2,2.2796349E-1,-6.7741945E-2,8.783505E-1,4.2397854E-1,7.155963E-2,-5.853659E-2,-4.8000004E-2,1.0893855E-1,9.176471E-2,-5.454546E-2,1.3625294E-1,1.20865904E-1,4.285714E-2,-5.454546E-2,1.304348E-1,5.454545E-2,4.285714E-2,1.3411765E-1,-2.484077E-2,7.2611466E-2,-2.2222226E-2,9.428572E-2,6.0700387E-2,1.1546781E-1,8.757397E-2,4.0661152E-2,1.0611923E-1,-2.0689659E-2,2.912621E-2,-6.2264156E-2,1.0569948E-1,-4.8000004E-2,9.443099E-2,6.1949898E-2,-5.853659E-2,4.285714E-2,8.571428E-2,-5.454546E-2,1.2008863E-1,-2.5544848E-9,1.0344825E-2,1.07547164E-1,2.7272725E-2,-6.099586E-2,4.4827584E-2,-5.4545462E-2,-2.0000003E-2,9.6881956E-2,6.913581E-2,1.6688224E-2],"categories":[],"categories_nodes":[],"categories_segments":[],"categories_sizes":[],"default_left":[0,0,0,0,0,0,0,0,0,0,0,0,0,0,0,0,0,0,0,0,0,0,0,0,0,0,0,0,0,0,0,0,0,0,0,0,0,0,0,0,0,0,0,0,0,0,0,0,0,0,0,0,0,0,0,0,0,0,0,0,0,0,0,0,0,0,0,0,0,0,0,0,0,0,0,0,0,0,0,0,0,0,0,0,0,0,0,0,0,0,0,0,0,0,0,0,0,0,0,0,0,0,0,0,0,0,0,0,0],"id":1,"left_children":[1,3,5,7,9,11,13,15,17,19,21,23,25,27,29,31,33,35,37,39,41,43,45,47,49,51,53,55,57,59,61,63,65,67,69,-1,-1,71,73,75,77,79,81,83,85,87,89,-1,-1,-1,-1,91,93,95,97,-1,99,101,-1,103,-1,105,107,-1,-1,-1,-1,-1,-1,-1,-1,-1,-1,-1,-1,-1,-1,-1,-1,-1,-1,-1,-1,-1,-1,-1,-1,-1,-1,-1,-1,-1,-1,-1,-1,-1,-1,-1,-1,-1,-1,-1,-1,-1,-1,-1,-1,-1,-1],"loss_changes":[1.438518E2,3.895752E1,2.2886826E1,1.2362793E1,1.3944824E1,1.1521713E1,1.5298725E1,7.7469482E0,6.6086755E0,1.4212891E1,1.1061066E1,3.7441258E0,1.1283615E1,8.160075E0,9.616203E0,4.4992485E0,4.8199463E0,3.7894738E-1,5.6936235E0,8.295109E0,7.479004E0,1.1139008E1,8.163244E0,8.302702E-1,2.0092165E0,5.01783E0,5.2927856E0,2.508024E0,1.7383866E0,6.602891E0,8.109661E0,5.464938E0,5.480797E0,5.3741255E0,4.705078E0,0E0,0E0,1.3194805E0,1.9890308E-1,8.691025E-2,8.224705E0,6.6972294E0,6.9210815E0,1.0031021E1,4.0231323E0,4.1729774E0,5.0004635E0,0E0,0E0,0E0,0E0,3.3044052E0,1.5178488E0,2.8051949E0,1.8893356E0,0E0,1.3663521E0,2.2504773E0,0E0,6.473345E0,0E0,5.451027E0,1.1288206E1,0E0,0E0,0E0,0E0,0E0,0E0,0E0,0E0,0E0,0E0,0E0,0E0,0E0,0E0,0E0,0E0,0E0,0E0,0E0,0E0,0E0,0E0,0E0,0E0,0E0,0E0,0E0,0E0,0E0,0E0,0E0,0E0,0E0,0E0,0E0,0E0,0E0,0E0,0E0,0E0,0E0,0E0,0E0,0E0,0E0,0E0],"parents":[2147483647,0,0,1,1,2,2,3,3,4,4,5,5,6,6,7,7,8,8,9,9,10,10,11,11,12,12,13,13,14,14,15,15,16,16,17,17,18,18,19,19,20,20,21,21,22,22,23,23,24,24,25,25,26,26,27,27,28,28,29,29,30,30,31,31,32,32,33,33,34,34,37,37,38,38,39,39,40,40,41,41,42,42,43,43,44,44,45,45,46,46,51,51,52,52,53,53,54,54,56,56,57,57,59,59,61,61,62,62],"right_children":[2,4,6,8,10,12,14,16,18,20,22,24,26,28,30,32,34,36,38,40,42,44,46,48,50,52,54,56,58,60,62,64,66,68,70,-1,-1,72,74,76,78,80,82,84,86,88,90,-1,-1,-1,-1,92,94,96,98,-1,100,102,-1,104,-1,106,108,-1,-1,-1,-1,-1,-1,-1,-1,-1,-1,-1,-1,-1,-1,-1,-1,-1,-1,-1,-1,-1,-1,-1,-1,-1,-1,-1,-1,-1,-1,-1,-1,-1,-1,-1,-1,-1,-1,-1,-1,-1,-1,-1,-1,-1,-1],"split_conditions":[8.447E2,5.1625775E2,8.046E2,1.8002402E-2,5.0383152E1,-8.374006E-1,7.986612E4,-1.4008003E2,6.3612964E2,5.8488152E4,1.3211611E3,4.078711E2,1.03683266E5,9.4114215E2,6.9144604E2,1.9110881E2,5.900214E4,8.846523E4,3.549548E1,5.515886E4,-6.209809E2,1.9466679E1,9.816468E4,4.045286E0,7.540346E2,1.0163906E5,2.700154E2,7.022845E2,9.629379E1,3.1716644E2,1.0065231E3,3.9816043E2,3.062685E2,2.4841145E1,3.322E2,-2.5544848E-9,-6.0000002E-2,-1.6670181E3,3.5612497E2,-2.6204315E2,5.3189246E2,9.77182E2,7.537526E1,4.0796363E-1,2.0353239E3,9.814647E4,1.9308191E3,-2.5544848E-9,9.6E-2,-6.666668E-2,4.285714E-2,-1.0953949E2,6.851821E2,4.2654346E3,1.03827E3,-4.2857148E-2,7.328859E2,4.1850933E1,4.285714E-2,1.5096742E2,-6.7741945E-2,-4.2069536E-2,-4.707515E-3,7.155963E-2,-5.853659E-2,-4.8000004E-2,1.0893855E-1,9.176471E-2,-5.454546E-2,1.3625294E-1,1.20865904E-1,4.285714E-2,-5.454546E-2,1.304348E-1,5.454545E-2,4.285714E-2,1.3411765E-1,-2.484077E-2,7.2611466E-2,-2.2222226E-2,9.428572E-2,6.0700387E-2,1.1546781E-1,8.757397E-2,4.0661152E-2,1.0611923E-1,-2.0689659E-2,2.912621E-2,-6.2264156E-2,1.0569948E-1,-4.8000004E-2,9.443099E-2,6.1949898E-2,-5.853659E-2,4.285714E-2,8.571428E-2,-5.454546E-2,1.2008863E-1,-2.5544848E-9,1.0344825E-2,1.07547164E-1,2.7272725E-2,-6.099586E-2,4.4827584E-2,-5.4545462E-2,-2.0000003E-2,9.6881956E-2,6.913581E-2,1.6688224E-2],"split_indices":[29,45,17,25,80,85,44,3,77,4,83,53,4,17,75,78,13,4,67,48,71,2,63,15,61,59,81,49,15,82,45,77,83,80,29,0,0,1,3,2,81,81,74,69,73,9,49,0,0,0,0,3,61,20,28,0,81,80,0,19,0,23,23,0,0,0,0,0,0,0,0,0,0,0,0,0,0,0,0,0,0,0,0,0,0,0,0,0,0,0,0,0,0,0,0,0,0,0,0,0,0,0,0,0,0,0,0,0,0],"split_type":[0,0,0,0,0,0,0,0,0,0,0,0,0,0,0,0,0,0,0,0,0,0,0,0,0,0,0,0,0,0,0,0,0,0,0,0,0,0,0,0,0,0,0,0,0,0,0,0,0,0,0,0,0,0,0,0,0,0,0,0,0,0,0,0,0,0,0,0,0,0,0,0,0,0,0,0,0,0,0,0,0,0,0,0,0,0,0,0,0,0,0,0,0,0,0,0,0,0,0,0,0,0,0,0,0,0,0,0,0],"sum_hessian":[3.0955554E3,2.4897776E3,6.057778E2,1.1773333E3,1.3124443E3,3.048889E2,3.008889E2,1.1586666E3,1.8666666E1,7.351111E2,5.773333E2,1.2444444E1,2.9244443E2,3.822222E1,2.6266666E2,7.511111E1,1.0835555E3,5.333333E0,1.3333332E1,4.2666664E1,6.924444E2,5.1688885E2,6.0444443E1,3.111111E0,9.333333E0,2.1288887E2,7.955555E1,8.444444E0,2.9777777E1,4.4888885E1,2.1777777E2,1.4666666E1,6.0444443E1,1.1111111E1,1.0724443E3,1.3333333E0,3.9999998E0,3.9999998E0,9.333333E0,9.777777E0,3.2888885E1,1.8666666E1,6.737777E2,2.3422221E2,2.8266666E2,3.822222E1,2.2222221E1,1.3333333E0,1.7777777E0,7.9999995E0,1.3333333E0,2.0799998E2,4.8888884E0,3.9999998E0,7.555555E1,1.3333333E0,7.1111107E0,2.8444443E1,1.3333333E0,3.5555553E1,9.333333E0,5.2888885E1,1.6488889E2,1.1111111E1,3.5555553E0,1.7777777E0,5.8666664E1,8.444444E0,2.6666665E0,5.191111E2,5.533333E2,1.3333333E0,2.6666665E0,6.666666E0,2.6666665E0,1.3333333E0,8.444444E0,1.6444443E1,1.6444443E1,7.9999995E0,1.0666666E1,2.7555553E1,6.4622217E2,1.6799998E2,6.622222E1,2.8044443E2,2.222222E0,3.3333332E1,4.8888884E0,2.0444443E1,1.7777777E0,4.4888885E1,1.631111E2,3.5555553E0,1.3333333E0,1.3333333E0,2.6666665E0,7.422222E1,1.3333333E0,2.222222E0,4.8888884E0,2.6666665E0,2.5777777E1,2.7999998E1,7.5555553E0,3.9999998E0,4.8888885E1,7.999999E1,8.4888885E1],"tree_param":{"num_deleted":"0","num_feature":"86","num_nodes":"109","size_leaf_vector":"1"}},{"base_weights":[-3.664287E-1,-4.4256598E-1,-5.328699E-2,-5.517775E-1,-3.589341E-1,-8.467982E-2,4.324324E-1,-5.5816853E-1,5.4098356E-1,1.977077E-1,-3.74364E-1,3.5833687E-2,-1.6704886E-1,1.7647055E-1,8.677686E-1,1.5228384E-2,-5.6957215E-1,-5.1724143E-2,1.1707317E-1,4.1052628E-1,-6.575343E-2,-3.873362E-1,2.4137928E-1,-2.660099E-1,1.5874074E-1,-1.9756845E-1,7.425742E-1,-1.7355376E-1,5.5045867E-1,1.0458715E0,-4.2857148E-2,6.404494E-1,-4.6153852E-1,3.1578943E-1,-5.7438684E-1,7.619047E-1,-2.571429E-1,-7.651012E-2,-4.0735546E-1,6.486486E-1,-6.705883E-2,-3.2984298E-1,5.9999996E-1,4.4262293E-1,-6.295952E-3,-2.108331E-1,5.660377E-1,1.0235294E0,-4.8000004E-2,7.2413795E-2,-4.1584164E-1,-3.2432437E-1,8.888889E-1,-4.2857148E-2,1.2680413E0,-4.8000004E-2,9.452055E-2,-6.804124E-2,4.137931E-2,1.0344827E-1,-3.2432437E-2,-5.7777077E-2,5.454545E-2,-3.2432437E-2,9.6894406E-2,4E-2,-6.52174E-2,-1.3464241E-2,9.512195E-2,-4.112627E-2,8.9189194E-2,-7.792212E-3,1.076923E-1,-3.68984E-2,8.571428E-2,1.0909092E-1,-4.2857148E-2,3.128834E-2,1.304348E-1,-1.6965521E-2,4.9367085E-2,-1.8115683E-2,-6.61017E-2,-4.2857148E-2,9.512195E-2,-4.2857148E-2,1.3150685E-1,4.285714E-2,-5.7303376E-2,-2.5544848E-9,-4.8000004E-2,1.0344825E-2,1.1311475E-1,4.285714E-2,1.3411765E-1],"categories":[],"categories_nodes":[],"categories_segments":[],"categories_sizes":[],"default_left":[0,0,0,0,0,0,0,0,0,0,0,0,0,0,0,0,0,0,0,0,0,0,0,0,0,0,0,0,0,0,0,0,0,0,0,0,0,0,0,0,0,0,0,0,0,0,0,0,0,0,0,0,0,0,0,0,0,0,0,0,0,0,0,0,0,0,0,0,0,0,0,0,0,0,0,0,0,0,0,0,0,0,0,0,0,0,0,0,0,0,0,0,0,0,0],"id":2,"left_children":[1,3,5,7,9,11,13,15,17,19,21,23,25,27,29,31,33,-1,-1,35,-1,37,39,41,43,45,47,49,51,53,-1,55,57,59,61,63,65,67,69,71,-1,73,75,77,79,81,83,85,-1,-1,87,89,91,-1,93,-1,-1,-1,-1,-1,-1,-1,-1,-1,-1,-1,-1,-1,-1,-1,-1,-1,-1,-1,-1,-1,-1,-1,-1,-1,-1,-1,-1,-1,-1,-1,-1,-1,-1,-1,-1,-1,-1,-1,-1],"loss_changes":[7.38038E1,2.2551575E1,9.288831E0,7.8328857E0,1.2213989E1,5.671857E0,3.9697528E0,7.0219116E0,5.1223645E0,7.3279324E0,1.1081665E1,8.669738E0,9.563966E0,3.3099775E0,3.552312E0,6.8203344E0,4.664337E0,0E0,0E0,7.6250634E0,0E0,8.354706E0,1.1206052E1,3.9385238E0,7.7748423E0,3.4517727E0,4.3459992E0,3.2252908E0,3.8738186E0,4.510763E0,0E0,3.8303957E0,2.7721844E0,3.2491293E0,4.280182E0,5.0369873E0,3.2894409E0,5.0735726E0,6.7930603E0,6.4802227E0,0E0,3.2742157E0,2.992208E0,6.4116783E0,8.732145E0,4.2103033E0,2.6637301E0,4.5618505E0,0E0,0E0,1.7351685E0,2.0756751E-1,1.5955033E0,0E0,8.691025E-2,0E0,0E0,0E0,0E0,0E0,0E0,0E0,0E0,0E0,0E0,0E0,0E0,0E0,0E0,0E0,0E0,0E0,0E0,0E0,0E0,0E0,0E0,0E0,0E0,0E0,0E0,0E0,0E0,0E0,0E0,0E0,0E0,0E0,0E0,0E0,0E0,0E0,0E0,0E0,0E0],"parents":[2147483647,0,0,1,1,2,2,3,3,4,4,5,5,6,6,7,7,8,8,9,9,10,10,11,11,12,12,13,13,14,14,15,15,16,16,19,19,21,21,22,22,23,23,24,24,25,25,26,26,27,27,28,28,29,29,31,31,32,32,33,33,34,34,35,35,36,36,37,37,38,38,39,39,41,41,42,42,43,43,44,44,45,45,46,46,47,47,50,50,51,51,52,52,54,54],"right_children":[2,4,6,8,10,12,14,16,18,20,22,24,26,28,30,32,34,-1,-1,36,-1,38,40,42,44,46,48,50,52,54,-1,56,58,60,62,64,66,68,70,72,-1,74,76,78,80,82,84,86,-1,-1,88,90,92,-1,94,-1,-1,-1,-1,-1,-1,-1,-1,-1,-1,-1,-1,-1,-1,-1,-1,-1,-1,-1,-1,-1,-1,-1,-1,-1,-1,-1,-1,-1,-1,-1,-1,-1,-1,-1,-1,-1,-1,-1,-1],"split_conditions":[8.447E2,4.660294E2,7.1340753E2,2.387307E3,-7.041404E2,-1.5175298E2,6.447473E2,2.41909E1,9.385848E-2,1.0044337E5,1.6254196E3,2.2424026E0,4.113273E2,8.758783E4,1.6294705E3,9.11828E4,5.900214E4,-5.1724143E-2,1.1707317E-1,1.0795629E3,-6.575343E-2,8.593066E1,9.866851E4,1.20754E3,9.096803E4,1.2130793E5,9.2919716E1,3.004418E2,1.1719714E3,-3.9128566E4,-4.2857148E-2,9.059608E1,-1.4275504E2,4.161106E-1,1.2130793E5,5.9655E4,-2.8128675E1,3.332114E4,4.113273E2,7.99996E4,-6.705883E-2,2.387307E3,4.179865E2,8.547727E4,3.0022389E4,1.087215E5,-1.6630292E-2,8.152256E1,-4.8000004E-2,7.2413795E-2,1.3211611E3,3.7444923E1,-9.854754E-3,-4.2857148E-2,1.0473693E3,-4.8000004E-2,9.452055E-2,-6.804124E-2,4.137931E-2,1.0344827E-1,-3.2432437E-2,-5.7777077E-2,5.454545E-2,-3.2432437E-2,9.6894406E-2,4E-2,-6.52174E-2,-1.3464241E-2,9.512195E-2,-4.112627E-2,8.9189194E-2,-7.792212E-3,1.076923E-1,-3.68984E-2,8.571428E-2,1.0909092E-1,-4.2857148E-2,3.128834E-2,1.304348E-1,-1.6965521E-2,4.9367085E-2,-1.8115683E-2,-6.61017E-2,-4.2857148E-2,9.512195E-2,-4.2857148E-2,1.3150685E-1,4.285714E-2,-5.7303376E-2,-2.5544848E-9,-4.8000004E-2,1.0344825E-2,1.1311475E-1,4.285714E-2,1.3411765E-1],"split_indices":[29,45,84,79,2,2,74,0,85,60,83,19,3,47,1,6,13,0,0,17,0,74,12,26,4,4,16,76,17,20,0,74,1,33,4,44,3,20,3,6,0,79,84,59,20,60,22,15,0,0,83,0,21,0,17,0,0,0,0,0,0,0,0,0,0,0,0,0,0,0,0,0,0,0,0,0,0,0,0,0,0,0,0,0,0,0,0,0,0,0,0,0,0,0,0],"split_type":[0,0,0,0,0,0,0,0,0,0,0,0,0,0,0,0,0,0,0,0,0,0,0,0,0,0,0,0,0,0,0,0,0,0,0,0,0,0,0,0,0,0,0,0,0,0,0,0,0,0,0,0,0,0,0,0,0,0,0,0,0,0,0,0,0,0,0,0,0,0,0,0,0,0,0,0,0,0,0,0,0,0,0,0,0,0,0,0,0,0,0,0,0,0,0],"sum_hessian":[3.0955554E3,2.4897776E3,6.057778E2,1.0773333E3,1.4124443E3,5.697778E2,3.5999996E1,1.0715555E3,5.7777777E0,3.7777775E1,1.3746666E3,2.3155554E2,3.382222E2,2.3555553E1,1.2444444E1,2.0888887E1,1.0506666E3,2.222222E0,3.5555553E0,3.0666664E1,7.1111107E0,1.3466666E3,2.7999998E1,6.6666664E1,1.6488889E2,3.2799997E2,1.0222221E1,1.2444444E1,1.1111111E1,1.1111111E1,1.3333333E0,8.888888E0,1.1999999E1,5.333333E0,1.0453333E3,1.9999998E1,1.0666666E1,8.177777E1,1.2648888E3,1.9555553E1,8.444444E0,6.2666664E1,3.9999998E0,5.9999996E1,1.04888885E2,3.2311108E2,4.8888884E0,8.444444E0,1.7777777E0,2.222222E0,1.0222221E1,3.111111E0,7.9999995E0,1.3333333E0,9.777777E0,1.7777777E0,7.1111107E0,9.777777E0,2.222222E0,2.222222E0,3.111111E0,1.0426666E3,2.6666665E0,3.111111E0,1.6888887E1,3.9999998E0,6.666666E0,7.822221E1,3.5555553E0,1.2617777E3,3.111111E0,7.5555553E0,1.1999999E1,6.133333E1,1.3333333E0,2.6666665E0,1.3333333E0,5.333333E1,6.666666E0,7.955555E1,2.5333332E1,3.0444443E2,1.8666666E1,1.3333333E0,3.5555553E0,1.3333333E0,7.1111107E0,1.3333333E0,8.888888E0,1.3333333E0,1.7777777E0,2.222222E0,5.7777777E0,1.3333333E0,8.444444E0],"tree_param":{"num_deleted":"0","num_feature":"86","num_nodes":"95","size_leaf_vector":"1"}},{"base_weights":[-6.079469E-1,2.1085694E-2,-6.182388E-1,4.9390322E-1,-1.9678487E-1,-6.4455056E-1,-4.818778E-1,8.3933204E-1,-5.6860562E-2,-4.821209E-1,3.114705E-1,-6.7299575E-1,-5.92581E-1,-1.6676074E-1,-5.10393E-1,-2.697298E-1,1.1718459E0,-6.0471994E-1,7.9504855E-2,-1.6941577E-1,9.784063E-2,-3.709155E-1,-6.761701E-1,-6.438506E-1,-5.2133757E-1,-2.795054E-1,1.0425263E-1,-5.27673E-1,-1.5120983E-1,2.599817E-4,-4.2599E-2,1.2546358E-1,3.9040264E-2,-6.9508426E-2,4.0076014E-2,-6.1055493E-2,7.302421E-2,9.956033E-2,-6.2049127E-1,-6.7732614E-1,3.2290907E-3,-8.830598E-2,-6.5238553E-1,-1.7854354E-1,-5.4762894E-1,-4.137744E-1,4.6633253E-1,-4.6236476E-1,-6.4652747E-1,8.0671734E-1,-4.5500317E-1,-6.776701E-2,3.007132E-3,-6.8050765E-2,-4.148656E-2,4.273642E-2,-4.24149E-2,-6.1286516E-2,9.844786E-2,4.1648827E-2,-6.561127E-2,2.3862319E-2,-6.121811E-2,-5.7453085E-2,-2.573443E-2,4.1415457E-2,-5.12393E-2,-4.7936957E-2,9.374605E-2,-4.8008554E-2,5.740067E-2,2.409651E-2,-6.591217E-2,-1.5216406E-3,1.075204E-1,-6.674043E-2,6.303827E-3],"categories":[],"categories_nodes":[],"categories_segments":[],"categories_sizes":[],"default_left":[0,0,0,0,0,0,0,0,0,0,0,0,0,0,0,0,0,0,0,0,0,0,0,0,0,0,0,0,0,0,0,0,0,0,0,0,0,0,0,0,0,0,0,0,0,0,0,0,0,0,0,0,0,0,0,0,0,0,0,0,0,0,0,0,0,0,0,0,0,0,0,0,0,0,0,0,0],"id":3,"left_children":[1,3,5,7,9,11,13,15,-1,17,19,21,23,25,27,29,31,33,-1,35,-1,37,39,41,43,45,-1,47,49,-1,-1,-1,-1,-1,-1,-1,-1,-1,51,53,55,57,59,61,63,65,67,69,71,73,75,-1,-1,-1,-1,-1,-1,-1,-1,-1,-1,-1,-1,-1,-1,-1,-1,-1,-1,-1,-1,-1,-1,-1,-1,-1,-1],"loss_changes":[1.9373535E1,5.156041E0,1.0246582E1,6.267299E0,5.1292653E0,3.243042E0,4.2269897E0,4.8554335E0,0E0,3.9852028E0,4.319717E0,1.2687988E0,2.8779297E0,5.923262E0,2.648552E0,1.565209E-1,1.349535E-1,2.1855936E0,0E0,3.7708957E0,0E0,6.993595E0,1.2329712E0,2.3480377E0,3.267807E0,4.055788E0,0E0,2.953453E0,6.646774E0,0E0,0E0,0E0,0E0,0E0,0E0,0E0,0E0,0E0,6.313138E-1,1.0239868E0,8.441911E-1,5.5741644E0,2.2633514E0,5.2266226E0,2.5568771E0,2.9244595E0,3.2807772E0,5.306301E0,1.7915764E0,1.242521E0,1.9151089E0,0E0,0E0,0E0,0E0,0E0,0E0,0E0,0E0,0E0,0E0,0E0,0E0,0E0,0E0,0E0,0E0,0E0,0E0,0E0,0E0,0E0,0E0,0E0,0E0,0E0,0E0],"parents":[2147483647,0,0,1,1,2,2,3,3,4,4,5,5,6,6,7,7,9,9,10,10,11,11,12,12,13,13,14,14,15,15,16,16,17,17,19,19,21,21,22,22,23,23,24,24,25,25,27,27,28,28,38,38,39,39,40,40,41,41,42,42,43,43,44,44,45,45,46,46,47,47,48,48,49,49,50,50],"right_children":[2,4,6,8,10,12,14,16,-1,18,20,22,24,26,28,30,32,34,-1,36,-1,38,40,42,44,46,-1,48,50,-1,-1,-1,-1,-1,-1,-1,-1,-1,52,54,56,58,60,62,64,66,68,70,72,74,76,-1,-1,-1,-1,-1,-1,-1,-1,-1,-1,-1,-1,-1,-1,-1,-1,-1,-1,-1,-1,-1,-1,-1,-1,-1,-1],"split_conditions":[-1.0782213E3,-1.610413E4,1.2084191E3,3.1801897E3,1.4846293E3,7.374835E2,5.9897695E4,1.2294866E3,-5.6860562E-2,6.212714E2,-5.1074E-1,-6.2581414E4,6.5404956E2,5.879808E4,5.3471454E2,1.0292324E3,5.7592705E1,1.6896172E3,7.9504855E-2,3.761756E2,9.784063E-2,2.16865E2,1.0209E3,5.5276758E4,2.7180012E1,1.0349586E3,1.0425263E-1,9.691053E4,4.5243736E-2,2.599817E-4,-4.2599E-2,1.2546358E-1,3.9040264E-2,-6.9508426E-2,4.0076014E-2,-6.1055493E-2,7.302421E-2,9.956033E-2,8.8438594E-1,1.7905751E3,1.958027E2,5.3935195E4,3.5097794E2,-4.7991464E2,8.899421E1,3.9432858E2,1.322E2,9.879422E4,-4.3882985E-2,-4.9325934E2,1.4635514E3,-6.776701E-2,3.007132E-3,-6.8050765E-2,-4.148656E-2,4.273642E-2,-4.24149E-2,-6.1286516E-2,9.844786E-2,4.1648827E-2,-6.561127E-2,2.3862319E-2,-6.121811E-2,-5.7453085E-2,-2.573443E-2,4.1415457E-2,-5.12393E-2,-4.7936957E-2,9.374605E-2,-4.8008554E-2,5.740067E-2,2.409651E-2,-6.591217E-2,-1.5216406E-3,1.075204E-1,-6.674043E-2,6.303827E-3],"split_indices":[2,20,73,49,49,73,4,83,0,82,85,20,83,60,82,61,0,77,0,82,0,79,27,9,0,81,0,5,7,0,0,0,0,0,0,0,0,0,8,79,61,6,77,2,16,17,27,46,22,68,17,0,0,0,0,0,0,0,0,0,0,0,0,0,0,0,0,0,0,0,0,0,0,0,0,0,0],"split_type":[0,0,0,0,0,0,0,0,0,0,0,0,0,0,0,0,0,0,0,0,0,0,0,0,0,0,0,0,0,0,0,0,0,0,0,0,0,0,0,0,0,0,0,0,0,0,0,0,0,0,0,0,0,0,0,0,0,0,0,0,0,0,0,0,0,0,0,0,0,0,0,0,0,0,0,0,0],"sum_hessian":[2.9895308E3,4.8108826E1,2.941422E3,1.4775793E1,3.333303E1,2.4625327E3,4.788894E2,1.1309156E1,3.4666367E0,2.1381062E1,1.195197E1,1.5837363E3,8.787963E2,4.0307354E1,4.3858206E2,2.6521227E0,8.657034E0,1.9988796E1,1.3922647E0,7.378074E0,4.5738955E0,1.7694714E1,1.5660416E3,5.0636102E2,3.724353E2,3.7573185E1,2.7341685E0,4.1800317E2,2.0578894E1,1.3254669E0,1.3266559E0,7.2801986E0,1.3768348E0,1.862375E1,1.3650458E0,5.166215E0,2.2118595E0,2.270996E0,1.5423718E1,1.5633844E3,2.6571932E0,7.833245E0,4.9852777E2,2.7084944E1,3.4535037E2,3.2218323E1,5.3548613E0,2.7292578E2,1.4507738E2,4.5563235E0,1.602257E1,1.4139327E1,1.2843909E0,1.5430868E3,2.0297522E1,1.333673E0,1.3235202E0,5.5487766E0,2.2844682E0,1.347525E0,4.9718024E2,1.4033854E1,1.3051089E1,3.1516364E2,3.0186739E1,3.0886598E0,2.9129663E1,1.7747952E0,3.5800657E0,2.6886526E2,4.0605254E0,1.7762357E0,1.4330113E2,1.3541405E0,3.202183E0,1.11589775E1,4.863592E0],"tree_param":{"num_deleted":"0","num_feature":"86","num_nodes":"77","size_leaf_vector":"1"}},{"base_weights":[8.8473254E-1,9.9465275E-1,5.744695E-1,1.101414E0,9.0343606E-1,7.365865E-1,3.7170345E-1,1.1058799E0,-5.41434E-2,9.744809E-1,8.0021244E-1,-1.8212616E-1,7.657253E-1,4.4575417E-1,-1.6023934E-1,1.110477E0,-1.9408011E-1,5.0814027E-1,1.0033573E0,9.036918E-1,6.7840385E-1,-4.849543E-1,3.7419534E-1,9.596047E-1,6.6565293E-1,5.347115E-1,5.705444E-2,-5.6584066E-1,1.6504984E-1,1.0121571E0,1.1730677E0,3.8574472E-2,-5.51672E-2,1.1741304E0,2.2534071E-1,5.601712E-1,1.0230627E0,9.1813195E-1,-5.5461477E-2,5.2205324E-1,8.57966E-1,7.5448095E-3,-6.525673E-2,-4.2502955E-2,6.9494E-1,1.0002471E0,1.4046836E-1,-4.50751E-1,6.8408734E-1,-4.0721497E-1,5.603513E-1,-6.4028405E-2,7.0350456E-1,-6.522283E-1,2.4521785E-2,7.168803E-1,-1.5198426E-1,1.0912106E-1,6.8797246E-2,-3.338707E-3,1.17565155E-1,1.23531796E-1,3.725229E-2,-3.7224483E-2,6.612696E-2,7.283058E-2,-6.0838945E-2,1.0276544E-1,-2.3826638E-2,9.264673E-2,-4.4975173E-2,7.973341E-2,-5.796631E-2,6.0811132E-2,2.1123786E-4,9.133774E-2,9.483926E-3,9.702029E-2,5.076986E-4,1.0957179E-1,7.184336E-2,6.491505E-2,-4.0159862E-2,-8.769235E-4,-5.9024956E-2,8.488089E-2,5.8369286E-2,3.9529286E-2,-6.4147435E-2,6.050667E-2,5.882355E-3,-2.2196153E-2,4.62631E-2,1.2065857E-1,-3.214123E-2,-7.002666E-2,-1.0554518E-2,9.8067686E-2,-4.1626542E-4,-6.514832E-2,2.0105794E-2],"categories":[],"categories_nodes":[],"categories_segments":[],"categories_sizes":[],"default_left":[0,0,0,0,0,0,0,0,0,0,0,0,0,0,0,0,0,0,0,0,0,0,0,0,0,0,0,0,0,0,0,0,0,0,0,0,0,0,0,0,0,0,0,0,0,0,0,0,0,0,0,0,0,0,0,0,0,0,0,0,0,0,0,0,0,0,0,0,0,0,0,0,0,0,0,0,0,0,0,0,0,0,0,0,0,0,0,0,0,0,0,0,0,0,0,0,0,0,0,0,0],"id":4,"left_children":[1,3,5,7,9,11,13,15,-1,17,19,21,23,25,27,29,31,33,35,37,39,41,43,45,47,49,51,53,55,57,59,-1,-1,61,63,65,67,69,71,73,75,-1,-1,-1,77,79,81,83,85,87,89,91,93,95,-1,97,99,-1,-1,-1,-1,-1,-1,-1,-1,-1,-1,-1,-1,-1,-1,-1,-1,-1,-1,-1,-1,-1,-1,-1,-1,-1,-1,-1,-1,-1,-1,-1,-1,-1,-1,-1,-1,-1,-1,-1,-1,-1,-1,-1,-1],"loss_changes":[1.09809814E2,2.226538E1,2.7636414E1,8.639282E0,8.706909E0,1.2742996E1,1.5010574E1,6.7490234E0,0E0,9.746582E0,6.104706E0,2.7559123E0,8.2187195E0,1.1489929E1,6.3049545E0,5.5178223E0,1.188101E0,8.481581E0,5.6815796E0,4.0003204E0,6.5373383E0,1.0195954E0,1.8208245E0,4.958252E0,6.5723724E0,6.7732315E0,4.989537E0,1.6438513E0,4.8151803E0,1.0297882E1,2.0950928E0,0E0,0E0,2.0706558E-1,9.06003E0,6.8676567E0,4.2092285E0,3.6203156E0,2.7743907E0,6.064171E0,4.7447357E0,0E0,0E0,0E0,8.735273E-1,3.134201E0,2.577763E0,3.368299E-1,4.462784E0,1.7125287E0,5.8903885E0,4.6042485E0,5.569088E0,4.3592262E-1,0E0,1.904357E0,3.289322E0,0E0,0E0,0E0,0E0,0E0,0E0,0E0,0E0,0E0,0E0,0E0,0E0,0E0,0E0,0E0,0E0,0E0,0E0,0E0,0E0,0E0,0E0,0E0,0E0,0E0,0E0,0E0,0E0,0E0,0E0,0E0,0E0,0E0,0E0,0E0,0E0,0E0,0E0,0E0,0E0,0E0,0E0,0E0,0E0],"parents":[2147483647,0,0,1,1,2,2,3,3,4,4,5,5,6,6,7,7,9,9,10,10,11,11,12,12,13,13,14,14,15,15,16,16,17,17,18,18,19,19,20,20,21,21,22,22,23,23,24,24,25,25,26,26,27,27,28,28,29,29,30,30,33,33,34,34,35,35,36,36,37,37,38,38,39,39,40,40,44,44,45,45,46,46,47,47,48,48,49,49,50,50,51,51,52,52,53,53,55,55,56,56],"right_children":[2,4,6,8,10,12,14,16,-1,18,20,22,24,26,28,30,32,34,36,38,40,42,44,46,48,50,52,54,56,58,60,-1,-1,62,64,66,68,70,72,74,76,-1,-1,-1,78,80,82,84,86,88,90,92,94,96,-1,98,100,-1,-1,-1,-1,-1,-1,-1,-1,-1,-1,-1,-1,-1,-1,-1,-1,-1,-1,-1,-1,-1,-1,-1,-1,-1,-1,-1,-1,-1,-1,-1,-1,-1,-1,-1,-1,-1,-1,-1,-1,-1,-1,-1,-1],"split_conditions":[7.19E2,4.660294E2,8.046E2,2.1746462E3,5.0383152E1,-8.374006E-1,9.7303525E-2,1.1882694E5,-5.41434E-2,5.7485914E4,6.983022E2,-3.1771963E-3,5.718369E2,1.76643E3,8.151547E4,-6.726225E3,9.3E1,5.515886E4,7.537526E1,1.7778888E0,9.606465E4,4.078711E2,-1.5331581E-2,7.7054785E2,2.2120834E2,4.2041733E2,8.150515E1,4.369554E-1,8.824734E4,8.488717E4,-3.0887255E-2,3.8574472E-2,-5.51672E-2,8.286919E-1,5.328042E2,9.549608E4,7.578976E2,2.310188E3,2.6886E2,9.396587E4,9.435565E1,7.5448095E-3,-6.525673E-2,-4.2502955E-2,-8.6185944E-1,1.12405E3,6.109833E1,5.9655E4,5.4441364E1,-5.722365E1,2.3094665E-2,1.8667433E3,4.8186764E-2,1.85791E3,2.4521785E-2,6.767029E-3,6.6630226E1,1.0912106E-1,6.8797246E-2,-3.338707E-3,1.17565155E-1,1.23531796E-1,3.725229E-2,-3.7224483E-2,6.612696E-2,7.283058E-2,-6.0838945E-2,1.0276544E-1,-2.3826638E-2,9.264673E-2,-4.4975173E-2,7.973341E-2,-5.796631E-2,6.0811132E-2,2.1123786E-4,9.133774E-2,9.483926E-3,9.702029E-2,5.076986E-4,1.0957179E-1,7.184336E-2,6.491505E-2,-4.0159862E-2,-8.769235E-4,-5.9024956E-2,8.488089E-2,5.8369286E-2,3.9529286E-2,-6.4147435E-2,6.050667E-2,5.882355E-3,-2.2196153E-2,4.62631E-2,1.2065857E-1,-3.214123E-2,-7.002666E-2,-1.0554518E-2,9.8067686E-2,-4.1626542E-4,-6.514832E-2,2.0105794E-2],"split_indices":[29,45,17,83,80,85,7,10,0,18,83,72,49,29,13,20,28,48,74,34,58,53,21,17,79,75,16,85,58,12,23,0,0,8,79,6,84,73,17,48,19,0,0,0,85,29,80,48,19,19,22,75,22,26,0,21,70,0,0,0,0,0,0,0,0,0,0,0,0,0,0,0,0,0,0,0,0,0,0,0,0,0,0,0,0,0,0,0,0,0,0,0,0,0,0,0,0,0,0,0,0],"split_type":[0,0,0,0,0,0,0,0,0,0,0,0,0,0,0,0,0,0,0,0,0,0,0,0,0,0,0,0,0,0,0,0,0,0,0,0,0,0,0,0,0,0,0,0,0,0,0,0,0,0,0,0,0,0,0,0,0,0,0,0,0,0,0,0,0,0,0,0,0,0,0,0,0,0,0,0,0,0,0,0,0,0,0,0,0,0,0,0,0,0,0,0,0,0,0,0,0,0,0,0,0],"sum_hessian":[3.2355903E3,2.3875293E3,8.480611E2,1.0949314E3,1.2925978E3,4.6980585E2,3.7825522E2,1.0922891E3,2.6424065E0,7.606388E2,5.31959E2,1.4281342E1,4.555245E2,3.3217572E2,4.607951E1,1.0885852E3,3.703837E0,4.543772E1,7.1520105E2,2.8414877E2,2.4781024E2,9.330603E0,4.950738E0,1.5215385E2,3.0337067E2,2.700067E2,6.216901E1,2.0178967E1,2.5900543E1,4.301151E2,6.584701E2,1.3828526E0,2.3209844E0,1.2603887E1,3.2833836E1,3.1699049E1,6.83502E2,2.7997647E2,4.1722937E0,1.3455565E2,1.132546E2,2.2748077E0,7.055795E0,1.3247128E0,3.6260252E0,1.4475076E2,7.403085E0,4.54702E0,2.9882364E2,6.7606263E0,2.6324606E2,5.3120304E1,9.048704E0,1.841353E1,1.7654352E0,8.990479E0,1.6910065E1,3.4389032E2,8.622478E1,1.3817813E0,6.570883E2,1.1207367E1,1.3965199E0,1.3910691E1,1.8923143E1,2.8041183E1,3.6578667E0,6.812074E2,2.294583E0,2.7860147E2,1.3749876E0,1.3899744E0,2.7823193E0,1.1530187E2,1.9253778E1,1.0540421E2,7.8503904E0,2.3013792E0,1.3246461E0,1.0596471E2,3.878606E1,3.717238E0,3.6858473E0,1.3458242E0,3.2011955E0,1.1033592E2,1.8848772E2,1.3722525E0,5.388374E0,2.4150723E2,2.1738848E1,4.1310715E1,1.1809591E1,5.9505973E0,3.0981069E0,1.6667944E1,1.7455859E0,6.3186827E0,2.6717963E0,6.652495E0,1.0257569E1],"tree_param":{"num_deleted":"0","num_feature":"86","num_nodes":"101","size_leaf_vector":"1"}},{"base_weights":[-3.4464496E-1,-4.179987E-1,-4.9345996E-2,-5.2479815E-1,-3.3708274E-1,-7.899884E-2,4.0077168E-1,-5.290273E-1,9.7352795E-2,1.9298075E-1,-3.5210904E-1,3.5152096E-2,-1.5760003E-1,1.6429545E-1,7.937342E-1,2.300071E-2,-5.402476E-1,3.9308763E-1,-6.3867055E-2,-3.6465153E-1,2.2666425E-1,1.0776843E-1,-4.337368E-1,-1.8668647E-1,6.798216E-1,-1.659739E-1,5.0825334E-1,-4.2074453E-2,9.548426E-1,6.059068E-1,-4.3951997E-1,-5.6591964E-1,-3.6341426E-1,7.442469E-1,-2.579483E-1,-2.7291328E-1,-4.3202856E-1,6.0065734E-1,-6.509607E-2,-6.092445E-2,3.9881292E-1,-5.3948283E-1,3.932254E-1,-4.2350054E-1,-1.436333E-1,9.3473774E-1,-4.7124933E-2,6.8605505E-2,-4.0298423E-1,-1.16872944E-1,9.3540925E-1,1.1519706E0,-4.1727524E-2,-4.639626E-2,8.847406E-2,-6.5805994E-2,4.0061485E-2,2.9778719E-2,-5.715095E-2,5.2751254E-2,-3.977002E-2,-3.0917007E-2,9.410057E-2,3.8721338E-2,-6.366852E-2,-3.2855134E-2,1.8556562E-3,-4.3852832E-2,8.415911E-2,-7.366854E-3,9.832713E-2,1.81902E-2,-2.0182611E-2,1.7005024E-2,7.947289E-2,-6.336778E-2,2.5810469E-2,-1.2456807E-2,8.3982274E-2,4.203863E-2,-4.882983E-2,9.735947E-3,-2.2159856E-2,-4.2255085E-2,1.1969381E-1,4.014128E-2,-5.5737007E-2,8.238241E-2,-5.8186144E-2,1.1479169E-1,-1.2926385E-3,3.7988245E-2,1.22238874E-1],"categories":[],"categories_nodes":[],"categories_segments":[],"categories_sizes":[],"default_left":[0,0,0,0,0,0,0,0,0,0,0,0,0,0,0,0,0,0,0,0,0,0,0,0,0,0,0,0,0,0,0,0,0,0,0,0,0,0,0,0,0,0,0,0,0,0,0,0,0,0,0,0,0,0,0,0,0,0,0,0,0,0,0,0,0,0,0,0,0,0,0,0,0,0,0,0,0,0,0,0,0,0,0,0,0,0,0,0,0,0,0,0,0],"id":5,"left_children":[1,3,5,7,9,11,13,15,-1,17,19,21,23,25,27,29,31,33,-1,35,37,39,41,43,45,47,49,-1,51,53,55,57,59,61,63,65,67,69,-1,71,73,75,77,79,81,83,-1,-1,85,87,89,91,-1,-1,-1,-1,-1,-1,-1,-1,-1,-1,-1,-1,-1,-1,-1,-1,-1,-1,-1,-1,-1,-1,-1,-1,-1,-1,-1,-1,-1,-1,-1,-1,-1,-1,-1,-1,-1,-1,-1,-1,-1],"loss_changes":[6.568588E1,2.0819672E1,8.102832E0,7.1400757E0,1.1100403E1,5.1033554E0,3.3579798E0,6.474121E0,0E0,6.713016E0,9.863083E0,7.9633613E0,8.327141E0,2.8899088E0,3.1101608E0,6.127827E0,4.436096E0,7.4888883E0,0E0,8.035568E0,9.973399E0,9.948217E0,2.9561133E0,3.2643976E0,3.8196678E0,2.9729807E0,3.4054914E0,0E0,3.8690052E0,3.405325E0,2.5957334E0,4.4722595E0,4.2546463E0,4.6417894E0,3.1606636E0,9.108421E0,6.650757E0,5.4882693E0,0E0,4.444524E0,6.5942726E0,2.2853737E0,1.0610301E0,2.9207163E0,5.235252E0,3.9803934E0,0E0,0E0,1.5993551E0,3.0599852E0,1.5150614E0,1.4561367E-1,0E0,0E0,0E0,0E0,0E0,0E0,0E0,0E0,0E0,0E0,0E0,0E0,0E0,0E0,0E0,0E0,0E0,0E0,0E0,0E0,0E0,0E0,0E0,0E0,0E0,0E0,0E0,0E0,0E0,0E0,0E0,0E0,0E0,0E0,0E0,0E0,0E0,0E0,0E0,0E0,0E0],"parents":[2147483647,0,0,1,1,2,2,3,3,4,4,5,5,6,6,7,7,9,9,10,10,11,11,12,12,13,13,14,14,15,15,16,16,17,17,19,19,20,20,21,21,22,22,23,23,24,24,25,25,26,26,28,28,29,29,30,30,31,31,32,32,33,33,34,34,35,35,36,36,37,37,39,39,40,40,41,41,42,42,43,43,44,44,45,45,48,48,49,49,50,50,51,51],"right_children":[2,4,6,8,10,12,14,16,-1,18,20,22,24,26,28,30,32,34,-1,36,38,40,42,44,46,48,50,-1,52,54,56,58,60,62,64,66,68,70,-1,72,74,76,78,80,82,84,-1,-1,86,88,90,92,-1,-1,-1,-1,-1,-1,-1,-1,-1,-1,-1,-1,-1,-1,-1,-1,-1,-1,-1,-1,-1,-1,-1,-1,-1,-1,-1,-1,-1,-1,-1,-1,-1,-1,-1,-1,-1,-1,-1,-1,-1],"split_conditions":[8.447E2,4.660294E2,7.1340753E2,4.6483557E2,-7.041404E2,-1.5175298E2,6.447473E2,2.41909E1,9.7352795E-2,9.996434E4,1.6254196E3,1.6254196E3,4.113273E2,8.758783E4,-3.9128566E4,9.11828E4,6.952793E2,1.0795629E3,-6.3867055E-2,9.0066485E-2,9.866851E4,4.0305847E1,1.0132395E2,3.9816043E2,9.2919716E1,3.004418E2,1.2775371E3,-4.2074453E-2,1.6294705E3,9.059608E1,-1.4275504E2,5.900214E4,7.9203234E4,5.9655E4,-2.8128675E1,5.1087433E1,4.113273E2,7.99996E4,-6.509607E-2,-2.8034423E-2,1.1187328E3,2.387307E3,7.0384075E-4,8.302228E4,6.502318E2,8.152256E1,-4.7124933E-2,6.8605505E-2,1.3211611E3,2.0322096E3,2.5796664E2,8.065663E2,-4.1727524E-2,-4.639626E-2,8.847406E-2,-6.5805994E-2,4.0061485E-2,2.9778719E-2,-5.715095E-2,5.2751254E-2,-3.977002E-2,-3.0917007E-2,9.410057E-2,3.8721338E-2,-6.366852E-2,-3.2855134E-2,1.8556562E-3,-4.3852832E-2,8.415911E-2,-7.366854E-3,9.832713E-2,1.81902E-2,-2.0182611E-2,1.7005024E-2,7.947289E-2,-6.336778E-2,2.5810469E-2,-1.2456807E-2,8.3982274E-2,4.203863E-2,-4.882983E-2,9.735947E-3,-2.2159856E-2,-4.2255085E-2,1.1969381E-1,4.014128E-2,-5.5737007E-2,8.238241E-2,-5.8186144E-2,1.1479169E-1,-1.2926385E-3,3.7988245E-2,1.22238874E-1],"split_indices":[29,45,84,80,2,2,74,0,0,63,83,83,3,47,20,6,17,17,0,1,12,64,19,77,16,76,17,0,1,74,1,13,5,44,3,67,3,6,0,23,49,79,85,9,49,15,0,0,83,24,80,57,0,0,0,0,0,0,0,0,0,0,0,0,0,0,0,0,0,0,0,0,0,0,0,0,0,0,0,0,0,0,0,0,0,0,0,0,0,0,0,0,0],"split_type":[0,0,0,0,0,0,0,0,0,0,0,0,0,0,0,0,0,0,0,0,0,0,0,0,0,0,0,0,0,0,0,0,0,0,0,0,0,0,0,0,0,0,0,0,0,0,0,0,0,0,0,0,0,0,0,0,0,0,0,0,0,0,0,0,0,0,0,0,0,0,0,0,0,0,0,0,0,0,0,0,0,0,0,0,0,0,0,0,0,0,0,0,0],"sum_hessian":[3.032362E3,2.4286562E3,6.0370575E2,1.0445234E3,1.3841328E3,5.6716644E2,3.653929E1,1.0422286E3,2.2948391E0,3.782944E1,1.3463033E3,2.3150667E2,3.3565976E2,2.3697031E1,1.284226E1,2.0741047E1,1.0214876E3,3.0917582E1,6.9118605E0,1.3181088E3,2.819453E1,2.011283E2,3.037837E1,3.2514352E2,1.0516248E1,1.2353053E1,1.1343979E1,1.315337E0,1.1526923E1,9.039157E0,1.1701889E1,8.9007025E2,1.3141731E2,1.999136E1,1.092622E1,5.60289E2,7.578198E2,1.9991076E1,8.203455E0,1.278282E2,7.3300095E1,2.7242435E1,3.1359353E0,4.8658817E1,2.764847E2,8.763437E0,1.7528099E0,2.2760947E0,1.0076959E1,4.8997602E0,6.4442186E0,1.0219205E1,1.3077185E0,1.7315108E0,7.3076468E0,9.458278E0,2.2436116E0,5.387279E0,8.84683E2,4.3368855E0,1.2708043E2,3.056422E0,1.6934938E1,4.033296E0,6.8929243E0,4.703732E2,8.9915794E1,7.546243E2,3.1954641E0,7.529104E0,1.2461971E1,4.683057E1,8.0997635E1,4.7362984E1,2.5937113E1,2.454874E1,2.6936939E0,1.7861322E0,1.3498031E0,3.0785093E0,4.5580307E1,6.752238E1,2.0896233E2,1.3198148E0,7.443623E0,1.3649726E0,8.711986E0,1.3655233E0,3.534237E0,5.0925913E0,1.3516273E0,1.3886164E0,8.830588E0],"tree_param":{"num_deleted":"0","num_feature":"86","num_nodes":"93","size_leaf_vector":"1"}},{"base_weights":[-5.8338225E-1,2.3265673E-2,-5.9361714E-1,4.5371646E-1,-1.8164966E-1,-6.199905E-1,-4.5836848E-1,7.634142E-1,-5.5009097E-2,-4.612689E-1,3.0181298E-1,-6.4860433E-1,-5.6802326E-1,-3.6287603E-1,-5.534042E-1,-2.6361793E-1,1.0592645E0,-5.832891E-1,7.493046E-2,-1.5565504E-1,9.1072746E-2,-3.4420976E-1,-6.51844E-1,-6.195853E-1,-4.969233E-1,-4.8773777E-1,-1.5165883E-1,6.1757818E-2,-5.893698E-1,8.141815E-5,-4.1604344E-2,1.1351179E-1,3.5096306E-2,-6.740344E-2,3.8241442E-2,-5.9090048E-2,6.890956E-2,9.612246E-2,-5.9600735E-1,-6.5358394E-1,-1.5267667E-1,-6.664951E-2,-6.282462E-1,-1.5950917E-1,-5.23249E-1,-1.632544E-1,-5.476846E-1,-2.2998534E-1,4.2666656E-1,-3.3310378E-1,8.358391E-1,-6.2336767E-1,-4.9367964E-2,-6.551748E-2,5.4118186E-3,2.537073E-3,-6.54783E-2,-5.6610525E-2,6.2462635E-2,-5.89147E-2,9.415252E-2,4.0429004E-2,-6.320255E-2,2.4310295E-2,-5.905173E-2,-5.368648E-2,2.9474124E-3,4.9922954E-2,-6.617905E-2,-6.8721557E-3,-5.933652E-2,6.91013E-2,-2.9351195E-2,1.0257619E-1,-5.6469776E-2,9.3131475E-2,-6.287631E-2,1.1397789E-1,5.0769426E-4,5.015102E-2,-6.3263796E-2,6.533611E-2,-3.6399987E-2],"categories":[],"categories_nodes":[],"categories_segments":[],"categories_sizes":[],"default_left":[0,0,0,0,0,0,0,0,0,0,0,0,0,0,0,0,0,0,0,0,0,0,0,0,0,0,0,0,0,0,0,0,0,0,0,0,0,0,0,0,0,0,0,0,0,0,0,0,0,0,0,0,0,0,0,0,0,0,0,0,0,0,0,0,0,0,0,0,0,0,0,0,0,0,0,0,0,0,0,0,0,0,0],"id":6,"left_children":[1,3,5,7,9,11,13,15,-1,17,19,21,23,25,27,29,31,33,-1,35,-1,37,39,41,43,45,47,49,51,-1,-1,-1,-1,-1,-1,-1,-1,-1,53,55,57,59,61,63,65,67,69,71,73,75,77,79,81,-1,-1,-1,-1,-1,-1,-1,-1,-1,-1,-1,-1,-1,-1,-1,-1,-1,-1,-1,-1,-1,-1,-1,-1,-1,-1,-1,-1,-1,-1],"loss_changes":[1.7893494E1,4.381526E0,9.817078E0,5.3955674E0,4.6996074E0,3.151245E0,4.0277405E0,4.122987E0,0E0,3.6525717E0,3.7535236E0,1.2740479E0,2.802948E0,6.132105E0,5.161072E0,1.4664343E-1,1.3998127E-1,2.039997E0,0E0,3.4433198E0,0E0,6.529029E0,1.204956E0,2.2941742E0,3.1297836E0,2.7785797E0,4.1241617E0,4.465674E0,3.9885178E0,0E0,0E0,0E0,0E0,0E0,0E0,0E0,0E0,0E0,6.435046E-1,1.2351074E0,2.4498699E0,5.1067643E0,2.1292267E0,4.9363904E0,2.5378876E0,8.394374E0,2.6728058E0,4.820654E0,7.0837584E0,4.2442403E0,1.2346256E0,2.464119E0,3.3449764E0,0E0,0E0,0E0,0E0,0E0,0E0,0E0,0E0,0E0,0E0,0E0,0E0,0E0,0E0,0E0,0E0,0E0,0E0,0E0,0E0,0E0,0E0,0E0,0E0,0E0,0E0,0E0,0E0,0E0,0E0],"parents":[2147483647,0,0,1,1,2,2,3,3,4,4,5,5,6,6,7,7,9,9,10,10,11,11,12,12,13,13,14,14,15,15,16,16,17,17,19,19,21,21,22,22,23,23,24,24,25,25,26,26,27,27,28,28,38,38,39,39,40,40,41,41,42,42,43,43,44,44,45,45,46,46,47,47,48,48,49,49,50,50,51,51,52,52],"right_children":[2,4,6,8,10,12,14,16,-1,18,20,22,24,26,28,30,32,34,-1,36,-1,38,40,42,44,46,48,50,52,-1,-1,-1,-1,-1,-1,-1,-1,-1,54,56,58,60,62,64,66,68,70,72,74,76,78,80,82,-1,-1,-1,-1,-1,-1,-1,-1,-1,-1,-1,-1,-1,-1,-1,-1,-1,-1,-1,-1,-1,-1,-1,-1,-1,-1,-1,-1,-1,-1],"split_conditions":[-1.0782213E3,-1.610413E4,1.2084191E3,3.1801897E3,1.4846293E3,7.374835E2,9.384271E4,1.2294866E3,-5.5009097E-2,6.212714E2,-5.1074E-1,-6.2581414E4,6.5404956E2,7.6592017E2,-9.182565E3,1.0292324E3,7.756274E4,1.6896172E3,7.493046E-2,3.761756E2,9.1072746E-2,2.16865E2,8.4985E2,5.5276758E4,2.7180012E1,3.5910272E2,2.0353239E3,1.5815424E2,4.9364783E2,8.141815E-5,-4.1604344E-2,1.1351179E-1,3.5096306E-2,-6.740344E-2,3.8241442E-2,-5.9090048E-2,6.890956E-2,9.612246E-2,5.798715E1,-3.9404068E2,1.7374915E-1,5.3935195E4,3.5097794E2,-4.7991464E2,6.617024E-1,6.032998E4,-1.0581284E-2,2.4924655E2,2.5796664E2,2.0186855E-2,1.5589429E3,2.3902663E2,4.3505613E-2,-6.551748E-2,5.4118186E-3,2.537073E-3,-6.54783E-2,-5.6610525E-2,6.2462635E-2,-5.89147E-2,9.415252E-2,4.0429004E-2,-6.320255E-2,2.4310295E-2,-5.905173E-2,-5.368648E-2,2.9474124E-3,4.9922954E-2,-6.617905E-2,-6.8721557E-3,-5.933652E-2,6.91013E-2,-2.9351195E-2,1.0257619E-1,-5.6469776E-2,9.3131475E-2,-6.287631E-2,1.1397789E-1,5.0769426E-4,5.015102E-2,-6.3263796E-2,6.533611E-2,-3.6399987E-2],"split_indices":[2,20,73,49,49,73,63,83,0,82,85,20,83,83,20,61,6,77,0,82,0,79,27,9,0,24,73,82,82,0,0,0,0,0,0,0,0,0,19,3,85,6,77,2,85,6,21,76,80,7,45,78,7,0,0,0,0,0,0,0,0,0,0,0,0,0,0,0,0,0,0,0,0,0,0,0,0,0,0,0,0,0,0],"split_type":[0,0,0,0,0,0,0,0,0,0,0,0,0,0,0,0,0,0,0,0,0,0,0,0,0,0,0,0,0,0,0,0,0,0,0,0,0,0,0,0,0,0,0,0,0,0,0,0,0,0,0,0,0,0,0,0,0,0,0,0,0,0,0,0,0,0,0,0,0,0,0,0,0,0,0,0,0,0,0,0,0,0,0],"sum_hessian":[2.8786587E3,4.7739437E1,2.8309192E3,1.5005114E1,3.273432E1,2.365972E3,4.6494727E2,1.165023E1,3.3548834E0,2.0768433E1,1.1965889E1,1.5184269E3,8.4754504E2,2.3431975E2,2.3062753E2,2.6298308E0,9.020399E0,1.9337477E1,1.4309561E0,7.2576795E0,4.708209E0,1.7119978E1,1.5013069E3,4.8680057E2,3.6074445E2,1.464413E2,8.787845E1,1.269928E1,2.1792825E2,1.3253075E0,1.3045232E0,7.603532E0,1.4168673E0,1.7952538E1,1.384939E0,4.9881244E0,2.269555E0,2.3126562E0,1.4807321E1,1.4957838E3,5.5231214E0,7.641493E0,4.791591E2,2.6619772E1,3.3412466E2,2.3416195E1,1.2302511E2,7.792664E1,9.951804E0,8.786787E0,3.9124928E0,2.0487515E2,1.3053097E1,1.3565014E1,1.2423068E0,2.6014266E0,1.4931824E3,3.7828314E0,1.74029E0,5.306811E0,2.334682E0,1.3609465E0,4.7779813E2,1.3988676E1,1.2631097E1,3.2611972E2,8.004965E0,1.0054197E1,1.3361998E1,1.092982E1,1.1209529E2,4.3908806E0,7.353577E1,6.181525E0,3.770279E0,1.2577835E0,7.5290036E0,2.5921645E0,1.3203282E0,1.2405877E0,2.0363457E2,3.7038887E0,9.349209E0],"tree_param":{"num_deleted":"0","num_feature":"86","num_nodes":"83","size_leaf_vector":"1"}},{"base_weights":[7.9148966E-1,8.699551E-1,4.5671296E-1,9.595045E-1,7.727739E-1,4.9629176E-1,-1.6096689E-1,9.732426E-1,3.295273E-1,2.5112125E-1,7.870946E-1,5.516135E-1,1.8296988E-1,-5.660783E-1,1.618324E-1,9.771913E-1,-1.4196834E-1,-2.8753096E-1,7.498601E-1,-6.3131265E-2,3.9788422E-1,4.2490044E-1,8.069414E-1,4.9043974E-1,7.55008E-1,6.1429E-1,2.4037773E-2,-6.671772E-2,-6.738725E-2,4.0905118E-1,-4.8240224E-1,1.0809633E0,9.334836E-1,-6.1276894E-2,7.427677E-2,5.5806196E-1,-6.1258703E-1,-1.8732624E-1,1.1397385E-1,6.9771576E-1,6.780341E-2,1.0772369E0,1.9021073E-1,8.7942046E-1,7.133833E-1,4.049214E-1,6.6720706E-1,8.9112663E-1,4.664967E-1,1.043473E0,1.3146308E-1,-6.5078765E-2,1.1291288E-1,4.2577572E-2,-4.641506E-2,5.974185E-1,-3.2266572E-1,-6.0337026E-2,6.794055E-4,1.08512335E-1,4.6366967E-2,8.082325E-2,1.0035832E-1,8.613934E-2,-4.37653E-3,-6.977329E-2,-3.7366194E-3,-5.6547403E-2,3.320757E-2,-4.9097937E-2,8.774492E-2,7.862989E-2,-3.4020606E-2,1.1715519E-1,1.7960226E-2,-4.5097314E-2,4.283685E-2,3.462268E-2,8.9788966E-2,7.22248E-2,-5.7893034E-2,4.66267E-2,1.2737969E-2,4.110684E-2,8.92958E-2,-1.3556703E-2,9.3796514E-2,1.4583009E-2,7.865921E-2,-6.7983693E-3,1.1882255E-1,-2.4685187E-2,5.087238E-2,4.131565E-2,-6.224727E-3,1.0239197E-1,1.8463759E-2,-4.8192102E-2,8.6557626E-4],"categories":[],"categories_nodes":[],"categories_segments":[],"categories_sizes":[],"default_left":[0,0,0,0,0,0,0,0,0,0,0,0,0,0,0,0,0,0,0,0,0,0,0,0,0,0,0,0,0,0,0,0,0,0,0,0,0,0,0,0,0,0,0,0,0,0,0,0,0,0,0,0,0,0,0,0,0,0,0,0,0,0,0,0,0,0,0,0,0,0,0,0,0,0,0,0,0,0,0,0,0,0,0,0,0,0,0,0,0,0,0,0,0,0,0,0,0,0,0],"id":7,"left_children":[1,3,5,7,9,11,13,15,17,19,21,23,25,27,29,31,33,35,37,-1,39,41,43,45,47,49,51,-1,53,55,57,59,61,-1,-1,63,65,67,-1,69,71,73,75,77,79,81,83,85,87,89,91,-1,93,-1,-1,95,97,-1,-1,-1,-1,-1,-1,-1,-1,-1,-1,-1,-1,-1,-1,-1,-1,-1,-1,-1,-1,-1,-1,-1,-1,-1,-1,-1,-1,-1,-1,-1,-1,-1,-1,-1,-1,-1,-1,-1,-1,-1,-1],"loss_changes":[8.721802E1,2.2763672E1,1.5614014E1,1.1809204E1,9.517029E0,1.025412E1,5.194086E0,6.176758E0,8.36585E0,4.941289E0,8.751953E0,5.941162E0,6.233442E0,8.386321E-1,3.7797494E0,5.1883545E0,2.8339224E0,4.040169E0,7.144292E0,0E0,3.0864148E0,1.018103E1,7.4988403E0,5.6680374E0,4.117592E0,4.940099E0,4.1305404E0,0E0,9.932959E-1,2.5078545E0,4.003904E-1,5.205078E-1,7.694824E0,0E0,0E0,8.1525826E-1,4.732864E-1,1.4510012E0,0E0,3.9526997E0,5.010504E0,1.2909908E0,7.9970045E0,6.296509E0,6.471649E0,4.4913864E0,6.94965E0,3.8459587E0,3.8988676E0,2.144516E0,1.9345162E0,0E0,3.2140594E0,0E0,0E0,2.2243443E0,2.1987504E-1,0E0,0E0,0E0,0E0,0E0,0E0,0E0,0E0,0E0,0E0,0E0,0E0,0E0,0E0,0E0,0E0,0E0,0E0,0E0,0E0,0E0,0E0,0E0,0E0,0E0,0E0,0E0,0E0,0E0,0E0,0E0,0E0,0E0,0E0,0E0,0E0,0E0,0E0,0E0,0E0,0E0,0E0],"parents":[2147483647,0,0,1,1,2,2,3,3,4,4,5,5,6,6,7,7,8,8,9,9,10,10,11,11,12,12,13,13,14,14,15,15,16,16,17,17,18,18,20,20,21,21,22,22,23,23,24,24,25,25,26,26,28,28,29,29,30,30,31,31,32,32,35,35,36,36,37,37,39,39,40,40,41,41,42,42,43,43,44,44,45,45,46,46,47,47,48,48,49,49,50,50,52,52,55,55,56,56],"right_children":[2,4,6,8,10,12,14,16,18,20,22,24,26,28,30,32,34,36,38,-1,40,42,44,46,48,50,52,-1,54,56,58,60,62,-1,-1,64,66,68,-1,70,72,74,76,78,80,82,84,86,88,90,92,-1,94,-1,-1,96,98,-1,-1,-1,-1,-1,-1,-1,-1,-1,-1,-1,-1,-1,-1,-1,-1,-1,-1,-1,-1,-1,-1,-1,-1,-1,-1,-1,-1,-1,-1,-1,-1,-1,-1,-1,-1,-1,-1,-1,-1,-1,-1],"split_conditions":[8.447E2,5.891823E2,9.7303525E-2,1.6162718E-2,-7.041404E2,1.76643E3,8.017081E4,1.1882694E5,5.3533115E1,8.265577E1,5.729329E4,1.027878E5,7.7054785E2,7.486136E-1,9.861756E4,2.659E2,8.5707153E2,1.7068245E1,6.4807684E2,-6.3131265E-2,1.5739939E3,5.4758035E4,5.0383152E1,1.0640973E3,7.780289E2,1.1589061E2,4.0283142E2,-6.671772E-2,6.673154E-2,6.895177E1,2.4002138E1,1.6224828E2,-6.726225E3,-6.1276894E-2,7.427677E-2,2.4767233E1,1.0418752E-2,1.2161E2,1.1397385E-1,2.9767083E-2,8.688746E2,7.259407E1,3.103252E-2,7.306051E1,2.5769355E3,1.40603E3,1.2040813E0,2.66912E2,4.802848E2,3.8031445E2,5.6605595E-1,-6.5078765E-2,1.0395012E3,4.2577572E-2,-4.641506E-2,8.0504663E2,5.9986865E2,-6.0337026E-2,6.794055E-4,1.08512335E-1,4.6366967E-2,8.082325E-2,1.0035832E-1,8.613934E-2,-4.37653E-3,-6.977329E-2,-3.7366194E-3,-5.6547403E-2,3.320757E-2,-4.9097937E-2,8.774492E-2,7.862989E-2,-3.4020606E-2,1.1715519E-1,1.7960226E-2,-4.5097314E-2,4.283685E-2,3.462268E-2,8.9788966E-2,7.22248E-2,-5.7893034E-2,4.66267E-2,1.2737969E-2,4.110684E-2,8.92958E-2,-1.3556703E-2,9.3796514E-2,1.4583009E-2,7.865921E-2,-6.7983693E-3,1.1882255E-1,-2.4685187E-2,5.087238E-2,4.131565E-2,-6.224727E-3,1.0239197E-1,1.8463759E-2,-4.8192102E-2,8.6557626E-4],"split_indices":[29,49,7,25,2,29,55,10,15,82,60,44,17,8,56,29,53,15,77,0,81,14,80,61,61,82,53,0,23,19,19,3,20,0,0,70,22,27,0,7,45,0,7,74,81,29,34,81,78,79,72,0,77,0,0,84,3,0,0,0,0,0,0,0,0,0,0,0,0,0,0,0,0,0,0,0,0,0,0,0,0,0,0,0,0,0,0,0,0,0,0,0,0,0,0,0,0,0,0],"split_type":[0,0,0,0,0,0,0,0,0,0,0,0,0,0,0,0,0,0,0,0,0,0,0,0,0,0,0,0,0,0,0,0,0,0,0,0,0,0,0,0,0,0,0,0,0,0,0,0,0,0,0,0,0,0,0,0,0,0,0,0,0,0,0,0,0,0,0,0,0,0,0,0,0,0,0,0,0,0,0,0,0,0,0,0,0,0,0,0,0,0,0,0,0,0,0,0,0,0,0],"sum_hessian":[3.3343828E3,2.699963E3,6.3442004E2,1.400538E3,1.2994248E3,5.9640125E2,3.8018806E1,1.3701147E3,3.0423252E1,3.5214573E1,1.2642102E3,5.0625388E2,9.014736E1,1.6525604E1,2.14932E1,1.3654038E3,4.7108803E0,1.2454988E1,1.7968266E1,4.5507765E0,3.0663794E1,6.683906E1,1.1973712E3,3.9181982E2,1.1443405E2,2.3501738E1,6.664562E1,1.3459186E1,3.0664177E0,1.5796505E1,5.6966963E0,3.9762405E2,9.677798E2,3.2753468E0,1.4355335E0,3.2593575E0,9.19563E0,5.4315286E0,1.25367365E1,1.5484527E1,1.5179268E1,1.6734447E1,5.0104614E1,6.6995764E2,5.274136E2,2.662846E2,1.2553523E2,7.633211E1,3.8101948E1,1.18273115E1,1.1674426E1,7.020061E0,5.962556E1,1.3345261E0,1.7318918E0,1.2708476E1,3.0880287E0,4.380179E0,1.3165175E0,3.942095E2,3.4145346E0,3.517741E2,6.160057E2,1.8803376E0,1.37902E0,7.82445E0,1.37118E0,3.0918336E0,2.3396952E0,1.8063359E0,1.3678191E1,5.1619797E0,1.0017288E1,1.486719E1,1.867257E0,1.3328137E1,3.6776474E1,2.3090755E1,6.468669E2,5.242585E2,3.1550639E0,2.175247E2,4.87599E1,6.0131023E1,6.540421E1,3.247737E0,7.3084366E1,1.9761133E1,1.8340813E1,1.4239686E0,1.0403343E1,6.001664E0,5.672762E0,2.146812E1,3.815744E1,5.5221925E0,7.1862836E0,1.7785814E0,1.3094474E0],"tree_param":{"num_deleted":"0","num_feature":"86","num_nodes":"99","size_leaf_vector":"1"}},{"base_weights":[-3.236074E-1,-3.9440238E-1,-4.479992E-2,-4.9917445E-1,-3.160032E-1,-7.272024E-2,3.7310752E-1,-5.054901E-1,4.9380273E-1,1.9110264E-1,-3.3066237E-1,3.532754E-2,-1.4767252E-1,-5.3174753E-2,4.549961E-1,3.3989206E-2,-5.167549E-1,-4.856531E-2,1.0261951E-1,3.7905198E-1,-6.187242E-2,-3.4286147E-1,2.1967608E-1,-2.4545358E-1,1.4684317E-1,-1.7540547E-1,6.3083196E-1,5.7601225E-1,-2.6288378E-1,5.779985E-1,-4.1588575E-1,2.9783848E-1,-5.215412E-1,7.0564514E-1,-2.4459742E-1,-4.956344E-2,-3.6312962E-1,5.6656224E-1,-6.313288E-2,-3.0615124E-1,5.386387E-1,4.006411E-1,-4.1370397E-3,-1.881432E-1,5.3161687E-1,8.652237E-1,-4.6077803E-2,-6.564139E-2,7.293109E-1,-5.625255E-2,4.162691E-2,-4.5014136E-2,8.363531E-2,-6.362449E-2,3.9648257E-2,9.593525E-2,-3.1368624E-2,-5.2499205E-2,5.3356826E-2,-2.8882606E-2,8.831219E-2,3.7041795E-2,-6.191283E-2,8.420593E-3,-5.2755475E-2,-3.669285E-2,7.9015374E-2,-1.2424081E-2,8.8797204E-2,-4.4387333E-2,2.2864493E-3,9.8221324E-2,-4.228395E-2,2.7959257E-2,1.189685E-1,-3.337115E-2,2.1837043E-2,-1.600341E-2,-6.275567E-2,8.917219E-2,-4.2204853E-2,-4.1166384E-2,1.1029029E-1,-4.1327856E-2,7.1783125E-2,8.2202934E-2,-2.1246194E-3],"categories":[],"categories_nodes":[],"categories_segments":[],"categories_sizes":[],"default_left":[0,0,0,0,0,0,0,0,0,0,0,0,0,0,0,0,0,0,0,0,0,0,0,0,0,0,0,0,0,0,0,0,0,0,0,0,0,0,0,0,0,0,0,0,0,0,0,0,0,0,0,0,0,0,0,0,0,0,0,0,0,0,0,0,0,0,0,0,0,0,0,0,0,0,0,0,0,0,0,0,0,0,0,0,0,0,0],"id":8,"left_children":[1,3,5,7,9,11,13,15,17,19,21,23,25,-1,27,29,31,-1,-1,33,-1,35,37,39,41,43,45,47,49,51,53,55,57,59,61,63,65,67,-1,69,71,73,75,77,79,81,-1,83,85,-1,-1,-1,-1,-1,-1,-1,-1,-1,-1,-1,-1,-1,-1,-1,-1,-1,-1,-1,-1,-1,-1,-1,-1,-1,-1,-1,-1,-1,-1,-1,-1,-1,-1,-1,-1,-1,-1],"loss_changes":[5.853546E1,1.9273804E1,7.0495515E0,6.588669E0,1.0142227E1,4.5807705E0,3.046842E0,6.124481E0,4.0934234E0,6.128994E0,8.924713E0,7.3070087E0,7.3170147E0,0E0,3.2139173E0,5.5003114E0,3.9934082E0,0E0,0E0,6.700937E0,0E0,7.650131E0,8.975846E0,3.324303E0,6.3943176E0,3.009632E0,3.3920045E0,3.0460043E0,1.4087613E0,3.071707E0,2.4622583E0,2.8845987E0,3.844818E0,4.013239E0,2.9378586E0,5.4497004E0,5.5753784E0,4.8322754E0,0E0,2.830965E0,2.6040807E0,5.611781E0,7.816292E0,3.828599E0,2.429658E0,3.4823709E0,0E0,2.1474195E0,1.73528E0,0E0,0E0,0E0,0E0,0E0,0E0,0E0,0E0,0E0,0E0,0E0,0E0,0E0,0E0,0E0,0E0,0E0,0E0,0E0,0E0,0E0,0E0,0E0,0E0,0E0,0E0,0E0,0E0,0E0,0E0,0E0,0E0,0E0,0E0,0E0,0E0,0E0,0E0],"parents":[2147483647,0,0,1,1,2,2,3,3,4,4,5,5,6,6,7,7,8,8,9,9,10,10,11,11,12,12,14,14,15,15,16,16,19,19,21,21,22,22,23,23,24,24,25,25,26,26,27,27,28,28,29,29,30,30,31,31,32,32,33,33,34,34,35,35,36,36,37,37,39,39,40,40,41,41,42,42,43,43,44,44,45,45,47,47,48,48],"right_children":[2,4,6,8,10,12,14,16,18,20,22,24,26,-1,28,30,32,-1,-1,34,-1,36,38,40,42,44,46,48,50,52,54,56,58,60,62,64,66,68,-1,70,72,74,76,78,80,82,-1,84,86,-1,-1,-1,-1,-1,-1,-1,-1,-1,-1,-1,-1,-1,-1,-1,-1,-1,-1,-1,-1,-1,-1,-1,-1,-1,-1,-1,-1,-1,-1,-1,-1,-1,-1,-1,-1,-1,-1],"split_conditions":[8.447E2,4.660294E2,7.1340753E2,2.387307E3,-7.041404E2,-1.5175298E2,3.687938E2,2.41909E1,9.385848E-2,9.996434E4,1.6254196E3,2.2424026E0,4.113273E2,-5.3174753E-2,8.33714E1,9.11828E4,5.900214E4,-4.856531E-2,1.0261951E-1,1.0795629E3,-6.187242E-2,8.704589E1,9.866851E4,1.20754E3,9.096803E4,1.2130793E5,9.2919716E1,2.2303495E1,2.0319412E0,9.059608E1,-1.4275504E2,4.161106E-1,1.2130793E5,5.9655E4,-2.8128675E1,2.9250968E-1,4.113273E2,8.1683445E4,-6.313288E-2,1.3615688E3,4.179865E2,8.547727E4,-1.0183205E2,1.087215E5,1.00893E3,8.152256E1,-4.6077803E-2,3.2970764E1,6.842E2,-5.625255E-2,4.162691E-2,-4.5014136E-2,8.363531E-2,-6.362449E-2,3.9648257E-2,9.593525E-2,-3.1368624E-2,-5.2499205E-2,5.3356826E-2,-2.8882606E-2,8.831219E-2,3.7041795E-2,-6.191283E-2,8.420593E-3,-5.2755475E-2,-3.669285E-2,7.9015374E-2,-1.2424081E-2,8.8797204E-2,-4.4387333E-2,2.2864493E-3,9.8221324E-2,-4.228395E-2,2.7959257E-2,1.189685E-1,-3.337115E-2,2.1837043E-2,-1.600341E-2,-6.275567E-2,8.917219E-2,-4.2204853E-2,-4.1166384E-2,1.1029029E-1,-4.1327856E-2,7.1783125E-2,8.2202934E-2,-2.1246194E-3],"split_indices":[29,45,84,79,2,2,53,0,85,63,83,19,3,0,16,6,13,0,0,17,0,74,12,26,4,4,16,64,33,74,1,33,4,44,3,85,3,18,0,73,84,59,3,60,26,15,0,15,28,0,0,0,0,0,0,0,0,0,0,0,0,0,0,0,0,0,0,0,0,0,0,0,0,0,0,0,0,0,0,0,0,0,0,0,0,0,0],"split_type":[0,0,0,0,0,0,0,0,0,0,0,0,0,0,0,0,0,0,0,0,0,0,0,0,0,0,0,0,0,0,0,0,0,0,0,0,0,0,0,0,0,0,0,0,0,0,0,0,0,0,0,0,0,0,0,0,0,0,0,0,0,0,0,0,0,0,0,0,0,0,0,0,0,0,0,0,0,0,0,0,0,0,0,0,0,0,0],"sum_hessian":[2.9654932E3,2.364646E3,6.008472E2,1.00979584E3,1.3548501E3,5.639929E2,3.6854275E1,1.00390155E3,5.8942666E0,3.7726784E1,1.3171233E3,2.3121402E2,3.3277893E2,2.6025865E0,3.425169E1,2.0492247E1,9.834093E2,2.1065621E0,3.7877045E0,3.105199E1,6.6747937E0,1.2889292E3,2.8194122E1,6.538427E1,1.6582974E2,3.2208002E2,1.0698888E1,2.9479774E1,4.771915E0,9.146764E0,1.1345483E1,5.386793E0,9.780225E2,2.0293303E1,1.0758688E1,8.353591E1,1.2053933E3,2.0267101E1,7.9270215E0,6.12522E1,4.13207E0,6.123687E1,1.0459288E2,3.17101E2,4.979004E0,8.978418E0,1.720469E0,5.7951493E0,2.3684626E1,3.4302266E0,1.3416883E0,1.6877812E0,7.4589825E0,9.095173E0,2.2503104E0,2.3144069E0,3.0723863E0,9.7533496E2,2.6875286E0,2.9781525E0,1.7315151E1,4.0761847E0,6.6825027E0,6.59134E1,1.7622513E1,1.2021154E3,3.2778971E0,6.6302395E0,1.3636861E1,4.29322E1,1.8320002E1,2.8128197E0,1.3192503E0,5.426615E1,6.970718E0,4.1953E1,6.263988E1,2.9931796E2,1.7783052E1,3.661406E0,1.3175976E0,1.2940984E0,7.6843204E0,4.3413424E0,1.4538069E0,2.0995739E1,2.6888866E0],"tree_param":{"num_deleted":"0","num_feature":"86","num_nodes":"87","size_leaf_vector":"1"}},{"base_weights":[-5.609538E-1,2.458643E-2,-5.711325E-1,-4.0379035E-1,2.0816204E-1,-5.9775114E-1,-4.3624878E-1,4.988333E-2,-5.7440895E-1,-2.5394076E-2,8.172244E-1,-6.266908E-1,-5.455799E-1,-3.4112254E-1,-5.3179294E-1,3.664098E-3,-6.4362675E-2,4.2939132E-1,-4.404114E-1,9.7120725E-2,-5.244462E-3,-3.1900677E-1,-6.300097E-1,-5.9813297E-1,-4.736487E-1,-4.6538943E-1,-1.339632E-1,7.543448E-2,-5.6818366E-1,7.04207E-1,-5.085767E-2,-6.313599E-2,2.8787175E-1,9.30264E-2,-5.7368773E-1,-6.317698E-1,-1.417491E-1,-4.5714512E-2,-6.069274E-1,-4.108939E-1,-6.2668157E-1,-1.4621347E-1,-5.253301E-1,-2.1006662E-1,4.1360903E-1,5.121522E-1,-5.805544E-2,-6.0256714E-1,-3.5132755E-2,-3.898038E-2,8.952057E-2,7.569902E-2,-3.6809336E-2,-6.351553E-2,7.817725E-3,3.0100753E-3,-6.329908E-2,-5.5105932E-2,5.991427E-2,-5.6576855E-2,8.9497074E-2,3.9259266E-2,-6.1076816E-2,3.7799105E-3,-4.4099506E-2,-6.538589E-2,-1.0237995E-3,4.7843482E-2,-6.411029E-2,-5.7050637E-3,-5.712098E-2,1.5030493E-4,-4.99336E-2,9.623175E-2,-5.4710235E-2,-3.3493266E-3,1.11676715E-1,4.901816E-2,-6.12019E-2,3.3656914E-2,-5.877312E-2],"categories":[],"categories_nodes":[],"categories_segments":[],"categories_sizes":[],"default_left":[0,0,0,0,0,0,0,0,0,0,0,0,0,0,0,0,0,0,0,0,0,0,0,0,0,0,0,0,0,0,0,0,0,0,0,0,0,0,0,0,0,0,0,0,0,0,0,0,0,0,0,0,0,0,0,0,0,0,0,0,0,0,0,0,0,0,0,0,0,0,0,0,0,0,0,0,0,0,0,0,0],"id":9,"left_children":[1,3,5,7,9,11,13,-1,15,17,19,21,23,25,27,-1,-1,29,31,-1,-1,33,35,37,39,41,43,45,47,49,-1,-1,51,-1,53,55,57,59,61,63,65,67,69,71,73,75,-1,77,79,-1,-1,-1,-1,-1,-1,-1,-1,-1,-1,-1,-1,-1,-1,-1,-1,-1,-1,-1,-1,-1,-1,-1,-1,-1,-1,-1,-1,-1,-1,-1,-1],"loss_changes":[1.6499817E1,3.8760884E0,9.500916E0,2.566647E0,4.916289E0,3.0823364E0,3.925026E0,0E0,5.698972E-1,5.067329E0,1.3323913E0,1.2818604E0,2.8048553E0,5.837734E0,4.984356E0,0E0,0E0,3.6674643E0,2.1296794E0,0E0,0E0,6.108539E0,1.144104E0,2.2471008E0,3.100731E0,2.6561985E0,3.7264676E0,4.1724644E0,3.8478317E0,2.5113297E0,0E0,0E0,1.385387E0,0E0,6.5762377E-1,1.1748047E0,2.284759E0,4.625008E0,2.00885E0,3.405304E0,1.6651306E0,7.717107E0,2.543003E0,4.734271E0,6.3220954E0,2.891676E0,0E0,2.3475418E0,3.043288E0,0E0,0E0,0E0,0E0,0E0,0E0,0E0,0E0,0E0,0E0,0E0,0E0,0E0,0E0,0E0,0E0,0E0,0E0,0E0,0E0,0E0,0E0,0E0,0E0,0E0,0E0,0E0,0E0,0E0,0E0,0E0,0E0],"parents":[2147483647,0,0,1,1,2,2,3,3,4,4,5,5,6,6,8,8,9,9,10,10,11,11,12,12,13,13,14,14,17,17,18,18,21,21,22,22,23,23,24,24,25,25,26,26,27,27,28,28,29,29,32,32,34,34,35,35,36,36,37,37,38,38,39,39,40,40,41,41,42,42,43,43,44,44,45,45,47,47,48,48],"right_children":[2,4,6,8,10,12,14,-1,16,18,20,22,24,26,28,-1,-1,30,32,-1,-1,34,36,38,40,42,44,46,48,50,-1,-1,52,-1,54,56,58,60,62,64,66,68,70,72,74,76,-1,78,80,-1,-1,-1,-1,-1,-1,-1,-1,-1,-1,-1,-1,-1,-1,-1,-1,-1,-1,-1,-1,-1,-1,-1,-1,-1,-1,-1,-1,-1,-1,-1,-1],"split_conditions":[-1.0782213E3,1.7730094E3,1.2084191E3,-1.1583474E-2,3.9524426E1,7.374835E2,9.384271E4,4.988333E-2,1.0960807E3,8.775391E4,1.396916E-2,-6.2581414E4,6.5404956E2,7.6592017E2,-9.182565E3,3.664098E-3,-6.4362675E-2,5.9256268E1,1.7902566E3,9.7120725E-2,-5.244462E-3,2.16865E2,8.4985E2,5.5276758E4,3.408059E2,3.5910272E2,2.0353239E3,1.4893672E3,4.9364783E2,9.81E1,-5.085767E-2,-6.313599E-2,3.0638155E1,9.30264E-2,9.401359E-3,-3.9404068E2,1.7374915E-1,5.3935195E4,3.5097794E2,2.7180012E1,9.6902716E2,6.032998E4,-1.0581284E-2,9.096803E4,2.5796664E2,4.537896E1,-5.805544E-2,2.3902663E2,7.3566146E-2,-3.898038E-2,8.952057E-2,7.569902E-2,-3.6809336E-2,-6.351553E-2,7.817725E-3,3.0100753E-3,-6.329908E-2,-5.5105932E-2,5.991427E-2,-5.6576855E-2,8.9497074E-2,3.9259266E-2,-6.1076816E-2,3.7799105E-3,-4.4099506E-2,-6.538589E-2,-1.0237995E-3,4.7843482E-2,-6.411029E-2,-5.7050637E-3,-5.712098E-2,1.5030493E-4,-4.99336E-2,9.623175E-2,-5.4710235E-2,-3.3493266E-3,1.11676715E-1,4.901816E-2,-6.12019E-2,3.3656914E-2,-5.877312E-2],"split_indices":[2,81,73,21,70,73,63,0,17,4,22,20,83,83,20,0,0,15,73,0,0,79,27,9,84,24,73,73,82,26,0,0,0,0,22,3,85,6,77,0,76,6,21,4,80,70,0,78,7,0,0,0,0,0,0,0,0,0,0,0,0,0,0,0,0,0,0,0,0,0,0,0,0,0,0,0,0,0,0,0,0],"split_type":[0,0,0,0,0,0,0,0,0,0,0,0,0,0,0,0,0,0,0,0,0,0,0,0,0,0,0,0,0,0,0,0,0,0,0,0,0,0,0,0,0,0,0,0,0,0,0,0,0,0,0,0,0,0,0,0,0,0,0,0,0,0,0,0,0,0,0,0,0,0,0,0,0,0,0,0,0,0,0,0,0],"sum_hessian":[2.7650417E3,4.7220467E1,2.7178213E3,1.3805504E1,3.3414963E1,2.267007E3,4.5081418E2,1.8889129E0,1.1916591E1,2.4845722E1,8.569242E0,1.4510753E3,8.159318E2,2.2819135E2,2.2262283E2,1.2604115E0,1.0656179E1,1.1838352E1,1.300737E1,7.1810203E0,1.3882208E0,1.652188E1,1.4345535E3,4.6724588E2,3.4868594E2,1.4185281E2,8.633855E1,1.2526619E1,2.100962E2,9.348539E0,2.4898124E0,1.0410838E1,2.5965326E0,2.3486295E0,1.417325E1,1.429108E3,5.445397E0,7.4190555E0,4.598268E2,2.4989532E2,9.879063E1,2.2971592E1,1.1888122E2,7.634432E1,9.994222E0,7.6517887E0,4.8748307E0,1.97243E2,1.2853212E1,1.2348189E0,8.113721E0,1.4240807E0,1.1724519E0,1.2975373E1,1.1978767E0,2.5880058E0,1.42652E3,3.6726437E0,1.7727532E0,5.0343776E0,2.384678E0,1.3727081E0,4.584541E2,1.5694525E1,2.342008E2,9.456099E1,4.229636E0,1.0169244E1,1.2802348E1,1.0808252E1,1.0807296E2,4.4668728E1,3.1675596E1,6.3600307E0,3.634191E0,4.5185485E0,3.13324E0,1.2552855E0,1.9598772E2,7.9180913E0,4.935121E0],"tree_param":{"num_deleted":"0","num_feature":"86","num_nodes":"81","size_leaf_vector":"1"}},{"base_weights":[7.15145E-1,8.1605285E-1,5.021533E-1,8.95392E-1,7.323897E-1,5.609833E-1,1.996519E-1,8.9909226E-1,-5.4596227E-2,5.012133E-1,7.624196E-1,6.0879844E-1,2.7911302E-1,-2.9769158E-1,2.7100572E-1,6.213798E-1,9.144547E-1,-9.3230836E-2,5.9137374E-1,8.1358325E-1,5.9839505E-1,2.863217E-1,6.4191747E-1,1.5200113E-1,7.2688115E-1,-6.1880094E-1,2.3120251E-1,3.7669593E-1,1.1426739E-2,2.8061372E-1,7.691146E-1,9.165623E-1,-2.0301735E-2,-3.9758915E-1,5.4989004E-1,-9.061738E-2,6.489842E-1,8.298289E-1,3.9848047E-1,6.361903E-1,6.131573E-2,6.3016015E-1,9.284207E-2,5.180388E-1,7.047094E-1,3.567717E-1,-1.3906208E-1,1.0782315E-2,9.129367E-1,2.7240547E-3,-6.8251476E-2,-2.944706E-1,7.9538655E-1,5.620082E-1,4.0606745E-2,-4.1360635E-1,2.9991794E-1,-2.9516125E-2,6.0809877E-2,8.416742E-2,-1.5571546E-3,4.026289E-2,9.210469E-2,-5.8504738E-2,4.3847214E-2,6.7528716E-4,8.756493E-2,8.319603E-2,-6.0956564E-2,-5.653226E-2,6.769858E-2,8.533015E-2,5.5654477E-2,6.924071E-2,-9.7254495E-4,5.3955663E-2,9.098644E-2,3.9312657E-2,-5.2189507E-2,-3.1737473E-2,7.378392E-2,1.1181774E-3,9.148186E-2,6.701819E-2,2.9050345E-2,9.595477E-2,6.605198E-2,4.8567105E-2,-1.5764227E-2,-3.659116E-2,4.9200397E-2,8.1420235E-2,-4.4555712E-2,1.2483184E-2,1.0778153E-1,-5.9884727E-2,3.6519766E-2,9.171496E-2,3.0529002E-2,1.7750598E-2,7.6396964E-2,-3.9876882E-2,2.3006942E-2,-6.8446666E-2,2.2898216E-3,7.008813E-2,-4.296905E-3],"categories":[],"categories_nodes":[],"categories_segments":[],"categories_sizes":[],"default_left":[0,0,0,0,0,0,0,0,0,0,0,0,0,0,0,0,0,0,0,0,0,0,0,0,0,0,0,0,0,0,0,0,0,0,0,0,0,0,0,0,0,0,0,0,0,0,0,0,0,0,0,0,0,0,0,0,0,0,0,0,0,0,0,0,0,0,0,0,0,0,0,0,0,0,0,0,0,0,0,0,0,0,0,0,0,0,0,0,0,0,0,0,0,0,0,0,0,0,0,0,0,0,0,0,0,0,0],"id":10,"left_children":[1,3,5,7,9,11,13,15,-1,17,19,21,23,25,27,29,31,33,35,37,39,41,43,45,47,49,51,53,55,57,59,61,-1,63,65,67,69,71,73,75,77,79,81,83,85,87,89,91,93,-1,-1,95,97,99,101,103,105,-1,-1,-1,-1,-1,-1,-1,-1,-1,-1,-1,-1,-1,-1,-1,-1,-1,-1,-1,-1,-1,-1,-1,-1,-1,-1,-1,-1,-1,-1,-1,-1,-1,-1,-1,-1,-1,-1,-1,-1,-1,-1,-1,-1,-1,-1,-1,-1,-1,-1],"loss_changes":[7.263367E1,1.4640625E1,1.9376862E1,6.7752075E0,7.442627E0,1.2179108E1,6.463195E0,4.4474487E0,0E0,7.156643E0,7.8687134E0,8.173706E0,7.5581493E0,4.056447E0,4.3252296E0,3.0436592E0,2.8048706E0,3.8033948E0,4.5845337E0,4.768402E0,4.843033E0,4.910116E0,5.148712E0,6.379718E0,3.9241304E0,6.199517E-1,3.0317852E0,6.959996E0,5.8495455E0,4.168443E0,2.5519314E0,2.187378E0,0E0,2.2957535E0,1.109222E0,5.222991E0,3.9984894E0,4.1868286E0,3.654419E0,5.4485626E0,3.4792252E0,2.960493E0,3.2765312E0,8.190239E0,4.6322327E0,4.2291603E0,6.5621767E0,2.9663744E0,2.9093857E0,0E0,0E0,1.345699E0,7.6384544E-3,5.470394E0,3.4986103E0,2.2974815E0,3.933897E0,0E0,0E0,0E0,0E0,0E0,0E0,0E0,0E0,0E0,0E0,0E0,0E0,0E0,0E0,0E0,0E0,0E0,0E0,0E0,0E0,0E0,0E0,0E0,0E0,0E0,0E0,0E0,0E0,0E0,0E0,0E0,0E0,0E0,0E0,0E0,0E0,0E0,0E0,0E0,0E0,0E0,0E0,0E0,0E0,0E0,0E0,0E0,0E0,0E0,0E0],"parents":[2147483647,0,0,1,1,2,2,3,3,4,4,5,5,6,6,7,7,9,9,10,10,11,11,12,12,13,13,14,14,15,15,16,16,17,17,18,18,19,19,20,20,21,21,22,22,23,23,24,24,25,25,26,26,27,27,28,28,29,29,30,30,31,31,33,33,34,34,35,35,36,36,37,37,38,38,39,39,40,40,41,41,42,42,43,43,44,44,45,45,46,46,47,47,48,48,51,51,52,52,53,53,54,54,55,55,56,56],"right_children":[2,4,6,8,10,12,14,16,-1,18,20,22,24,26,28,30,32,34,36,38,40,42,44,46,48,50,52,54,56,58,60,62,-1,64,66,68,70,72,74,76,78,80,82,84,86,88,90,92,94,-1,-1,96,98,100,102,104,106,-1,-1,-1,-1,-1,-1,-1,-1,-1,-1,-1,-1,-1,-1,-1,-1,-1,-1,-1,-1,-1,-1,-1,-1,-1,-1,-1,-1,-1,-1,-1,-1,-1,-1,-1,-1,-1,-1,-1,-1,-1,-1,-1,-1,-1,-1,-1,-1,-1,-1],"split_conditions":[6.3272E2,5.336798E2,1.5510778E-2,2.1746462E3,1.6634633E2,1.40603E3,5.987505E4,-1.4008003E2,-5.4596227E-2,5.860531E4,1.1200765E3,3.0128315E-1,4.10171E2,-6.227969E2,6.4380936E1,9.557721E1,1.19133E5,1.8604E2,3.4734543E1,3.168E2,1.2635259E3,2.7395E2,-1.171028E2,7.8236914E2,8.74208E4,1.855E1,1.1726226E3,2.1079143E3,5.88788E2,2.0000203E2,6.28705E-2,-8.1634566E-2,-2.0301735E-2,1.5166302E2,5.962684E4,1.0612549E-2,-5.162096E2,1.3550089E2,9.079935E2,7.3088715E2,1.966E2,2.0318156E-2,8.032259E2,3.2581595E-1,3.6963214E2,2.212679E2,1.2832483E3,4.4326536E-2,5.773665E2,2.7240547E-3,-6.8251476E-2,6.455E2,1.3456885E3,3.3794006E1,2.284141E2,8.68947E4,1.2603287E3,-2.9516125E-2,6.0809877E-2,8.416742E-2,-1.5571546E-3,4.026289E-2,9.210469E-2,-5.8504738E-2,4.3847214E-2,6.7528716E-4,8.756493E-2,8.319603E-2,-6.0956564E-2,-5.653226E-2,6.769858E-2,8.533015E-2,5.5654477E-2,6.924071E-2,-9.7254495E-4,5.3955663E-2,9.098644E-2,3.9312657E-2,-5.2189507E-2,-3.1737473E-2,7.378392E-2,1.1181774E-3,9.148186E-2,6.701819E-2,2.9050345E-2,9.595477E-2,6.605198E-2,4.8567105E-2,-1.5764227E-2,-3.659116E-2,4.9200397E-2,8.1420235E-2,-4.4555712E-2,1.2483184E-2,1.0778153E-1,-5.9884727E-2,3.6519766E-2,9.171496E-2,3.0529002E-2,1.7750598E-2,7.6396964E-2,-3.9876882E-2,2.3006942E-2,-6.8446666E-2,2.2898216E-3,7.008813E-2,-4.296905E-3],"split_indices":[29,49,25,83,76,29,52,3,0,6,73,33,68,65,19,74,62,26,84,27,83,27,71,83,50,27,73,79,78,78,7,8,0,76,4,7,2,80,73,17,27,7,65,66,77,2,57,7,75,0,0,26,49,15,82,12,77,0,0,0,0,0,0,0,0,0,0,0,0,0,0,0,0,0,0,0,0,0,0,0,0,0,0,0,0,0,0,0,0,0,0,0,0,0,0,0,0,0,0,0,0,0,0,0,0,0,0],"split_type":[0,0,0,0,0,0,0,0,0,0,0,0,0,0,0,0,0,0,0,0,0,0,0,0,0,0,0,0,0,0,0,0,0,0,0,0,0,0,0,0,0,0,0,0,0,0,0,0,0,0,0,0,0,0,0,0,0,0,0,0,0,0,0,0,0,0,0,0,0,0,0,0,0,0,0,0,0,0,0,0,0,0,0,0,0,0,0,0,0,0,0,0,0,0,0,0,0,0,0,0,0,0,0,0,0,0,0],"sum_hessian":[3.3975474E3,2.303432E3,1.0941155E3,1.1772885E3,1.1261433E3,9.152621E2,1.7885335E2,1.174649E3,2.639381E0,1.3150229E2,9.946411E2,7.8152765E2,1.3373448E2,2.2042536E1,1.568108E2,6.3745525E1,1.1109036E3,1.7313984E1,1.141883E2,7.551344E2,2.3950667E2,7.3687225E1,7.078404E2,1.052077E2,2.8526775E1,1.3609663E1,8.432874E0,1.1111714E2,4.569366E1,2.0155098E1,4.3590427E1,1.1089917E3,1.911846E0,1.2011363E1,5.3026214E0,8.849941E0,1.05338356E2,7.257326E2,2.9401789E1,2.2358786E2,1.5918809E1,2.5720882E1,4.7966343E1,2.4121364E2,4.6662674E2,6.1626263E1,4.3581444E1,6.1013966E0,2.2425379E1,1.2731102E0,1.2336553E1,4.6129036E0,3.8199701E0,7.1191505E1,3.9925644E1,1.8299452E1,2.7394207E1,7.343197E0,1.28119E1,3.983434E1,3.7560894E0,1.0378562E1,1.0986132E3,1.0056721E1,1.9546425E0,2.3706968E0,2.9319246E0,2.968833E0,5.8811083E0,1.9418069E0,1.0339655E2,6.663748E2,5.935784E1,1.6688848E1,1.2712939E1,1.6743759E2,5.615027E1,1.035397E1,5.5648403E0,2.4259565E0,2.3294926E1,4.4553703E1,3.4126408E0,1.4338972E2,9.782392E1,6.589586E1,4.007309E2,4.9323017E1,1.2303245E1,3.2366734E1,1.121471E1,1.9261178E0,4.1752787E0,4.1838875E0,1.8241491E1,3.2195668E0,1.3933365E0,2.3618178E0,1.458152E0,2.5163378E1,4.6028126E1,1.1696351E1,2.8229292E1,1.0941781E1,7.35767E0,1.2146425E1,1.5247783E1],"tree_param":{"num_deleted":"0","num_feature":"86","num_nodes":"107","size_leaf_vector":"1"}},{"base_weights":[-3.0335212E-1,-3.716751E-1,-4.0410955E-2,-4.9382254E-1,-3.0629453E-1,-7.73494E-2,2.513094E-1,-1.3720113E-1,-5.152315E-1,-1.9630362E-1,-3.6788285E-1,-1.8154001E-1,2.5009396E-2,7.476758E-1,2.3729606E-2,3.2519844E-1,-2.9280224E-1,-5.195061E-1,5.9346832E-2,-2.5809118E-1,3.1297114E-2,-3.8626269E-1,3.5980964E-1,5.9491444E-1,-2.0900838E-1,-4.0697254E-2,3.827325E-1,2.7659357E-1,9.411712E-1,-4.905076E-1,3.7280786E-1,-5.3420823E-2,6.963805E-1,7.235443E-2,-3.6245233E-1,3.5757935E-1,-5.237238E-1,-3.2378232E-1,7.210297E-3,6.768481E-1,-4.228128E-2,-3.9266354E-1,7.279217E-1,-1.7823155E-1,6.827748E-1,-2.2755401E-2,8.9320505E-1,-1.6487125E-1,-5.6783247E-1,3.2888222E-1,-1.467595E-1,5.576391E-1,-1.9000247E-1,9.35215E-2,-5.4630596E-2,1.15558766E-1,3.210631E-1,1.9040558E-1,-6.269677E-1,1.268571E-1,1.3865955E-1,1.323594E-1,-1.1273172E-3,1.8753773E-2,-4.957519E-2,8.4247835E-2,-4.115822E-2,-4.1857E-2,-5.6370564E-2,2.7146036E-2,-3.6110096E-2,-4.5635093E-2,1.3583988E-2,1.1217027E-2,1.2043271E-1,-1.5176504E-2,4.0558405E-2,-1.9026114E-2,-4.184744E-2,-3.953343E-3,9.792077E-2,7.5378716E-2,-4.250882E-2,-2.9744288E-2,9.4636016E-2,1.10686675E-1,-5.633847E-4,-1.178716E-2,-5.7175156E-2,-6.307448E-2,3.569514E-2,7.287857E-2,-7.519E-3,5.9929155E-3,-2.6357463E-2,6.7768864E-2,-3.4453753E-2,8.941215E-2,-4.3857984E-2,-4.6031117E-2,8.488607E-2,-4.6006277E-2,8.675526E-2,-6.831312E-2,1.4736437E-3,-9.911036E-3,7.2020985E-2],"categories":[],"categories_nodes":[],"categories_segments":[],"categories_sizes":[],"default_left":[0,0,0,0,0,0,0,0,0,0,0,0,0,0,0,0,0,0,0,0,0,0,0,0,0,0,0,0,0,0,0,0,0,0,0,0,0,0,0,0,0,0,0,0,0,0,0,0,0,0,0,0,0,0,0,0,0,0,0,0,0,0,0,0,0,0,0,0,0,0,0,0,0,0,0,0,0,0,0,0,0,0,0,0,0,0,0,0,0,0,0,0,0,0,0,0,0,0,0,0,0,0,0,0,0,0,0],"id":11,"left_children":[1,3,5,7,9,11,13,15,17,19,21,23,25,27,29,31,33,35,-1,37,39,41,43,45,47,49,51,53,55,57,59,-1,61,-1,63,65,67,69,71,73,75,77,79,81,83,-1,85,87,89,91,93,95,97,-1,-1,-1,99,101,103,-1,105,-1,-1,-1,-1,-1,-1,-1,-1,-1,-1,-1,-1,-1,-1,-1,-1,-1,-1,-1,-1,-1,-1,-1,-1,-1,-1,-1,-1,-1,-1,-1,-1,-1,-1,-1,-1,-1,-1,-1,-1,-1,-1,-1,-1,-1,-1],"loss_changes":[5.203064E1,1.8212128E1,6.4702077E0,6.0375977E0,1.0091614E1,5.6795406E0,7.6092286E0,3.453271E0,3.8834991E0,7.6119576E0,1.2987869E1,5.7511425E0,6.345417E0,1.6713781E0,8.678208E0,4.271729E0,2.771505E0,2.9691467E0,0E0,7.4156113E0,5.5545254E0,6.9717712E0,4.3241777E0,2.4785511E0,3.9536257E0,9.001765E0,4.301825E0,4.6225667E0,1.5709696E0,1.9375591E0,5.855792E0,0E0,3.9969897E0,0E0,2.5738993E0,1.9106601E0,2.912262E0,7.672146E0,5.154168E0,3.427877E0,5.2285695E0,4.7934265E0,1.1390059E0,2.590025E0,4.2396736E0,0E0,1.3522887E0,4.311198E0,1.8298512E0,8.335022E0,4.317659E0,3.7361708E0,3.2338243E0,0E0,0E0,0E0,2.509438E0,2.175898E0,6.059518E-1,0E0,3.3790712E0,0E0,0E0,0E0,0E0,0E0,0E0,0E0,0E0,0E0,0E0,0E0,0E0,0E0,0E0,0E0,0E0,0E0,0E0,0E0,0E0,0E0,0E0,0E0,0E0,0E0,0E0,0E0,0E0,0E0,0E0,0E0,0E0,0E0,0E0,0E0,0E0,0E0,0E0,0E0,0E0,0E0,0E0,0E0,0E0,0E0,0E0],"parents":[2147483647,0,0,1,1,2,2,3,3,4,4,5,5,6,6,7,7,8,8,9,9,10,10,11,11,12,12,13,13,14,14,15,15,16,16,17,17,19,19,20,20,21,21,22,22,23,23,24,24,25,25,26,26,27,27,28,28,29,29,30,30,32,32,34,34,35,35,36,36,37,37,38,38,39,39,40,40,41,41,42,42,43,43,44,44,46,46,47,47,48,48,49,49,50,50,51,51,52,52,56,56,57,57,58,58,60,60],"right_children":[2,4,6,8,10,12,14,16,18,20,22,24,26,28,30,32,34,36,-1,38,40,42,44,46,48,50,52,54,56,58,60,-1,62,-1,64,66,68,70,72,74,76,78,80,82,84,-1,86,88,90,92,94,96,98,-1,-1,-1,100,102,104,-1,106,-1,-1,-1,-1,-1,-1,-1,-1,-1,-1,-1,-1,-1,-1,-1,-1,-1,-1,-1,-1,-1,-1,-1,-1,-1,-1,-1,-1,-1,-1,-1,-1,-1,-1,-1,-1,-1,-1,-1,-1,-1,-1,-1,-1,-1,-1],"split_conditions":[8.447E2,3.841624E2,2.1968027E3,-1.4008003E2,-7.420839E1,7.9593646E2,8.776888E4,1.9578177E2,2.5769355E3,1.8692749E2,1.6254196E3,-8.978683E-1,3.1990498E4,-3.7755785E4,9.708217E4,4.8E1,2.8785866E1,5.900214E4,5.9346832E-2,5.1223637E1,5.2490594E2,4.113273E2,9.076043E2,2.7471274E2,1.499105E2,6.1796655E2,1.0427812E5,6.581943E2,9.7698617E-1,8.96108E4,9.94281E4,-5.3420823E-2,9.4365234E1,7.235443E-2,-3.4786582E-1,1.5868767E-3,-8.92958E1,-7.041404E2,5.036586E2,4.4590204E2,7.223543E1,-9.038206E-3,9.001285E1,3.4368045E2,7.99996E4,-2.2755401E-2,8.3273425E2,9.780449E-1,9.308376E2,-1.0188692E-1,3.5006718E1,4.9364783E2,6.454292E-3,9.35215E-2,-5.4630596E-2,1.15558766E-1,1.31046E3,8.625957E4,6.143915E2,1.268571E-1,1.5742573E3,1.323594E-1,-1.1273172E-3,1.8753773E-2,-4.957519E-2,8.4247835E-2,-4.115822E-2,-4.1857E-2,-5.6370564E-2,2.7146036E-2,-3.6110096E-2,-4.5635093E-2,1.3583988E-2,1.1217027E-2,1.2043271E-1,-1.5176504E-2,4.0558405E-2,-1.9026114E-2,-4.184744E-2,-3.953343E-3,9.792077E-2,7.5378716E-2,-4.250882E-2,-2.9744288E-2,9.4636016E-2,1.10686675E-1,-5.633847E-4,-1.178716E-2,-5.7175156E-2,-6.307448E-2,3.569514E-2,7.287857E-2,-7.519E-3,5.9929155E-3,-2.6357463E-2,6.7768864E-2,-3.4453753E-2,8.941215E-2,-4.3857984E-2,-4.6031117E-2,8.488607E-2,-4.6006277E-2,8.675526E-2,-6.831312E-2,1.4736437E-3,-9.911036E-3,7.2020985E-2],"split_indices":[29,45,45,3,2,83,62,78,81,82,83,85,20,20,18,28,82,13,0,67,77,3,17,19,80,75,60,17,8,9,4,0,74,0,85,21,1,2,49,57,16,23,16,57,6,0,19,72,1,85,16,82,25,0,0,0,77,6,84,0,74,0,0,0,0,0,0,0,0,0,0,0,0,0,0,0,0,0,0,0,0,0,0,0,0,0,0,0,0,0,0,0,0,0,0,0,0,0,0,0,0,0,0,0,0,0,0],"split_type":[0,0,0,0,0,0,0,0,0,0,0,0,0,0,0,0,0,0,0,0,0,0,0,0,0,0,0,0,0,0,0,0,0,0,0,0,0,0,0,0,0,0,0,0,0,0,0,0,0,0,0,0,0,0,0,0,0,0,0,0,0,0,0,0,0,0,0,0,0,0,0,0,0,0,0,0,0,0,0,0,0,0,0,0,0,0,0,0,0,0,0,0,0,0,0,0,0,0,0,0,0,0,0,0,0,0,0],"sum_hessian":[2.8960703E3,2.2984297E3,5.976406E2,7.9904956E2,1.4993802E3,5.3112317E2,6.651745E1,4.5672096E1,7.533775E2,5.3970514E2,9.5967505E2,2.6282306E2,2.683001E2,2.0192013E1,4.6325436E1,1.1224957E1,3.444714E1,7.5101337E2,2.3641124E0,4.2436682E2,1.153383E2,9.3649066E2,2.3184385E1,8.27427E0,2.5454878E2,2.2741475E2,4.0885353E1,6.586365E0,1.3605647E1,1.856769E1,2.7757748E1,3.2533016E0,7.971656E0,1.6071433E0,3.2839996E1,3.1931772E0,7.478202E2,3.399673E2,8.439954E1,1.0962057E1,1.0437624E2,9.317853E2,4.7054205E0,8.864606E0,1.4319779E1,2.2653158E0,6.008954E0,2.2796718E2,2.658161E1,5.024223E1,1.7717253E2,3.1340643E1,9.54471E0,3.5825353E0,3.00383E0,9.468257E0,4.13739E0,3.0338695E0,1.553382E1,4.836668E0,2.292108E1,3.764593E0,4.207063E0,6.327215E0,2.6512781E1,1.9000299E0,1.2931474E0,2.0916837E2,5.3865186E2,1.968657E1,3.202807E2,1.7778994E1,6.6620544E1,5.8800206E0,5.082037E0,8.44042E1,1.9972048E1,1.0633151E2,8.2545374E2,1.3685114E0,3.3369088E0,1.4262375E0,7.438369E0,3.0074103E0,1.1312369E1,4.6679106E0,1.3410432E0,2.0551714E2,2.2450045E1,2.5186169E1,1.3954407E0,2.4847486E1,2.5394741E1,6.41517E1,1.1302082E2,2.7879625E1,3.4610162E0,1.2959054E0,8.248805E0,1.7195535E0,2.417837E0,1.7109323E0,1.3229373E0,1.4224316E1,1.3095043E0,1.6858124E1,6.0629573E0],"tree_param":{"num_deleted":"0","num_feature":"86","num_nodes":"107","size_leaf_vector":"1"}},{"base_weights":[-5.4038984E-1,2.8090179E-2,-5.505637E-1,-4.6524218E-1,1.7394994E-1,-6.0526234E-1,-4.8410568E-1,3.411007E-2,-6.1784633E-2,-4.6838935E-2,7.4246705E-1,-3.031538E-1,-6.085391E-1,-5.3148913E-1,-3.8552704E-1,7.843718E-2,-2.0999725E-1,-1.2340726E-2,9.2945075E-1,9.005788E-2,-5.559013E-1,-6.1291206E-1,-3.7200916E-1,-5.47665E-1,-3.2640192E-1,8.5530706E-2,-3.9793727E-1,2.3920015E-1,-5.6148046E-1,3.076072E-2,1.0075729E-1,-6.1813336E-2,9.6606435E-3,-6.1469156E-1,-1.3119999E-1,4.7032154E-1,-5.638404E-1,-2.3365556E-1,-5.5824625E-1,4.974381E-1,-4.1765162E-1,-2.8297335E-1,-4.7449204E-1,6.4876996E-2,-3.836479E-2,3.6189302E-3,-6.235969E-2,5.4256744E-3,-6.1533537E-2,5.823485E-2,-5.386373E-2,-3.982025E-2,8.668741E-2,-8.386987E-3,-6.390793E-2,7.001901E-2,-4.3024924E-2,-6.1533518E-2,-5.017888E-2,1.0834923E-1,-2.2980927E-2,-5.0177243E-2,2.4577016E-2,-4.8225787E-2,-8.495438E-3,2.5018767E-2,-4.884153E-2],"categories":[],"categories_nodes":[],"categories_segments":[],"categories_sizes":[],"default_left":[0,0,0,0,0,0,0,0,0,0,0,0,0,0,0,0,0,0,0,0,0,0,0,0,0,0,0,0,0,0,0,0,0,0,0,0,0,0,0,0,0,0,0,0,0,0,0,0,0,0,0,0,0,0,0,0,0,0,0,0,0,0,0,0,0,0,0],"id":12,"left_children":[1,3,5,7,9,11,13,-1,-1,15,17,19,21,23,25,-1,27,-1,29,-1,31,33,35,37,39,-1,41,43,45,-1,-1,-1,-1,47,49,51,53,55,57,59,61,63,65,-1,-1,-1,-1,-1,-1,-1,-1,-1,-1,-1,-1,-1,-1,-1,-1,-1,-1,-1,-1,-1,-1,-1,-1],"loss_changes":[1.5353394E1,3.5045233E0,9.178101E0,1.5802076E0,4.7354517E0,1.2263184E0,5.312744E0,0E0,0E0,3.9504077E0,1.820324E0,5.759308E0,1.229248E0,2.4591064E0,6.301491E0,0E0,3.9429379E0,0E0,1.1664486E-1,0E0,6.649003E-1,1.1037598E0,4.8086634E0,2.3134766E0,4.7638083E0,0E0,3.2449722E0,3.129149E0,5.360861E-1,0E0,0E0,0E0,0E0,6.2609863E-1,2.1617663E0,2.329358E0,7.8988504E-1,5.0190125E0,1.9823456E0,3.01926E0,3.1986551E0,6.11337E0,2.4328156E0,0E0,0E0,0E0,0E0,0E0,0E0,0E0,0E0,0E0,0E0,0E0,0E0,0E0,0E0,0E0,0E0,0E0,0E0,0E0,0E0,0E0,0E0,0E0,0E0],"parents":[2147483647,0,0,1,1,2,2,3,3,4,4,5,5,6,6,9,9,10,10,11,11,12,12,13,13,14,14,16,16,18,18,20,20,21,21,22,22,23,23,24,24,26,26,27,27,28,28,33,33,34,34,35,35,36,36,37,37,38,38,39,39,40,40,41,41,42,42],"right_children":[2,4,6,8,10,12,14,-1,-1,16,18,20,22,24,26,-1,28,-1,30,-1,32,34,36,38,40,-1,42,44,46,-1,-1,-1,-1,48,50,52,54,56,58,60,62,64,66,-1,-1,-1,-1,-1,-1,-1,-1,-1,-1,-1,-1,-1,-1,-1,-1,-1,-1,-1,-1,-1,-1,-1,-1],"split_conditions":[-1.0782213E3,1.6804884E3,7.5591833E2,-1.1583474E-2,3.9524426E1,-6.2581414E4,2.058E2,3.411007E-2,-6.1784633E-2,1.7492702E1,3.4787784E2,2.16865E2,1.5617852E3,8.931142E1,5.5216305E4,7.843718E-2,8.746688E4,-1.2340726E-2,5.404917E4,9.005788E-2,3.3198362E-3,8.4985E2,-4.6590802E-1,1.5166302E2,6.674683E2,8.5530706E-2,9.080211E4,5.5794244E2,1.0129558E-1,3.076072E-2,1.0075729E-1,-6.1813336E-2,9.6606435E-3,-3.9404068E2,1.958027E2,6.370279E-2,-1.2072256E-2,7.771687E2,8.8148695E-1,1.0145719E0,1.5729603E3,6.646131E2,-2.484358E-1,6.4876996E-2,-3.836479E-2,3.6189302E-3,-6.235969E-2,5.4256744E-3,-6.1533537E-2,5.823485E-2,-5.386373E-2,-3.982025E-2,8.668741E-2,-8.386987E-3,-6.390793E-2,7.001901E-2,-4.3024924E-2,-6.1533518E-2,-5.017888E-2,1.0834923E-1,-2.2980927E-2,-5.0177243E-2,2.4577016E-2,-4.8225787E-2,-8.495438E-3,2.5018767E-2,-4.884153E-2],"split_indices":[2,81,73,21,70,20,27,0,0,0,84,79,24,16,18,0,4,0,44,0,21,27,85,76,77,0,46,78,8,0,0,0,0,3,61,7,23,73,34,69,77,81,66,0,0,0,0,0,0,0,0,0,0,0,0,0,0,0,0,0,0,0,0,0,0,0,0],"split_type":[0,0,0,0,0,0,0,0,0,0,0,0,0,0,0,0,0,0,0,0,0,0,0,0,0,0,0,0,0,0,0,0,0,0,0,0,0,0,0,0,0,0,0,0,0,0,0,0,0,0,0,0,0,0,0,0,0,0,0,0,0,0,0,0,0,0,0],"sum_hessian":[2.650974E3,4.6578117E1,2.604396E3,1.0129178E1,3.6448936E1,1.424141E3,1.180255E3,1.415363E0,8.713815E0,2.6914179E1,9.534759E0,1.6284605E1,1.4078564E3,7.9414465E2,3.8611035E2,3.7914078E0,2.3122772E1,1.7537224E0,7.781036E0,2.3811255E0,1.3903481E1,1.3807383E3,2.7118128E1,7.3453876E2,5.9605846E1,3.1508808E0,3.8295947E2,1.0290682E1,1.283209E1,1.4194993E0,6.3615365E0,1.2741004E1,1.1624761E0,1.3753815E3,5.356809E0,4.760969E0,2.2357159E1,2.46975E1,7.098413E2,5.4998174E0,5.410603E1,1.5495564E2,2.2800381E2,6.1831646E0,4.1075172E0,1.2473905E0,1.15847E1,1.2423546E0,1.3741392E3,1.7909706E0,3.5658386E0,1.491075E0,3.269894E0,3.3162932E0,1.9040865E1,3.8496327E0,2.0847868E1,3.480249E2,3.6181638E2,2.7742925E0,2.725525E0,4.823373E1,5.8722982E0,7.651561E1,7.844003E1,3.9781642E0,2.2402565E2],"tree_param":{"num_deleted":"0","num_feature":"86","num_nodes":"67","size_leaf_vector":"1"}},{"base_weights":[6.5109843E-1,7.4318975E-1,4.568781E-1,8.168214E-1,6.6584706E-1,5.5672276E-1,3.10645E-1,8.261108E-1,2.4054095E-1,4.501111E-1,6.9382286E-1,-1.8792838E-1,5.7632333E-1,6.444439E-2,4.2059076E-1,8.297593E-1,-1.2591997E-1,-6.7264274E-2,5.581589E-1,-1.05517976E-1,5.3384846E-1,7.4107957E-1,5.4235756E-1,-3.5821703E-1,7.8253224E-2,5.159461E-1,7.6795536E-1,4.876201E-1,-6.7153625E-2,4.584345E-1,-1.5277528E-2,8.329558E-1,-9.001342E-3,-6.04417E-2,6.6610865E-2,-2.81611E-1,8.9000416E-1,-3.972239E-1,5.0556165E-1,-1.0627319E-1,5.876094E-1,9.4547975E-1,7.0996624E-1,4.244758E-1,7.1477383E-1,6.958034E-2,-5.163707E-1,-1.04885384E-1,5.342024E-1,-5.2775353E-2,7.8419644E-1,6.2296116E-1,-4.482637E-1,7.728234E-1,-1.264561E-1,-3.412678E-1,4.8324814E-1,9.289131E-2,-1.7374648E-1,9.682771E-2,8.127489E-2,6.9296755E-2,-6.221686E-2,-5.8824755E-2,3.0421818E-2,9.49817E-2,2.8156001E-2,8.950846E-3,-7.377809E-2,-1.0964249E-3,8.194231E-2,7.7531844E-2,-6.0370404E-2,-5.528911E-2,6.1363697E-2,9.6360646E-2,4.5498493E-3,7.258391E-2,3.5622995E-2,5.714455E-2,1.0042082E-2,7.743134E-2,-8.386262E-3,-1.5448439E-2,-6.8033926E-2,-5.400884E-2,6.5638766E-2,5.4140892E-2,-6.1411995E-2,-4.521877E-3,8.1224866E-2,8.164403E-3,8.117399E-2,-5.9545487E-2,-5.360441E-3,-5.335566E-3,9.764362E-2,-3.526029E-2,1.2024973E-2,6.325173E-2,-6.1164733E-2,6.9475636E-2,3.6920674E-2,-3.928224E-2,6.293105E-2],"categories":[],"categories_nodes":[],"categories_segments":[],"categories_sizes":[],"default_left":[0,0,0,0,0,0,0,0,0,0,0,0,0,0,0,0,0,0,0,0,0,0,0,0,0,0,0,0,0,0,0,0,0,0,0,0,0,0,0,0,0,0,0,0,0,0,0,0,0,0,0,0,0,0,0,0,0,0,0,0,0,0,0,0,0,0,0,0,0,0,0,0,0,0,0,0,0,0,0,0,0,0,0,0,0,0,0,0,0,0,0,0,0,0,0,0,0,0,0,0,0,0,0,0,0],"id":13,"left_children":[1,3,5,7,9,11,13,15,17,19,21,23,25,27,29,31,33,-1,35,37,39,41,43,45,-1,47,49,51,53,55,57,59,61,-1,-1,63,65,67,69,71,73,75,77,79,81,-1,83,85,87,-1,89,91,93,95,97,99,101,-1,103,-1,-1,-1,-1,-1,-1,-1,-1,-1,-1,-1,-1,-1,-1,-1,-1,-1,-1,-1,-1,-1,-1,-1,-1,-1,-1,-1,-1,-1,-1,-1,-1,-1,-1,-1,-1,-1,-1,-1,-1,-1,-1,-1,-1,-1,-1],"loss_changes":[6.1053467E1,1.2707031E1,1.5984604E1,6.1588745E0,6.5693665E0,9.688278E0,1.2188293E1,4.162781E0,6.2489805E0,6.278557E0,6.8094482E0,3.1868262E0,7.0061035E0,7.8566947E0,5.149784E0,3.128296E0,2.4221041E0,0E0,4.5899315E0,3.4718091E0,4.067631E0,4.194916E0,4.641884E0,2.9678037E0,0E0,5.604538E0,3.5963364E0,4.5158334E0,5.4797873E0,5.8581314E0,4.032962E0,2.38385E0,2.759073E0,0E0,0E0,1.1076767E0,1.4749146E-1,2.2177346E0,1.0415442E0,4.7937717E0,3.5309334E0,1.556076E0,3.4926758E0,6.9423943E0,4.693527E0,0E0,7.3634505E-1,5.264572E0,4.269287E0,0E0,3.5212402E0,2.9626284E0,2.4734336E-1,1.2743297E0,5.7208967E0,2.8145447E0,6.4655533E0,0E0,4.2934175E0,0E0,0E0,0E0,0E0,0E0,0E0,0E0,0E0,0E0,0E0,0E0,0E0,0E0,0E0,0E0,0E0,0E0,0E0,0E0,0E0,0E0,0E0,0E0,0E0,0E0,0E0,0E0,0E0,0E0,0E0,0E0,0E0,0E0,0E0,0E0,0E0,0E0,0E0,0E0,0E0,0E0,0E0,0E0,0E0,0E0,0E0],"parents":[2147483647,0,0,1,1,2,2,3,3,4,4,5,5,6,6,7,7,8,8,9,9,10,10,11,11,12,12,13,13,14,14,15,15,16,16,18,18,19,19,20,20,21,21,22,22,23,23,25,25,26,26,27,27,28,28,29,29,30,30,31,31,32,32,35,35,36,36,37,37,38,38,39,39,40,40,41,41,42,42,43,43,44,44,46,46,47,47,48,48,50,50,51,51,52,52,53,53,54,54,55,55,56,56,58,58],"right_children":[2,4,6,8,10,12,14,16,18,20,22,24,26,28,30,32,34,-1,36,38,40,42,44,46,-1,48,50,52,54,56,58,60,62,-1,-1,64,66,68,70,72,74,76,78,80,82,-1,84,86,88,-1,90,92,94,96,98,100,102,-1,104,-1,-1,-1,-1,-1,-1,-1,-1,-1,-1,-1,-1,-1,-1,-1,-1,-1,-1,-1,-1,-1,-1,-1,-1,-1,-1,-1,-1,-1,-1,-1,-1,-1,-1,-1,-1,-1,-1,-1,-1,-1,-1,-1,-1,-1,-1],"split_conditions":[6.3272E2,5.336798E2,8.046E2,1.6162718E-2,1.6634633E2,-8.374006E-1,8.886621E4,1.1882694E5,-4.1202493E2,5.860531E4,1.1200765E3,9.0191455E2,1.031727E5,1.9496762E2,7.1340753E2,1.1548574E3,4.9087834E-1,-6.7264274E-2,5.254972E2,1.8604E2,3.4734543E1,2.3172E2,1.6295844E2,3.8829788E2,7.8253224E-2,-6.6076984E2,2.701E1,8.536427E1,3.2474753E-2,1.6446027E2,8.7107E4,2.3614857E2,7.7556854E2,-6.04417E-2,6.6610865E-2,3.515775E2,7.9024494E-1,5.7287895E4,5.962684E4,1.0612549E-2,-5.162096E2,7.3862286E2,3.168E2,-1.0571373E2,7.869442E-2,6.958034E-2,5.626262E2,8.239377E1,9.0237976E1,-5.2775353E-2,2.66912E2,3.5240635E-1,6.596131E-2,8.0683856E2,4.2565878E2,8.22695E2,1.0289186E3,9.289131E-2,7.638215E1,9.682771E-2,8.127489E-2,6.9296755E-2,-6.221686E-2,-5.8824755E-2,3.0421818E-2,9.49817E-2,2.8156001E-2,8.950846E-3,-7.377809E-2,-1.0964249E-3,8.194231E-2,7.7531844E-2,-6.0370404E-2,-5.528911E-2,6.1363697E-2,9.6360646E-2,4.5498493E-3,7.258391E-2,3.5622995E-2,5.714455E-2,1.0042082E-2,7.743134E-2,-8.386262E-3,-1.5448439E-2,-6.8033926E-2,-5.400884E-2,6.5638766E-2,5.4140892E-2,-6.1411995E-2,-4.521877E-3,8.1224866E-2,8.164403E-3,8.117399E-2,-5.9545487E-2,-5.360441E-3,-5.335566E-3,9.764362E-2,-3.526029E-2,1.2024973E-2,6.325173E-2,-6.1164733E-2,6.9475636E-2,3.6920674E-2,-3.928224E-2,6.293105E-2],"split_indices":[29,49,17,25,76,85,62,10,65,6,73,61,44,74,84,71,33,0,75,26,84,29,2,45,0,65,26,15,7,76,58,17,17,0,0,45,34,12,4,7,2,17,27,1,7,0,49,80,64,0,81,8,7,73,84,17,45,0,67,0,0,0,0,0,0,0,0,0,0,0,0,0,0,0,0,0,0,0,0,0,0,0,0,0,0,0,0,0,0,0,0,0,0,0,0,0,0,0,0,0,0,0,0,0,0],"split_type":[0,0,0,0,0,0,0,0,0,0,0,0,0,0,0,0,0,0,0,0,0,0,0,0,0,0,0,0,0,0,0,0,0,0,0,0,0,0,0,0,0,0,0,0,0,0,0,0,0,0,0,0,0,0,0,0,0,0,0,0,0,0,0,0,0,0,0,0,0,0,0,0,0,0,0,0,0,0,0,0,0,0,0,0,0,0,0,0,0,0,0,0,0,0,0,0,0,0,0,0,0,0,0,0,0],"sum_hessian":[3.4314592E3,2.3258232E3,1.1056359E3,1.186598E3,1.1392253E3,6.553621E2,4.5027377E2,1.1673474E3,1.9250547E1,1.3273387E2,1.00649146E3,1.6587666E1,6.387745E2,1.3949342E2,3.1078036E2,1.1630187E3,4.328722E0,4.6793027E0,1.4571244E1,1.7349995E1,1.1538388E2,7.6417773E2,2.4231374E2,1.4648196E1,1.9394686E0,4.8854242E2,1.5023204E2,3.244753E1,1.0704589E2,2.859052E2,2.4875145E1,1.1586102E3,4.408454E0,2.8461318E0,1.4825904E0,4.1699986E0,1.0401245E1,1.1980789E1,5.3692045E0,8.864092E0,1.0651979E2,9.707179E1,6.6710596E2,1.4597316E2,9.634058E1,1.4676249E0,1.3180572E1,1.3820227E1,4.747222E2,1.4698813E0,1.4876216E2,2.8640146E1,3.8073807E0,6.2656436E0,1.0078024E2,8.220453E0,2.7768475E2,2.8762226E0,2.1998922E1,1.444358E2,1.0141745E3,1.9947133E0,2.4137406E0,2.7345457E0,1.4354527E0,8.959434E0,1.4418117E0,5.2354E0,6.745389E0,2.394164E0,2.9750404E0,2.9958794E0,5.868212E0,1.9250141E0,1.0459478E2,9.508595E1,1.9858387E0,6.3745044E2,2.9655514E1,9.990122E1,4.6071938E1,8.968488E1,6.655699E0,4.715468E0,8.465103E0,8.978157E0,4.8420696E0,4.7228677E2,2.435407E0,4.8467684E0,1.4391539E2,7.7757916E0,2.0864355E1,2.4025495E0,1.4048312E0,1.3847673E0,4.8808765E0,5.2357067E1,4.842318E1,1.4953846E0,6.725068E0,9.549034E1,1.8219441E2,1.76852E1,4.313724E0],"tree_param":{"num_deleted":"0","num_feature":"86","num_nodes":"105","size_leaf_vector":"1"}},{"base_weights":[-2.8361967E-1,-3.768009E-1,-1.05565764E-1,-4.616955E-1,-2.921053E-1,-1.2834343E-1,3.234434E-1,-6.2585324E-2,-4.8651484E-1,4.044E-2,-3.1580535E-1,-1.2650997E-2,-2.0440425E-1,4.8161324E-2,5.563703E-1,3.3567673E-1,-2.5995454E-1,1.2805143E-1,-4.9263385E-1,3.7034822E-1,-2.3229784E-1,-3.352079E-1,6.342771E-2,-2.0792235E-1,8.883202E-2,-2.2680423E-1,6.403247E-1,3.5239354E-1,-3.1767088E-1,-4.88456E-2,6.663203E-1,-3.2186136E-1,6.975861E-1,-3.7702802E-1,5.720254E-1,-5.5729624E-2,8.293361E-1,-4.9539238E-1,6.606797E-2,-3.5882258E-1,6.0556155E-1,1.2188472E-1,-5.599865E-1,-3.4234944E-1,5.81952E-1,3.2900038E-1,-4.616443E-1,-2.7178633E-1,1.7961283E-1,-2.8758265E-2,3.093835E-1,-5.1660115E-1,-1.9123766E-1,-4.9832623E-2,8.747616E-1,-5.5668768E-2,7.7401686E-1,-5.3491044E-1,3.8340237E-2,-4.7691397E-2,7.9245013E-1,5.237753E-2,-5.7418685E-2,1.2637232E-1,1.6914643E-2,-5.6830894E-2,9.547124E-4,-1.0883853E-2,9.6077375E-2,1.2939712E-1,-3.7111335E-2,-4.0661152E-2,-5.2779835E-2,1.4028886E-2,-5.777365E-2,-3.5571393E-2,8.223467E-2,4.0567826E-2,-5.7648886E-2,4.6927504E-2,-6.646704E-2,-3.7558854E-3,-3.6220063E-2,9.9093445E-2,-4.3488186E-2,6.0614407E-2,-1.5949143E-2,-5.8118172E-2,4.509673E-2,-1.2314609E-2,-4.6020966E-2,5.9033286E-2,-3.1323683E-2,2.5741337E-2,-1.5960788E-2,-2.2421688E-2,4.220256E-2,5.2345067E-2,-5.4751445E-2,-2.0087767E-2,8.297128E-2,9.7860985E-2,-7.073916E-4,-4.2154074E-2,5.41698E-2,9.754544E-2,-2.6177773E-3,-6.2436253E-2,-3.5930393E-4,9.441052E-2,3.164156E-2],"categories":[],"categories_nodes":[],"categories_segments":[],"categories_sizes":[],"default_left":[0,0,0,0,0,0,0,0,0,0,0,0,0,0,0,0,0,0,0,0,0,0,0,0,0,0,0,0,0,0,0,0,0,0,0,0,0,0,0,0,0,0,0,0,0,0,0,0,0,0,0,0,0,0,0,0,0,0,0,0,0,0,0,0,0,0,0,0,0,0,0,0,0,0,0,0,0,0,0,0,0,0,0,0,0,0,0,0,0,0,0,0,0,0,0,0,0,0,0,0,0,0,0,0,0,0,0,0,0,0,0],"id":14,"left_children":[1,3,5,7,9,11,13,15,17,19,21,23,25,27,29,31,33,35,37,39,41,43,45,47,49,51,53,55,57,-1,59,61,63,65,67,-1,69,71,-1,73,75,77,79,81,83,85,87,89,91,93,95,97,99,-1,101,103,105,107,-1,-1,109,-1,-1,-1,-1,-1,-1,-1,-1,-1,-1,-1,-1,-1,-1,-1,-1,-1,-1,-1,-1,-1,-1,-1,-1,-1,-1,-1,-1,-1,-1,-1,-1,-1,-1,-1,-1,-1,-1,-1,-1,-1,-1,-1,-1,-1,-1,-1,-1,-1,-1],"loss_changes":[4.686238E1,1.3205505E1,9.545197E0,9.130966E0,7.3541565E0,8.130434E0,3.1354704E0,4.4336934E0,3.3368988E0,5.741717E0,6.4200974E0,7.3046017E0,1.0695442E1,2.749527E0,3.3834305E0,4.688593E0,3.8717637E0,4.9686213E0,3.0703278E0,5.1622906E0,4.133192E0,5.6190414E0,6.1714377E0,3.1681433E0,6.301694E0,5.507244E0,4.3505645E0,2.3507066E0,1.923921E0,0E0,3.9118223E0,1.8677394E0,3.5004869E0,2.483172E0,1.4353025E0,0E0,3.2892194E0,2.2617035E0,0E0,9.180066E-1,4.912944E0,3.7325487E0,2.2913532E0,4.9580765E0,3.2437437E0,4.056886E0,1.8892977E0,2.9849796E0,3.9163132E0,6.001495E0,5.1714163E0,2.179284E0,4.950199E0,0E0,1.1538248E0,1.9219269E0,1.0996661E0,4.2709565E-1,0E0,0E0,1.321867E0,0E0,0E0,0E0,0E0,0E0,0E0,0E0,0E0,0E0,0E0,0E0,0E0,0E0,0E0,0E0,0E0,0E0,0E0,0E0,0E0,0E0,0E0,0E0,0E0,0E0,0E0,0E0,0E0,0E0,0E0,0E0,0E0,0E0,0E0,0E0,0E0,0E0,0E0,0E0,0E0,0E0,0E0,0E0,0E0,0E0,0E0,0E0,0E0,0E0,0E0],"parents":[2147483647,0,0,1,1,2,2,3,3,4,4,5,5,6,6,7,7,8,8,9,9,10,10,11,11,12,12,13,13,14,14,15,15,16,16,17,17,18,18,19,19,20,20,21,21,22,22,23,23,24,24,25,25,26,26,27,27,28,28,30,30,31,31,32,32,33,33,34,34,36,36,37,37,39,39,40,40,41,41,42,42,43,43,44,44,45,45,46,46,47,47,48,48,49,49,50,50,51,51,52,52,54,54,55,55,56,56,57,57,60,60],"right_children":[2,4,6,8,10,12,14,16,18,20,22,24,26,28,30,32,34,36,38,40,42,44,46,48,50,52,54,56,58,-1,60,62,64,66,68,-1,70,72,-1,74,76,78,80,82,84,86,88,90,92,94,96,98,100,-1,102,104,106,108,-1,-1,110,-1,-1,-1,-1,-1,-1,-1,-1,-1,-1,-1,-1,-1,-1,-1,-1,-1,-1,-1,-1,-1,-1,-1,-1,-1,-1,-1,-1,-1,-1,-1,-1,-1,-1,-1,-1,-1,-1,-1,-1,-1,-1,-1,-1,-1,-1,-1,-1,-1,-1],"split_conditions":[6.3272E2,5.336798E2,7.1340753E2,-1.4008003E2,8.704589E1,-1.171028E2,8.7745984E4,9.557721E1,-8.1634566E-2,-1.3161165E1,1.2635259E3,1.2924528E0,4.113273E2,2.921672E1,3.1661514E2,6.037E1,6.28705E-2,2.5214572E2,2.8071616E3,5.743894E2,-1.8601002E-3,1.9328286E3,9.8076E4,5.1630833E1,3.2216263E-1,2.3165164E2,8.250755E1,-2.848932E2,8.6390465E1,-4.88456E-2,-8.6185944E-1,2.6792142E2,2.0000203E2,7.8290016E1,4.619E2,-5.5729624E-2,7.695366E-2,-8.92958E1,6.606797E-2,-3.923055E2,3.1046295E1,2.6076697E2,5.89872E4,5.7485914E4,1.7790984E2,1.4314955E3,3.927902E4,-5.0475748E2,9.885793E2,6.3612964E2,4.7894864E2,6.7508755E0,2.2459458E3,-4.9832623E-2,1.0179737E5,2.2699382E3,8.523993E-3,8.89373E4,3.8340237E-2,-4.7691397E-2,7.3963715E1,5.237753E-2,-5.7418685E-2,1.2637232E-1,1.6914643E-2,-5.6830894E-2,9.547124E-4,-1.0883853E-2,9.6077375E-2,1.2939712E-1,-3.7111335E-2,-4.0661152E-2,-5.2779835E-2,1.4028886E-2,-5.777365E-2,-3.5571393E-2,8.223467E-2,4.0567826E-2,-5.7648886E-2,4.6927504E-2,-6.646704E-2,-3.7558854E-3,-3.6220063E-2,9.9093445E-2,-4.3488186E-2,6.0614407E-2,-1.5949143E-2,-5.8118172E-2,4.509673E-2,-1.2314609E-2,-4.6020966E-2,5.9033286E-2,-3.1323683E-2,2.5741337E-2,-1.5960788E-2,-2.2421688E-2,4.220256E-2,5.2345067E-2,-5.4751445E-2,-2.0087767E-2,8.297128E-2,9.7860985E-2,-7.073916E-4,-4.2154074E-2,5.41698E-2,9.754544E-2,-2.6177773E-3,-6.2436253E-2,-3.5930393E-4,9.441052E-2,3.164156E-2],"split_indices":[29,49,84,3,74,71,13,74,8,65,83,19,3,70,49,28,7,17,81,53,22,73,63,70,66,61,15,3,15,0,85,61,78,80,29,0,66,1,0,1,67,76,9,18,80,61,20,65,17,77,45,80,24,0,48,49,21,46,0,0,70,0,0,0,0,0,0,0,0,0,0,0,0,0,0,0,0,0,0,0,0,0,0,0,0,0,0,0,0,0,0,0,0,0,0,0,0,0,0,0,0,0,0,0,0,0,0,0,0,0,0],"split_type":[0,0,0,0,0,0,0,0,0,0,0,0,0,0,0,0,0,0,0,0,0,0,0,0,0,0,0,0,0,0,0,0,0,0,0,0,0,0,0,0,0,0,0,0,0,0,0,0,0,0,0,0,0,0,0,0,0,0,0,0,0,0,0,0,0,0,0,0,0,0,0,0,0,0,0,0,0,0,0,0,0,0,0,0,0,0,0,0,0,0,0,0,0,0,0,0,0,0,0,0,0,0,0,0,0,0,0,0,0,0,0],"sum_hessian":[2.825916E3,1.8543564E3,9.715597E2,9.238673E2,9.304891E2,9.232422E2,4.831746E1,5.4294834E1,8.695725E2,6.1856003E1,8.6863306E2,3.6667578E2,5.565664E2,2.269839E1,2.5619072E1,1.775901E1,3.6535824E1,8.376221E0,8.611963E2,2.7832027E1,3.4023975E1,8.26465E2,4.2168026E1,1.2503582E2,2.4163997E2,5.429016E2,1.3664802E1,1.2412598E1,1.028579E1,2.1115E0,2.3507572E1,6.343829E0,1.1415181E1,3.250821E1,4.0276175E0,4.340086E0,4.0361347E0,8.5971045E2,1.4858124E0,6.6600595E0,2.1171968E1,1.6652813E1,1.737116E1,8.2070135E2,5.7637086E0,2.8252035E1,1.3915991E1,1.0760217E2,1.7433651E1,1.5817581E2,8.3464165E1,5.7867916E1,4.850337E2,2.1409001E0,1.1523902E1,6.7488155E0,5.6637826E0,8.033489E0,2.252302E0,2.0594738E0,2.14481E1,1.2106612E0,5.133168E0,4.839269E0,6.5759125E0,2.1432901E1,1.1075306E1,1.7255216E0,2.302096E0,2.8537014E0,1.1824335E0,2.335136E2,6.2619684E2,2.1400423E0,4.520017E0,3.7781076E0,1.739386E1,1.2139055E1,4.5137587E0,1.2821515E0,1.6089008E1,5.0361084E1,7.703403E2,4.128606E0,1.6351029E0,1.7871737E1,1.0380299E1,1.262543E1,1.2905616E0,6.107551E1,4.652666E1,9.40125E0,8.0324E0,4.9327656E1,1.0884815E2,1.4375411E1,6.908875E1,1.2104498E0,5.6657467E1,4.8129248E2,3.7412114E0,1.0211603E1,1.3122985E0,4.367914E0,2.3809016E0,4.3497686E0,1.3140136E0,6.7259865E0,1.3075024E0,1.5520356E1,5.9277425E0],"tree_param":{"num_deleted":"0","num_feature":"86","num_nodes":"111","size_leaf_vector":"1"}},{"base_weights":[-5.2109706E-1,3.4743007E-2,-5.313251E-1,-3.7203914E-1,2.0331387E-1,-5.871736E-1,-4.6438876E-1,4.6697713E-2,-5.424881E-1,-1.5155758E-2,7.4594724E-1,-2.8053936E-1,-5.905457E-1,-5.1192045E-1,-3.6661738E-1,5.309916E-3,-6.1330684E-2,3.92955E-1,-4.0935105E-1,8.8477E-1,-5.3898036E-3,8.715107E-2,-5.368036E-1,-5.9498054E-1,-3.559111E-1,-5.368958E-1,-3.711819E-1,8.06592E-2,-3.7893158E-1,6.4065146E-1,-4.8966397E-2,-6.019447E-2,2.818485E-1,3.188817E-2,9.534097E-2,-6.0157306E-2,1.1531271E-2,-5.968017E-1,-1.194792E-1,4.414422E-1,-5.4748416E-1,-1.8317765E-1,-5.489545E-1,7.214105E-1,-4.2084244E-1,-2.6625106E-1,-4.5493016E-1,-3.682488E-2,8.0793366E-2,7.03532E-2,-3.460599E-2,5.4964246E-3,-5.9746254E-2,5.650995E-2,-5.25135E-2,-3.847062E-2,7.966007E-2,-8.050889E-3,-6.2366426E-2,-5.318082E-2,1.03043936E-1,3.7843928E-2,-5.5185057E-2,1.0758666E-1,-3.523285E-2,-4.5565262E-2,3.2912984E-2,-4.626788E-2,-7.591348E-3,2.4883775E-2,-4.6897538E-2],"categories":[],"categories_nodes":[],"categories_segments":[],"categories_sizes":[],"default_left":[0,0,0,0,0,0,0,0,0,0,0,0,0,0,0,0,0,0,0,0,0,0,0,0,0,0,0,0,0,0,0,0,0,0,0,0,0,0,0,0,0,0,0,0,0,0,0,0,0,0,0,0,0,0,0,0,0,0,0,0,0,0,0,0,0,0,0,0,0,0,0],"id":15,"left_children":[1,3,5,7,9,11,13,-1,15,17,19,21,23,25,27,-1,-1,29,31,33,-1,-1,35,37,39,41,43,-1,45,47,-1,-1,49,-1,-1,-1,-1,51,53,55,57,59,61,63,65,67,69,-1,-1,-1,-1,-1,-1,-1,-1,-1,-1,-1,-1,-1,-1,-1,-1,-1,-1,-1,-1,-1,-1,-1,-1],"loss_changes":[1.4452942E1,3.2857742E0,9.047546E0,2.26538E0,4.011734E0,1.2357788E0,5.1045837E0,0E0,5.4530406E-1,4.1889796E0,1.1254306E0,5.382895E0,1.182312E0,2.4852905E0,5.7384415E0,0E0,0E0,3.1147861E0,1.930352E0,1.945877E-2,0E0,0E0,6.707306E-1,1.0660706E0,4.418042E0,2.6565704E0,6.72497E0,0E0,3.071556E0,2.0591464E0,0E0,0E0,1.1869586E0,0E0,0E0,0E0,0E0,5.9625244E-1,2.0355847E0,2.0229397E0,7.498841E-1,1.0199368E1,1.8863525E0,2.4775317E0,3.121786E0,5.669506E0,2.3035583E0,0E0,0E0,0E0,0E0,0E0,0E0,0E0,0E0,0E0,0E0,0E0,0E0,0E0,0E0,0E0,0E0,0E0,0E0,0E0,0E0,0E0,0E0,0E0,0E0],"parents":[2147483647,0,0,1,1,2,2,3,3,4,4,5,5,6,6,8,8,9,9,10,10,11,11,12,12,13,13,14,14,17,17,18,18,19,19,22,22,23,23,24,24,25,25,26,26,28,28,29,29,32,32,37,37,38,38,39,39,40,40,41,41,42,42,43,43,44,44,45,45,46,46],"right_children":[2,4,6,8,10,12,14,-1,16,18,20,22,24,26,28,-1,-1,30,32,34,-1,-1,36,38,40,42,44,-1,46,48,-1,-1,50,-1,-1,-1,-1,52,54,56,58,60,62,64,66,68,70,-1,-1,-1,-1,-1,-1,-1,-1,-1,-1,-1,-1,-1,-1,-1,-1,-1,-1,-1,-1,-1,-1,-1,-1],"split_conditions":[-1.0782213E3,1.7730094E3,7.5591833E2,-1.1583474E-2,3.9524426E1,-6.2581414E4,2.058E2,4.6697713E-2,1.3862995E1,8.775391E4,1.396916E-2,2.16865E2,1.5617852E3,1.4270195E2,5.5216305E4,5.309916E-3,-6.1330684E-2,5.9256268E1,1.7902566E3,7.7162E2,-5.3898036E-3,8.715107E-2,8.3409745E-1,8.4985E2,-4.6590802E-1,5.6590395E4,6.196226E1,8.06592E-2,9.078657E4,9.81E1,-4.8966397E-2,-6.019447E-2,3.0638155E1,3.188817E-2,9.534097E-2,-6.0157306E-2,1.1531271E-2,-3.9404068E2,1.958027E2,6.370279E-2,-1.2072256E-2,5.7965715E4,3.9659954E1,3.4507013E2,2.6338007E2,6.646131E2,-2.484358E-1,-3.682488E-2,8.0793366E-2,7.03532E-2,-3.460599E-2,5.4964246E-3,-5.9746254E-2,5.650995E-2,-5.25135E-2,-3.847062E-2,7.966007E-2,-8.050889E-3,-6.2366426E-2,-5.318082E-2,1.03043936E-1,3.7843928E-2,-5.5185057E-2,1.0758666E-1,-3.523285E-2,-4.5565262E-2,3.2912984E-2,-4.626788E-2,-7.591348E-3,2.4883775E-2,-4.6897538E-2],"split_indices":[2,81,73,21,70,20,27,0,70,4,22,79,24,3,18,0,0,15,73,29,0,0,72,27,85,10,84,0,50,26,0,0,0,0,0,0,0,3,61,7,23,4,74,1,19,81,66,0,0,0,0,0,0,0,0,0,0,0,0,0,0,0,0,0,0,0,0,0,0,0,0],"split_type":[0,0,0,0,0,0,0,0,0,0,0,0,0,0,0,0,0,0,0,0,0,0,0,0,0,0,0,0,0,0,0,0,0,0,0,0,0,0,0,0,0,0,0,0,0,0,0,0,0,0,0,0,0,0,0,0,0,0,0,0,0,0,0,0,0,0,0,0,0,0,0],"sum_hessian":[2.537981E3,4.5814316E1,2.4921667E3,1.3069351E1,3.2744965E1,1.3543715E3,1.1377952E3,1.9130218E0,1.1156329E1,2.4038782E1,8.706184E0,1.5648303E1,1.3387233E3,7.6274817E2,3.7504703E2,1.2121685E0,9.94416E0,1.1812469E1,1.2226314E1,7.328124E0,1.3780599E0,2.4105794E0,1.3237724E1,1.3123823E3,2.6340895E1,6.454009E2,1.1734728E2,3.2256851E0,3.7182135E2,9.4379635E0,2.3745043E0,9.662982E0,2.563332E0,1.4034398E0,5.9246845E0,1.2112222E1,1.1255025E0,1.3071208E3,5.261471E0,4.8500443E0,2.149085E1,2.1810873E1,6.2359E2,4.5136905E0,1.1283359E2,1.5158092E2,2.2024045E2,1.1714481E0,8.266516E0,1.4614385E0,1.1018937E0,1.2407224E0,1.3058801E3,1.8114475E0,3.4500234E0,1.4331474E0,3.4168968E0,3.3026733E0,1.8188177E1,1.7379995E1,4.4308777E0,1.5375983E0,6.220524E2,3.391972E0,1.1217182E0,1.0820372E2,4.6298704E0,7.389288E1,7.768803E1,3.9822679E0,2.1625818E2],"tree_param":{"num_deleted":"0","num_feature":"86","num_nodes":"71","size_leaf_vector":"1"}},{"base_weights":[5.9639364E-1,6.6984135E-1,3.8734835E-1,8.291448E-1,6.392063E-1,4.98481E-1,2.4497473E-1,-9.519058E-3,8.350261E-1,5.702601E-1,7.1622264E-1,-2.2219585E-1,5.2034235E-1,5.7022767E-3,3.380257E-1,6.3825375E-1,8.547017E-1,5.903565E-1,1.1275211E-1,7.7024966E-1,5.9336555E-1,-3.654061E-1,6.834697E-2,6.753836E-1,4.4070536E-1,2.6219508E-1,-2.379923E-1,4.007823E-1,6.9793396E-2,4.453816E-1,9.097195E-2,8.5891813E-1,2.5731736E-1,3.7906545E-1,6.155962E-1,-3.143781E-1,2.8448498E-1,7.771992E-1,-1.8955554E-1,-1.5710315E-2,6.300289E-1,6.61969E-2,-5.3959113E-1,7.0868045E-1,8.885566E-3,-5.324654E-1,4.5700198E-1,9.705111E-2,1.3982728E-1,1.403361E-1,-3.847457E-1,2.7724543E-1,6.381486E-1,6.6316366E-1,-1.3624157E-1,-1.9312709E-3,6.685826E-2,8.6128734E-2,1.727144E-2,-2.078486E-2,6.2096257E-2,4.6172272E-2,-3.334681E-2,7.10592E-2,5.5564623E-2,3.640121E-2,-5.5915494E-2,5.8184303E-2,-3.1368427E-3,6.4307146E-2,8.0745615E-2,-6.261795E-2,6.424138E-2,-3.5436634E-2,8.666292E-2,4.7833927E-2,7.535547E-2,-7.2337636E-3,-6.6667296E-2,-2.7350584E-2,7.230294E-2,4.83337E-2,-4.752495E-2,-7.772175E-3,-6.623544E-2,4.1010078E-2,7.413663E-2,-8.865812E-3,4.8834633E-2,7.292617E-2,-9.328248E-3,3.0385567E-2,-5.1134046E-2,3.5628416E-2,-5.2917106E-3,-7.0551815E-3,7.125367E-2,-4.1716985E-2,8.027403E-2,-2.4541384E-2,7.418442E-2],"categories":[],"categories_nodes":[],"categories_segments":[],"categories_sizes":[],"default_left":[0,0,0,0,0,0,0,0,0,0,0,0,0,0,0,0,0,0,0,0,0,0,0,0,0,0,0,0,0,0,0,0,0,0,0,0,0,0,0,0,0,0,0,0,0,0,0,0,0,0,0,0,0,0,0,0,0,0,0,0,0,0,0,0,0,0,0,0,0,0,0,0,0,0,0,0,0,0,0,0,0,0,0,0,0,0,0,0,0,0,0,0,0,0,0,0,0,0,0,0,0],"id":16,"left_children":[1,3,5,7,9,11,13,-1,15,17,19,21,23,25,27,29,31,33,35,37,39,41,-1,43,45,47,49,51,53,55,-1,57,59,61,63,65,67,69,71,73,75,-1,77,79,81,83,85,-1,87,89,91,93,95,97,99,-1,-1,-1,-1,-1,-1,-1,-1,-1,-1,-1,-1,-1,-1,-1,-1,-1,-1,-1,-1,-1,-1,-1,-1,-1,-1,-1,-1,-1,-1,-1,-1,-1,-1,-1,-1,-1,-1,-1,-1,-1,-1,-1,-1,-1,-1],"loss_changes":[5.2583008E1,1.1892456E1,1.4073547E1,2.2930908E0,1.0950989E1,8.038986E0,8.798769E0,0E0,1.0213928E0,1.0356842E1,6.224243E0,2.2610335E0,5.7326813E0,7.044041E0,4.762516E0,1.7278118E0,6.9833374E-1,5.556732E0,3.6791801E0,4.78833E0,6.972687E0,2.8699648E0,0E0,3.630127E0,5.406288E0,4.622297E0,3.2631617E0,6.579628E0,6.8350105E0,2.6864052E0,0E0,4.3972778E-1,8.0327547E-1,7.130728E0,5.119507E0,2.6127954E0,3.3458495E0,2.2848816E0,2.5111744E0,5.8885727E0,5.1507187E0,0E0,6.973951E-1,2.3970337E0,2.2531886E0,2.9250002E-1,3.9734344E0,0E0,3.8637373E0,2.391456E0,3.8091269E0,4.019622E0,4.1677456E0,2.504642E0,4.1871424E0,0E0,0E0,0E0,0E0,0E0,0E0,0E0,0E0,0E0,0E0,0E0,0E0,0E0,0E0,0E0,0E0,0E0,0E0,0E0,0E0,0E0,0E0,0E0,0E0,0E0,0E0,0E0,0E0,0E0,0E0,0E0,0E0,0E0,0E0,0E0,0E0,0E0,0E0,0E0,0E0,0E0,0E0,0E0,0E0,0E0,0E0],"parents":[2147483647,0,0,1,1,2,2,3,3,4,4,5,5,6,6,8,8,9,9,10,10,11,11,12,12,13,13,14,14,15,15,16,16,17,17,18,18,19,19,20,20,21,21,23,23,24,24,25,25,26,26,27,27,28,28,29,29,31,31,32,32,33,33,34,34,35,35,36,36,37,37,38,38,39,39,40,40,42,42,43,43,44,44,45,45,46,46,48,48,49,49,50,50,51,51,52,52,53,53,54,54],"right_children":[2,4,6,8,10,12,14,-1,16,18,20,22,24,26,28,30,32,34,36,38,40,42,-1,44,46,48,50,52,54,56,-1,58,60,62,64,66,68,70,72,74,76,-1,78,80,82,84,86,-1,88,90,92,94,96,98,100,-1,-1,-1,-1,-1,-1,-1,-1,-1,-1,-1,-1,-1,-1,-1,-1,-1,-1,-1,-1,-1,-1,-1,-1,-1,-1,-1,-1,-1,-1,-1,-1,-1,-1,-1,-1,-1,-1,-1,-1,-1,-1,-1,-1,-1,-1],"split_conditions":[7.19E2,2.3172E2,8.046E2,-2.117716E-2,9.308101E4,-8.374006E-1,9.024708E4,-9.519058E-3,-1.5419051E-3,1.3477463E3,6.8586426E2,9.0191455E2,5.718369E2,3.0586957E2,1.6804884E3,3.2316794E2,7.064772E2,5.835424E4,5.254972E2,1.1882694E5,-5.954944E2,3.8829788E2,6.834697E-2,7.7054785E2,2.2120834E2,7.472123E2,9.3071405E2,1.1839607E3,9.024734E4,5.8027357E-1,9.097195E-2,3.0054278E-3,5.97289E-2,5.7683594E4,-3.2535473E4,3.2938382E2,8.983891E2,5.6389645E1,5.5291864E2,9.4114215E2,2.3468954E-2,6.61969E-2,4.50486E2,2.0526138E1,6.109833E1,5.9655E4,5.461986E2,9.705111E-2,2.9456863E2,3.1783104E1,-4.215322E1,3.231697E4,4.2345557E2,4.7013754E2,1E0,-1.9312709E-3,6.685826E-2,8.6128734E-2,1.727144E-2,-2.078486E-2,6.2096257E-2,4.6172272E-2,-3.334681E-2,7.10592E-2,5.5564623E-2,3.640121E-2,-5.5915494E-2,5.8184303E-2,-3.1368427E-3,6.4307146E-2,8.0745615E-2,-6.261795E-2,6.424138E-2,-3.5436634E-2,8.666292E-2,4.7833927E-2,7.535547E-2,-7.2337636E-3,-6.6667296E-2,-2.7350584E-2,7.230294E-2,4.83337E-2,-4.752495E-2,-7.772175E-3,-6.623544E-2,4.1010078E-2,7.413663E-2,-8.865812E-3,4.8834633E-2,7.292617E-2,-9.328248E-3,3.0385567E-2,-5.1134046E-2,3.5628416E-2,-5.2917106E-3,-7.0551815E-3,7.125367E-2,-4.1716985E-2,8.027403E-2,-2.4541384E-2,7.418442E-2],"split_indices":[29,29,17,23,6,85,4,0,21,81,45,61,49,74,81,78,17,63,75,10,2,45,0,17,79,24,45,79,18,34,0,21,7,6,20,78,73,84,73,17,7,0,49,70,80,48,71,0,76,80,19,20,49,57,40,0,0,0,0,0,0,0,0,0,0,0,0,0,0,0,0,0,0,0,0,0,0,0,0,0,0,0,0,0,0,0,0,0,0,0,0,0,0,0,0,0,0,0,0,0,0],"split_type":[0,0,0,0,0,0,0,0,0,0,0,0,0,0,0,0,0,0,0,0,0,0,0,0,0,0,0,0,0,0,0,0,0,0,0,0,0,0,0,0,0,0,0,0,0,0,0,0,0,0,0,0,0,0,0,0,0,0,0,0,0,0,0,0,0,0,0,0,0,0,0,0,0,0,0,0,0,0,0,0,0,0,0,0,0,0,0,0,0,0,0,0,0,0,0,0,0,0,0,0,0],"sum_hessian":[3.440637E3,2.5444463E3,8.961908E2,4.0618768E2,2.1382585E3,5.0191196E2,3.9427884E2,2.4721355E0,4.0371555E2,1.1326749E3,1.0055836E3,1.4507173E1,4.874048E2,1.106957E2,2.8358313E2,